2
256 768 true
0.17497888721451954 0.4847689505219194 0.16424399504265935 0.07384680255500965 -0.27081035488542177 -0.13407747528284503 0.06056661164514909 0.2685599000940817 0.46920058011492466 0.4364735537819955 0.3637514398149962 -0.22454995561319918 -0.3227013693169031 -0.04770425679052548 -0.021787030086353597 0.3013281122657688 -0.2449182876987451 0.3450035692219754 -0.12858129544040836 0.060993578323417674 -0.02958079419477299 -0.41501885665659616 0.2175591287311495 0.23821323201677905 -0.003715711991288485 0.3962738382561979 0.21467681897523724 -0.0063060560311875135 -0.29723789995643896 -0.030445368246145278 0.192415472257378 -0.26719056527964125 -0.35601655156063966 0.1397612993541451 -0.2614638822819151 0.1314801567606064 -0.4780313512762871 0.3619904306726174 0.047888871646372344 0.24987623138908666 0.30892231983149465 -0.30820759055904723 0.20012412942880237 -0.2563000449494758 -0.4860880975570813 -0.4549052489229942 0.4715825934165989 -0.009410305778748155 -0.28414423516938064 -0.1618336802365039 0.11065156634315332 -0.20047521765679244 0.35388037208909545 -0.15690362346841827 -0.08381247503538722 -0.2396139796564447 0.1756634486519819 0.24956057940631052 -0.32254668779139634 -0.3307434085361881 -0.3199073574003099 0.4337048628167717 0.06522666692410839 -0.031441780507789216 -0.4712431912183085 0.1737519793431675 0.31371009326909555 -0.08222584820890877 0.17077805687107916 -0.31329808857024083 0.07464493651202476 -0.2842741328421872 0.20681725563933676 0.09712052008965266 -0.48357188806278584 0.03527142513368796 -0.23444254493804126 0.2660691521943379 0.09883138772654686 -0.21529568748710026 0.3841027837777394 0.44039852033687327 0.0538349893693551 0.044346582903607344 0.39583486526418565 -0.08830215711403744 -0.4173978432843545 -0.0247827588860996 -0.3841472882984655 0.2511175112345897 -0.009269124757028166 0.028765034022364966 0.3481544693205474 0.16422859346464413 0.31077738680986866 -0.2127615256791528 0.414063745487075 -0.4227021072673147 0.012593748286094348 0.024629224601208456 -0.1799925511348647 -0.16705405778684843 0.26147888763268184 0.24744860630498372 -0.07406102365759966 -0.4323836431636423 0.3383923628368326 0.32863749940624765 0.14671939168030737 0.29693605822234703 -0.0038427988561997206 0.27881989089510056 0.14042291874308688 -0.016735485103129458 -0.4351393015942026 -0.31628552876349475 0.1542972202515453 -0.35723754088036536 0.4971796424702031 0.24533717615058406 -0.39766307251856464 0.27463132795681255 -0.18652492916916186 -0.3919267612350643 -0.1423997988745069 -0.4700532998836027 -0.017122500876384533 -0.36167496861034126 -0.278447877026375 -0.23380545481933843 -0.19261386047719872 -0.12934058948851324 0.4007689873630675 -0.16420249670825984 -0.018908655140658114 0.399574228125994 -0.48705994794257634 0.342448218690286 0.449964960977553 -0.13284884437686162 -0.08677271144839557 -0.31732873469703005 0.11132061435396574 0.16670103465664168 0.28297378993904176 -0.4880926038734467 -0.313255335768658 -0.1596031805759283 -0.43423996592520925 0.07769591557968998 -0.44591717204630893 -0.3456587635225962 0.00596550094968344 0.45301352323265814 0.14629458475106127 0.06376494396069297 -0.34454405555652046 -0.05726210800115175 -0.1552442351493353 -0.34347423074020245 -0.02569615514616925 -0.44826005763928456 0.09766978416432298 -0.4199924695398858 -0.48061358778208624 -0.43967897798506705 -0.2883406811169941 0.006511989801583658 0.34443051954733145 -0.031399658922864816 -0.2206220034313859 0.32009256205109105 3.857941927229133E-4 0.05633854235730745 -0.19224901380488396 0.3787373504881975 0.3754113345811363 -0.39531921118358976 -0.25680846492715304 -0.2218390438246752 0.46599326588956425 0.43211751752567257 -0.22955557313999192 0.03757283618133586 -0.4209365466408489 -0.48064162520466214 0.3332766457296791 -0.34267912743648204 0.4089092774153028 0.1946065038143176 0.0198486160133327 -0.20507537125078668 0.17601886100741385 0.4831282120385042 0.23397064775522405 -0.3803603696344553 -0.05952357789400323 -0.38464985804412577 -0.07388308774837408 0.12991852991600236 0.324591146401731 0.2963730791327521 0.2103128889563184 0.1502987549145261 -0.4054391966946794 0.19486309424700954 -0.1467502093085837 0.02290971358512796 -0.43083063022363954 0.4024028881285501 0.2773107079806283 0.16388138821723597 -0.15873551693233653 -0.09162584129941635 0.26705666136558154 -0.2652787041669696 -0.3608508473155134 0.21391705668918848 -0.29778931774336 -0.4210171277168598 -0.34621972011276003 0.17529746419026845 -0.3403402207179793 -0.47713685180851695 0.04205126904324256 -0.2611675285447185 -0.31211187045988703 -0.2710435177594809 0.056025720979877916 -0.33526682197534086 0.17222322093190018 -0.46009940430017404 -0.4816615308334376 0.10703970120339998 0.1901933705245758 -0.2965094537680785 0.3650773641011891 0.41450874092864376 0.12919851704677224 -0.14788746572259567 0.25864658791577333 -0.3653679157777639 0.14939387928484218 -0.17503167812973353 -0.14929234687033804 0.05214719546276073 -0.08487065892108674 0.1509991012990382 0.28861435749925185 -0.22202549223861168 -0.09525087755569844 -0.3077593650894767 -0.3807509685257843 -0.15100697917958694 0.4305022657737187 -0.16657947258049308 0.02575507229037365 -0.49923032232332715 -0.26216320007354194 -0.14657023838496064 -0.32535253957995747 -0.3095053078762915 0.03345172901455959 0.08248896643339644 0.12753818683161958 0.07259152658625136 -0.46405055877300877 -0.2987329866010781 -0.4458265244237137 -0.17076617741038674 -0.0790345424874492 0.31573604268196376 -0.001759293157622693 -0.2786705298164415 -0.3313638190748923 0.4388079614442193 0.4871407690841573 -0.41175717380193905 0.09845528362856598 0.4053280147786516 -0.19909817142205014 -0.31303351298609555 -0.2174867989186239 -8.689555101639478E-4 -0.14603455049078173 0.16552880691141378 -0.39138167429408244 0.4111763826317948 0.3116155854435435 0.3123681573230947 0.4647696159673042 0.07532593692162641 -0.019936852059627946 -0.16093656317056665 -0.36145455879223015 0.23865297158774706 0.17280951361663305 0.25261424059767484 0.31324131600161054 0.5192996572528358 0.0653532611424211 -0.2647676726085726 -0.40662191141400716 -0.026881955975038174 0.461061611806982 -0.4087082436964033 0.07478771439382577 0.5571301901505699 -0.1949270578887708 -0.15481132973937667 -0.02519567060224719 0.041047085390037895 -0.32518700440517906 0.09948539910326495 -0.3783008164102762 0.2752707735485988 -0.18217314527111597 -0.4273536247149357 -0.38326547525485904 -0.20688265010295084 -0.1915779974149381 -0.3657441684702443 -0.16406924066668693 -0.17071223542419856 -0.032268011389462975 0.41045897416238286 0.4007475771382589 0.27322350853572747 0.28678529122115864 -0.27251812326581265 -0.05063953354574445 -0.19148454820124788 -0.2152618007832735 -0.19368441714752108 0.09753664541203934 0.02971701803301483 0.12206854085809452 0.3040960235108447 -0.38280334597114424 -0.1489564431775837 0.2851962513362257 0.1943426340613694 0.38583398982552897 0.09801027708396398 -0.11187384818209582 -0.07876877772693512 0.29396879092696293 0.14169000688173666 0.23947075329134987 -0.16136445232957847 0.23662878711796584 0.3022334878981692 -0.04324287360339846 -0.1977158223046405 -0.01551140980696858 0.16818770842310193 -0.10632359485738445 -0.05439269164725682 -0.0910932518565197 -0.45948452749653157 0.014608790260194316 0.03861733098363572 -0.14408168031676608 -0.1632352385218007 0.07763575650311422 0.09251786851526994 0.10048583536981553 -0.11532449456857029 -0.4830205217358296 0.19501131407349626 0.20445592279921487 0.18942609511656835 -0.3475674080341869 0.3477753957024922 -0.0976801282701804 -0.418822877208683 -0.13169906539260792 -0.4779528154535037 -0.1053192209220396 -0.23086179957850728 -0.24044297031334155 -0.35879587365817206 0.46462620801157223 -0.05939348636178955 0.37848258606657076 0.4275867906699708 0.1944866265166526 -0.2411808383841324 0.010320414942814573 -0.3674140978809778 0.018274902902519378 -0.39807599227953855 -0.4130755898166021 -0.3628371966922705 0.19117908723127663 -0.3119638139777384 -0.12904483680356785 0.059480799047611284 0.27163472232657365 0.4336775955476457 -0.4832716594604111 -0.029749991183008674 -0.023000163333816097 -0.3514169056409958 -0.3856467478070817 -0.45899984079042044 0.14285053452952498 0.04449886839112107 0.337705281862777 -0.32524943398634876 -0.3402687437156544 -0.31849780082224355 -0.06888713635788057 -0.17173307168334753 -0.1735878302611263 0.2803956658673337 -0.09787512794513034 0.44294216729100366 0.41108030521215677 0.47119509354390193 -0.12899331397479913 0.26305727388280925 0.3899337917348901 0.23231287728603714 0.15778895561556422 0.21211669248762594 -0.48391293678562947 0.36605127931646014 -0.4581152403921909 -0.35170485708934446 -0.3748907418627435 0.38534753422433454 0.22765755281934869 -0.37894428026164134 -0.49210140558138804 0.09829519260438428 0.08305900260622175 -0.1446108686959605 0.21986462497469172 0.29610958836905743 0.4640450655857841 -0.442771954174244 0.026601053560329286 0.19362689917051132 -0.38203445444819695 -0.04439633816347196 0.23264603343944656 0.224610583480324 -0.343494757542492 0.04187265128344304 -0.43110750923788943 -0.23953376260791426 0.2235066608930435 0.007233576868734377 0.2836903601703899 0.490404313021582 0.07093005551639066 -0.18152386378233382 0.3151415959036717 0.030133329571002187 0.3404899467842118 -0.07462401101323773 0.3599388775335899 0.28331971308196274 0.3473534731404944 -0.16388157636846792 0.0903428965051373 -0.41521465190554135 -0.25143921435310873 0.07342375663619266 -0.20302345607816324 -0.41402414594306997 0.2956040707749694 0.02920883918719813 -0.1443998054435529 0.14371492362417432 0.18605345765700254 -0.39412940334300306 -0.18906394823010872 0.48136545506458056 -0.09804637712021007 -0.3510832514178917 0.04146555037094258 0.10327430670719209 -0.18252793887716895 0.475732215239645 0.13530982587706025 0.46629718737288156 0.3662784270954361 0.24496139393725613 0.39870542646658297 -0.2513971216193242 0.1195255143411521 -0.039427966087669505 -0.21786961905881905 0.019508110318906733 -0.08417806637977435 0.27018882860542465 0.06420247642964047 0.5122260668794802 0.4042095331122514 0.07181685144217097 -0.12056786325182953 0.09141887469273141 -0.3619068539005974 -0.4873564105484188 0.13409319142954884 0.2916707956400831 0.5052974805726353 -0.38757956359493567 -0.32179719142192464 0.21646803430960365 0.5027128060808752 -0.2562957667411657 0.3390289726622292 -0.285454633307261 0.26170806395260426 -0.46636328144388334 -0.0115472168172051 0.2868132042529519 -0.3588151604752652 -0.22813155876414679 0.3467358998822997 -0.27012254188305024 -0.029482781394493902 -0.4121384454626025 -0.2493876889350604 0.37073499266059506 0.23726823521170895 -0.08806624640174743 -0.16210163977549616 -0.3300398583147761 0.2285675646094381 0.16213118134626736 0.20933053711931668 0.18044159422799397 -0.2757000335926602 -0.3267927974437043 -0.14655473375632014 -0.33744606626428864 -0.24638996036255714 0.09181287324666577 -0.19708416991044567 -0.13464669935720416 0.02489287613335825 -0.36760887043134677 -0.3429708689252042 0.30270911360093516 -0.267878531785634 -0.2483415390692244 0.059394312590754915 -0.4126618188817797 0.2212698065822946 0.3866349011593033 -0.010905014600107817 -0.0016173866728776758 0.3861520256425024 -0.16069513258296422 -0.13811969193435553 0.3530729758248044 -0.15228070611308198 0.33966197873885634 -0.2589598927329188 0.4415264775862859 -0.2773788314870897 0.3291750959457503 -0.1326619911489227 -0.42770480300922203 -0.38483462171018 0.4097320566907903 -0.045110573427544015 -0.15111820775555035 -0.3052593092142145 -0.4051606632531683 0.36399577304137887 -0.055897435195994855 0.13689938707781096 0.061984251092013117 0.42944199187817794 -0.4638337880751928 -0.4415049990997673 0.2936849739114908 0.06492607520147879 0.33519486396844567 0.263197444990346 -0.1360372758315058 0.06929116755890488 0.00156658053304227 -0.15944793246461952 -0.5158319746855033 0.4485920322946592 -0.1344877959906164 -0.07499349717180313 -0.2678181887707243 0.3487818449343632 -0.25344696309272885 0.19472275613691278 -0.014627206479467613 0.13479339245743366 0.3087969506257189 -0.3693448241273715 -0.46459264854255106 -0.3413787913196925 0.25907770749962367 0.1693534492159107 0.14778828375469039 0.42724223387685717 -0.12530788538110843 -0.08952761242931567 0.1610655899976635 -0.4105272859291502 0.2273412715647764 -0.2339202092046227 0.39662750337349084 0.3491572000635104 0.2892748749641878 -0.4810884481949038 -0.0353532177154529 0.010599185495267883 -0.45097532167002624 0.04971844878783933 -0.26734495649264667 0.4613195645185987 -0.39604167496366216 0.17546711945982796 -0.043406440205540936 -0.04174153453646789 -0.08002077700497001 0.3421824614941739 0.34531600930157286 0.26621556586150574 -0.05013489758690505 -0.09980923955023088 0.1648276175961844 0.3758365029639265 0.17559615842206638 -0.13307120508028267 -0.028298395664078383 -0.4110819134989237 0.021988766193558187 -0.40171616581777597 0.13467766355871946 0.13839896807092977 0.098858665674727 -0.3899078979600112 -0.2624660676783301 0.22964666091618172 -0.45668681400575667 0.13080636009487617 -0.2075768521919318 -0.3629888294522288 0.2810120193569336 -0.04718831440436228 0.15583589232930856 -0.3415309356007715 -0.4093935660536064 0.34902068313511997 -0.21107679130927123 -0.3790217649571742 -0.4670045189745552 0.4044054063981163 0.3338082303019131 0.21144119637877198 -0.46465118901987545 0.4338787852903524 -0.5028417376542685 0.015550790306761006 -0.12850111234307834 0.15232733851238245 0.4668306024285043 -0.14851203502034685 -0.2259524864551748 -0.13632834457355517 -0.4818681197907161 0.1347322273175599 -0.11624260622431189 -0.23637498028293388 -0.22710045197613823 -0.01369559381391556 -0.17239057764829013 -0.3978852046077539 0.1726168591479386 0.04004935699857827 0.11666124644485168 0.022733550369302906 0.20818869727032008 0.21816530917112792 -0.01202312985563713 -0.410936037813161 0.27155300699837254 -0.2843355206931792 0.09848246219237566 -0.013744063223691112 -0.12996798355060013 -0.17544135467310012 0.07837483262102464 0.4182394525556398 0.2191140739614298 -0.4200021843370793 -0.4343351513703922 0.3982504312074756 -0.2101074747436232 0.3946431186512192 -0.1518924165565586 -0.22771275087545723 0.2181981449994582 -0.1773190445304803 0.29411725605975436 -0.07199676781459707 0.31372140048676744 -0.06270665361135194 -0.06638516904566592 0.163374042389239 0.18897262663339115 -0.278879107518794 -0.372818984014616 0.30087884853092617 0.48109698764871467 -0.455342196952475 0.488429757988781 -0.12044788261334083 -0.006281398444110353 -0.4380700681916035 -0.17592637389011898 -0.24916285833297408 0.2891202745321358 -0.24013974057664908 -0.2498849637316426 0.3715722437412571 -0.391378975152624 0.13556195744499616 0.27006361792968264 -0.39885695995319576 -0.4653351951584962 -0.3222969549050875 0.07913609985174186 0.38851659622136137 -0.3650532926055325 -0.03621131475065573 0.4521224903581196 -0.33518063545886356 0.20588885448479247 0.30330630545148946 -0.28532065803565615 0.4484660208948021 -0.05040708682395145 0.2732813836077698 -0.29783865486776556 0.07470590159884763 -0.4123042725382102 -0.08493497340767094 -0.3357776840196397 0.41412220042919534 -0.39980257858007806 -0.06148778852160621 -0.03528052944714861 0.014324466658706323 -0.21846353756723869 -0.3047595773353576 0.3841722936357238 0.05160485837252375 0.20133318122905114 -0.3884485291275359 0.39282957364730064 -0.2229994083609082 0.40064613121167064 0.17553135181608387 0.4771071537597316 -0.24178256262240133
0.09950953588665513 -0.053512304247582354 -0.37165366655207066 -0.13728230544993772 -0.24002698887719487 0.03718274208818328 0.1389921024024321 0.4337581779213867 0.1257342952916403 0.4865572947722808 -0.050057859585482624 0.27584987823729645 0.05604310813588347 0.2633529924031771 0.0959201187280399 -0.14566103894267135 -0.25650294441544363 0.38422825803429606 -0.3881178169431113 0.48737812376728895 -0.4691548662292404 -0.43559652530636606 0.4327885099835697 -0.08790403605589266 0.4482967624018505 -0.1837390144543105 0.49043980741778886 -0.020324184528521427 0.17606074139203373 -0.4737747777466004 -0.09449273607227741 -0.3276667417000457 0.44775521570650884 0.23432841537654467 0.02118513176359778 0.08070080961790078 0.15999131111671855 -0.10288235089977815 0.09662786466079938 -0.14737162160481831 0.11693171101737031 -0.44731238596242434 -0.40564063924978494 -0.04036048802815617 -0.059998849599648074 0.4500970534357635 -0.2643700936418366 -0.3675200259376587 -0.16566659971732794 -0.02740838710087523 -0.33910799612958376 -0.46305893743260984 -0.12678598285151094 0.05892662569199487 0.4726728386171471 0.1671480482403468 -0.26609998000601326 0.3771684729357147 0.12715988609301754 -0.3234542713378347 -0.4716423681227118 -0.0902479183354038 0.22491112000738195 0.4119294445540259 0.21843312813680538 -0.3569915682279229 0.5228515664810716 -0.13372877112266857 0.07802950543648374 0.01454385251070119 -0.061079724004184044 -0.09862335659518279 -0.07445149539337315 -0.4216289086134545 -0.08247662425979199 -0.05704661825101391 0.16582854190322963 -0.10073986228412364 -0.07333641946003087 -0.1414662905105455 0.2469502663512097 -0.34202427831056964 -0.4452023922172987 0.3901416594811175 -0.3617428431488742 -0.07455968119867329 0.01714254070991242 0.17845214306944546 -0.026947835214978576 0.4641880664913138 -0.29539749116668396 -0.22107489008850012 0.4189427639555491 -0.16563415978840765 0.42013972593026644 0.3965382212837077 0.40170953052727437 -0.31187244912353546 0.24415129644417363 -0.08887382297084967 -0.3087113726449442 0.4269553936613119 0.3369416464036275 -0.16089096748768122 0.015404417884273769 0.022439486346452608 -8.92143737020376E-4 -0.16824652207201826 0.424022880873798 0.08164530325444122 0.48390704712427535 0.057615332702330255 0.3091792058385241 -0.11885857233693867 -0.33221156307519184 0.07279473853950967 0.23755388715189377 0.1857706358283472 -0.2286654081524908 0.35458190112372784 -0.28568443496554285 0.038345649218606295 0.24255631984900125 -0.49651818289626803 -0.02536451326349652 -0.039881103986562055 0.026853451112365548 0.3154886645963713 -0.4118637478876858 -0.12116647739457358 -0.2997063988878556 0.30296802886045326 -0.07933814870826075 -0.03518010101440118 0.40179831259727916 0.13802136266763798 -0.09971885127262235 0.2586004571019672 -0.2011334993246259 -0.13628764554156458 0.39132888298020385 -0.11937033807957897 -0.0219854015435372 -0.1365182656881518 0.20358958217920856 0.3855003322400375 0.2258675066716709 0.4689827828247781 -0.20948122304874425 -0.001263068166111784 0.3902522669742065 -0.004259315758975585 -0.13017769043985236 -0.07086735133040739 0.1885603403051572 0.22395124408890543 0.02015229126932181 0.4153865309955867 0.022284353098631658 0.456004644389523 -0.27775683731764794 0.020412582339592384 -0.4889140471548171 0.3200887721438008 0.3678279499318643 0.2589747034101002 -0.1896515521459692 -0.29153885707141264 0.060380839999965435 -0.3952000053271256 0.4708482796885839 -0.23678882366685136 -0.05894802325881756 0.11457522432067081 0.24223060376791056 -0.14030764916262542 -0.16709784333770264 -0.3191609661467014 0.21204085158214106 -0.06668833910962682 0.3285814655602499 0.4757892282612418 -0.03633690298480605 -0.3637375468020823 -0.0369453934555839 0.25139389883331265 0.4528071304724106 0.014029212938042275 0.14072626291774973 0.11187514495797925 -0.3692110812764234 0.46308463385465287 0.3619633523187284 -0.11230523097652449 -0.2621880065356388 0.1907591301099066 -0.2895997960966612 -0.4127916054496108 -0.43872226451364055 0.1303576800114896 0.24263422314315228 0.36348817246690557 0.25545037134766635 -0.11204397358135848 -0.44525263363217027 0.0732736719251565 0.2785684793608377 -0.2297710829678437 -0.22472814946106456 -0.06699031416693506 -0.47354119250278254 -0.08493875367292708 0.024595685796469546 -0.34163940634103745 0.002776871183724975 0.3196729527842125 -0.2979710301005072 -0.21447204801702582 -0.020722682672370034 -0.18279899771963598 0.19759806262802956 0.46408323616098945 -4.053323214603132E-4 0.4378873982621777 0.07779046366703204 0.05639718017371443 0.21092431052916893 -0.16531674546723177 0.22985200275195375 0.14650212243104208 -0.0013138271412515303 -0.11580133104726005 0.08128174670366013 0.4286379664697821 0.030243820416988646 -0.2471746169655661 -0.2519401784689575 0.07187366114614192 0.08063215843545184 0.37646083941356406 0.12236217206776907 0.04730749453127847 -0.194216689718389 0.41160244381864824 0.14100510582948186 -0.09485605426884426 0.18701219831312563 -0.4240408804423989 0.4285267629753462 0.3400017946774512 0.14009363064069108 0.31311286733084726 0.17946744918211494 0.3365224911577547 -0.47061570660206564 -0.27272038357269696 0.3710156151626488 0.194859040897166 0.13825572638854572 -0.03280044252494059 -0.4165175083557038 0.411710364681171 -0.11403502967586586 -0.2362583278730278 0.008308033374929247 0.16135156395765124 0.11659428624296878 0.07534045434892814 0.051887506014973224 -0.3866180805583186 -0.10042935088263528 0.20049149827139146 0.23795730981664523 -0.19209123462093325 -0.07208068910231506 -0.08863130103751975 -0.23964365348486036 -0.46786919064220134 -0.05002072328042056 -0.0852425420648672 0.23705224949024611 -0.20137259764061313 -0.4039464916338646 0.31189189989952104 -0.042789179317082496 -0.007369044039563733 0.0850345759908809 0.1208359604905818 -0.4015218111698432 -0.4746981967307975 0.11873977673962455 -0.037218927627298275 -0.2436215844342348 -0.14999775074111696 -0.11917320787780142 -0.44590828691274326 0.10549323695332756 0.05533484935062803 0.15912097433019404 0.3452343197696463 0.08786885670119952 -0.29707197249716916 -0.16055395277583212 -0.45373259351910317 -0.015656132393391923 -0.3852968039118732 0.15120836874484972 0.23524396156093533 -0.05819158650359271 0.4869544159918665 -0.11366238497311366 -0.4946173219153747 0.19694324747408737 0.235197779900783 0.493036761320445 -0.4818229294223253 -0.3443403366938892 -0.3553481193225006 -0.42170883528870445 0.1258164713356646 0.17088550005575506 0.26156357743234765 0.19282309702192205 0.017895122949288526 -0.46431905900446596 0.024076720145218337 0.2308947726558388 0.062357442888619836 -0.3711615495228545 0.19854257919777651 0.294497589528599 0.324931673144455 -0.05147272466880864 0.21856127390894012 0.5048645637347623 0.18582332620109035 0.06370738351372855 0.17735752647427067 0.38203717020197603 -0.055330455043762446 0.21455039416077976 -0.43645129081482464 -0.400593814606377 0.3434190052974173 -0.38569681676394846 0.18493592690716262 -0.3158195635651368 0.3484885385492388 0.20692035164686984 0.11650163983489295 0.054485450039738155 -0.31741032340844244 0.17035181954079892 -0.23363527547675836 0.22482333237318103 -0.43782700822138654 -0.11069895896391316 -0.4049503283471605 -0.32046029145202926 0.3992969193853729 -0.4865715521827438 -0.18445137933860103 -0.2933774878883873 -0.4862625334841862 -0.3314351383879456 -0.24151938057020644 0.011522982505508567 -0.1574914420025276 -0.4067155419727023 -0.4530701918011292 -0.27875991334292427 0.11510742272258302 0.21691676150814515 -0.2442378281382814 -0.24369229726447442 -0.35675331762554546 -0.08691019790775964 0.2438946511861957 0.3637770776144236 -0.04305667409464447 -0.1371205027912721 -0.4139521172570614 -0.3922929471164718 0.26592486201737686 0.0951588008610796 -0.2709765226920949 -0.29188506180056706 0.025821647782970834 -0.20325610886119244 -0.16003482914254216 -0.3715973337638985 0.24633286408842933 0.13224553773425604 -0.31017491562845234 0.37063613224530123 0.022080468333696538 0.26951612152876464 -0.2733309451362055 0.28211348589054885 0.4767008465560942 0.12829367318942372 0.4493393252991125 0.16386661737653505 -0.2614249784974133 -0.3452176117468508 -0.3721541875232415 0.39783178909256894 0.38733885111712635 -0.4697443767583087 0.15610872000193987 -0.12019310064746737 -0.31379718498114634 0.3294931247244008 -0.14342494109858278 -0.2176243282246658 -0.28717927153043027 -0.18930799085727051 0.3076197984093039 0.4677067800589879 -0.2983390551664381 0.4170212068277134 -0.48560464875178005 -0.3912798664556741 -0.24354685720663366 0.45209651238540954 -0.48607472604149704 -0.18539756450256661 0.12005103657820969 -0.2629909659754505 0.42936320551949536 0.47745096242663915 -0.3761184363592354 -0.2924863656821306 -0.09877961687302181 -0.3290586669811411 0.12321219308051708 0.27691919096363155 0.3864343743868646 0.43222597191020257 0.1413519706966944 0.03426807421662563 -0.43494014436849604 -0.10356825363102164 -0.12947719044108455 -0.023231507697192552 -0.25171274222177714 0.23638028137992567 -0.14260534626166158 -0.19059587572991032 0.16133234365161964 -0.09113292507107623 -0.051022554243522346 0.1436575636701455 -0.4862219853811501 -0.021328804909986565 -0.45403183865094976 0.34255679500578995 -0.0938475612908954 -0.443449959292779 0.1459055636785673 0.36961811291586844 -0.2870881632140863 -0.2668566396557221 -0.4246034430582901 0.20476001212313238 -0.152863658442726 0.5028709542944947 0.13893582646065109 -0.39939808423407663 -0.11446399577721221 -0.3865476502811365 0.18275833809042394 -0.33659333660323904 -0.39764455047248953 -0.388259432631319 0.35110913072251837 0.2523870893763458 -0.4263234446799925 -0.3042273285850111 0.18243972881004655 -0.20272815938466499 0.20930805663909133 0.4238945030767667 -0.3478765172550699 0.3213561671251505 0.3171336629049579 -0.2409059784347245 -0.2808791573878886 0.08946899320421144 -0.008225047917552797 0.4801726853011541 0.4205113164658965 -0.5000428412030975 -0.2305094350643323 0.19784226083709675 -0.46932089967432433 5.416922360606105E-4 0.30475297053103767 -0.40877955780673914 -0.3795049201731221 0.2752551700803663 -0.17214954992995574 0.3677027090727939 -0.03624436382017634 0.020091872416263767 -0.48902776440903856 0.4138600176822959 -0.1638070174914654 0.46665733649099816 0.260591988042899 -0.19540611301698566 0.49758233316694206 0.38103002901277117 -0.34395317663967934 0.07240164055450174 -0.04119462120498527 0.042547347360928536 0.3621080481770324 -0.09689372106715717 0.4803833291963011 0.2567341580580631 -0.022855848555067063 0.4336337554129393 0.41227578918907265 0.18147328702122137 0.017716230845539898 0.3212540677450474 0.48254958157175765 -0.03852558667206519 -0.21769378957715493 0.47285964109841166 0.36989972524999604 0.21158771212066502 0.4787971018185236 0.23686980048439002 0.4363721815677959 -0.07312939601950603 0.42746669024275646 -0.21234071762547038 0.3507985304186131 -0.23853566658456868 0.40451419582366316 -0.2179753641742286 0.4448888524234583 0.0638632598998483 -0.31041926491974914 0.3351234714840236 0.054661371338844106 0.024573509011592103 -0.204545756491614 -0.27117762114666144 -0.05665198898810396 -0.19083613734443505 0.4492394620192939 0.4276255416376047 0.4187586371227515 0.37313466767917375 0.4219779778315276 0.1774205051576885 0.41665411613669473 0.40519361721564134 0.5058779970013719 0.247030664989939 0.18803655815258688 -0.35170620557376014 -0.4606980941321647 0.41350325170424285 0.14419118633089179 -0.28165357053879087 0.4506149710262129 0.2258634997527559 -0.42815231959596023 0.30863670936627796 -0.44909834493798606 -0.07250227151891017 -0.3179792328773442 -0.3772450098688227 -0.020836336129254878 0.4036769952404045 -0.4553151135564661 0.058836549559858876 0.2115804257093606 -0.47391649011929066 -0.1899344092061056 0.31173905255715156 0.23337778097807665 -0.3472168900215429 0.18035851866073768 0.3829330128624824 0.06380725783690816 0.39369566388705324 -0.03814403591567453 -0.46296420239063935 -0.46413549157986794 -0.19993537427951785 0.01718695632875626 -0.43590786195247194 0.010775271066003641 -0.3764510701958072 0.2182843431807415 -0.33282787136014635 0.10579055398559907 -0.3232771122022606 -0.019975653566465964 -0.18520667424540088 -0.0738046319211986 0.36751605458649267 -0.49292817381064213 0.4682610929702796 -0.15007719552644624 -0.4271425559856149 -0.20869490137849134 -0.4472908210273647 0.1710842581775253 -0.45920336449004173 -0.12386098815368929 -0.4130192697964309 0.15337750571353836 -0.024276940263026073 -0.13231833579167582 0.29686062192913126 0.025228095938815157 0.05773567149525244 0.2797219089628399 0.20465307611955363 -0.35861338696707235 0.37254010423242084 -0.2648581653773743 0.35359082317992313 -0.26896217167309217 -0.037809487214604774 -0.33689527269143316 -0.3766188168566161 0.11775771938168812 0.2150399068360072 -0.09465158207744116 0.27405923522116826 0.41224019255668626 0.38939384824673984 -0.08285138524198872 0.44113615351183993 -0.18421413888281288 -0.19242817084747857 -0.4253287522852794 0.16946578521318506 -0.43073061082132225 0.19715078700224778 0.42965707443288403 -0.4282265241530748 -0.32237553650630607 -0.23409751296678372 0.4702661651716923 -0.10085149255749194 -0.09574772319690966 -0.07921481064308575 -0.30587564979531534 -0.3901280014390102 -0.2059935049067513 0.48362802581807496 -0.1002502169633757 -0.18301273232312415 -0.07631279915981153 0.35647140742044614 0.1126889639546483 0.015271142536332374 -0.3733902821962764 -0.34789583914971667 -0.21152752136237749 -0.12918869725636012 -0.3127988700429293 -0.29312529158266204 -0.3000238718310375 -0.03331835171393779 -0.1969597331374685 -0.3055235071863963 0.1362747241419519 -0.10651692716236494 0.0359138200867377 0.3894839601066167 -0.222117505090213 0.27886212855117776 0.05225409744894022 -0.29317483875700495 0.22640866315966574 -0.12475794089064485 -0.2795858887257997 -0.07917433146171568 0.4351654273696077 -0.471060717584329 0.2547379789230672 -0.4026844767582214 -0.35801458743724257 0.1726640218550664 -0.006858194076406046 0.2398864292710855 -0.46813850031316057 0.09211700857473802 0.10411932419377357 -0.1372830914895751 -0.10144835805249829 0.24060852374410968 0.2167385145823383 -0.007563100099633699 -0.22464812972838366 0.0727758866113401 0.33540926060498705 -0.38350724653417845 0.2869748119283171 -0.17680283459156068 0.37919170562038806 0.3259119222190883 -0.45661194275888306 0.16775709460407093 -0.11727461060662923 0.06682465508207124 0.1670798555180012 0.013785596937674715 0.03295842299286975 0.2282605360224258 -0.04909468896537555 -0.25448496703977186 0.014621107246837961 -0.2485701170358841 0.24554840571924244 -0.3922314759080821 0.4179741284502222 -0.020860407609119547 0.32258309774753535 0.21854530065915276 0.2173020119905608 -0.052005501565220026 -0.48084442225724894 0.011457278830779646 -0.4396779205225054 -0.04633353392044842 -0.0977855226005359 0.058603650412499944 -0.4345530104202528 0.07805092278070346 -0.23063048491151783 -0.33251981821340426 0.3916328106661994 0.35795198788766375 -0.3657804006535415 -0.2258386242522826 -0.0532448242614193 0.16280445678436783 -0.41590937786005916 -0.1558228826621233 -0.21514597642842204 0.45777072903550353 -0.45402516146936744 -0.46937643926147193 0.3046110294849291 -0.07592491504185685 -0.43989536483203434 -0.09422713338899488 -0.4900634294738304 -0.46988659122793835 -0.2334314782285564 -0.36287478559804764 -0.4362285617573062 -0.08846252908834092 0.22321536043858414 0.4709255066027098 -0.29178303991112486 0.2405848774357498 -0.13090306542658453 0.28016304147841314
0.419776529135783 -0.47413659665313634 0.39052102464618704 0.1776991653771202 -0.5238553624509527 -0.48877111879419927 0.1480597989766256 -0.2499124439239876 0.450793706714616 0.28301056890103377 0.13832015130875863 -0.13226121860758236 -0.36873668409550064 0.45342103619868446 -0.20901300693381777 -0.20822484869593758 -0.3474054764593825 0.11722014125263015 -0.23044236709500424 -0.2464433242280174 0.26321784344032073 -0.4487244006094827 0.047114597954879815 -0.4270799496544252 -0.20342841015420418 -0.4063729133162174 0.4455293633117942 0.17701101701209623 0.4203615690683975 0.3931651156072381 -0.1186771315365508 -0.14785972671330794 0.012714153734744441 0.3253390262487622 -0.23184529290916603 -0.19254113850363225 0.42285623034202147 0.47560690903653113 0.20873050617765684 0.1913006835819863 0.41734414382992263 0.330870528817752 0.023993902736303755 0.06760649966942645 0.27981433774049896 0.12989316749645732 0.026567447047234845 -0.5154582379674068 -0.3220075420995389 -0.024016272697709784 -0.22488921314210789 -0.4391987314463721 -0.2437570096988995 -0.1666778260515339 -0.2575905594044525 -0.46272823958322007 -0.4148388073598476 -0.37787141182042244 0.20493172766140072 0.393520099553935 -0.2781961933360944 -0.03159427364239342 0.04991304391095015 -0.23031495811201919 -0.19939603027074376 0.2972824366966703 -0.10370031810160342 0.4412954589357799 -0.16031260488376867 0.18602129051442048 -0.3840474263861818 -0.040114502321370996 0.34737347536966257 0.18372186880558805 0.31245651469640023 -0.12449031443470711 -0.26980981994621667 -0.0020340920323851444 0.11599247523124427 0.36503438395573184 -0.3530504285255927 0.1400686431911507 0.42480308283014395 0.5297436143882202 0.3346072632149375 -0.061143490907779596 0.09446530316719531 0.06121456646057751 -0.22159198484998563 0.18719025316459173 -0.4421976063642034 0.21593295178908434 -0.4122350355965126 -0.07206226796354563 -0.30281715934033837 0.4922201979130898 3.9437517648697475E-4 0.45403900392940094 0.025985046858720436 -0.41775029050575774 -0.032211520993620124 0.24681169780925896 0.3620963474424588 0.22726010346808173 0.36200874104749015 0.13978476063902975 0.3930177687074952 0.48906998892838316 -0.21864888750381775 -0.2730613190914838 -0.1340115014684959 -0.35058102962398385 -0.13869118355408697 0.16569369763540046 -0.2590037783044042 0.19296387711567628 -0.3677189364604287 -0.4248789121581504 0.275998232473632 0.10427759291808429 0.408852356891254 -0.11789180809697593 0.08512351896634093 0.2881661289526639 0.012913638462566107 -0.08948306054623993 -0.2136765432136412 0.31638316529591415 0.4768324220267767 -0.4223584523644199 0.36573323997398755 0.5750039906694983 -0.12291015978609526 -0.12921471555674893 -0.3319538744916661 0.17356375429179272 -0.5188750585793348 0.30040694182232863 0.25682112262984674 -0.40578626569751874 -0.44188396888685993 0.2808473329662335 0.4810114453450485 0.5065396919396028 -0.3075804445842461 0.25837673278177553 0.025928110982115258 0.00496032219996624 0.17084805719224855 0.3770740818970812 -0.309256872706284 -0.20594216615366043 0.4432983374639521 -0.169432442371376 -0.20080231351993924 0.379026361361722 0.4057898683987094 0.3816532190822037 -0.28193544168880813 -0.5105906594827818 -0.44838190537313855 0.11955006326181856 -0.30959400940955184 0.25036867762538584 0.14992308797223786 0.021540803059210575 0.4050676256405388 0.4335466343232974 0.4461617099713482 0.44529225923598936 -0.41796319652790365 0.427798419903356 -0.14199320330935492 0.2474723575244165 0.15073302850126954 -0.3884565761332155 0.19207993985108585 0.23658828703281207 0.23791463015886036 -0.15528815432570053 0.27161741492190783 0.18351442097429704 -0.4551127288966604 -0.24010963463219223 0.11277981176614918 -0.017052679660116938 0.1016801983099102 -0.35075471349578063 0.2994170637761394 -0.15685062808528072 -0.1437873811915789 -0.2368890325598816 -0.40266340793658173 -0.20438523855594676 -0.08753409188104302 0.30408793938010437 0.39268416886498037 0.11283990190419738 -0.0026780720441362425 0.41794480056889016 -0.0971193104344485 -0.19569827270984314 -0.05965463905257275 0.10626298409554412 -0.330413816182268 0.2072944693282799 0.3628688506863788 -0.17422092138189924 -0.43406161339443594 -0.10041986403352839 0.3311012346772679 0.41772611682742894 0.22468269321306913 0.37698403972754707 -0.04112773664974757 0.54463485399714 -0.17773075412326986 -0.1075931610080522 -0.29025493480337633 -0.5067662346299432 -0.17611875144086792 -0.18827954724402968 0.24766961975753218 0.4717476171749987 -0.07373221770115215 -0.10730080207658314 0.3021615176517779 0.4234952162662161 -0.013856763521236836 -0.36053418339458004 -0.15937022444608034 -0.005210195194532774 -0.027172534497711374 -0.14314968289579588 -0.3141831247471069 -0.4312354711430792 0.3198135737377985 -0.16223510841268438 0.2919254081671105 -0.30000246868945496 -0.3220679617289686 -0.04156586095120422 0.19441474430429587 -0.38665607793535506 -0.4823747943184288 -0.42110183527164063 0.30090927053885713 0.15034499877430058 -0.06579332184731246 0.4191832374588114 -0.21908317461704913 0.04329539847469394 0.017872962896710344 -0.2690128062950396 0.25142492273945843 -0.2476807739149835 0.15624626627622476 0.22982640519835348 -0.039677469645787375 0.5232081174580825 0.32139376308882844 -0.09167295610049 -0.12182156842687644 -0.46520952253439374 -0.375122077719486 0.4343135010268698 -0.314138043445026 0.31393974941849756 -0.3273463899384099 -0.4274882376442597 0.06236658899265036 0.23691013228692648 -0.29636838789227915 0.012589790736419009 0.10016015249738994 0.27594352445246484 0.41711904458256216 0.42884846520608977 0.21121094198303159 0.21297635067845336 -0.42821452718254555 0.36884333079065473 -0.24411753895091037 0.3912477612285702 -0.13408573556947853 -0.38668494470502507 0.4519280055412681 0.35157669737616215 0.033030033999374576 0.35218783102796597 0.12373719917948625 -0.12010361849305227 -0.5225416789717534 0.33728426052309135 0.28279868206885955 -0.28608854185775406 -0.2110721859365489 -0.16319120956886402 0.3389638187359848 0.5151320570594095 0.2027688496952131 -0.12531602232266975 -0.25871300954981674 0.14233943498366242 -0.24526946122737298 -0.4614323705110663 0.3736481181207794 0.06842383278573469 0.06788073162363949 -0.1253366771200841 -0.248158486151202 0.07933965490326927 0.49314700091025254 0.4141365931312318 -0.1550882997591415 -0.2703905456633444 0.4053769888004989 -0.0855716089991885 0.05538140393807571 0.041827399804622245 0.3835946157996713 -0.21200093949768334 0.03626428938752949 0.10679204344165798 -0.0828733042928353 0.3926135469021784 0.30585951949038703 0.04883594149178476 -0.4400165835729167 -0.23840715048694894 0.4158615297409331 0.35717606198381285 0.25745906836966487 0.20502684044631378 0.5190209126264651 0.34070963752153044 -0.05435549696470987 0.5016151798388452 -0.2813895078710749 -0.32749661251037043 0.021695212698120026 -0.25159396176871535 0.3937221383217991 0.1290333238130859 0.2684112414286128 0.1419893499777153 -0.11505987786011428 -0.08074968169270862 -0.19985459922749263 0.3028965472687277 -0.341759438415329 0.009148385397196444 -0.010353372851965165 0.31700699637124957 0.1563494638869878 0.42410159348035437 0.44475360563300553 0.4334295858378297 -0.11565262655663809 0.532744529747179 0.3841453613206803 -0.19487842958041918 -0.05898145395351754 0.24905408881892632 -0.4460645563540518 0.3404390294492833 0.05778393167327591 0.2632035115386187 -0.18107235936346142 0.2544646951888578 0.5105142187561136 0.4633220096487045 -0.011049001345777503 0.05466016281576316 -0.09456260645364971 0.42011545589950355 0.44232910382134344 -0.02346425326150248 0.17035730957087983 0.4630143681569203 0.01082331201377828 -0.07334628368541303 0.5012854885324205 -0.1421053769605442 0.3592756774409165 0.4746531247438925 -0.5048830967082738 -0.3004939425426224 -0.26856733618309053 0.1732417869026445 -0.019408346451089936 0.17367100793761384 -0.28354403743407225 0.4794888871554068 -0.09855682568771701 0.12245923086870275 0.3281831351141478 0.24026973306250904 -0.3402259924211558 -0.3486749329238944 -0.18250015341434886 -0.05648157145700092 -0.42979730078122264 -0.37828031123355604 -0.3336602724102082 0.020370898108462127 -0.11982435518762825 -0.010389969091320526 0.2618395561084967 0.27095124149851363 0.23851798014313644 0.3385871559989256 -0.17137022145210312 0.002766865614243252 0.012332334717712496 0.10513866568293956 -0.48166454601217285 0.14432221918301308 -0.28279766460557243 0.2336794544953894 -0.21225730590470954 0.07645398941056196 -0.0038729056245316367 0.15447104392731403 0.4359277258856376 0.06475429902504228 -0.25121205583128586 -0.22243809803912043 0.21660300176986008 0.13127306552529028 -0.33217173307616177 0.5405463609511973 0.010989680096683652 0.3192939330501747 0.3296811050929376 0.33997874135139433 -0.3276110725296153 -0.3846515932446999 -0.005033521502467239 -0.32593834594868504 -0.2617542981268458 -0.3143078484575309 0.18256938349884655 0.432928522435338 0.3503190564609032 0.35598261917825064 -0.1959517349553017 0.19104538228714807 0.21626212762408248 -0.09609896099857616 -0.30921906999865206 -0.24708516627966548 -0.41928739393203424 0.4409715765071911 -0.28706621458287945 0.37100850331535634 0.051355795432478014 0.3909865623568394 0.07332596111742538 0.38515745690868847 -0.4374757042057864 0.08902320863710711 0.23328436408781186 0.18805398974227885 0.39169933809393764 0.15625987387873477 0.17578784410273704 0.15787643805338972 -0.44799195146940385 0.339588168117762 0.1902228696597576 0.2388017718033155 0.2753156355042077 0.03897900230896376 0.44801685364475147 -0.07538332553295081 0.048941165837405286 0.51561583533434 0.38559199957630386 0.02251427379097855 -0.18034253829586977 -0.15019309778809106 -0.06212883143126144 0.12756916791357265 0.0745361479962714 -0.09415730352942733 -0.40886406370362693 0.18321283497161753 0.11023511120390889 -0.43258132863101745 0.04366348479772576 0.17015245647349478 0.34195775306517784 0.12138940680406779 0.2719956454947419 -0.03634006225503512 -0.20143862252290098 0.2569737703560071 -0.4318937090466956 -0.24887479233724696 -0.3049967871315192 0.39787183131682147 0.4856306126778239 0.16292712123496225 0.48993382094230453 0.0897443704580713 -0.0746590017344377 0.1367042169803422 -0.1877257931068887 -0.014839564813779125 -0.28162966378698984 0.30738368429106605 -0.3444848401688622 0.5298476173138605 0.2198638391609023 0.04363807745508381 0.08310618208114584 0.18629788072201253 0.47288710447798227 -0.3076164398382973 0.16639888951699186 0.008133042825300389 -0.3526969704386963 0.3001904593251843 -0.3750820570370632 -0.2622393293306965 0.07945421225315778 -0.45611771820767183 -0.19937566370327717 0.3453810194858498 0.3115000455722798 0.45504335648146405 -0.0777950773530234 0.37147749311317535 0.1258861638785282 0.3937795464952982 -0.2669829417485308 0.08681471400974664 -0.32174081554803213 -0.15110806614990901 -0.24845117952632728 -0.3769951861875613 -0.5066258699123016 -0.2487929759284029 0.19157272939106548 0.23369402202961317 0.21097987778995517 -0.3367213790995944 -0.21194769510044645 -0.40988905734219366 0.07220722313283655 -0.009863289001334322 0.012949006188895808 -0.33501227115471216 0.2780084403529096 -0.041649765483001346 -0.21284377189529052 0.33456414729299416 0.15848134285462295 0.4146328985151812 0.4882346382804855 -0.07871898494362428 0.35926073769753186 0.2115905251765704 0.23431414458874067 0.31222621232055464 -0.42169518538050044 -0.07056062371830467 -0.32226811116449566 -0.303985921956288 -0.12994095159160557 0.1696964611716838 -0.4732164137661911 0.16010521203125827 0.3309547889585256 -0.3539327966944332 0.4713585239077838 -0.34904341780509235 0.03251026943641319 0.18507533127034298 -0.5240300697447272 -0.3974985851447275 0.16251013319336657 0.013895714945088183 -0.4624921554720313 7.301535558854146E-4 -0.39206372926443045 -0.18598353347326305 0.1737602066652098 0.05522903721091306 -0.49257266052428966 -0.4993817478652372 0.03036971463115922 0.24449298534009054 -0.07363854962033646 0.3899040893923842 0.47804415094756064 -0.45560200272635093 0.019948615388697608 -0.4282124299027081 -0.2509999341765202 -0.07659840158569749 -0.016508902779712 0.17963143315309768 -0.23848023197120521 -0.16782980836880965 0.149147100050938 -0.3570873687533801 0.31779259210346394 0.46971395664422877 0.32339774987426806 0.06737643439040332 0.144285959542931 -0.2230214679559254 -0.07662613983226295 0.12560204069967232 -0.25818615646052157 0.25315634189503256 -0.0528406780678939 -0.18109927299382492 0.2567134648179904 0.14359666904631843 0.47942150397080874 0.09901633409870134 -0.24331019652982086 -0.213725298813586 0.15105364413691771 -0.04896326801466732 -0.42089366804784983 -0.271496938704571 0.36599303372547687 0.22223364391929282 0.4321601291753211 0.3983079456116681 0.18865915407706887 0.04479429701770505 -0.09144188183980652 -0.13622091774515316 0.22659444335231585 -0.045299246079150486 0.09148680312573396 0.09208591643020439 0.18200724233801896 -0.40358751780323926 -0.15489643958964755 -0.28099492831473033 0.14930696926547246 -0.43372063031101915 -0.4972724996806751 0.19731447065206245 0.30396356358734117 -0.07124369418659608 -0.3714722518759045 -0.02854976816675008 -0.25704432458503335 0.26464425191312996 0.19298277105673778 0.14258504854710863 0.3341231363303806 0.30432181211946235 0.12133990723683168 0.37751517858510986 -0.16428448101726548 -0.1840574576628841 -0.36446977654442486 -0.06511677449646018 -0.03188962262856449 -0.2946905024372071 -0.06735868499042706 -0.4949860715469496 0.022695002480980535 0.4338063918793559 0.16715480359427326 -0.4067324421774211 -0.30135206350474336 0.21079212603265382 -0.11744606494948333 -0.22332535984260676 0.21952792164604576 -0.4026223476718229 0.310544862358125 -0.4218203213570486 0.11966487407608006 0.3706318924976436 0.39449732845561125 -0.29173388106688936 0.213589704464965 -0.13370874644761072 -0.19659661865589773 0.3018960014608951 -0.10023602429232298 0.3571123654737498 -0.10474523887540176 -0.381265886819609 0.3573472150075669 -0.21794563364365044 -0.17042255254843927 0.3913309757652804 0.302523503000154 0.17216506793644296 -0.2008763243161132 0.21170845157683904 -0.3822848510368878 -0.387918796161672 -0.45535227580604315 -0.43453954667496697 0.5388342555452834 0.37393822539464416 -0.10634001160138414 0.43907098189275207 0.314635562370233 0.3027477886523476 -0.02334336447564572 -0.5180716907859229 0.25271123374820575 0.04796263393232092 0.1385125837216128 0.367015452334107 -0.20163935733700225 -0.13907825846029787 0.3578719350878594 0.43851466244751147 -0.32518071121969644 0.2609598865191608 -0.3012077062002685 -0.2848566944416702 0.05278067333809725 0.24825678802939144 0.24743714929492397 0.3354057783399796 0.32187943487776255 -0.3649919152221391 -0.12552578295019015 0.18109516566085926 0.22884401616400152 -0.20035087911098542 -0.22905375957869734 0.41101207701315584 -0.14425444758633277 -0.07624210770016449 -0.18638234950045862 -0.10704115560243029 0.10965631479615517 0.30552437525794746 -0.041131215048867305 -0.32673006020313433 -0.003693626803504696 0.28501895981227854 -0.4810380025225445 -0.246651210163792 -0.43211156567108966 0.4904159018544173 0.12271481279759419 -0.23563724284060986 0.03316377050081419 0.061173168327073146 -0.0553940582038464 -0.23098663717560441 0.13188209082684363 -0.41962511417784176 -0.2874062382398975 -0.09197489201404195 0.19032777560966743 0.10725206908981144 -0.1914640043155422 0.0775528562333689 -0.3169518557795028 0.36359241312458956 -0.2588053323345999
0.11514367722996277 -0.22929054148279004 0.4622668154057624 0.2248588219102987 -0.0011979254451586418 -0.005813171184144883 -0.20243996351757387 0.02915537910500099 0.3611181386102631 -0.13959616694759178 -0.3922503066691111 0.4583219848551988 -0.34336522296399785 -0.23998942163809722 0.05515506720812601 0.46403505702734643 0.3107046721318021 -0.385502203579477 0.38621451840861926 0.4663025952262223 0.23817589387371055 -0.4352505738774935 0.24141647373732508 -0.2553831829490918 0.011046891720400541 -0.07098238362352949 -0.170967385102528 -0.2542539858416315 -0.0227180122558933 0.08323455246925683 0.007808183666789684 0.07260737821498153 0.3107627047027249 0.19062949220580006 0.34201254711109574 -0.3697562277881677 -0.2083357470021156 -0.21532408776095058 -0.10804331887108946 0.2027833198251397 -0.14043892551281567 -0.042668650164177944 -0.10211831707524055 -0.2899811504496608 -0.4593453868406417 0.07886752841979582 0.300313230237239 0.10958617443126493 -0.19549055611638208 -0.20442985897431165 -0.1677269862825146 -0.40014928545146006 0.27928758158303973 -0.014308202679944431 -0.3650367131262068 0.2536535754013577 0.07002800530215078 -0.4925149028039802 0.1250672304721713 0.1759833128661471 0.30124315039340765 -0.1596594255896604 0.30181814635141985 0.042407853437883336 -0.03677254179052145 -0.029706293260532795 -0.04779800063236104 -0.08534076460723272 -0.20069395968487633 0.26882008713855543 -0.39435459981870863 0.04650772521505676 0.09008268172658948 -0.2992676480930311 -0.42861896132772115 -0.25762612519655137 -0.162562558511756 0.17156468922279958 0.49593619371236813 -0.13662775955894546 -0.4030990272749421 0.3000797038935062 -0.10703195645071333 -0.39044169326411654 0.24692882192304455 -0.18017178931480227 -0.24004115443294613 0.23722082477181008 0.4282131826654482 -0.191573778340246 0.1319993214146111 -0.16525448478211124 -0.08111003235616947 0.2552357162978901 0.10900972541928769 -0.46764134734293655 0.14932971180547694 -0.3761104771502431 -0.4155110844556764 -0.3440078043195549 0.49962491774012885 0.38160289266045144 -0.11955488286220997 -0.18916599976961257 0.18665758128542204 0.28212894254538884 0.12657639769861634 -0.2573707084348611 0.31503042083842 -0.17705598413208037 0.08582310204676279 0.04559302477605133 -0.013700288923769963 0.4279045431088119 0.24477116385777992 -0.46910893399351167 0.38731953137802994 0.15385980779216482 0.3835583815882503 -0.19640215463689475 0.4115871478032258 -0.4863043813881743 -0.26401181812550734 0.003112793195174558 -0.3112288770331214 0.2814527806400546 0.32750822904256066 -0.486261361996808 0.009466579719813866 0.2943051651782712 0.032831339863924135 -0.09993507612573355 -0.04924136391000029 0.021302926838777818 -0.4231023387213785 -0.47509382513270143 -0.29571227129917943 0.06810751324963432 0.13914550235515338 -0.4001838310778443 -0.24770022033433783 0.23405393057301319 0.03278372088319497 -0.22649707546624784 0.2641918645359988 0.022613636893529104 -0.46384524680628136 0.3510067330291482 0.48609708195083534 -0.007561698076496653 -0.19128635071469424 -0.45644601803838564 0.1794980663485157 -0.34641876678745903 0.45515558746478857 0.17944507120123995 -0.44572613700089975 0.15259415475693752 0.3449732185253875 0.10589176190845528 0.4936247047126012 -0.38577182329610626 0.4973127258731109 0.07865693648387043 -0.06889522944745995 0.1417870099715175 -0.10501059414192321 -0.06653023740238698 -0.47727102135887245 -0.42739635772586876 0.3634098410117555 -0.19769136596597497 0.028519505823151752 0.29784943166721267 0.30476821252709996 -0.2716687429366545 0.07692158376580438 0.1267138989795797 0.2940321417365664 0.35183808519043797 0.11684707026147151 -0.02315018773782187 -0.4495286892027414 -0.20025435681293066 0.02980999872025396 -0.19308613374102696 -0.4329951451316565 -0.30137480302101877 0.008797032300432274 -0.24451160624821103 -0.144352433700805 0.1057970702543697 0.5002943491800717 0.4326248407841683 -0.282081682970985 -0.43749668552638055 0.1718427040343988 0.06741644858481477 0.07440363151437518 0.30045925178307525 0.2767574980187169 -0.3022182377803197 -0.0891374459802004 0.32834097884977126 0.4549696862291643 0.009365867281098693 -0.4529821299084425 0.2618679635706517 0.11912020181023886 -0.32517473579979694 0.36164655926934103 0.18184003528283002 0.003802538173282009 -0.44938840606651304 0.025270612072394245 -0.12167950441785728 -0.3806462561066713 0.3523935344974279 0.4004361093062669 -0.09003665241284818 -0.12747467900395695 0.23505680474791255 0.14771010749414124 -0.42858281383676583 0.44079101520524955 -0.2276722334526779 0.37683544569371713 0.235404947726306 -0.13127932428778122 -0.2812829961722709 0.27196551082705733 0.2747193728783591 -0.020095879577674686 0.2949139286774334 -0.2581311494063747 -0.46549433443057614 0.38697828550961055 0.34639247027663206 0.16532917385711493 0.1662670822939799 -0.00246807111862992 -0.4046369384433327 0.14873723153180757 0.08372217552776554 -0.17251821471641626 0.32048129636590955 -0.276276903398201 0.326970649432888 -0.1276023282638898 0.17935382322479126 -0.05318937758783562 -0.4711010217478558 -0.20496190750289933 -0.10768509939032396 0.2933341197162728 0.29046471047099104 0.12140129963859828 0.0627321064526922 -0.22273455022704922 0.10856365499503506 -0.43435048257580544 0.18579244509513554 -0.2196491867105853 0.2170408001114717 -0.32548339944149396 -0.274241569537457 0.3573914275015001 -0.015882180404206872 0.13337958786858178 0.2934312266653523 -0.45772080851955255 -0.2813207760566551 0.02259863175819971 0.07826324911886472 -0.24575149608312605 -0.40128499728074984 -0.01816124804031288 -0.4711735356248108 0.37372894312107413 0.015089050198218804 -0.15620969094701176 0.5005249228057217 -0.28025378889928654 -0.12299375494302102 0.4003252097796508 0.3423608805766359 -0.44509057377480604 -0.1343200941832748 0.46165144222567 0.41935667798743614 -0.31807633829329157 -0.1653983588158938 0.10375829795031069 0.3886806109456731 0.4994558968200685 0.16730994480753372 -0.35090885978771424 0.04653291740317228 -0.2449025820937623 -0.06264784009199788 -0.050639542370083265 -0.005004205628534841 0.4666572558709103 0.4856149609968192 0.43776579099823437 0.17224072561006543 -0.25361358616816454 -0.12132991351140716 -0.1840637761743 -0.05072218501148211 -0.3668182927653857 0.09828027682459752 -0.149018818266399 -0.04417799429954118 -0.22239974660569298 0.02505216970602457 -0.467225193019777 0.0056091880899873815 0.007314983060548512 0.40539010366669676 -0.0025385980363763693 0.4370721175364335 -0.4926380094182518 -0.18916023041895977 -0.04471572231247856 -0.022757052148973833 -0.4877502012781277 -0.2762507737789595 -0.27757545609283074 0.12062771062770226 -0.3114863901953783 0.22413752810610116 0.47793224498114983 0.36479652742452995 0.0019546793464287494 -0.09582554005959526 -0.2865242646006197 -0.5006318936372038 0.4785554456197096 -0.0879129452279227 0.06870453465782937 -0.010017092407249309 -0.20204982471232957 0.12466101586682729 0.08559923648441056 -0.009467778265288808 0.11628879344698675 -0.2062173484723779 -0.4721571131809078 0.48054455872866564 0.3688389132747222 -0.06567126087413186 0.3565769363736166 0.1183883680703421 -0.25359326579902536 -0.12200366362768818 -0.2521978035535991 -0.3475564800966588 0.10978063538363202 0.21744465840689425 -0.21440524180472972 0.12976078430639051 0.04051348877132999 0.2923377258109781 0.3396158617611096 -0.15128679114041804 0.3505423521911084 0.09469873455838412 0.2528561115240125 0.4051456073951066 -0.348265238223518 -0.07851908547626159 0.4874540365306289 -0.03155304195206702 -0.06289830063993543 0.404401917291836 0.11781263992089576 0.4598050989878136 0.26932664231504205 -0.1111700622513221 0.15668888127908273 -0.2727369182398801 0.17219022761937888 0.41047691818868576 -0.08632471378208341 -0.0683343292293029 -0.4763033793055925 -0.23856767608779855 0.10086485068085788 -0.4966184114517809 -0.05558103272309892 0.2867524356146847 -0.3616648351563584 0.25702449027967017 -0.3650016963830772 0.13515170673691745 -0.059281373421663994 0.35263263662342303 0.16958201427411035 -0.08879155448547438 0.20472672693700153 0.1882415640409774 0.13932432619960988 0.44864298318471996 -0.24643627522437597 -0.34820908706237275 0.11368924130535947 0.49120593091989717 -3.287592122641103E-4 0.4880345647382999 0.06690292395060875 0.23221876899709687 -0.4498537784890345 0.05585120977273405 0.0960649012734233 -0.10016156760359127 -0.1239175887116237 0.3551541800164147 -0.3967542394330747 0.22373133665856915 -0.4466978818500449 -0.2275581615635849 0.42080568727076095 0.4502534273623989 0.09278901725684115 -0.13175170552174512 0.13290286498373777 0.23004150032406523 -0.388591717530654 -0.2940160114432189 0.04366302995480632 0.16387063623608197 -0.3501251239358725 -0.36260463768193263 -0.13088047837374894 0.24117983142151544 -0.33091108624801235 0.27139609513015894 0.041568569482655866 0.18979807897428283 0.35005956208703676 -0.41000195274568035 -0.22715062754178206 -0.38162112200921566 0.3354857839298853 -0.5019318672491371 -0.4377236479265415 -0.1191326606081 -0.4426256139766809 -0.49577097352233507 0.49647906685965487 0.12065346244137576 6.036886571712338E-4 -0.18985385155604864 0.4116536843125626 0.2094034874878898 0.23827853021574927 0.49093301005856865 0.2746931269345237 -0.0542037862362904 -0.03035202849479806 -0.10410413490403625 0.257078530006391 0.2506338837268433 -0.02830697226226592 -0.14037891669817154 0.22419894470511417 -0.4131028058652077 -0.44810863860579525 0.3396832357191877 -0.2345882434847388 0.49278987596158486 -0.11290765224991395 0.012310824857565237 0.4675366047582722 -0.39195736161304706 0.23609773677341966 -0.40355009890600246 -0.33465553294903055 0.006120280363189938 -0.1833721134150262 0.03891575317559533 -0.21417322429854552 -0.16323034972997721 0.13300138908539558 0.24493836195777832 0.23988955535105183 0.2612642035116489 0.04504261750201354 0.47400546698708157 0.29709132909844915 -0.23196354268078684 0.4664860284653388 0.07004234099254791 -0.28108892640554495 -0.20244726093724916 0.4835094143283674 0.403451168695597 -0.4711572263662554 -0.053592527941106395 -0.08778440979228705 0.22307345584220384 -0.1662108119510359 0.057734098345597465 0.06157528503570524 0.32275047266667223 -0.4782783469742637 -0.3958871071749421 -0.3006140966602581 0.11326017003811181 0.26247453094537293 0.03083209563133278 -0.11977608922556958 0.2902613906788462 -0.012297692218991652 0.04760494927715578 0.2414884980525497 0.4471426155360584 -0.25151145489916915 -0.19424683909066096 0.20456554976944574 -0.35704103771752976 -0.24746229392280356 0.4238571564261388 0.3411166511334511 -0.47760541727027267 0.2880839239803507 -0.15141854076665778 0.3002429894534624 0.32852721741890545 -0.22973166329860226 -0.3262204434131767 0.3509854088282816 -0.4509238294506828 -0.44099982344137706 -0.2694069444121331 0.03731284981446029 0.3948180717971482 -0.44277992650714365 0.2602814768465585 -0.0459934525332116 0.2653838925544194 0.2962357771198691 -0.20781397599356086 0.33327155422978366 -0.11342916598290322 0.16197043824459906 -0.3523782824286957 0.2748075065359788 0.37125170288387993 -0.1979435891812445 0.4776308861277747 0.14229045498750278 0.29561410657151044 0.27393313584276663 0.4079733445374236 -0.3952384472232008 -0.21772338565023744 0.23228051609071987 0.05286005231997914 -0.4677443926650697 0.08509575154666614 -0.2800863374381754 0.16941895117029812 -0.2500447830767055 0.10912301429763659 -0.5000909463287848 0.3598458778771976 -0.1323829623213454 0.31160446165900035 0.44543584102378886 0.14870938247734866 0.1748785700874156 0.19075503571642 -0.4947200573202556 -0.1945854108661503 0.35640983941918214 0.010002658573688008 0.22763216406941025 -0.1911602693317926 0.16474457507379237 0.19033742523508193 -0.027363261181611958 0.24428098101800985 0.40616715281458987 -0.4958955746224239 0.04225649704812024 -0.2653626479057408 0.44914461932324284 0.21652573247797346 -0.10240637232188288 0.17651866942718544 -0.40269200629636004 -0.019050471303959687 0.13277586062416222 0.14796484777254798 -0.36484850145443903 -0.03568481527572953 0.46339859109706133 -8.714381470211886E-4 -0.04018282771080113 -0.2048472615452749 -0.34714977594662216 -0.4905354422744972 -0.004984562386134694 0.39500295644247774 0.21363134918720075 -0.11781401216860282 0.23910171513743084 0.17409535250103847 0.4475341036655411 -0.3693369217297412 0.23510441385440217 -0.26793582429467083 0.42592397538116883 -0.4706430052354904 0.1955686595171589 0.4947656136289582 0.04136987102985699 0.007028911307695996 -0.13330906975837623 0.2866717921254127 -0.1368387370979134 -0.04318144059939791 -0.13780409928169443 0.32240461075462556 0.3006621074589378 0.19048098688191412 -0.04373208665649081 -0.3040504971929235 0.32272935997683966 0.1622065504168301 -0.2473469414064527 0.25060076045476853 -0.11345144432667874 -0.48009142699361923 0.22216564746916653 -0.28567270766815894 0.47193247361916546 -0.05031135001189472 0.20324055602906174 0.06991714703146573 -0.13555809947391353 -0.3182118424063059 0.17855990299011526 0.17802678736838215 0.13140562262631092 -0.2143289763067108 0.1781790403331132 0.3320200019258889 -0.12319245156301692 -0.4583036015077053 -0.48344983689577115 0.4238509528546242 0.048778747047648625 0.1123662651805013 -0.43381078045023497 0.21958394283355512 -0.18172539776044566 -0.46019516756794615 -0.15645702084860325 -0.07969697435990204 0.48640392882178146 0.40734440820728024 -0.3125435280118663 -0.3414785775679804 -0.11226490578730036 -0.4117361408740692 -0.17151770195637386 -0.11395182732421018 0.42137899945931445 0.2777094500172269 0.29455315408936855 0.15342401525133553 0.344669859515255 -0.036513647691556024 -0.19549593581635516 0.04553896181843875 0.31203102719861286 0.22074916499831398 -0.4120915353790749 0.4733781136179247 -0.3311130319870283 0.0014542704079055252 -0.2769235933750742 0.43855227209191405 0.13599686286644178 -0.40006950461785 -0.06546829865321602 0.02573286736771331 -0.3709854767320523 0.2861835936886299 -0.09318856800534726 -0.3269033152006611 0.3618158126585896 0.2880404375136678 0.383696160478649 -0.3768086029042932 -0.4942071298879065 -0.12559851270947006 0.1529401520696364 -0.04071587687578342 -0.015850358694519263 -0.09328064921962231 -0.2455538672706618 -0.13601999512612425 -0.28419233460852866 0.13113010329464195 0.14337845655699302 -0.1651262040958733 0.0889761879047939 -0.3158578707650052 -0.4516169960893053 -0.30370078349667246 0.3480356134464658 -0.02720589303435872 -0.0506971774829379 0.49025228816713556 -0.1566312919695807 0.15767730981015687 -0.3906159306925872 0.17942364078701412 0.24081733364925278 -0.4839505793563668 -0.4209870678893017 0.4042007796827254 0.14449616453269823 0.2830794254097885 0.06973301983222603 0.2970576931374113 0.05655250129062116 -0.22338715302479414 0.4284236037451315 -0.0930443668942631 -0.41896379696831776 0.10600928876618947 0.43900861249240497 -0.4640212668773469 0.13492724940956055 -0.12735309878396883 0.432766019434939 -0.033549396472622985 0.37946545808129556 -0.02968473200633887 -0.40337966444052054 -0.4915064721556607 -0.07707201467798797 0.22172641383673106 0.3554923860733673 -0.07979204935972715 -0.07349454962830411 0.0547583270122034 0.13312978355249133 -0.17725025905745787 0.32637546828254527 -0.007798936623921702 -0.2059146837283149 0.3309455644266912 0.3821758597882788 0.3435866054363713 0.17311028713113827 0.07448428413206867 -0.08173495345428418 -0.14955645717608046 0.3870137587150895 0.07879520301573026 0.3646504561049358 -0.03926291636537553 -0.32427016667463077
-0.040822009133985294 -0.3805356853052122 -0.31131460390392696 -0.29439020335034877 0.5018438354811292 0.1945227767036522 0.2271029792027071 0.22319402624716034 -0.42573281851562605 -0.24470649578042344 -0.23911230679113085 -0.3053860004818968 -0.38266598715823347 0.31125726421824695 0.3444120558617392 0.254561876933386 0.02959839517073702 0.11171533940080562 0.4854072100990126 -0.1269857595424051 -0.09171640239975433 -0.4347468823803522 0.0719407500955891 0.3002997485578934 0.012162723389834028 0.4137029685375133 0.3441317972328858 0.3845390579846554 0.4648466055599606 0.37524350152766206 -0.3841689953783052 0.2747364616075145 0.15041911085851215 0.07514620147699116 0.4107909702151843 -0.21952635961882053 -0.0627586539513143 0.4021673616294339 0.016649433119201407 -0.2687326589945226 -0.34994642934431663 0.2729817848777083 -0.4058325786798255 0.16991944575702844 0.06677702246571378 -0.2543697273857954 0.33682462156513937 -0.5083493314334674 -0.2114935550900221 -0.23079667416441219 0.19063288649769133 -0.08666612984104052 -0.11192731593970767 -0.011970552397645443 -0.49468779250065226 -0.16018508338797321 0.43288320575072015 0.00667324365382159 -0.43264968752564076 0.4067812923911662 -0.26922458621801065 -0.3531436551031596 0.23086145097370248 0.2190299042292352 0.27566205595441284 0.22434737993031054 0.3775915863679894 0.19880005342161478 -0.35464919093642383 0.45530974575287864 0.32286890259025874 -0.19354312813822866 -0.36861979651332705 0.3075870935690944 -0.4723852771518897 -0.055575595279524014 0.0559595241514132 0.31792578836204766 0.2710827077044795 0.05333827777115596 0.288458716978522 -0.04724833626741845 0.14991961771045875 -0.3773936901450005 -0.3299089081439775 0.32686217696748177 0.39578168815652237 0.49375736211347465 -0.16024381107708574 0.09751280359471222 0.13987041831439576 -0.22905523189929222 -0.27488685292365056 0.4185800983785961 -0.318579581120922 0.3363513759018086 -0.35898810814376814 0.2533917433613535 0.05436818642792666 0.32970645233331114 0.314231893896012 -0.36939883584048105 -0.17907240738204672 0.0669986329367036 -0.3963525951483936 0.25659770553902084 0.243796893594974 -0.15140484295944512 -0.4974924902819326 -0.1355623591231193 -0.4805603439547364 0.2706882625365767 -0.40697000298438996 0.24028662957318153 -0.22418166448288415 -0.08337842154705545 -0.1064341860789122 -0.46132844093745223 0.07122007410048775 0.08680534453812344 0.043394955066569034 0.10943093829248189 -0.4987186275970064 0.12560491896575418 -0.23275817490752682 -0.3486398949011494 0.1731772057822102 -0.3668302646111567 -0.2202616492946825 -0.1101516302651723 -0.007916319959880912 -0.4239624390949685 0.2056053561519117 -0.32409582768931905 0.3387376351809867 -0.0245708113669739 -0.33392556864687684 0.3104816663319617 -0.32484565837477647 -0.48749133419456203 -0.18674764884461575 0.05752549441481852 -0.15595876250071256 -0.22082301699741227 0.46268600287048395 -0.08670919596444665 0.03642482801767389 -0.004607299341719451 -0.252789015778487 0.3330063132056508 -0.1802026224296959 0.22871973151769073 0.437029671776142 -0.49711266725090963 -0.1826751643068807 0.4064850080358562 0.2809829398309915 -0.008601664544233462 -0.12111604706325867 -0.2688372536318556 0.20337671276940794 0.4631908470236808 -0.22316624834430648 0.31191321649250064 0.25702744291097385 -0.09978951038032101 0.439033257593179 0.27947748258381483 0.025735064107398127 0.4638930065646178 0.015406164795204519 -0.11232628841118385 -0.04342900048385535 -0.3700611581183896 -0.17433193186025767 -0.27707349785719654 -0.07545848947144151 -0.4101771101106647 0.3454859227865867 0.1662856753749789 0.17911999320607072 0.0323198794974364 0.39671817231059936 0.30945739458714117 0.22084192858417248 -0.11391281829561388 0.10021324779427658 0.4385922014405511 -0.1406751262402015 0.12952987640566813 -0.3427535367044376 0.14596853601749135 -0.39423439794544807 -0.2688591332114096 0.06335616147132203 0.08512767212995694 0.30484154217135295 -0.05094646863112259 0.05029807439614499 0.3545632229144917 0.4280221977650854 -0.2586025834158936 -0.0989836974790554 -0.10714158707972253 -0.230577395851085 -0.16242666288791785 -0.41904728583299244 0.32286808665858696 0.29218973901826867 -0.08448240630670503 0.02833752454266681 0.43784097232679664 0.3048019748791107 -0.3838957727814284 -0.17385172635425244 0.3579040953910982 -0.2987643575831395 0.3478444922253637 0.4968875165825227 -0.06550230303028673 -0.20114850535949008 0.4085285710730845 -0.06953462964585978 0.12066372695900007 0.4317890960410153 -0.18924375977922647 0.07493457052995968 -0.08849698458705117 -0.368429831313799 0.0011452264634357755 0.35509510545712386 0.17131559838791297 -0.4477331938287529 -0.23099564145624438 -0.09181307597148194 -0.46938590453897605 -0.3672829630665974 0.3410527972329953 -0.1975187855634186 -0.4693929306922474 0.04072818499037755 -0.2887352195725892 -0.41587667656305843 -0.03593340060771238 0.07159561301295893 0.12346495210618856 -0.4709371965229305 -0.34615160043785387 0.1705814542546013 0.13808901816145422 -0.0929503460513398 0.2032819839150263 -0.24042168152626478 -0.27189068311828796 -0.2681119143682304 -0.49101762249511055 -0.34622915911959473 0.2894845524424267 0.2164565217190576 0.18072031756605192 -0.19702180286233736 0.2878947630969327 0.006481297504747353 -0.16526721228794503 -0.0950867953688719 0.34069465745935196 0.2281222954485849 0.1456958239280393 0.2974404634196979 0.14691292753537266 0.0032733715828153556 0.20891122587689914 -0.45202006252453536 0.19204609899687905 -0.24821549317695954 -0.2386482031394444 0.148902284839386 0.12221971987685275 -0.4679588845088982 0.11054875125665188 -0.291753079415045 0.46643865225636727 -0.170364514671325 0.07418593488999338 -0.17132503172024094 -0.24656032069621714 0.12245851704578212 -0.25825205485143815 -0.3660268880469306 -0.3633540787064573 -0.03456307082557242 0.46896966655598665 -0.3280500162252677 -0.24213283773683994 -0.4056453657517814 0.324374839502661 -0.034204922117810656 -0.40249410933873836 -0.3482326559708101 -0.2441949861020725 -0.038210198388445075 -0.16002411346579387 -0.05337960513280563 0.45014819079926177 0.34605376948058614 -0.43079009266832097 0.34038971554689657 -0.03601755851201226 0.12059872078387436 -0.31637677972008343 0.08690360399245627 0.22567644580343577 0.42801752933961146 -0.3943965054565013 0.40609029962718973 0.126634871055684 -0.3012003848461745 0.2277966809390522 -0.1777485133697768 0.4788833127047944 -0.4264880913348835 -0.021786377895424532 0.01720737221076525 -0.29433827140103214 -0.3334002365678721 0.0072738546486900224 0.2352041194913502 0.4803750498824378 0.41462850064260504 0.09907983998536983 -0.21782457590236692 0.038935691402655785 -0.3486943367864019 0.2212129189023031 0.47358297209663663 -0.16104145479849688 0.3818789839488947 -0.19189623034147713 -0.4606610530583107 -0.002351222681819575 -0.08358228123769412 0.2896212131570075 0.44827095034586073 0.1708131193283465 -0.0029631351375505304 0.30853387054607584 -0.20482314316274491 -0.21701427095762865 0.12393545506271966 -0.39057951920655987 0.012502522321861309 0.16519663644794755 -0.09790127955444544 -0.08348799236170336 -0.2659115849613818 -0.2886378878661402 0.3384573718532783 -0.4290515823760643 -0.41534369361885726 0.09272781922354963 -0.2785061061127118 0.38061603252501747 0.49587454581381823 0.17913230154525223 -0.17415617645185374 -0.05030818186326559 0.45612172937996176 -0.4578601504846258 -0.21745074609009749 -0.308730427410369 0.47296422976835667 0.1744918845819006 0.4163890190599959 0.29378066039850925 -0.02189181524344412 0.12086712160870615 0.17644868588309184 0.3841644216174106 -0.23307405358068048 0.2991099230360487 -0.3076313376284271 0.01866228637077081 -0.4755722038248066 -0.1412849599851928 0.07949140685918107 -0.28464408118819956 -0.2980431905290906 -0.22077774082752735 0.17639644562476706 0.2776224675863289 -0.010182270681640558 -0.4149261965656618 7.469529997288727E-4 -0.27055127757574676 -0.3764737575734781 0.10720219060606655 0.20955553093503065 -0.38535086413996067 0.0039164194759874205 0.1649835553808802 -0.40995191420046556 0.14733683888027532 8.825988662665883E-4 -0.43552977638948304 0.43415813100032347 0.4454382353368926 0.34213192738008136 -0.19079867477642043 -0.08702647587481341 -0.49332534313396287 0.495725923305573 0.27103628730698975 -0.18613353227055796 0.38144531876354837 0.17389790902456206 -0.45832189883859015 -0.4295052896106397 -0.13311744352324356 -0.26933847328851157 -0.2984298283598602 -0.42031300658300497 -0.03487358815205195 -0.0884995247037239 -0.4748401011252288 0.06115810286338428 0.09030223979304688 -0.034050127088382884 0.15147049234297996 -0.09736912003632592 0.03232214411394002 0.024475639550073945 0.08522903141995951 0.015864249908175004 -0.2630237302637423 -0.3468384437064968 -0.03815181824618341 -0.15001251824088926 -0.22527144844743763 0.210968900355575 0.4358069089474812 0.45400944631388196 0.4855089665151846 -0.33113786775935683 0.07461255885779652 -0.12468440482257546 -0.2723945360839452 0.40243039166641376 0.41045855398651837 0.17492464464045965 0.49849294481999795 -0.05516834502898339 -0.09498670461869559 0.2291923612861342 -0.42714145991966096 -0.4018680870863495 -0.2612152318377187 -0.28385887578587193 0.32172915037297 0.4767818783550545 -0.4194114444125993 -0.25178673135615465 -0.3070802191218397 -0.06252882424639829 0.019335670570339258 -0.22615638644246014 -0.49184872910532956 -0.03189455401924208 0.26471613227268515 -0.013136818031162567 -0.47002374159569626 -0.04794401553582668 -0.24552040416442555 -0.15934936853586815 0.432113107252007 -0.14174312666060462 -0.05562701041630824 -0.1934784155238626 -0.03270859682019573 0.0667189679019784 -0.45365687243093145 0.43234859838557693 -0.4682811852975265 0.20148760723144077 -0.08520115946100834 -0.4164765483963873 0.12893529856285524 0.0566256427428936 0.4939874229366331 0.3692836959382508 -0.2231925449826416 -0.30607773565157087 -0.20211380868185808 -0.09848401349575985 -0.4286838077789201 -0.34876406622509326 -0.2923481908711722 -0.26810077270179955 0.00639071562543423 0.027462009690568123 0.04272077130205532 0.3731183336991092 -0.2911957832358099 -0.28918633739706795 0.3647314054888763 -0.44867567260229463 0.47210277109433146 0.05940777429060148 -0.008540366454192769 -0.26493054700867513 -0.3281006465497925 -0.2991640339817162 -0.055185805973817864 0.4844302442553649 -0.3075664029012093 -0.29221098280633057 0.008333229264781264 -0.34016614308054266 0.3745668694934429 0.20707934679088888 -0.13114389201648838 -0.15137460136630032 -0.14961307396095444 -0.4667367400540524 0.4757913512281163 -0.2689774444056719 0.15345100713819654 -0.17255387522668533 0.04081361077467045 -0.23047821985290626 -0.4175833091135689 0.18153925489311287 0.30681234728143186 -0.4484151294089001 0.4589925803900791 -0.23895731002598064 0.3441846277791106 -0.4986548125182096 -0.39882822397063855 -0.46438882694533123 -0.4423577260638945 0.0040634916563622794 0.2532921883451491 -0.2609648908789888 0.4603131489852788 0.021328118553946614 0.1370639744708325 4.966833017860042E-4 0.2267699955874362 0.09548776379837207 0.36007323772749245 0.27696362361296206 -0.35040895475539513 0.43654614363643507 0.10398259283370685 0.1536420978967961 0.07989483627843487 -0.12198638124664009 -0.3347118922331159 0.3763011039734465 0.3160848165774453 -0.05906009091605205 -0.02579563546577595 0.11441290645375844 -0.3993651767870309 0.3277374941774616 0.008988169449949197 -7.597395361045293E-4 0.10839727058149916 0.205121084399641 -0.19800686617759872 -0.07084469131766913 -0.06301270329679537 0.3976811320753908 0.4165413580955796 0.20784530736514875 0.3823164867025016 -0.45689107600553097 -0.15584564760494538 -0.0444480894359507 0.43337837719648153 0.46674737232823155 -0.48037152448537956 -0.4382093154985912 0.17591484272113625 0.24456269505450068 -0.4393168662249043 0.23554801308825232 -0.37744667300984325 -0.39594032709049565 -0.4191919062909957 0.17541767371866315 -0.26870355668562207 -0.14242339341305443 0.03996284320949659 0.10721883787516691 0.3029473747076474 0.10345425329168328 -0.2859154971089284 -0.1731358140753679 0.4790145215124676 0.2327336731807077 0.3560326610598831 -0.41303735562389404 0.1350124472533185 -0.39856446036765314 -0.3175702042950942 -0.3684122126583369 0.0804918261682416 -0.11301417634156281 -0.16383881464909517 0.3804709930375712 -0.0905741799179344 -0.30733538621794526 -0.27161962898433095 0.2858443338611567 -0.4081727243146661 -0.2569906876326428 -0.03881346564472566 0.43312602111229714 -0.28693247979272174 0.4387763973301015 -0.47421968655219865 0.08888633423587604 0.19481185498209566 0.2711649899689447 -0.1844026648024296 -0.4480107541249165 0.26438249505613676 -0.33899414631265395 0.41951680409331743 0.11071318937838523 0.06638577298249321 -0.08657393442651407 -0.47688399240498214 0.12252696889525398 0.10676681853579043 -0.06143736231729387 0.30026709509095295 0.020359539425918265 -0.20284399472421238 0.0031385702875527262 0.10377225652771706 0.4666409771615089 -0.04840124076499147 0.05553696801800901 -0.11965283913608737 -0.19719339142643325 0.2976004561986535 -0.41680229376950345 -0.32222921830476636 0.08769175254908163 -0.28039050263726234 0.040364398487349594 0.038020149764072 0.21586997095468916 0.4066403703630967 0.029002044927652234 -0.02453465102742774 -0.27340644393827007 0.4131903589248594 -0.06534321753030856 -0.09287722903770351 -0.44497044378664946 -0.2523810824660855 0.2763469695850286 0.3353975729265251 0.3007232562575989 0.06202892344072353 0.35104602453189604 -0.3707175515708696 0.37348337514621727 -0.07923162192505612 -0.0935869010873728 0.1387449397277668 -0.17734791606509953 -0.1889757954969429 -0.012214046782877163 -0.48438048838381836 0.06350699748364505 -0.27672375140356975 -0.29379822632090774 -0.24890453144293082 0.11332431113217203 0.331862866348979 0.1810656341002486 0.06870513866078809 0.29216727169983614 0.04661474044524682 0.18698713316145227 0.05978590672215228 -0.15149079788606853 0.11214430780489282 0.2928946785884484 0.019612416209308474 0.23420773863609706 -0.3028537227266244 0.22741098208105123 -0.26723212418742426 0.09319113472846298 0.09512569650025741 -0.37686951569718674 0.08025458695800991 0.2580575157224608 0.348315082624011 -0.006521460642224953 -0.3543113430394426 -0.4201382575954176 -0.10600162973526678 -0.3087055994213709 -0.2012602100752614 0.24397451357332456 0.2349407844585998 -0.37034106333957106 -0.13100415520037784 0.3549150289029405 0.2851641022999295 0.2532774559432229 0.3961856652852919 -0.31245337294919256 0.3630882584180833 0.33297877533259446 -0.458002635095461 0.29878843574372743 0.22126918604483942 -0.11573622685045802 0.3530527254662274 0.39921913410900217 0.32361925856822704 0.020451728847353585 -0.04888501897336663 -0.0020252937099012507 0.11873794973260225 -0.12072627368759663 0.13850012719622595 -0.39918765402179396 0.09340051505401467 -0.47704215298227115 0.39823103875087773 -0.20487637157962052 0.21402087810442827 0.18525287948127417 -0.25017915394609924 -0.30744835219418043 0.3930915734030482 0.024085586059161557 0.22240739019846112 -0.10617297046039927 0.4061811188917373 -0.21695514648884834 0.4230809278239124 -0.00147162642402238 -0.0631600451449158 0.32740396089981555 -0.1957796364206785 0.18673545256784937 -0.20561933647094477 0.3320835620836287 -0.14146321761282776 -0.3726853889919974 -0.2969254847864119 -0.0633874539095167 0.1077600688840079 -0.3206902162124824 -0.10108137769729231 0.23422783659163626 0.13679287512489813 -0.09850162971560876 0.39620903633200505 0.3676260239507219
0.09178901555985265 0.4011913594198564 0.044901224608841696 0.049108319054444106 -0.4350404655420066 -0.36715023722768136 0.1369268468127961 0.42506086672958054 -0.4508716390148155 -0.17327382069796055 -0.0732517642872554 -0.18943625740836206 0.2843581758128134 0.12592181476309083 -0.33891245885068505 -0.25066427971486527 0.07375529230023455 0.3536625711718271 0.13486379606005336 -0.1382850029651277 -0.36710224042515427 0.37102168944406766 -0.11379130795538535 0.14778367009085874 0.3472305828216411 0.029578650003533102 -0.25003607304671316 0.48372826938552094 -0.10517107384791263 0.2793143195856191 -0.39763501426986125 -0.4598455980247347 0.0653772230632984 0.3655139133895631 0.5123350863361581 -0.003063583271856829 -0.1327566157228196 -0.20345102380534363 0.06010637497154309 -0.10466877378727661 -0.10129595269549573 -0.21606817276451715 -0.45791028694116664 0.3709761996731259 0.4387748010380031 0.4378524429442252 0.2803164989559439 0.42126053214604026 -0.17510687820252674 -0.37463922298584795 0.24885016704115684 0.4787022609736932 0.35397197528738195 0.3214368145120759 0.27531275466205996 -0.04009778764382277 -0.3728935301057362 0.44476710905719063 -0.053957555413795995 -0.09213704010721341 0.21910775530829174 0.39987777295646876 -0.38655494507877797 -0.4662253128960879 -0.010857180540854224 0.3732231458099339 -0.20747655854186198 -0.15321969867362117 0.27602272545343143 0.33167046148256973 0.5261949835580325 -0.20158138048489627 0.20175784048484047 -0.4269044341218631 0.0678507783585101 -0.38380857903031596 0.26658250386718063 -0.39423436791343114 0.2412621939422726 -0.22465157484459308 0.1988415484668606 0.30162251570478454 0.470634417970991 0.07133810648518915 0.039473551868407196 0.10909020719393303 -0.06898265589299298 -0.2389383932939394 -0.1373141062645366 0.20211429302039619 0.2390739914072516 -0.19926232422080115 -0.3863539540020548 -0.013465808004744994 0.25234537406606594 -0.2718625263314026 -0.004756038014164975 -0.10507069487787439 -0.338991170301206 0.47712255935891557 -0.23969280574905943 -0.17913103040608758 -0.2900759507987685 -0.49996240252873564 0.3944763107982477 0.22872391095620936 0.567953843098548 -0.4044263289496056 0.014668453400636388 0.2400150645830093 0.11663075923128273 -0.44595942734024807 0.38073526600979546 -0.15845321421948275 -0.10215887645897269 -0.10876174729829585 -0.24219596265779478 -0.03470882633703441 -0.17980220245906256 -0.39471218784411555 -0.47653638858558367 0.19235333677943742 -0.23263046627705605 -0.09750603756907644 0.41996784430614337 -0.35377936793756526 0.4044403233285984 -0.4802363461384073 0.025672144319154842 -0.4250248105756607 -0.4508843981817945 0.2474138565689279 -0.08882462369564477 0.07507115413394394 -0.2522062318430199 -0.310011510211643 0.3075458996788026 0.31726385433245646 0.17429145102714438 0.09485802967117155 -0.2827612428504829 -0.076481778393182 0.4728015602107674 -0.404085298347395 0.4557991416308795 -0.4050591423546107 -0.05285240605761858 0.10242401717650586 0.24581828634610906 -0.10475872607895886 0.19384116606582666 -0.4300435383001404 0.23510775471056372 -0.27513739709529755 0.4574879141274466 0.18395836429609264 -0.1427136881604759 0.016166925919029813 -0.2287917748230116 -0.017657700278999995 0.20023202052975336 0.12391554879138929 0.40148286598742944 -0.24641039599197895 -0.20088655303864922 0.403961367048083 -0.4358919631491774 -0.4305565463273921 -0.3847085694016036 -0.004334580264432868 -0.1935283482036214 0.4010862044058054 0.42398607310751907 -0.2347515200206229 0.4678508204245459 -0.1561800260211725 -0.09144201969221234 0.2277071070431616 0.06448256070627481 0.49369542131004074 -0.05421582253851207 -0.4857705232887159 0.09336474596233305 -0.012264509463831506 0.13111798936781077 -0.0068218561552165395 0.004506178370203609 0.2893920787842583 -0.43481352936643614 0.12611973091819428 -0.41388479263096356 -0.40188874962814747 0.1764901130423655 -0.13953828488286382 -0.08605659510880938 -0.29037963123523036 0.4349949994544847 0.32318394098669856 -0.2323333996396235 0.11757834036497278 -0.012887110638390965 -0.12149271978988659 -0.38098895586608766 -0.33069860317443217 -0.29801391822233375 -0.02815684340615805 -0.13232988000944346 0.3581969250145652 -0.23408549255451522 -0.26492187293440617 -0.05726206537594229 -0.05787584225377138 0.27078247344453754 -0.14010178850768537 0.3536751671687814 -0.10696040376004948 0.33427399068477176 0.45516856433287173 -0.48341598129579677 0.10950291309326186 0.42818897231429265 0.06396795136408202 0.3521075594569587 0.4667803220110154 0.34436568332334416 0.37771206710952443 -0.09250352252936805 -0.44731561268122266 0.3094235981732879 -0.07861860867804076 -0.29548385210940703 0.3100180143821324 -0.020864194575594793 -0.10355607295476525 -0.16097669433918962 0.15599627596790644 -0.07345779108734453 0.3419667909729048 -0.2976818820035344 0.5158862985212949 0.44847644110048285 0.3751562171842508 0.38450460042849244 0.14480470884667399 -0.4080250153887237 -0.04268714390860178 0.24509022975293282 -0.15426530268342717 0.4597571830829776 0.2433782476243666 -0.13848599717986484 0.051650008721003234 0.22780293887857864 -0.019985112031521004 0.24435995983157124 -0.031223816253315453 -0.009581497374525726 0.06550727124492477 -0.10071538464047082 -0.3596404738304762 0.06828547584930095 0.05993619261080647 0.41398049813442706 -0.4524187395154713 -0.30134062556462937 -0.04513257979980903 0.43396472902925187 -0.4063262949635333 0.37011996302693173 0.4491602823092921 -0.3892708227860503 0.3546313757602875 0.44334715197646307 -0.09824763497162761 -0.21849448163277807 0.17877857310066894 -0.05575795181860645 0.35154310737451094 0.2361740902357889 0.44737551810518245 -0.29313794748128563 0.07342824213430131 -0.46902467603792614 -0.06667573949929569 0.48231622374447697 0.036526877076401766 0.18939019106736643 0.0826600562171957 0.016650840126510358 0.40580463352393265 0.18842754069653175 0.06828073309745708 -0.37706846197258403 0.24210248581585014 0.22034530851839432 0.22524043473348848 -0.2561176591591082 -0.2546258625623495 0.07835254284798043 0.3829787801420932 0.2394113083669802 0.023362420637170873 0.43743182144786685 0.019650383003336064 -0.36115916146440885 0.2769582669828749 0.2210114224057581 -0.30700997254968215 0.17104751216734213 -0.15985913733697102 0.21267123185192613 0.1574110522519016 0.09952836254880226 0.48684423206364397 -0.13423950658433825 0.4181066764163363 -0.1252940766938622 -0.08073884497581178 0.47068888828176736 0.5291528094838824 0.27528793333131246 0.4700389763988792 -0.17565020624091174 -0.14314362977153308 0.4121928276311175 -0.331549712755332 0.3837080649135357 -0.012372325195459425 -0.23655816651938383 0.09024919151794274 0.2383902417129158 0.4088039690596504 0.07512378973644647 0.16440870584203854 -0.12265401998298071 -0.021442725502604024 -0.435837520092091 0.4279561061120119 -0.1777489421351179 0.02454496656984335 0.4253720907553444 -0.40605426500420816 0.4507681399658891 0.20740592175806452 -0.23362965043032022 0.09409371465091684 0.227916129784195 0.18106185768293964 -0.3890440833152279 -0.465659715539983 -0.06408851471737034 -0.39782911216142636 0.07759012776876187 0.0535990268000782 0.0419474914191621 0.35888471046477294 -0.010698292547605917 0.25647461079497286 -0.02626673283969221 -0.21654958444819572 -0.07317255122503237 -0.42474077194312365 -0.1854885660901802 0.30174721123504333 0.11982758446027639 0.3521569204505393 0.4670720095504591 -0.16239613151322005 0.02610303204297543 0.05914617743092333 0.1920749211625386 0.3328613515604081 -0.15334209812377345 -0.35442554381632674 -0.3464150884047121 0.30591417575326074 -0.2552684141536437 0.10090709734413095 -0.30004192331720186 -0.4743723542880076 0.16265050378834536 -0.3232614682772731 -0.2310233843246873 0.2171652353533709 0.05322973868000188 -0.058138799610473094 0.004446447093055119 -0.0037953858212964506 -0.30053999446941426 0.006123832982757324 0.08177673948052405 0.25561216843876583 -0.3535429919632264 -0.05490362347192996 -0.18988155812337748 -0.44124457460546673 -0.44329426829941176 0.441937847310042 -0.06984246773328084 -0.41242536420797865 0.09007918812179463 0.29939726233039315 0.2262911762668622 -0.40418509192784363 0.44192769880369825 0.1900875278997585 0.19497914686015647 -0.10310404969237753 -0.00873311193945856 -0.4124413609193047 -0.18282507122593802 0.1872685676591164 0.2551333330580801 0.42875626186363236 -0.07306663277594647 -0.2698155710222437 0.015256274223978327 -0.08846380210829076 -0.3749674840416653 0.19411552684546712 -0.013524396161146469 0.1021741778540814 0.251938455533027 -0.39822540167609594 -0.17955589019782878 0.3999403655192578 0.14823097058013146 -0.21940035733421773 0.29782717763730177 -0.12249066033362528 -0.4942149719628969 -0.20139630712394904 0.2055452401948968 0.09940686401187875 0.07824289462677274 0.2707112386162976 0.1150700235686963 -0.39103818381116523 -0.28546531160171684 0.1533424247780664 0.39649327765782627 -0.10873281437346503 -0.1732453436060648 -0.07350528484673167 0.13106280877620272 0.48319671532091574 -0.11161382559136024 -0.3797032926059874 0.23336036656637912 -0.13823353835452548 -0.312430518099726 0.4875515184116164 0.3042758332061882 -0.4355172780111774 0.2591329062645852 -0.4034812489820582 0.06477113578288402 -0.2554568488076802 0.07267105500253329 -0.25578711291048867 0.42654342698469405 0.025535255419296524 -0.18095207119337908 -0.0526637817243178 0.4174395606587661 -0.042062047512456055 -0.38953857627475375 0.5190242738042894 0.4400690993056796 -0.4775709904993798 -0.03249114195776762 0.026951099117782908 0.34610289508181086 -0.3115519001866801 -0.1883531614715277 0.04145089467005554 -0.01939994682043283 -0.3884626693717538 0.5172918615236652 0.03437661982382034 0.07715014759313059 -0.4532312872616005 0.3196040215692808 0.03854125821181321 -0.07868583402802865 0.306937546785689 -0.1958666207129369 -0.423982734464715 0.2670941591684776 -0.18395199137068877 -0.4595363099873628 0.37866965400544383 -0.054981245404581845 0.38863304207833826 -0.21928020703970041 0.4853578259648575 0.16413511776614578 0.01816476777371215 -0.3549953338529497 0.45737210106293025 -0.1625615268202758 0.0975876426303475 -0.19458013373592803 -0.21260640852520055 -0.48200316395742165 0.19694409568361948 0.3895013728199968 -0.12456842484453899 -0.3436400538960466 -0.2688078038074362 -0.12273680392021229 -0.3458223265602486 -0.3965842324836555 -0.4049120345788192 -0.32677422272589945 0.40775387223677806 -0.2611334620952936 0.030466042025420536 -0.09944804659568905 0.08878972099626657 0.41941019651426714 0.10865815561870436 -0.1723220783104535 -0.2133026344771456 0.40448283976771965 0.2361298591894323 0.023627666104648518 -0.2267550695428694 0.257404274879842 0.46329452434587093 -0.038614097707352926 0.3374379071741099 -0.01751735293593812 -0.46712736733079163 0.4880043108353521 0.2514463148792912 -0.4357047077914877 0.26701052864187763 -0.2989624882279922 0.18365194800459309 -0.282416845239339 0.08836536330238162 0.04000088520290615 -0.023693215415277656 -0.34076395217380046 0.1749117693337524 -0.3462201887307401 0.2288352581317489 0.0626190297305478 -0.3793748099168128 0.29911874224752977 -0.3679887394862828 -0.19362889630106256 0.1305659278487992 -0.31621174893607196 0.02583795899689602 0.054421578978782165 -0.08602613677883729 0.11228593136331547 0.2606486982730145 -0.2541859939810507 -0.09820279785150322 0.27793809885000786 0.5090098507121502 -0.3707070040165013 0.10719757940580102 0.24744082601104528 -0.0861995886985432 -0.4916994131849312 0.09891676232918281 0.1088283486899846 0.44598048276448615 -0.42592039982307495 0.45705282949461684 -0.4673639829487552 -0.3252013722000246 0.18705335487906685 -0.295193682746278 0.17850011431459045 -0.29683237111768346 0.12375795130890246 0.07433292633683351 0.011751672784430369 0.493968905843121 0.08054388465021171 0.32495716464771973 0.42115574243220977 -0.3371110436810684 0.37808577490363093 -0.43532200740650406 0.47200231705928314 0.09318607205196401 0.3858551903195619 0.23871552169284374 0.4053273023785162 -0.4965433035461179 0.15024114014341985 0.020946836391932632 0.3688843861463881 0.020887815554679483 0.23120550687345698 0.08023109243642386 -0.1734992056437587 -0.05907579795080224 0.026779026197737935 -0.12994989251873065 -0.0931073082797205 0.16296832265670294 -0.3937953343930286 0.5094817033269226 -0.2957452054906603 -0.14778387211659028 -0.28354176604464465 -0.078407737932668 0.3700582650224952 0.03717894707196528 0.052342486071565365 -0.5041736311624743 0.28535936285830416 -0.1572642026386865 0.488667335194724 -0.15087955617103035 0.4153755011129791 0.09984049028273627 -0.4634339360630393 -0.20464144366069334 -0.16119178403597562 -0.08922294220524715 0.14834259105606715 -0.1723161160571431 -0.47124950140616395 -0.28707622852331877 -0.08017469889263858 0.312170019302055 -0.4104771269688967 0.1068432570034639 0.041321513356906696 -0.37200029162222675 0.2991760222349863 -0.4247213126986145 -0.3761232142128225 0.03719580410034599 -0.34983705213075705 0.19465345408430818 -0.42044401152243555 -0.3803038598573429 0.2834917126565315 0.28031601029758096 -0.4990202309972785 -0.1358704411042644 -0.41791758159737286 -0.44235285588214035 0.0319600129917517 -0.39748546401740054 0.17028995324148877 0.31951752550763274 -0.39197278622969706 -0.3711535706389315 -0.21100272867867567 0.14612308749338523 -0.4940043510797802 0.1709624122746886 -0.10693986105903872 -0.12987103924517815 0.2387290292472664 -0.059509253788559174 0.14275896009145445 0.3778364410724345 -0.4550701876642311 0.4638064246202908 -0.3509510516729035 0.021658963902327313 0.3472855283784647 -0.40490937445558906 0.35256478405368447 -0.11997881919427332 -0.29676451576717566 -0.06500504359445367 0.36934072399915785 0.3208631534905241 0.059700977277852674 -0.08019079017064801 0.024386801580322106 0.20315143787050705 0.40151247122855543 -0.35321774208825873 -0.3978086259814412 -0.20987180936041863 -0.48784393005910404 -0.320118326191693 -0.34100284767692945 0.15856480526586358 0.3578893927754862 0.38217297233284425 0.2865140218336158 -0.1635339704063062 -0.39443484068945117 0.04375273796046619 -0.2891304631124163 0.22347826476935165 -0.18120684834727435 0.3712668591887542 0.1413596127443928 -0.23345783911624485 0.3553456601337002 -0.3238155895162012 0.40143551196678773 -0.40256158845817064 0.021111994599602932 0.45343348817967755 0.012429605608271986 -0.3118421992199274 -0.2553670103578148 0.15516820950989746 0.33272153156340584 -0.03071265925211275 -0.05263899192069499 -0.0617085338591663 0.021714360641281245 -0.06443042927346526 0.03353107029880638 0.22151022565865786 -0.22538744371354918 0.27682084812844127 -0.3608612463278966 0.46599098195080363 -0.12851015585142134 0.40706961557945665 0.22055666659880657 0.45448629367698185 8.724228568609571E-5 0.3073254371929374 -0.0726156362182558 0.16695026467825547 0.4076895680086576 0.035514201889072075 0.31560335425795133 0.01006469371788814 -0.25900927081959507 0.18648915667124866 -0.043609098289776695 0.2910209216239524 -0.04094912557597703 0.30911957586481453 0.3650200410894218 -0.02438210361554305 -0.25179330898906577 -0.4744195133780522 -0.47894728386639135 0.39217773941716993 -0.3571028650218659 -0.02487641357988679 0.2036866575762856 0.3784398490044617 -0.18491227016625886 0.46402014794600027 -0.25802266723364986 -0.09478433037240896 -0.23963570700589598 0.4451949914615671 0.12839929726685106 -0.4537627056758554 0.033892828584189974 0.33943116052799993 -0.481560986576567 -0.42066380799144926 0.2752042491596169 0.2488291414794472 -0.11312887172213519
