2
256 768 true
0.021173168946849806 0.4847689505219194 0.1735225467740342 0.08479583860771318 -0.25724650432111873 -0.1408237560127283 0.06340834234622747 0.2685599000940817 0.46738229975077994 0.4284262376798422 0.4069586114723929 -0.23207780375035078 -0.3222829572228111 -0.04770425679052548 -0.01887555965180233 0.31246812948667446 -0.2290032851034436 0.36915419238731956 -0.12674363549873902 0.060993578323417674 7.288041784031986E-5 -0.41757960207031647 0.19589322075625215 0.21961657482025637 -0.013628533142200014 0.3962738382561979 0.2185446675193662 -0.0012387390940435498 -0.2884528301266898 -7.791902666337545E-4 0.1978290959365356 -0.26719056527964125 -0.35813521330148573 0.1517752027894546 -0.27536785894536925 0.1094571096855496 -0.48639208587121646 0.3619904306726174 0.052786140277528516 0.2666775034705459 0.32235649203029065 -0.29415445265900814 0.20345276829431683 -0.2563000449494758 -0.49000955735681556 -0.4583957623296167 0.4465561288132772 -0.003948355761179738 -0.29286940641253434 -0.1618336802365039 0.1132397292861235 -0.19611343407611986 0.36262239797448964 -0.14082561896012502 -0.07489086900181081 -0.2396139796564447 0.1677893984729577 0.24454201283699165 -0.34576835236265413 -0.3453606314868448 -0.3105551118567792 0.4337048628167717 0.06989716291060441 -0.01921192217878254 -0.4735232768051992 0.2100981212987306 0.2949474345554368 -0.08222584820890877 0.16549896550424983 -0.29700555165997206 0.04415310102395983 -0.3007605878022965 0.20375265454768718 0.09712052008965266 -0.4820017467443103 0.042793891717655505 -0.23416224076625383 0.30423750595805105 0.1064080885120187 -0.21529568748710026 0.4097095407553781 0.43890813876139123 0.05078815529183729 0.03351535877577072 0.3780899507799958 -0.08830215711403744 -0.41656351622136456 -0.03314982467534196 -0.3745860689664792 0.24835078558478182 -0.017391508514920426 0.028765034022364966 0.3475717653980534 0.1669336221863324 0.32647725219129264 -0.22074016866603993 0.4170547703836439 -0.42208296760938463 0.016652897945348796 0.030172970004715714 -0.1757841073755573 -0.15893393988134655 0.2691978542804542 0.26377213562726864 -0.07754924359264652 -0.43507499745609435 0.31820196249697097 0.32018665650960193 0.13748089905004998 0.2991246718241069 0.0010593033570515935 0.2922760015399456 0.14417094312314016 0.00391725396171659 -0.44051027451440344 -0.3301221717750164 0.14768055746947603 -0.38038829412652847 0.4879276320816145 0.23343665033028702 -0.405345066303304 0.2737014703375522 -0.17821758735862997 -0.3851940378411745 -0.13227920051608846 -0.4616551689105717 -0.012326543182455319 -0.35673194609035463 -0.28707454211874733 -0.23249262577841182 -0.1972222054165532 -0.14937803343955605 0.39254428552825216 -0.15902993078630462 -0.01273151137648531 0.42023568754947643 -0.48196878062874904 0.35815388403714854 0.454765426100488 -0.10955961481239575 -0.10947703386606515 -0.3220248741177305 0.0961053106313804 0.15397324895027603 0.2847704710447595 -0.4869673288085483 -0.30486059202882954 -0.1569476332080927 -0.4314899727790067 0.08681240041445622 -0.46380041653856363 -0.3338116078977499 -0.013859109890677011 0.4358103001843412 0.13510857695738285 0.03934166770445373 -0.35581745382808355 -0.05845447517457632 -0.15117082695334852 -0.33720170566004815 -0.018023482069267054 -0.44270212659463193 0.09817828282752157 -0.3986129218169808 -0.48854718922937385 -0.4443514092589215 -0.2990118667353221 -0.0025937096722534244 0.3473693549223804 -0.031963419118144196 -0.21736756774827626 0.33054436892920197 0.00316759523898765 0.07461545063901143 -0.18563239726482852 0.3824755465293907 0.3728262398046358 -0.39933674726079627 -0.2754363625624478 -0.23298797525047849 0.4440469022744666 0.4412109283510595 -0.2231776778504625 0.03359614149047008 -0.4126948010906844 -0.47144711655053523 0.33957838512166166 -0.3409621932028521 0.3972347541016107 0.19204286465147133 -5.507626006913622E-4 -0.21156067527222655 0.1605199404491643 0.4763718960058552 0.23757693458279414 -0.37489443911304593 -0.05236176193000652 -0.3770006342708422 -0.06714183280264613 0.12175772705677627 0.31632977310062055 0.2775285023301047 0.2080588451122192 0.1400923951357552 -0.4105745686558631 0.187453574044038 -0.13753451895247204 0.019681756399882473 -0.4268906673684058 0.41009457907172736 0.2910219818791847 0.17089212721383723 -0.16406723544643698 -0.09490694654801264 0.25067442333061984 -0.2813466224901421 -0.373777772942623 0.22115662897060365 -0.2916088309110204 -0.41259656924415944 -0.3373308127594346 0.1929809392602526 -0.3405310645483395 -0.46380795104161837 0.027688962110224986 -0.27408309050605767 -0.3201207670142571 -0.28036453773345726 0.06172077920242521 -0.3425709275477661 0.1750204811329634 -0.4525856268961485 -0.47788213837796617 0.12406139180440823 0.1840164668589472 -0.29797248459799874 0.3602725187198301 0.40325542955720867 0.12071096053150075 -0.16304231759960924 0.2748191647025695 -0.37533856954835737 0.14567396849358324 -0.16588422986206652 -0.14116851540608263 0.06262741666459026 -0.09163860321449589 0.15745203291357168 0.28182228003714105 -0.22674853797231806 -0.10289360793704237 -0.3135711631594514 -0.3990756199962101 -0.15242113552943368 0.4409754481347862 -0.14492637741038425 0.0324190112437457 -0.49091054183969 -0.2639439500737231 -0.1459568495636155 -0.3160401012479908 -0.31906537114022643 0.025803095897393633 0.08424685265744516 0.11009398493283055 0.060145758025347246 -0.4617346535305772 -0.29133244031439276 -0.44107587376376217 -0.16496434234460416 -0.08035592380470347 0.3019975349197038 0.002840890908603769 -0.28083000701425836 -0.34100654330859614 0.42806946324652595 0.48573158422390283 -0.4208332575975572 0.09372957325499567 0.414127280827081 -0.18971250955977192 -0.3072527433830854 -0.21073405393690647 -0.028615020065204808 -0.15422294533120384 0.14982021050727087 -0.40894123185804043 0.399376948636971 0.3059899127711404 0.32252624469410623 0.46905980886670934 0.07585556153841681 -0.007617192560112111 -0.15336719638134816 -0.36081011583859013 0.23114655690814245 0.16466166066763438 0.24732599924618395 0.29238713176404757 0.48426070806980814 0.073935851912436 -0.26418088586302185 -0.4166850375206854 -0.032021965829770516 0.47038575510291253 -0.40303697315143067 0.06706120290797347 0.5261814359736714 -0.19867096491227831 -0.16325000703570527 -0.02685712529489532 0.03330200904261757 -0.32988931376550035 0.09815062507436138 -0.3764023458426569 0.2777052662538897 -0.1787139229057295 -0.4212434342092907 -0.3836016940688122 -0.21441998657367806 -0.20470948364502303 -0.37958306010263954 -0.17770930840321383 -0.18063768711693773 -0.032785378421998766 0.41472656729678 0.40258769999205307 0.292050446398205 0.29447454601717094 -0.25464840430888097 -0.06560659720330185 -0.21838547721503251 -0.22290053770429422 -0.19494351599036555 0.09020234651488294 0.008594256108597775 0.09887942222723266 0.3052397320557387 -0.383465681124112 -0.13324457778071452 0.2915036868795603 0.2084229620171455 0.37989875894899 0.07506268866797713 -0.11603687100211078 -0.08180906554827563 0.28407400267515176 0.1258181625148435 0.2412254425171148 -0.17230928802920248 0.2407102190906132 0.30818202339338124 -0.03894932131572822 -0.18518793696537988 -0.0036294592512756407 0.17552514465005845 -0.11110594072718558 -0.06574366625030009 -0.09722158820165959 -0.46801413213931053 0.008585954155655301 0.03345465742162207 -0.14734783428856973 -0.1467512378917494 0.08309516399989593 0.10310119805497547 0.1064155549243655 -0.13375949366731288 -0.48639932150530685 0.18375184292304053 0.1942039392278987 0.16675134179114384 -0.3486243770578619 0.3406922745367261 -0.09861522902853301 -0.41549646950976615 -0.1246192421422437 -0.46559858501484874 -0.11405436733318114 -0.23733173656411524 -0.24701284896421444 -0.36232984708230526 0.4497266295179769 -0.06604010229137193 0.38938733564969563 0.4376985847630071 0.1973662540295865 -0.23817073221245502 0.02671970288472683 -0.3564510967457265 0.01037450530396367 -0.414994674971385 -0.41465309379713056 -0.36316586293154907 0.17719232131479062 -0.32103439593800526 -0.1275982153389421 0.06453553823307356 0.27839036719210364 0.4529208060264354 -0.47909350205476453 -0.020961347478113162 -0.03293149414630326 -0.3861114400869866 -0.3987034859166497 -0.4664793111448051 0.13048092959668475 0.034821607735799176 0.34422710775574245 -0.30335643207249785 -0.3332021007551389 -0.30839098293787975 -0.06554480118934182 -0.15800447381788754 -0.18176606486855168 0.28924312203717106 -0.10498138028445055 0.4326275562754739 0.39928344137442473 0.4567867439248724 -0.1290368523952621 0.26642142492820015 0.4108595434126789 0.24989116435618056 0.16418962329668146 0.22540735557806008 -0.49099789582208603 0.3582756018588113 -0.465016796238168 -0.3509895033321212 -0.3782407178710117 0.3586917989706668 0.21802297032430248 -0.3826225051307023 -0.4929636953269963 0.09958439259852428 0.09063589249157282 -0.12980976342113518 0.22551803221303518 0.2787152510263902 0.4628556767621463 -0.4502824919238083 0.02144895894638239 0.1780008570192514 -0.3876078106791975 -0.05494145990526119 0.25279568097888844 0.23821927044826807 -0.34017947108203184 0.0505987284065665 -0.4307901423649229 -0.2528010594575112 0.21716507193285542 0.003568853737216928 0.2782853270535792 0.47375881132843195 0.07267469612357522 -0.18461742010437318 0.3222716294117029 0.031830223259556936 0.3563603388324951 -0.07556832515767124 0.3426914670694794 0.2830467655711771 0.3449465860854551 -0.1697264564910953 0.08069193366691564 -0.4240740946730258 -0.2654169410682589 0.09784809117091195 -0.19828865133248758 -0.4114563004871974 0.30598815599481916 0.036034525324044005 -0.1474799995278251 0.13950912652939346 0.18165833872954942 -0.3975751649449163 -0.20010476493231752 0.4576965732012506 -0.10020331954910346 -0.3775893557507637 0.05423053430823857 0.10604566162415019 -0.1682636591433843 0.4849488558697298 0.11671532105986347 0.4663262558686423 0.3603516827076416 0.22671000293890756 0.3793342187153449 -0.2598549644080707 0.12043327701233623 -0.03266430590067524 -0.2139689626620565 0.014795259202093871 -0.0707829980566132 0.2915768640626991 0.06810552654540984 0.4985344939824824 0.41232506212115605 0.06819928013308899 -0.12850093765028586 0.08075543469420896 -0.3639599284259924 -0.4758782654304102 0.12296765306696757 0.3154571167493409 0.49707634888233243 -0.3798073214586126 -0.3148768101584987 0.22974159555696644 0.4890985230976754 -0.27904510233244106 0.33385880844899885 -0.3010072469784653 0.26075900812131747 -0.4604847680103247 -0.007775262239772878 0.29353333280183497 -0.3532008123575718 -0.21983873296580686 0.3539310618047879 -0.2758655457548809 -0.038850851749731796 -0.41880523178483925 -0.25353883087101114 0.34898770446297056 0.24082920237251376 -0.09049474571438014 -0.15745665972438205 -0.3253940650831787 0.24049442520512135 0.16991112284393567 0.20329654349900222 0.1629850278299917 -0.27584379415227345 -0.33341968546355577 -0.15010209151614876 -0.3479287612691148 -0.25472480789943663 0.08303796259411236 -0.18149370407627324 -0.12319648970316432 0.03206730722984282 -0.3525526762019133 -0.3507549312217817 0.30559606750015045 -0.2752467430874452 -0.26139962371888953 0.05331500302830291 -0.4263353229408871 0.20901450716993264 0.413786825097916 -0.011557166740429184 0.001137621824973309 0.3998045643058277 -0.15344105351285212 -0.14791469630444978 0.3355610630193772 -0.16102978001870752 0.3295990270146823 -0.26327115660537875 0.42723003110157504 -0.26417536660593083 0.32763646153493425 -0.12670199309948338 -0.43055521951101905 -0.37723734517927393 0.41670180823727127 -0.05880395733590976 -0.16620253056619774 -0.30801111071866677 -0.41037517150866737 0.3456919268508142 -0.06346811818540442 0.14569580244990554 0.09156949219262657 0.4281777897560382 -0.4644219267101818 -0.42825042575476413 0.30029304271452 0.0526276554691718 0.3175924435536621 0.25408989384219466 -0.14191239160965005 0.05988920368924091 -0.012245834234889808 -0.15570621595461073 -0.5081992386044842 0.4508323685781719 -0.11373776966125225 -0.057901375077239685 -0.2600973154664484 0.32263428637109054 -0.2596778809820765 0.1899227333153471 -0.03578542435355161 0.1223977515785758 0.2843983603093007 -0.3746725247381758 -0.45691603650669727 -0.33611372538091 0.26817815372342635 0.18092495806668882 0.16998276710022994 0.42472229040747667 -0.13281977728779473 -0.09989962562119345 0.1403450028627173 -0.4070343920958524 0.21342202560462503 -0.23219486181374857 0.4334111620932393 0.364565921564346 0.3078173234674282 -0.4744179704195992 -0.016747609825614844 3.412028704844353E-5 -0.4534443403067085 0.042884668203409824 -0.26638202864084287 0.4482809038793673 -0.4087828073625529 0.18286872536785442 -0.03194828970571552 -0.02674480868701611 -0.06278723138762153 0.3507262345180196 0.3737796200925228 0.2736476758705558 -0.047830466762718904 -0.10606858931353184 0.15241174509234828 0.3616621641511687 0.1633672902539376 -0.13353051785868636 -0.025614090614477586 -0.41102500967080235 0.025155165501678817 -0.3949448851624694 0.14022358331914542 0.1294120688313945 0.10250471830387589 -0.39705551168194103 -0.2664501670074567 0.22398256258002117 -0.46880133984992073 0.1352009707061971 -0.224474356075155 -0.36058682218930177 0.28905927030474915 -0.037439798051749185 0.1667484510061482 -0.34055645646328747 -0.4193493627706835 0.34534726889082207 -0.2224155057562666 -0.38518115645349227 -0.47919551349440687 0.39051288494432884 0.33742567171977816 0.2161207447453595 -0.46346842754849865 0.4463313038200663 -0.5015100559373813 0.017715849441718775 -0.1283948337726838 0.14920166955279862 0.4747351269890226 -0.16414469477979296 -0.23407967222760537 -0.13695534719117194 -0.4818681197907161 0.13567376214835586 -0.1131394701204252 -0.20469107101939707 -0.21330775353815676 -0.018276514309839915 -0.17239057764829013 -0.3972468492260849 0.176140960106468 0.022153609514282652 0.1065856529789661 0.02576489737822285 0.20818869727032008 0.23021919477425828 -0.008559686288776139 -0.40475607794314844 0.2909166322520174 -0.28495535570710534 0.09848246219237566 -0.01983059324913161 -0.13299511900498331 -0.18868725582821472 0.0785505350055527 0.42535143366626926 0.2191140739614298 -0.4195723609541299 -0.4189959380952325 0.4013790606670124 -0.1920453390887148 0.40421248988939185 -0.1518924165565586 -0.23028123345811147 0.21107179327137707 -0.19058117967656696 0.2861814889012159 -0.06301491224303923 0.31372140048676744 -0.0630703206354592 -0.06402432485163609 0.16719923419305247 0.2198631452092121 -0.28368644546630145 -0.372818984014616 0.2859808055096816 0.4784362396344291 -0.46321816241320607 0.4608484972072001 -0.1276888556344209 -0.006281398444110353 -0.4368955708571901 -0.17216625753761755 -0.2419413470216591 0.31033963245779045 -0.23808619366590816 -0.2498849637316426 0.3700145561795816 -0.3974117821306791 0.13114001038439185 0.23908495740937472 -0.39179020169011863 -0.4653351951584962 -0.3259339029596756 0.0987470824799178 0.41434286102716417 -0.35617237944726066 -0.040688128121898086 0.4521224903581196 -0.33854111899092937 0.20432974927045255 0.2911465959992858 -0.3019200200638059 0.44889408286640986 -0.05040708682395145 0.2728518741725003 -0.29661480466104373 0.0910945549517591 -0.40672284754563287 -0.09054675485264992 -0.3357776840196397 0.4116804192648777 -0.40559849087851174 -0.07562957327064322 -0.04931586651110313 0.019035468184215733 -0.21846353756723869 -0.3025541515171889 0.3890669542926951 0.0578705012812862 0.21418993574962458 -0.4007464678567843 0.39282957364730064 -0.23001855129679086 0.39728931941838386 0.1558027394077643 0.43529849852187613 -0.240418472435017
0.01755419641836767 -0.053512304247582354 -0.36691761258816535 -0.1322786011224245 -0.2310277123093161 0.04042210123602319 0.14065968398177256 0.4337581779213867 0.12491551786032312 0.48219739762829383 -0.03632239136308499 0.2668252585043397 0.05515850002881965 0.2633529924031771 0.09730242670937558 -0.14079750451521722 -0.24765709471543504 0.4038832134182739 -0.387853340889903 0.48737812376728895 -0.4527934711111946 -0.43683602263043697 0.43145089075619303 -0.09892289874113737 0.4384763762384908 -0.1837390144543105 0.49267308461597636 -0.01850136165627184 0.18373709921448003 -0.46342993473452665 -0.09309580594134395 -0.3276667417000457 0.4449410945784818 0.2735808857883103 0.013454860207745346 0.0650748692470467 0.1586375841733786 -0.10288235089977815 0.1040433942869742 -0.1408475401175513 0.1250606488860847 -0.43998493712647935 -0.4046510678387324 -0.04036048802815617 -0.06178630557642195 0.4468879533822488 -0.2754496678105052 -0.3366034146242777 -0.16727313722926104 -0.02740838710087523 -0.3382403489943785 -0.46126224306480546 -0.12336955524949497 0.06912750758902234 0.4821933938173807 0.1671480482403468 -0.2687879035200744 0.37390423619480695 0.1099992703811132 -0.3312065902581959 -0.4647907337547713 -0.0902479183354038 0.22796372557534428 0.42059694311036216 0.217634194604598 -0.3456008153839451 0.5113995027278013 -0.13372877112266857 0.0745925001458557 0.04104393942900292 -0.07368242065155808 -0.10861842667012081 -0.09029151673495817 -0.4216289086134545 -0.0811509110093745 -0.053751911693862175 0.16926996630951535 -0.08512213407424875 -0.07055817990892363 -0.1414662905105455 0.29051652890436813 -0.3425324788020459 -0.4564365091623254 0.3810812226011773 -0.36626982868834396 -0.07455968119867329 0.019431834475200777 0.17781992647882208 -0.01786678096561656 0.4661383082067794 -0.29736313510257945 -0.22107489008850012 0.41831193576487363 -0.16388579988623356 0.44392571683078086 0.3880456744948383 0.40010350529454314 -0.3103337104258021 0.2468619865594352 -0.08566229489301945 -0.30659671212435646 0.4358821671893213 0.34095634748604897 -0.1398703450637236 0.013603426843905253 0.01978779856104191 -0.015700536331721564 -0.17159785842272518 0.4166687057511465 0.08024970809061775 0.4876627314888392 0.0644461087753884 0.3113101947619885 -0.10872589300017542 -0.3337314694389668 0.08897276159736388 0.2334879992398114 0.18512901133228893 -0.23314894218167603 0.3469209842604325 -0.28775664942882123 0.03735827850374893 0.25176357162439866 -0.49516815684883864 -0.020457912798049913 -0.03324416784466479 0.029282610583776496 0.3575307606763236 -0.4159563979434712 -0.12112888764670046 -0.3022221452609302 0.2770322959409643 -0.08845378543813211 -0.033702162856107006 0.4070642713447103 0.15204440400744412 -0.0960920694353929 0.2697657693427366 -0.20041921170724114 -0.09842226995010993 0.3801941343541437 -0.12413295333474798 -0.028018761542053326 -0.14952855779213842 0.21172275528546683 0.3866226731335189 0.23289238001189724 0.47342151769175633 -0.20766225330845578 0.003083616324653699 0.3748304804504908 0.03117934105952068 -0.14146322578006273 -0.07943456560382703 0.18243992169484158 0.20566422663203918 0.02150366729479971 0.4148061871714255 0.02733614928355769 0.46305897449361055 -0.2754548778376209 0.026440076921667412 -0.48958464969247173 0.34302614624365235 0.35962691824889753 0.2537764957195132 -0.19465908537434787 -0.29448173627930396 0.0446446983826106 -0.3952784667979308 0.47444879246876426 -0.23547773508917214 -0.05810796619250351 0.12719814591125067 0.25030275154829706 -0.10665337895835565 -0.16888196825215637 -0.3261511218449424 0.19812429933190018 -0.07269918374208259 0.3143334471049231 0.4812256558910915 -0.03221568139636759 -0.36492063287408477 -0.03012520324782645 0.26380196803390266 0.45734433264045904 0.005214735420882524 0.13298322300030913 0.111137285155369 -0.3751282764805794 0.456747119431453 0.35548058842221913 -0.11875305886683978 -0.26108872432420577 0.19587150680724186 -0.2863318860757406 -0.4090544736700864 -0.4383876007390752 0.12640029258865396 0.23971246644883717 0.353626410751364 0.2537240516992733 -0.11609381517132483 -0.4461125365758184 0.07407127170964294 0.2860230093327651 -0.23142784827490154 -0.22182358919656187 -0.06361991407786735 -0.4724998360327895 -0.08966128052150693 0.01996325165467001 -0.3429054738194222 -0.004803199986258422 0.2980117851250495 -0.3015010083843484 -0.21753851486887954 -0.015679802239071897 -0.17729236709596358 0.20334909717978977 0.47945186358718467 3.747524272214075E-4 0.44380758130692055 0.07439126528361895 0.04918176701331456 0.20436492131081202 -0.1706747437401011 0.23531429409217774 0.14189330686050722 6.501672955801979E-4 -0.1122230825267962 0.08392394335346129 0.44221428022734327 0.028406627957779353 -0.2501468826336911 -0.25292663795576986 0.0685865059320229 0.07627226383265338 0.36251135307674287 0.12801705465134905 0.04194609624079274 -0.19495574041167496 0.4209507461359049 0.1465357266318642 -0.0888065259526952 0.18252390067562285 -0.4246764477370567 0.4236120511965949 0.3379709473934364 0.1353127365980856 0.30620673052836694 0.1665193093149773 0.3405510880641505 -0.4685507455655122 -0.26130147944803317 0.3752727099989818 0.20564065868283204 0.13694003424228376 -0.027095496544954446 -0.416973397159226 0.40278709618159964 -0.11755423220079074 -0.23451693209907068 0.004451853674625592 0.15667869181195576 0.11761422004371343 0.08073630172711856 0.05574753251203628 -0.3834103229939601 -0.10104846455882505 0.19034654347773333 0.24268211256604497 -0.1935900176871732 -0.07867331025855785 -0.09195243655021328 -0.2448687338753586 -0.4741313037454833 -0.05153210256741081 -0.08351339550630388 0.245197412413088 -0.19838699889497124 -0.4025877569039204 0.3170554264591704 -0.049850309465922685 -0.016741686724725216 0.07280489453257304 0.11516903304197436 -0.4078035963828111 -0.4828342433833578 0.12116725257898926 -0.03780610873032723 -0.2374711290960907 -0.14396928815189305 -0.11712444248126368 -0.4434664172242765 0.09950101334883191 0.052561255648117144 0.14714457687398005 0.31791179598504427 0.09694977400334573 -0.30262050194486145 -0.16452799424663145 -0.4536972464588069 -0.0120233070785484 -0.38119940023749865 0.14706055531613416 0.2341020365619821 -0.05946433373289296 0.47876777020657213 -0.11284614385612075 -0.49742331142314483 0.1937783343097195 0.234858991758878 0.4952241678267087 -0.48126787455130615 -0.34349128940611995 -0.3519677424223823 -0.4224020912744103 0.10047096165700281 0.16268995593696986 0.2525290691281422 0.1842620835799437 0.011118797533314401 -0.46618404661765267 0.017950669290459298 0.23358012279665896 0.0689854026496168 -0.3691458272580396 0.21522844851888506 0.2853073256379891 0.33468412693731303 -0.05547028490670222 0.21303385978191028 0.4996814414459119 0.17254651715242897 0.05295166610303383 0.17807154201834172 0.38672112735901115 -0.0473219801509098 0.217465761735488 -0.43359476552755705 -0.4025548006110073 0.34554927631999766 -0.3869957624030882 0.18324857250385618 -0.31823143224892086 0.33639105805653696 0.20389915030076325 0.10876326878769246 0.05633504694826265 -0.31603956160122265 0.17301862320476244 -0.2272006604414689 0.23411638997145282 -0.4343644141869286 -0.1163554577152899 -0.4096350827685613 -0.3216393894052236 0.3883949069728356 -0.4896943677138409 -0.18842903943685382 -0.2938837120585232 -0.47798109385564314 -0.32942773521248914 -0.23728321086575233 0.012691614564811448 -0.16854702596216445 -0.40857897418828015 -0.45643929187842475 -0.28224162500703 0.10098800924979189 0.2273393904496075 -0.24897155686181174 -0.24427082699560979 -0.35489463333080307 -0.08212873763409267 0.2700534689914013 0.35843138403021985 -0.06604022202625466 -0.14152746284849851 -0.41572909936081026 -0.39877596646229496 0.26093188925681676 0.09754707888665608 -0.28528396288716945 -0.2907440687635057 0.02838225044901889 -0.1969538352102111 -0.1490619627556631 -0.3735363144845963 0.23542630072316018 0.13095320917446618 -0.3102767571990608 0.35951369008366907 0.013549814061056698 0.27451163102580495 -0.27838834715496136 0.28587162988320086 0.48986237026256185 0.13174539864229873 0.45835244162549826 0.1587353967709952 -0.273109841313869 -0.3502492506625807 -0.3779076902751821 0.38893123628751264 0.3790637093659456 -0.4714354247339781 0.16588950379571163 -0.11683441486767335 -0.3099124949786583 0.33148664040022763 -0.13618592220271827 -0.2265945611129027 -0.2891640759567167 -0.1921431013606272 0.30159518738940044 0.46125103237973913 -0.3024038215242897 0.41564833826898273 -0.4928378573340945 -0.3846292975499599 -0.2365277602730011 0.45656915410894877 -0.48190971265009364 -0.19065435566052352 0.1136965888553537 -0.2657227960181082 0.42825950034606164 0.472923200721412 -0.38517036036197766 -0.29527637864122985 -0.09855375037468103 -0.3280117099215675 0.12406901345059299 0.2818710423816075 0.40111794580901783 0.4381177341214525 0.12625119114105762 0.03428679051301469 -0.43710408684296526 -0.10523556879308048 -0.1355376344498641 -0.02428148721035653 -0.2659288327601603 0.24685302634756304 -0.13204682727923098 -0.18866683385136124 0.16649494252826194 -0.09249822634753488 -0.05580314862218407 0.13986156716484163 -0.4891237970658035 -0.02371965640458981 -0.45809179457478455 0.343095642956968 -0.09692613205535977 -0.4413692290383674 0.14552015577355468 0.37919198448603286 -0.2852089127348318 -0.2732217113424886 -0.4283906576135931 0.20009491588224065 -0.15836226936480058 0.49485599320396795 0.1300462077446199 -0.40430829577648664 -0.11504074605401927 -0.38648774975574085 0.18626420024393972 -0.3312994463397695 -0.3951168414935809 -0.39145434405928664 0.34731291769205735 0.24967933060921713 -0.427565111440127 -0.30919033519307215 0.1696944175835052 -0.20241206745094364 0.2009705712767162 0.42954479037795656 -0.3412404008039314 0.32830907340059456 0.323072641065437 -0.24723869461855655 -0.28815416317427095 0.08643127870674339 -0.01676887013867373 0.46670044509063274 0.41276743183020537 -0.5004034762581689 -0.2251747522748299 0.20406863270178036 -0.4706097579247042 0.007554989912638938 0.3198375739996074 -0.4111456570207809 -0.3831065033170549 0.2780146733542745 -0.17382035906163507 0.3599847025447773 -0.04127291539000902 0.018773777128336024 -0.48876509998108786 0.4189294620491384 -0.15627105688346948 0.46328247727267424 0.27112722026875474 -0.1938212047103238 0.5057746504825289 0.37287744765768377 -0.3532364647626288 0.07042408619647471 -0.051348257986203155 0.041448287886676115 0.3755471055329336 -0.09543414875453683 0.4912984707408053 0.26063988983497993 -0.016101090269916615 0.43640382461748783 0.40479216165745385 0.17515137562589303 0.013260454538634827 0.3174102781501613 0.46775441515686056 -0.036171754609713565 -0.22484279327485787 0.4766819667200301 0.37568060430716244 0.2183971734940803 0.48518618562379623 0.23315769548122972 0.4296485945260908 -0.07171985244644064 0.421430040549857 -0.21335879309005598 0.3396737528079383 -0.24174258762117648 0.41059434623792246 -0.20741480949956895 0.45546216864032935 0.06690948340587556 -0.2995772937753796 0.3366355032177218 0.053683897586369364 0.018722550251938933 -0.21180400423241638 -0.2730146587518568 -0.06754568535321132 -0.19437250351603358 0.44540145460049463 0.4283960500091631 0.4219345885971964 0.3812219820067502 0.42991165621561805 0.1725553565576596 0.4029609885086191 0.3985829561183475 0.5008063502858247 0.24363277603002717 0.17962972315249798 -0.3479790912946458 -0.4689922760203886 0.4265568101269506 0.13700475112387128 -0.2782738546322976 0.45512916789102076 0.21886555086131299 -0.43423540025443425 0.3067507504772102 -0.4531748414349197 -0.07989452008359772 -0.32151312324788467 -0.37695391393723404 0.03031817446569436 0.40229368947284094 -0.45530542439885124 0.0700632259457053 0.21552243156080556 -0.4780566278175358 -0.19724503153130565 0.30427168398266524 0.22924454639773623 -0.35187358091148563 0.17063075147600504 0.3876193909031844 0.10497740952593662 0.3956217733278284 -0.02590492428288422 -0.45756968123601754 -0.4615684789860033 -0.21077730748186022 0.013878458808312486 -0.437425094836067 3.5416331912692845E-4 -0.37995754335342025 0.20430913039577522 -0.3351607453616789 0.15560610231395697 -0.3198696361000997 -0.016424696057733033 -0.18025762663139072 -0.05698910145053746 0.36474666215198703 -0.4956724824211353 0.46026222312307363 -0.157855652221825 -0.42606703217889685 -0.21445240895306186 -0.44610088758441596 0.18983358497907582 -0.45505530501090186 -0.11553527539941397 -0.410473567840568 0.1705813424716958 -0.027677219795664496 -0.13451047160503368 0.29272741611389524 0.025680162691541244 0.051134951030483586 0.26608067767706617 0.2083532964993815 -0.3370900189842526 0.3853466976308337 -0.25510123743835794 0.36031146048128276 -0.2570178895505228 -0.056690098294908516 -0.335827636263599 -0.37910613949513333 0.10782853146454321 0.20744224049447027 -0.1002570146042139 0.2751764890267273 0.4504130596500695 0.3909731314433154 -0.08092419111201792 0.4493594126980799 -0.18183403542508342 -0.1975770496691867 -0.42333666109145723 0.16533772806106417 -0.43243110519357364 0.19361459310778076 0.4127968879152712 -0.4287821428882428 -0.2684544104893864 -0.23316593172360406 0.4686038737796618 -0.09572063842093824 -0.09115516057521886 -0.08107463663280406 -0.30955205480764003 -0.39150269734558174 -0.21588834171788476 0.47760222767939325 -0.10977417446168887 -0.18689601615314475 -0.06002470432224009 0.35996968509744415 0.1138163723532261 0.019718854075983283 -0.3717070595391625 -0.34830203269725324 -0.21277301807973817 -0.13151530097479436 -0.3118117825754487 -0.3022148968609888 -0.305876469253579 -0.03283785822566811 -0.1969597331374685 -0.30501110876292603 0.1384406857191266 -0.0483289526863939 0.0466487544909253 0.38772621615448305 -0.222117505090213 0.27334933346004836 0.0508442150199023 -0.3017751867056124 0.22184334883025741 -0.12371052443120291 -0.2795858887257997 -0.042384909092245404 0.437662958610279 -0.4662983796629364 0.2682229821062005 -0.4038218887848614 -0.35801458743724257 0.16961421756421735 -0.008862335864020798 0.2271248252547029 -0.47041923314483497 0.09455483918152219 0.10411932419377357 -0.1355841087610943 -0.05769369177110779 0.23920755873443633 0.23232669006620754 -0.007501674785111133 -0.22464812972838366 0.07160264873574927 0.3314438220308633 -0.3887799253792793 0.27875963949844623 -0.1721546908322142 0.37919170562038806 0.32550760951272933 -0.45589149648250665 0.16638082546076635 -0.04857526974807025 0.057193008154235794 0.1670798555180012 0.004865610403464873 0.02593977554333489 0.21842087328658313 -0.05993964211353578 -0.257402867189731 0.014621107246837961 -0.2471776691281231 0.24869163164397157 -0.39258635827412897 0.43302084341486546 0.015271969205161499 0.32258309774753535 0.21874116370148586 0.21336261864596795 -0.05330922059533564 -0.48726296430727034 0.022815649376997902 -0.4396779205225054 -0.04914621287428804 -0.046983675527738536 0.06305089663634725 -0.43033002899155254 0.07526416308461299 -0.23063048491151783 -0.3326760165403202 0.39029381233990246 0.34999437581367837 -0.3708994781902638 -0.22583857220016743 -0.0532448242614193 0.18914861634545393 -0.41487008860114066 -0.15134070980785885 -0.21103719019563535 0.4606506087466584 -0.45402516146936744 -0.4699229494140063 0.30202033402333056 -0.08301328861196584 -0.44691162884733826 -0.09367081767370909 -0.4900634294738304 -0.46900119179378064 -0.23070050230075775 -0.30963610348962883 -0.4334027815015371 -0.09377481418237316 0.22321536043858414 0.46216062851883816 -0.2988327669539518 0.22512928230333973 -0.14711029007783658 0.28172043724554074
0.047291422608190734 -0.47413659665313634 0.4136751682086945 0.19303685694651387 -0.49479001599279854 -0.5066378465303983 0.15438394592204277 -0.2499124439239876 0.4464401312116024 0.26696724272187966 0.22326918963758288 -0.1477628162260385 -0.3637425199658924 0.45342103619868446 -0.20398032182043582 -0.1907782962424713 -0.30999817844626865 0.1425194962519361 -0.22669699991393044 -0.2464433242280174 0.31149058295314913 -0.4544360216215827 -9.379457173365333E-4 -0.4573646024979874 -0.22873444998774617 -0.4063729133162174 0.4530165793733285 0.18825410279953958 0.4460223283313259 0.45933320914598597 -0.1103426683078464 -0.14785972671330794 0.0022364618235248177 0.3750074090134108 -0.26225645959969085 -0.2340508823581272 0.42428290254035517 0.47560690903653113 0.23350091103886783 0.22093172825327884 0.44416022436854424 0.3763329939225977 0.03044039723553706 0.06760649966942645 0.2697356619757887 0.12045146045454945 -0.017395197346537532 -0.4933651528806553 -0.3573152945045553 -0.024016272697709784 -0.2192757154422983 -0.42646309290568923 -0.23159868393852848 -0.1410367218789903 -0.24387456991702539 -0.46272823958322007 -0.42876529508595446 -0.38796593310327615 0.14796423949329537 0.3503311879222092 -0.25636106034440626 -0.03159427364239342 0.05329695036495684 -0.2088023711267803 -0.21860434639822265 0.37178356876879637 -0.12675676660956214 0.4412954589357799 -0.1716279303652856 0.22645050670001193 -0.4401656425358158 -0.08705018061719359 0.3257369801885861 0.18372186880558805 0.32020954168283383 -0.10426009747572208 -0.26073103415667037 0.070723823278615 0.13257254114544595 0.36503438395573184 -0.34914152390485337 0.13803540046243265 0.43110975832767046 0.49949486135077714 0.29739376901134396 -0.061143490907779596 0.1056972550322954 0.05846169940703377 -0.18770758320631614 0.17723324229622173 -0.45951345121033077 0.21593295178908434 -0.4106800765020758 -0.059038842341172106 -0.3202481650029036 0.4640336237873814 -0.011178979084553535 0.47333324593907716 0.038035243655176194 -0.40861082748538197 -0.023099060525260465 0.2733767808977818 0.37877059370144084 0.2641218483727549 0.3523447543448839 0.13054949629308155 0.34174044562297 0.4678811579313426 -0.23700503803020434 -0.27854353974438983 -0.12320108366510929 -0.334157431480448 -0.1344168791887542 0.22247858091102182 -0.26887714641931826 0.25602580400065605 -0.37633265719458003 -0.4697387813405964 0.2647299079364779 0.07769930151609988 0.4154708493051542 -0.13007208832177242 0.10170902445468127 0.31227356863912187 0.04421726410756529 -0.05883651065456265 -0.20515607313159376 0.39695239505529784 0.4520096310226316 -0.4296075031103355 0.367355040790742 0.5141781742448139 -0.13882122246030476 -0.11845820125686932 -0.31571846260305925 0.22563746734410978 -0.5028107160949087 0.3325168877730775 0.2659289679886592 -0.4155963191710731 -0.46606230485140426 0.2801192614668906 0.44373861806331283 0.480341729870817 -0.3392686869417302 0.2658485465429503 0.05505382668583072 0.013708818863341717 0.17532091322094895 0.40255091112083413 -0.34445447229750326 -0.22291918997381707 0.42990990972435666 -0.20334611232516908 -0.22465629821410388 0.3098907828892283 0.421152168183672 0.37161698219920924 -0.28857714358899583 -0.5009234605161829 -0.4308249085792891 0.1454613652318589 -0.3106891707770425 0.28370612697818914 0.1173174649875347 0.005996393784430489 0.3734762163818916 0.40904951939862444 0.4408597260677163 0.45257129569288673 -0.4087054934596979 0.4426119707848541 -0.1412603934575626 0.29761927587638437 0.17410332867630768 -0.3625091174016655 0.18495991961966143 0.2269509414922085 0.17144622705269683 -0.18554577233539243 0.23342065857563662 0.20103334628077837 -0.4359298404524877 -0.24375787525552592 0.1493361632127952 0.03309437540765366 0.11051388951586036 -0.41035685080682366 0.2738490676816993 -0.15990456181054605 -0.1712738988462267 -0.2546353162653644 -0.43153863594987163 -0.246953786639224 -0.07895611802367551 0.31755647426968997 0.4159617851888496 0.14728341805761638 0.00988288142846246 0.40627262054070046 -0.1315427956391312 -0.22752443871992453 -0.05769110471475329 0.08321900450705857 -0.3447533316261064 0.19201655510037471 0.3962253348575781 -0.1815289848903063 -0.42277507609239723 -0.08615195431083938 0.3543557404484515 0.4152749422985468 0.20947734141087618 0.3690680239581515 -0.0690914466107182 0.4768706278500048 -0.20714080304569607 -0.12154350691681207 -0.27797683327644135 -0.496677271812406 -0.15366436831090252 -0.1514962065616802 0.24909577453850285 0.45538671608351144 -0.08693155659898898 -0.13779978112084212 0.2735593905804374 0.38914548506266194 -0.015329018432905284 -0.3862505011070025 -0.15559231502154108 0.006549582111864803 -0.01483065823390312 -0.10329228552805642 -0.33261422874589175 -0.4219001817727555 0.3086461220836313 -0.18691586299248922 0.2683137081394561 -0.33860697683845553 -0.34404834770607606 -0.0557932784325096 0.18349368528435472 -0.3635763115095962 -0.4647841334741881 -0.4028357941267251 0.2854357995987426 0.14771839073540227 -0.08026673461169884 0.429414667593886 -0.23720500023104676 0.019405960993689915 -0.02729747834046837 -0.28496031148602297 0.2665981866349113 -0.19813922858092814 0.17341813677370896 0.2674641066326197 -0.047517565435135925 0.5233768696950373 0.38297236060531387 -0.1146724489082429 -0.13793925076712302 -0.46601986243690596 -0.4121087419390544 0.4132331783700262 -0.3096650598243309 0.33691670412447017 -0.3102611429534396 -0.4121891189415589 0.05746808062214217 0.2191688279412785 -0.2864007379189147 0.00495539401221583 0.06056196206241909 0.2515547945153867 0.4097771717743543 0.4142295837810555 0.19970296744927843 0.22701005622080558 -0.4096049482849093 0.3957256207728944 -0.22639696569291093 0.4052866875969044 -0.15914339397920635 -0.4279906973432857 0.40096641893264023 0.3268291440539227 0.016701498391612328 0.3642693319947056 0.13025155716192313 -0.11614264544686033 -0.49715822969859597 0.3673658653203999 0.29896242271311113 -0.3827246727554112 -0.22534193243230405 -0.17275695582454148 0.293819062700875 0.42790033925792753 0.2239420118343466 -0.1429049944426671 -0.2878793132579138 0.14306059849904282 -0.22971893951965452 -0.4418624252735654 0.3646643690755707 -0.028165019662075904 0.06149996162686661 -0.14765752952727126 -0.24302125299609298 0.05671993838024851 0.4810218120473047 0.4065627535136294 -0.1542927239703237 -0.2684115158126186 0.4105798968969552 -0.05676114081150553 0.058954335979119324 9.136933982509859E-4 0.3473790505211715 -0.2342716078860626 -0.0037261270309964976 0.0733544852875874 -0.08287401858949493 0.3934906163128791 0.3040605725592915 0.08198283568885625 -0.42658091620234767 -0.19661343655397068 0.3845828404037824 0.37037923996412664 0.24593795898630952 0.19941199748791275 0.5007626921632586 0.282130427471418 -0.09879029796089281 0.49564135142507515 -0.2820807047532338 -0.30044115757156414 0.03132658925312313 -0.24326204332061147 0.37115656328051316 0.1299560485868482 0.2755562788224157 0.1437261528317974 -0.13541102337516916 -0.11674445942700118 -0.20271847226565284 0.2847926040131701 -0.34253945741438574 0.01915462181944693 -3.4049536935117753E-4 0.360336626293218 0.1872257713249467 0.40237414373322883 0.4361277390789851 0.4027357772260995 -0.12985481747762795 0.49733458117302026 0.3701753683907187 -0.21759776757452637 -0.06599615819306487 0.29944517602439713 -0.43890083811009134 0.36841921426829444 0.061082311079848635 0.23868721117301694 -0.1899511319913862 0.22569835325451085 0.48137090955081663 0.4132661621766269 0.007795303211355392 0.01966311143876293 -0.0995922375797649 0.4341741685557459 0.46861356249625286 0.046927476997246545 0.14717011363551646 0.457371305595898 -0.011667238095157057 -0.08403801863851929 0.4630122272298965 -0.15718133994137398 0.37526836713939876 0.48031154420416095 -0.49894727514085724 -0.2939096637550257 -0.2365453114535962 0.21771170763939693 -0.033970234939609295 0.16578803377203977 -0.28883489658789213 0.4791387355948744 -0.1266985761723659 0.08639828281647448 0.3415968281589609 0.2496123202441745 -0.3284343721046875 -0.32173197015686295 -0.17263670859381594 -0.031260085430690046 -0.45312967489230466 -0.4482797720260762 -0.36157046969947837 -0.00265473179955822 -0.14988676902153028 -0.03260286524688711 0.268702324118235 0.29876243946488173 0.26878114754811977 0.38363450828530443 -0.16619227502810527 0.04817796995306606 -0.002882034275804101 0.1157543271151599 -0.49069822655742235 0.1269883746719762 -0.30505897087912887 0.20416264996451813 -0.21797850501553523 0.09907107328897931 0.03787144606696516 0.19075734967465321 0.4510680261828452 0.08805776133844125 -0.2713659091861938 -0.2601065359298602 0.2064055949888969 0.1287541996130632 -0.3426097309331954 0.4920391196714595 -0.006099241244634255 0.3384640525513826 0.32925604581109275 0.34027543819124767 -0.3146942727186054 -0.3529385750792952 -0.007007381847158116 -0.3797600506797213 -0.26732735796270535 -0.3342393128951856 0.16927563995484396 0.39339407968938334 0.3458176888802651 0.34885863037365705 -0.16057619129314557 0.22500302026762167 0.22571205767933006 -0.0836353045242895 -0.3120732686680483 -0.28515325012815324 -0.4330486031623918 0.4345296163579611 -0.2981000986980898 0.33606917293543975 0.0523564499198566 0.44914846530430663 0.08651805166741039 0.3961921637030775 -0.4130100339649842 0.09636087608105756 0.20163128735061756 0.19020138337107836 0.4005832688134651 0.14148640430783202 0.14723690444595916 0.11911868213909414 -0.47440547149609846 0.32862230526043024 0.20516375367772363 0.24958954545863177 0.294167747919983 0.057276565776187005 0.4390757071298764 -0.1001038171855008 0.038213267988434045 0.5042626429230974 0.3542138718866443 -0.014818872391467489 -0.1841606082172591 -0.13979280823176313 -0.06443485062570349 0.11219031978760016 0.09811398658987888 -0.07926855122109802 -0.43462843728291994 0.17503427940144742 0.0972220984859492 -0.4553904665838436 0.007405392885860149 0.14748530435658236 0.33960126247297934 0.12387693302554888 0.28917911758987613 -0.04142926092260104 -0.168467512588218 0.31078548508133846 -0.43992427017814595 -0.27265620298350574 -0.29454762873480955 0.38122950265901023 0.4586223318893562 0.1366981829696405 0.4807544819813076 0.10737812576853446 -0.07544776604051914 0.17474088598280257 -0.21432607192429323 0.014146586809976124 -0.27438515168856076 0.33171419657440787 -0.36216883907826913 0.4736329406297956 0.2116958223421595 -0.0022082612898458942 0.08269244392202285 0.22481917809825394 0.4845964287314266 -0.31655255225780937 0.18121161832864915 0.033914115196281146 -0.3710074585966634 0.2779113541842352 -0.39062813296655086 -0.2798564785270934 0.06686648870760276 -0.4895489222901997 -0.20033453386689482 0.36802638721952374 0.327992646920512 0.46729612983927826 -0.051750422996639886 0.3930652024260079 0.11444557846451961 0.37498762305620503 -0.2666508245669941 0.07044644120974482 -0.3296537247364617 -0.18721679184267148 -0.26751424487109604 -0.4410204552551665 -0.46391425140147674 -0.21688039931488215 0.21216910536334474 0.30266454028876955 0.21878136466903508 -0.3461251327344358 -0.22722831910570332 -0.42327875974874174 0.05655427051042067 -0.05914525514498165 -0.010308161755701853 -0.3549536448277098 0.2782697871043555 -0.03179449146315873 -0.1901654457801233 0.3646359223618177 0.13739933631180937 0.3848345701549084 0.4593546388148138 -0.0943972811510497 0.3445450748178224 0.17815230760693576 0.28677768293399114 0.34630739186785003 -0.43799389633520847 -0.0914141263928975 -0.29787047886132745 -0.2963898186458875 -0.16992550075573462 0.12621997772527038 -0.4806507781281533 0.14722775916867284 0.2913100880089542 -0.36961150963168615 0.49485087767187325 -0.3651500769920469 0.027590409895004823 0.18516574709715186 -0.4957893514338413 -0.38785954984817594 0.14624893287811028 -0.018492701081601594 -0.47664154648221907 -0.012077217963672294 -0.4109427714516178 -0.217674096110131 0.18563281728858094 0.05518942703262474 -0.49022467337700404 -0.4880892398988473 0.07108774191291639 0.27284904808823923 -0.12059982255917585 0.38402894073125726 0.4654664995731267 -0.48333772167739997 -0.007247647849867441 -0.4613159763266194 -0.2622852966112141 -0.0850502466526307 0.005287776101247056 0.19843191952578154 -0.21533108267055456 -0.1162276126884019 0.12461629178520028 -0.37293379649498964 0.3054181344696764 0.4244392087705157 0.3549571963457961 0.03993440962891198 0.15371204323074014 -0.24313710044069575 -0.056052632249386766 0.141208737301499 -0.23683279511348665 0.32788424790945636 -0.07217750499607178 -0.18819487397935677 0.24684735021264123 0.1508602011819156 0.4472476001363493 0.0540150415122583 -0.23792331601279598 -0.20599231905081472 0.18963050033952467 0.00922144166353349 -0.41795784308835504 -0.21033421013207182 0.3592013538204238 0.2344267307810575 0.412726071307084 0.36454729904996236 0.15899257116333199 0.017122185456329878 -0.0911915411936805 -0.0930015496391959 0.21948675845536425 -0.03691520672047271 0.11974686983487265 0.10845407852862554 0.16350365173357656 -0.4011786594079158 -0.1667085578870936 -0.2875313650979605 0.13544154555576848 -0.4769477538881443 -0.4963765909357368 0.2169382232145677 0.30972915258209294 -0.07082923896450355 -0.3554302483572543 -0.005170879503826429 -0.24651671946348258 0.23339792257746694 0.18408261857706115 0.11599726842614655 0.3142404110129775 0.24506401858838606 0.09472312733419623 0.38821337268344347 -0.15176899643700234 -0.17835564773018459 -0.3737704111505478 -0.05358972594641042 -0.03041070679905552 -0.2995430202611165 -0.07130444056318717 -0.4916654069743248 -0.02502923693815279 0.3982217060482821 0.17012992170893018 -0.4067324421774211 -0.2992348194192525 0.22343086549493998 -0.065628112008195 -0.18751680862830256 0.21829135911536876 -0.4026223476718229 0.32199529935077675 -0.40886296215590234 0.06993518304745178 0.3681310558093731 0.40004684557321807 -0.29173388106688936 0.24892809501479715 -0.12679914634329256 -0.19700843561817785 0.3533948827786701 -0.08961819585133705 0.3571123654737498 -0.11456579215897861 -0.3880894040446664 0.31563291795552834 -0.21363530341158868 -0.16560845578729821 0.3913309757652804 0.30711754383665457 0.20933703825204655 -0.212952764383921 0.27104455595657984 -0.38578287041195547 -0.387918796161672 -0.45106174357610346 -0.4461225011487378 0.5004621365364262 0.3731883228679356 -0.08886239259342905 0.43907098189275207 0.31308305025025224 0.31026555753386326 -0.03711537340619895 -0.483047048482553 0.2529582188878945 0.04796263393232092 0.10195894956577499 0.36395710030744 -0.2331459582187707 -0.18303716063044156 0.3368843972957073 0.43851466244751147 -0.31853250204916467 0.27093260360888227 -0.2862707934306506 -0.25520059328121775 0.056124015746111956 0.24825678802939144 0.24741257134494157 0.31895928822658987 0.3204278893758359 -0.40834037559596364 -0.08471656858217928 0.18109516566085926 0.21111539545554384 -0.11764767085955692 -0.2061221228850532 0.44657863649121765 -0.14461890617724754 -0.07624210770016449 -0.19343828380160974 -0.1066515525970302 0.08056337413017724 0.27978412485910503 -0.03758789885639315 -0.32673006020313433 0.060317717776814384 0.2919904422123552 -0.4817722232817796 -0.2229643120967037 -0.4644904771237913 0.4904159018544173 0.11734767315816765 -0.24706164828096996 -0.007898254617136745 0.0391876840904801 -0.04993517362611061 -0.23098663717560441 0.13703107003439444 -0.41839836656286106 -0.25629538269495883 -0.071981220632529 0.17841283901157962 0.10725206908981144 -0.21613243641479332 0.08308384127072908 -0.3559512284537106 0.29364948166792154 -0.25577767655265504
0.029648649366692356 -0.22929054148279004 0.45728833176521394 0.21909523963818958 -0.011845998506037245 -0.006056690585267937 -0.2036678582852619 0.02915537910500099 0.36234861912880956 -0.13737127096839166 -0.3172223184308799 0.4614220629220111 -0.34800001383554313 -0.23998942163809722 0.053279478764061146 0.45907339022459664 0.297154863186989 -0.3920225875958203 0.38398669875279573 0.4663025952262223 0.3045148514843164 -0.4345771372474786 0.25202367663479813 -0.24891978374674134 0.016205831486168425 -0.07098238362352949 -0.1720827716357146 -0.25603228888174134 -0.02809495220385349 0.06975110622465593 0.005351649784385276 0.07260737821498153 0.31332383317731644 0.25240505790475054 0.34516313780989033 -0.36865623113960966 -0.2190517009103257 -0.21532408776095058 -0.10985228261179233 0.19981929214888508 -0.14494830360418778 -0.05110022038349008 -0.10361164526690168 -0.2899811504496608 -0.4582524205316679 0.07967767089996007 0.3109342577117667 0.18330027499183327 -0.19752003841712254 -0.20442985897431165 -0.1690671185830313 -0.4025802775509387 0.2758551545437302 -0.020623987610172395 -0.3675749579778633 0.2536535754013577 0.0734146431817579 -0.49103926315692764 0.1342329777600902 0.18266123115557395 0.3694899150200501 -0.1596594255896604 0.30073187481239255 0.03588819970077462 -0.032804608112982206 -0.04434442941328011 -0.044977690760018056 -0.08534076460723272 -0.1980184494541491 0.34699878718499194 -0.3897944004490465 0.05651596785807176 0.08587806938125805 -0.2992676480930311 -0.42986871343087046 -0.26089368620051157 -0.16608459444979204 0.1518565896692659 0.4910365238944227 -0.13662775955894546 -0.33811395608920697 0.2987640915886328 -0.10525902323948216 -0.38772619879242154 0.24798215874338464 -0.18017178931480227 -0.24019173623930307 0.23651851042134592 0.41983067524001777 -0.19355842158448566 0.1365910771358185 -0.16525448478211124 -0.08594891971756925 0.24711808321582895 0.18836984310821722 -0.4650520760146483 0.14828038539349972 -0.3811721151818684 -0.4187362838757506 -0.3464425360072299 0.4960230123366757 0.3740565254157625 -0.12310182863949692 -0.15081070257705934 0.18811113196231616 0.28447200968541675 0.13766731756174638 -0.2544200767005123 0.3195534493074685 -0.1781359356434181 0.08305191369194774 0.040194773404554136 -0.015423075903804973 0.41075351136928023 0.244666382510679 -0.44096926603250636 0.3906509800002969 0.17025169433121615 0.37918291238841123 -0.19233079563233588 0.40535666208795074 -0.4865417700987687 -0.26436857404056574 -7.682371859208414E-4 -0.31826695472964056 0.27081766335796364 0.32191836220940623 -0.4461142491525631 0.013354777936757229 0.29492472829132993 0.027585520413787572 -0.08737221685838813 -0.05052689422938993 0.0171699937854946 -0.42670959515587814 -0.480274559057127 -0.30013991565212256 0.06039112279747335 0.13596053599099556 -0.3503774790585574 -0.24106624506490792 0.23704285420756302 0.039840480960790244 -0.2245132348330069 0.2642147472741111 0.020348682225414867 -0.4693943879132498 0.34895186092730407 0.48609690613942635 -0.013371519916409802 -0.187589779448894 -0.4090437026106881 0.1843544051723643 -0.3407688025460934 0.4612042343122118 0.19518547041731565 -0.45116945327287095 0.15318212861868644 0.3448960695351843 0.10251207006985921 0.48460668334409684 -0.3894010390731006 0.4949404332123069 0.12300256147865399 -0.06159088620812774 0.14562125544023272 -0.10002914845492247 -0.06181518239128248 -0.4856159174581499 -0.43200877158656914 0.36030319599819727 -0.19470066396142646 0.028087837345863183 0.28492866234568287 0.2978826902513882 -0.2164961169292145 0.07771563005678513 0.12398335904339494 0.3094854432521966 0.361411779197947 0.1144012117705498 -0.02839457636599523 -0.4520220087927363 -0.20181516952808753 0.020704656295246798 -0.20383781988148605 -0.4342437652152045 -0.26039668583285547 0.014487477326039635 -0.2440569975542933 -0.13401710309066633 0.1107343002017443 0.4985406810383601 0.42351146755755537 -0.2839580226674161 -0.43905022052942194 0.16569803769585364 0.05773425678604243 0.0698362645543724 0.3228312969165123 0.2910614526394248 -0.2946771092777007 -0.0914364481694107 0.3332128685592506 0.4591189554649484 -0.002120838786026146 -0.4580473171185848 0.26469957380809894 0.11519315140530868 -0.3284890826282171 0.3553709592191342 0.20089131433312524 0.006673854356572499 -0.4487496429727229 0.033053690984175696 -0.11122706507088562 -0.38112950625793063 0.34829242772123475 0.39501272253458075 -0.09505445608985245 -0.13265359051845532 0.22313002143100708 0.14805348054532044 -0.4101772331349621 0.4530874541083307 -0.22175631206314134 0.3858599718344872 0.24395096762012386 -0.13439345863286087 -0.2841935706040819 0.2672207583439581 0.27372369762313553 -0.02309436172422116 0.2815842075659499 -0.2574323904112035 -0.4647738568710973 0.3904497418486045 0.34900277059608104 0.17055079537223974 0.17562469992547428 -0.006115631740354012 -0.4091868261956611 0.1505295696093326 0.0789721569796875 -0.17639711419764229 0.31270968625413914 -0.2764601326296177 0.33449698988724114 -0.12474726996589147 0.17286681688769837 -0.04879311108724803 -0.46870574673387067 -0.2018591323418244 -0.11598922641226392 0.2890181766264639 0.2753211928483514 0.11692164097469361 0.05385695568984885 -0.22318841966902922 0.12686608323493537 -0.44756044580572546 0.19004852769836136 -0.21679378477416913 0.21618974821547446 -0.33061302177629665 -0.27720998596787577 0.35671634032981675 -0.019294356348101987 0.1278940662294286 0.290330897719352 -0.46001929598624985 -0.2635421811733097 0.015216919090149165 0.07963522966654045 -0.23899328236019488 -0.39813484752397 -0.02222648266799193 -0.4732649963925503 0.37609197068137334 0.01419149831413575 -0.16194327158134078 0.4916489379717185 -0.28418163858666595 -0.11538397742561227 0.41578110559908066 0.35024705006480716 -0.44184415012060846 -0.13002113491479367 0.45776928055885047 0.41627953199255624 -0.31936847765567616 -0.16660144027787474 0.0934322198594597 0.3805230432603973 0.4942967676146306 0.15961345235535504 -0.3503864730297997 0.04866233658287067 -0.23752703995716926 -0.049385009338114905 -0.056009244416833165 -0.010452986749875713 0.474874512945871 0.49164482213108807 0.43232933334338136 0.1636618100946111 -0.2559069046703618 -0.09481762272428818 -0.18460573237950179 -0.04549922056702647 -0.3693652990964421 0.10223423731256727 -0.14796454395096434 -0.04570233354907826 -0.22305180191686105 0.023888486430083743 -0.4678726026113232 -0.002933625699699429 0.0031257962492901243 0.41970724098589834 0.0027723832080706196 0.44353685768818996 -0.48770107093196663 -0.1832056520206099 -0.052318059821202634 -0.02267146242359873 -0.4889010018245428 -0.2816620634632301 -0.2808928209968507 0.108969078744524 -0.31281595042731475 0.24683007649038596 0.4803017837565355 0.36840079939049336 0.005484873090711559 -0.08622215864135 -0.2821468133226348 -0.5018506434359143 0.47986417855678565 -0.09405173998404424 0.06728366009030096 -0.013545048973177647 -0.20001747993278962 0.13749772296190022 0.08137884384080141 -0.012232965762984787 0.12104228507519607 -0.20056751198476702 -0.47573194282400316 0.4894453940842369 0.367316771527298 -0.06904578063686315 0.35325978223531557 0.1080972294009072 -0.2598182745075188 -0.128934689559226 -0.25092343297387315 -0.3429988731712814 0.11333271324405343 0.2239511523184056 -0.2160820687312531 0.11586873841206922 0.04448721879756831 0.2847839944607212 0.3365662541657445 -0.15654429323686403 0.3481534785575026 0.1139684418937767 0.25489564658429104 0.41191822171480486 -0.3446141577161896 -0.07018460255527027 0.47996996361638666 -0.03649477852715909 -0.06283976211946182 0.40156964143037593 0.11186142215449707 0.44974257636273873 0.2731011616985552 -0.10904719469580583 0.16296862342035012 -0.27152252951098144 0.1770967467895422 0.41491912610613924 -0.09120947999131238 -0.0648986133611975 -0.4767355692145345 -0.24030088658117357 0.0921789965339798 -0.5021595914956917 -0.05999919568199358 0.28332096157990994 -0.36045574542836434 0.2575387986890989 -0.3596390420134167 0.14203383807768422 -0.06304346248426553 0.36069984603213046 0.16586666686994136 -0.09523910446494475 0.2018693982632893 0.1806044047827517 0.13539296500605374 0.4618047215993702 -0.24592662228075138 -0.3458434389531006 0.12088790649327301 0.4969409923068327 -0.006018735496860018 0.5017045070170647 0.06010094755613111 0.22801318284759559 -0.4516579854712112 0.04412643178237767 0.09441589311506737 -0.11180372219967008 -0.12312210566035516 0.3579977446691262 -0.3931605727934808 0.23009888260014627 -0.4495000665491044 -0.21934332129088766 0.41004184842609415 0.43978742877085053 0.0897641337406726 -0.13359232903343965 0.133281795409928 0.22070212312224288 -0.3903418823316965 -0.2960636250199178 0.04629898505162471 0.17116944345763155 -0.3491252284233542 -0.36915786209853596 -0.13172664873015602 0.2381091702067836 -0.33378966562077234 0.25821764332584796 0.0384534050430468 0.19395571057444244 0.3496447022337047 -0.40661870225089425 -0.22512816750406284 -0.37773728000789836 0.33619436764307353 -0.5076447837160107 -0.4438669117457874 -0.12447936070643618 -0.44375973978489125 -0.4979514868040368 0.4902840825339641 0.12244769717888936 0.0028437883627285936 -0.19137829744723414 0.41485246432897704 0.21667827849323354 0.23551703748531458 0.4858254529675631 0.27120942375735796 -0.05466644690392366 -0.037516757572510225 -0.10469959763952447 0.256551998568187 0.24365727229158615 -0.0269464481753745 -0.140063468628788 0.22962968120722585 -0.408901079692979 -0.44698790127395865 0.3421054969482166 -0.23353055176796486 0.489572524652433 -0.11715772648726303 0.008151385123724344 0.464176143361428 -0.3913076687965792 0.2382383487397509 -0.4025126043554199 -0.33143420009724045 0.012952987481052803 -0.1856258052445483 0.028682478056439458 -0.19984660025786838 -0.16313088036954654 0.13146316422513413 0.24012839175849301 0.24160724379674592 0.24945704018243117 0.0479615421312918 0.48214069579780294 0.3059208743674492 -0.22903196401900708 0.4689608062281919 0.08625674221257043 -0.2841709532596257 -0.20153797772291332 0.47246103843426596 0.39042124043689397 -0.47785904598105544 -0.05696053976552527 -0.09185959070656495 0.22453686241264528 -0.16162791174016775 0.06256590726949553 0.06234997143894945 0.3298504817966033 -0.4729567354116308 -0.4012006673541383 -0.29757227856929835 0.10554945449610034 0.25473135611682457 0.01959930115578911 -0.11750732760475416 0.300841441610605 -0.011289339689553783 0.05785507028721311 0.2394839799142134 0.4707009737099118 -0.2541157080269517 -0.19646844900393876 0.20136948880769429 -0.3600308484175147 -0.25338942692570854 0.42191575160844436 0.3439036026509713 -0.4751434416515231 0.29081049432933614 -0.14446341601406412 0.2989504064938751 0.3376468526545237 -0.2324866559363213 -0.32591089450664296 0.3434004999127547 -0.45392452784151016 -0.4463274869811234 -0.2711826647707698 0.036047888392222824 0.3986997788516168 -0.4414874189007799 0.26972957908601325 -0.04085280656755027 0.27114694666604067 0.2899880113377159 -0.21447961202054433 0.3278604959110714 -0.12309568499759382 0.15449244588873728 -0.36162336575270304 0.27857630216179874 0.3753862743705445 -0.1956610087824824 0.4915785032266255 0.14740809740134145 0.3104489176929576 0.27344191593429434 0.40436539202012034 -0.3997957035371448 -0.2228838164496518 0.23152193007107405 0.05312445241023145 -0.4647186398214291 0.08832444888973735 -0.27927471940317417 0.1768323053428961 -0.2624727080185482 0.11352795761746215 -0.49795430484910447 0.36190778478118074 -0.13695888116373656 0.307731863317859 0.4483886352830277 0.15466512839865032 0.1764471866260885 0.1943805664477163 -0.4914021566613693 -0.1915710632717433 0.34956124829240715 0.07230071743740953 0.23147081830284097 -0.1920696431779687 0.15851941010183565 0.1863673698574543 -0.029121940966084774 0.2502701708037235 0.41032960826422454 -0.49427554464327156 0.04551242603239351 -0.26092967896159724 0.44526661983530447 0.27076092310373195 -0.10301185514166891 0.16919632972468426 -0.4087742366282709 -0.026070564630649558 0.13587363182127216 0.1476401229356876 -0.3623070699449266 -0.029800308634594472 0.4703841806526599 0.004716465459071675 -0.03978517632699843 -0.16422093769331997 -0.35048104168277616 -0.49328948470469086 -0.01022900576330426 0.3874112413580845 0.2159685658960123 -0.11452181320616009 0.2431177931879187 0.1819683787596115 0.4394491706730181 -0.36634560466188315 0.23135427981107162 -0.23817486506351981 0.4239816625649184 -0.4720552020222115 0.1890978739494137 0.4793039052254449 0.03879086475988718 0.007127002640018309 -0.1315491562565587 0.2839054181147414 -0.13167979520522727 -0.034758430225514586 -0.14409944367428637 0.38091202083176645 0.2908422881469749 0.17810712746076643 -0.04649259473253689 -0.31509664197632437 0.32665459213512715 0.15843042521022838 -0.24408390008483702 0.25668890547478657 -0.10801948229354252 -0.47764044752005796 0.22144790653184854 -0.22885533642952002 0.4707430610517415 -0.05266207274515853 0.19510386105611632 0.06466328413249411 -0.1465203907733776 -0.32156764976917307 0.18042685041845208 0.17927814466823472 0.1334859605944658 -0.20508432919510794 0.1712890588677006 0.37842877301298883 -0.12429538006748063 -0.45925511250934187 -0.4877958201394086 0.41635167622265795 0.04360258654438808 0.11999471747755965 -0.4328087730577485 0.2251189980017956 -0.18130810015414123 -0.45397377363598573 -0.15288145221746 -0.026857607565269274 0.4801506871899885 0.4049829093143938 -0.31814040097236373 -0.3436271335285368 -0.11588182643629569 -0.4143028763516399 -0.17125892749897664 -0.11850996187656006 0.4337430917876886 0.2858772500118914 0.29422653650583575 0.15342401525133553 0.34373056263368706 -0.03865929185385983 -0.12149538281586167 0.03476025546717104 0.3098512719507239 0.22074916499831398 -0.4139038842251541 0.46628442977565 -0.32384875336984786 1.9224139342954844E-4 -0.2777067758884362 0.43855227209191405 0.1823671543137168 -0.4016191681119069 -0.05709998005804985 0.014483059694683711 -0.3800196998157579 0.2861835936886299 -0.08954741218178097 -0.3251336877624429 0.37189819001832125 0.2814490933173354 0.38334461116152 -0.3768086029042932 -0.49454322485031926 -0.07489312772446931 0.1603325762539713 -0.053919444740959305 -0.022568593104235295 -0.09328064921962231 -0.24904186848739093 -0.13464009469644148 -0.27855201786690453 0.1276830890063403 0.13623115473466227 -0.1651262040958733 0.09004668897177899 -0.3172486691888851 -0.45289922268941285 -0.23557974021670297 0.34136606583665485 -0.02720589303435872 -0.041714379191374495 0.4904140869761283 -0.15065093185445425 0.16212642334284172 -0.39010265106110287 0.17942364078701412 0.23811717717026773 -0.485500204951231 -0.42544597612828094 0.3947934257573523 0.223940806804929 0.2830794254097885 0.06992126041436356 0.3004807321087803 0.05587950170674435 -0.21637996132229478 0.4089305238455141 -0.0930443668942631 -0.4196050384513638 0.17240751199220297 0.43856302001678377 -0.4679132899471804 0.12614813539983533 -0.12735309878396883 0.43534231766754505 -0.03640632948266716 0.38663691344762285 -0.028877711875444242 -0.4056546431316794 -0.4915064721556607 -0.029297652034805766 0.21934311563503733 0.35594284131485937 -0.08532065188536184 -0.07634102347514857 0.0547583270122034 0.1345288525682219 -0.17627035539327152 0.3350580830787041 -0.012589873357313881 -0.21081838600497535 0.3309455644266912 0.3805070404359848 0.3427323060389842 0.25203422915761226 0.07062554664571769 -0.0845214734277882 -0.14955645717608046 0.3947705715540142 0.07885787358708402 0.37378531708617746 -0.03309697928398516 -0.3265703016222843
-0.04321742842139054 -0.3805356853052122 -0.3138528623793221 -0.2970502934996162 0.49194689242671696 0.1932510382469789 0.22592566240556716 0.22319402624716034 -0.4253763302368618 -0.2438483406119177 -0.22893049861130643 -0.30314836855872046 -0.38473274186572753 0.31125726421824695 0.3428541506625685 0.2484936204605694 0.022313179694747838 0.10351303245393359 0.4842506280814269 -0.1269857595424051 -0.09940271237016039 -0.4339859257646552 0.07803760450013639 0.30865350509021205 0.013919479027300011 0.4137029685375133 0.3432249246977898 0.3819047852647715 0.4602181234056437 0.36239159345868466 -0.38453650444471826 0.2747364616075145 0.1520196393854509 0.09283397386269533 0.4159559803689224 -0.21225907783124606 -0.06868477185128133 0.4021673616294339 0.013451555406364666 -0.27134551579759886 -0.35226807686398065 0.2649755186131197 -0.40621412844010757 0.16991944575702844 0.06905184037113127 -0.2534975312440732 0.34660202786283856 -0.4896116047308818 -0.21703451140845156 -0.23079667416441219 0.18987978738473985 -0.08845010254138952 -0.1137812492585639 -0.017859773669422548 -0.4955508307298438 -0.16018508338797321 0.4358332890608948 0.008386453716692397 -0.4288022755046434 0.4155084849930275 -0.2600350106694048 -0.3531436551031596 0.22881688961632168 0.2147194272644672 0.27752327364782464 0.2104679294418096 0.3831744493197808 0.19880005342161478 -0.35404218836570944 0.4671212504062928 0.3347292722103047 -0.18905887430299298 -0.3622586159820644 0.3075870935690944 -0.4730299498738515 -0.058303584539487675 0.05293298251981313 0.3026217574777958 0.267540350031806 0.05333827777115596 0.30010243854456825 -0.047056150756505585 0.1481020863027612 -0.37546057418876594 -0.32626336653182664 0.32686217696748177 0.390751508722519 0.4957569036145827 -0.1645309677847127 0.09529589866645694 0.14426973168920088 -0.22905523189929222 -0.2759206484097245 0.41180839227755023 -0.31841513636865 0.3408319465989191 -0.35983650405089085 0.2511506718696894 0.053182441353022754 0.32696745161338636 0.3120903498340394 -0.371822273700428 -0.18022193043237164 0.08755450997788954 -0.3966091301254188 0.2585516586330861 0.24832071084744822 -0.1490214296907217 -0.49690214497971713 -0.13527859849001553 -0.48171561232791926 0.2648737617408315 -0.4082452170463093 0.22997177218814227 -0.22352012526304185 -0.07205727798903705 -0.10511746817960214 -0.46094753278759865 0.07246144300524344 0.09070828603184507 0.03998744778230819 0.1074058185037477 -0.4997353059365637 0.12318918725068176 -0.23571507849394394 -0.35191236153264654 0.17082126739688258 -0.36648492710245806 -0.2190176860723953 -0.11056210610390167 -0.008096402348240819 -0.4162588302991167 0.20453253081325368 -0.32531962705059 0.3348382652766132 -0.03071235740640816 -0.3358983459279505 0.3045302324078354 -0.325481173992661 -0.48031975472144683 -0.18074559564699813 0.05764475102349768 -0.15238174956819842 -0.2200404503140694 0.46090689304281035 -0.08930666165295778 0.03252852166326513 -0.006187650010025854 -0.25359539015746524 0.3288742192393355 -0.17732418115935 0.2379753280281806 0.4375550837989003 -0.4963922926688967 -0.18014476055466833 0.41783545391199184 0.2819904022854756 -0.0077598924115403435 -0.12399819472447379 -0.27069854031460866 0.19887086816180935 0.4583945784607837 -0.22381081007024353 0.3141499813598451 0.2616732811391126 -0.09739141169870365 0.44509374108696903 0.28325940159882645 0.029934994108942382 0.4622488287809909 0.014262100222783972 -0.11232379105529197 -0.04381963071063843 -0.37370276902912275 -0.17672698558203329 -0.2800988362473081 -0.0747822604131335 -0.4158317097356179 0.3558890080248409 0.17109042721138612 0.18350443875702163 0.02931984031126876 0.39295448932723276 0.3117592739504452 0.2151547110707029 -0.11993628667904002 0.0984693845506837 0.4471814899198107 -0.1380260710991171 0.13005696286756024 -0.34296623850864105 0.1489862446171317 -0.39253407713760763 -0.26786775285897063 0.062254462273027604 0.08301151091652398 0.3011058120085775 -0.05529375027176155 0.04886458424417029 0.3434289893922479 0.4367669662283416 -0.2544791344416163 -0.10151613315039576 -0.10469580929372001 -0.2301835305557644 -0.15989144425247262 -0.4217582782504466 0.32313238356544327 0.28947753400180287 -0.08691547143508191 0.02477127935853402 0.4401069273378056 0.3074105533618999 -0.3837100102747569 -0.17039949185702905 0.3712315510055917 -0.2982671941231951 0.3465032347247239 0.4927967254009332 -0.07041922002274931 -0.20329032797029725 0.4002751621167035 -0.06985544956211083 0.12527206872543054 0.4423149184295502 -0.18650108206183083 0.07900170232273819 -0.08443803270066515 -0.3697893785702197 0.0013249991475704978 0.35425429993400437 0.16830707816336687 -0.44848353100014104 -0.23545796126902116 -0.09060563783292837 -0.4713214502913969 -0.36628304385871735 0.3445416258804334 -0.1953132212779802 -0.4662069315187947 0.03580145310313833 -0.29252043771458935 -0.4159098989060328 -0.03954244252422296 0.06867801664992362 0.11899421117522523 -0.47077348748323267 -0.3472708025462859 0.1732334289907975 0.13867576713704216 -0.09079267349562581 0.20773332819615356 -0.23783885568446414 -0.2729538773299248 -0.2693228618607916 -0.4950394949409709 -0.3476264555460311 0.2826221078596963 0.21646439851441662 0.17641183182853776 -0.20234299662222474 0.2917978868677314 0.00891078392993569 -0.16545091156491404 -0.09334440804770991 0.3424490377737697 0.22786275699857927 0.14281354246848907 0.29367828904105703 0.1440503710941031 0.0030002191186607454 0.20896935693500693 -0.4537877533395126 0.19357187828118366 -0.24461316657718674 -0.23668040547872285 0.1505955500882674 0.11971989996253801 -0.46848622530792466 0.10786096428605611 -0.2945341705656588 0.461335444869823 -0.17206841489658978 0.06689525949346993 -0.17042604528855052 -0.24474508961961 0.13005435677549335 -0.256607834615353 -0.364988218059664 -0.3627864350141836 -0.03585050969638746 0.4676304338026097 -0.33221357632601234 -0.24448684389078262 -0.40625861876843883 0.3152457968214876 -0.032141604479313045 -0.40188145735932657 -0.34474338313503045 -0.2349831266109503 -0.04202642060238598 -0.1630252336977156 -0.05242452473786115 0.4533770637185674 0.3431104467799683 -0.4329393726453412 0.3412958434357126 -0.027310312086206174 0.12131646964998759 -0.31440423980973276 0.0855966064116736 0.22951927803415123 0.4299492859699097 -0.4011180431664357 0.4056770917219513 0.1263384673523689 -0.3020003743657325 0.2220678653699833 -0.17816269530475368 0.49313751071208745 -0.425530762129909 -0.021424335882480935 0.02237777036808261 -0.291893906589983 -0.3353266562370507 0.006999254043115474 0.23468198434762244 0.47289744938951417 0.4112173094601495 0.09081704637460913 -0.2157212006323307 0.04039186020135015 -0.3478516391343174 0.2238596146049326 0.47701923040959787 -0.15500831144098262 0.39122725055774243 -0.1895002059991445 -0.4611221954080475 -0.006599931104867062 -0.08516063658753029 0.2844709891727992 0.4528871919427461 0.169126546120597 -0.006511927344988893 0.3084112145533001 -0.20205421578086005 -0.21286066810974477 0.1247186156750684 -0.3922778706271342 0.011744601555184355 0.1628014352497169 -0.09871426958410247 -0.08863676780722211 -0.2683409655801332 -0.28889390885133437 0.33971740931942446 -0.4264291158214533 -0.413912757577322 0.09651714773045734 -0.2778834549260827 0.3760456953133468 0.49762909191023363 0.1736220203731549 -0.17528089967961197 -0.05337325489781544 0.4537193565838372 -0.4562057530928193 -0.21662977388509283 -0.3066495121129198 0.47831681333101667 0.18102670754036093 0.41203616698672063 0.2928296215507742 -0.02196058655160491 0.11953472515924349 0.172641261105429 0.3747002830495272 -0.2313183907797758 0.300377191290237 -0.3053018423230132 0.01991254437125734 -0.47213239357548076 -0.1395648754606729 0.07611943437226654 -0.27663607774575766 -0.2991242817761653 -0.22172643001254655 0.1705913010386368 0.26980149347304655 -0.008891000725322782 -0.4197269037512054 0.0012979672930833793 -0.2724492360301417 -0.37376900969640786 0.11338711805497552 0.20612300162021585 -0.3851433180354155 0.002433144567594798 0.1595451035156337 -0.4113265041524105 0.1433620743759166 0.0015915743067956853 -0.43228072341137574 0.44069679417260665 0.45033679957866035 0.3475380926573155 -0.18857341338602684 -0.0895622667547701 -0.4914983738081376 0.49083737113683523 0.2657564564269889 -0.18694721993058244 0.37224408373387463 0.17828108151076602 -0.46445517384276835 -0.4286369694323233 -0.13118131135350022 -0.26700160900316683 -0.29635389668295264 -0.42179769900904 -0.03474266150314114 -0.09265552470861126 -0.47812290863444695 0.059723595574623756 0.0858680444021983 -0.0335684948309111 0.14869245088391372 -0.09752665919451639 0.03365593895855505 0.026178725966772478 0.09051178253343743 0.01785993303717294 -0.26035474964354177 -0.347070262214386 -0.040595071161022456 -0.1519673177443831 -0.23004465981137798 0.21085260044617204 0.43802936895849465 0.4549339571684146 0.48962362204869764 -0.3300183030684818 0.07865974304314895 -0.1250539550855094 -0.2772978292326457 0.3960913536803753 0.4063049873897649 0.17312438670101574 0.49391194114772474 -0.05377559109481888 -0.09205926044315206 0.23182178623708183 -0.42678589472168 -0.40100150676232266 -0.25808673295816137 -0.28516059355182605 0.32115506997331283 0.4739198838635825 -0.42062509357877176 -0.2549957032163886 -0.3089105804431355 -0.059182480631361584 0.017711530051082055 -0.22759005226837928 -0.49245987956656945 -0.029417672133657098 0.2704462091394506 -0.00757510062845227 -0.4691482607691788 -0.04847720129092211 -0.24618326061606202 -0.16231708886599736 0.42843341690016334 -0.1395609289313635 -0.052987699801695924 -0.19252871312100397 -0.031544741527579086 0.07104568760243876 -0.4509219668790439 0.43304578532165294 -0.47096340126367814 0.20209856189027042 -0.08691201126541491 -0.4181457649272185 0.12659822650626573 0.058766523353270365 0.490175200150514 0.37157031707975585 -0.22038386830721085 -0.3024849711152324 -0.20016081030945737 -0.09958874697959576 -0.42906742779897417 -0.3503116501166511 -0.2911988737398312 -0.2715185922565428 1.1058562690868292E-4 0.025018785270155063 0.047478499237312524 0.36926148714376644 -0.2907145942778521 -0.28709050054670865 0.3694254579705894 -0.44905229516115924 0.4672251703244074 0.056946570950004896 -0.012499123922903024 -0.2625937315221452 -0.3308796857542317 -0.3006115378892643 -0.0598545826455568 0.48773861495111065 -0.3045969967926217 -0.2916005824635487 0.013993066904388915 -0.34098428446685325 0.36777346830732066 0.20553515670174258 -0.13309661657850183 -0.15266918113264233 -0.1521402456726187 -0.47085793848401036 0.47667468279127195 -0.268672292680634 0.15587418186963786 -0.17156459449254233 0.0462717533930435 -0.23132320405400159 -0.4199996994447424 0.1798096723501618 0.3051181629336211 -0.4506448537468822 0.4546342999476964 -0.23801867293696968 0.3456391520137293 -0.4990401040941986 -0.39801290599676925 -0.46399501925585585 -0.4400877787996248 0.008018435218116814 0.25140290308459345 -0.26416765821933813 0.45463467437175964 0.019034585315853347 0.12885492767811688 -0.0022982866069131422 0.22216855294053317 0.09783997569153861 0.36365133422642665 0.2794697686701917 -0.3468649606263384 0.4427531701594325 0.10319547290109392 0.15357908989446983 0.07832790541153778 -0.12470506624874389 -0.3368248457859307 0.38097355081039264 0.3175376429081821 -0.05694273536073227 -0.02452024789590139 0.11581394062378333 -0.39762245074580016 0.32001424150913316 0.00518718133439879 -0.002828754400847472 0.10704396018502728 0.2004987305323567 -0.1993619045948588 -0.0695851360737204 -0.06288232854501943 0.3993482722714886 0.42229591276167033 0.21409410982608754 0.38644356752505643 -0.4586431570372897 -0.16796621403986955 -0.042344834059031666 0.432342814383646 0.4551387903567447 -0.4811445302501434 -0.4389382615934854 0.17939759292068208 0.2469268192546977 -0.438272542970413 0.2409803034212681 -0.37477282255433686 -0.39769559036754404 -0.4143689717741918 0.17489591768703994 -0.2744440691858571 -0.14680775989419528 0.03617770974043608 0.11207875909569819 0.3040797718309447 0.104753940508186 -0.28293299712778525 -0.17024809708687466 0.4873756591800475 0.23538061521907674 0.3518199558524304 -0.41321239572387153 0.13269126437887332 -0.40021861402261 -0.3219759194695704 -0.37055248651026196 0.08118777635410646 -0.11140204502333348 -0.16007533437026494 0.3736173787841298 -0.08758723631062161 -0.30865778716616904 -0.27615687776464654 0.2812724800629317 -0.4108816254845861 -0.25944187314690637 -0.04709667248039087 0.43434161616544914 -0.28688962819887387 0.4397668357113019 -0.4752601665507982 0.0929946415678107 0.201483805504053 0.2670610583869728 -0.18099949134254595 -0.44936523175208587 0.2537487160285271 -0.34133311423821455 0.4064164241347839 0.10981969034482529 0.06254559141247555 -0.0851700003886423 -0.4738486187418439 0.12640596444768895 0.1106176246908184 -0.061843116638144784 0.30782497892227917 0.01825567933996521 -0.2038112874267032 -3.9645267373633055E-4 0.10111459600523028 0.46585707195738724 -0.051092645091021634 0.05492861929921631 -0.11910626045538114 -0.19565127427299786 0.3060368798376902 -0.41799714643579183 -0.3232508392940636 0.08709960622701694 -0.28315510927281384 0.035940244580721335 0.03448408697928386 0.2119216402161523 0.41200837270022606 0.03001009867691289 -0.023024427124076798 -0.2722731397873864 0.42223816308972695 -0.062219005916397264 -0.09341472231403379 -0.4456383100580731 -0.25287962452296026 0.27013461669864397 0.33162028958681433 0.2985894345052481 0.06002449105046175 0.35177058882358325 -0.37091950882756974 0.3830417969217275 -0.0753638540080186 -0.09347971316692988 0.1387449397277668 -0.17773297514590916 -0.18968026278397282 -0.003398428858042562 -0.48757419881512526 0.06237451699387381 -0.27672375140356975 -0.29574910988270053 -0.24916742145207077 0.12076238120630764 0.33026827169929246 0.18010719618665672 0.06870513866078809 0.3063896483389528 0.04524040862576359 0.17822494275911682 0.05314000706673131 -0.15503349736820787 0.11214430780489282 0.2943050110391318 0.01965733523000091 0.24033192946312892 -0.3058690311087118 0.22527456880180358 -0.26723212418742426 0.09411543014946441 0.0916908457164217 -0.3767825050181904 0.07231544538681434 0.2517300902334438 0.348315082624011 -0.0072921410684604355 -0.353422040408522 -0.41786635184861787 -0.10580556184994729 -0.3100340331797726 -0.2012602100752614 0.24400178872695721 0.23414895640696 -0.37223687639868325 -0.11836149262415228 0.34963425083551053 0.2851641022999295 0.2583742956309436 0.3979616229023723 -0.30979328520724786 0.3684996840719216 0.33703255457147524 -0.458002635095461 0.29823145321228656 0.21988635402266307 -0.11752753283116925 0.34664430896491566 0.41556793805063996 0.32361925856822704 0.021058015737699717 -0.0472338125699134 -0.0015728652204715537 0.1258037142467662 -0.12660005006770314 0.13850012719622595 -0.3991380023200104 0.09940341573524288 -0.48139977905786335 0.39166611214898606 -0.20823632126837924 0.21402087810442827 0.18583887208553967 -0.2503793417290638 -0.30497376151630523 0.39355087259466526 0.02341133613415105 0.22240739019846112 -0.1109805469422651 0.40452599144349055 -0.22316670923930723 0.4177327734102228 -0.001742965296946993 -0.0631600451449158 0.32835153277406226 -0.19445821148544218 0.19256739978906418 -0.2044969309125396 0.3309103317064333 -0.14146321761282776 -0.37314817177821824 -0.2978714725767721 -0.07250409100412869 0.10405060202687297 -0.3215541583235982 -0.10108137769729231 0.23742028034985355 0.13304039769259823 -0.09219075140785148 0.40834213881745196 0.366478609938542
-0.0013454213710168389 0.4011913594198564 0.05322736136259612 0.05909732824117358 -0.4256675935455774 -0.36795503851395545 0.13844742489337092 0.42506086672958054 -0.45165298506812157 -0.17835765920153926 -0.04356491431825329 -0.1954490090645176 0.28701769845631303 0.12592181476309083 -0.3371305794292134 -0.2468533076974777 0.09061703663899734 0.368202960557813 0.13667362909558303 -0.1382850029651277 -0.33996261376501297 0.3678465080884658 -0.12633797372362293 0.13392131338861002 0.33507203564160815 0.029578650003533102 -0.24875603059353654 0.48945854876183303 -0.098832203502227 0.30225315908165173 -0.3961679161300539 -0.4598455980247347 0.0623503859339388 0.3888732433766911 0.5036662239408841 -0.019746720548774965 -0.13951279227500218 -0.20345102380534363 0.06448560859041903 -0.1003998598247561 -0.0955270599045238 -0.20845309700343245 -0.4575937150375943 0.3709761996731259 0.4341750265895167 0.43431792830107724 0.26306088951289364 0.48864194191531546 -0.18264907749583925 -0.37463922298584795 0.25032497354114247 0.4830840946416198 0.3590098672303195 0.335681161637433 0.28340709740258246 -0.04009778764382277 -0.3756427667605569 0.4408847056580909 -0.07115189256519534 -0.10360145376866156 0.26002123988733417 0.39987777295646876 -0.38601676891355685 -0.46284657573630955 -0.013239385575304194 0.39912848353865776 -0.21408204271925815 -0.15321969867362117 0.2726308087173222 0.37580970447900314 0.5021591102971259 -0.211816272269793 0.19094952227162845 -0.4269044341218631 0.06990837976197324 -0.3805199685157323 0.27007349289414306 -0.38188751157549783 0.24755289125805904 -0.22465157484459308 0.21345416131850736 0.30214249145250793 0.4652412698642086 0.06416658399783642 0.028127589991024972 0.10909020719393303 -0.0704585275409665 -0.24436045826656955 -0.12753240699613536 0.19819835850583 0.23115165567310958 -0.19926232422080115 -0.38659530051040586 -0.01079434388868119 0.2861218436933608 -0.2767646582202109 -0.007354357548603377 -0.10297722299663108 -0.3370853630299725 0.4830360598690656 -0.23540324888689973 -0.1736121325506634 -0.2869402721141567 -0.4914561467919742 0.3908028938772744 0.22563911437172363 0.5494144146433663 -0.40807634777087115 0.008717299742934274 0.23821485063663608 0.11983196368338721 -0.4394771974237905 0.3843954800416003 -0.14594271382157206 -0.10466851412396182 -0.09317402242363676 -0.245539089982108 -0.04085965800244608 -0.18365251633399585 -0.39928242210133263 -0.4806562320184954 0.1907365219327387 -0.2272210142857808 -0.09127690412838474 0.4308311091255094 -0.34783470688785095 0.41095785217415665 -0.4638842595759325 0.017165666416152175 -0.42734969529424355 -0.45292794872425557 0.2238507700643689 -0.09812723593349709 0.07496222718402128 -0.24903422286183097 -0.30035942080002415 0.31454765586659855 0.3276698632973627 0.17666829549385712 0.12937578566196173 -0.29842221024730964 -0.07919618602710841 0.45932359349778307 -0.4112810937841602 0.45455362121379905 -0.4038631385154722 -0.04501641014276884 0.1054064862061496 0.24827092872475573 -0.09942406960947751 0.1787388064974479 -0.4103243931295666 0.22716344576647865 -0.28565637477775435 0.44795821282761017 0.161564725848184 -0.14907961478739032 0.014712611032708683 -0.2282157049821183 -0.012327111636951991 0.207730030704511 0.1324921492748897 0.4032360724909279 -0.2266427644879243 -0.21124180659895123 0.3971238245988293 -0.4424643914562679 -0.4345561549860279 -0.40170615019453 -0.002006315729676542 -0.19133807971178438 0.4059858962160361 0.426101574534823 -0.22508862588049358 0.4792973992849069 -0.12533147200943565 -0.0924091495560941 0.22121290748215552 0.04722764717142032 0.4812490527920096 -0.06950811833893397 -0.4851615470465114 0.09983044365111635 -0.015158632978016869 0.14134935796118503 0.004784076909563134 0.005992905352039576 0.2977032962828797 -0.4388574077365495 0.12455762646066192 -0.42627029563939384 -0.4052323238203225 0.16763606878626297 -0.15181598026491577 -0.08349196326598869 -0.2859714596063629 0.4427027810981202 0.33477510197024735 -0.22912181871605639 0.12902568430862868 -0.009499070581954233 -0.13385733319976112 -0.3832707350348523 -0.3350796347928385 -0.30168116194558336 -0.027490550521853754 -0.12320270878199294 0.35616066437629407 -0.2300819484906889 -0.26132051064556416 -0.05169063136293871 -0.05405584197146837 0.26405175929139524 -0.14165422463835267 0.3399126607999554 -0.12537068709369537 0.32340259500251467 0.45393314768397786 -0.48002160873003347 0.11782434159655715 0.4365284577564237 0.07420404683340326 0.35428606586464356 0.47613987022452997 0.34138622744189356 0.3633167598668119 -0.10074683269182211 -0.452217095146408 0.3080011567968234 -0.08359403722907914 -0.2944521475073946 0.31717679748778266 -0.017517458882403372 -0.09375703375353964 -0.16406637772557206 0.1538381877606287 -0.07553403482560705 0.33382209081110575 -0.3018332144866717 0.5000536128391283 0.45748131461364155 0.3732891785547177 0.3827015454240075 0.1533415333832364 -0.4045268790422871 -0.03579955347247456 0.2427732136134684 -0.169542391846943 0.4531860984827615 0.24807384261068047 -0.1430863650206894 0.044998733051834085 0.20861791985414155 -0.01559542952140523 0.2490049949604018 -0.013706585325615042 -0.005642476803245457 0.07627771893591281 -0.10119633991988464 -0.36005452931464205 0.07929809614196211 0.05138667597178471 0.4076519967665627 -0.4545858333956997 -0.30991014275235657 -0.05315662888408716 0.43456548630480935 -0.40176168315691013 0.37725417391692057 0.4559533304581777 -0.3913166099757618 0.3477707355281557 0.4506718387649055 -0.1002683226526619 -0.22735220817902888 0.17187279463545677 -0.05771310039003663 0.34308020706826975 0.2320102086784191 0.45205007213774145 -0.285956180775084 0.07945306998523861 -0.4669709315850137 -0.09183271576245029 0.4905504445882721 0.025432899822695337 0.17443638563514874 0.07546000106406554 0.02008963137355531 0.4016047965144065 0.19095475101811404 0.07062855824968985 -0.3687383533455768 0.25144494773465753 0.22611631766810825 0.21191643752079853 -0.26278385304537955 -0.2567059085612385 0.06456816581760504 0.3515378884852688 0.2514110037173993 0.007855534929915269 0.43169064306896837 0.02528137433268259 -0.35739122861777245 0.2863939349858941 0.21953664096324133 -0.3327740802449244 0.16808689581389438 -0.16826691996026277 0.21315334951655318 0.15074715074694747 0.09400321238768367 0.48618651549841413 -0.1328174521498793 0.42219755764758243 -0.1244732229492024 -0.07436088259863366 0.47520341201935723 0.535176105239206 0.26331475301450286 0.4607087047384457 -0.18451596222011468 -0.1503861238989797 0.41710345486693595 -0.3312951282841452 0.3835313931769282 -0.0018418997072840637 -0.23307869445643076 0.10492363981119637 0.22891159640893288 0.3939742804370461 0.0677797829808426 0.16126617821191083 -0.1264824362009818 -0.03525222206189471 -0.44549724990272754 0.4173295573070778 -0.1753363112080397 0.03599841050961453 0.42903272668259274 -0.40115553493305456 0.4429325925511116 0.2073695430374676 -0.23836154680797467 0.09069889456466522 0.22080779177066387 0.16909586740215207 -0.38994685165906484 -0.4815953411598409 -0.06318516855474923 -0.39692013316748226 0.0810932624344393 0.06498275899014042 0.05167949674125848 0.3619867083498746 -0.017268763522488927 0.24624299544111397 -0.030375789885186667 -0.22357204480030576 -0.07717680216410974 -0.4241368178169301 -0.18628156970359377 0.31874843600076785 0.12371823842222614 0.36127929519770263 0.47323263403731525 -0.15829506962525566 0.02190449475741094 0.051247456948586685 0.1838260044379315 0.31551723635535883 -0.1515611884422695 -0.34972198660618675 -0.3472423364687925 0.31152520928015714 -0.24964324429903437 0.1246710334475805 -0.30828684873078077 -0.49182532274607793 0.15475782491814594 -0.3259966317116691 -0.23957147034972162 0.21068994903711338 0.05964650945259721 -0.07230263384073841 0.007664187422299972 -0.0014587929579739879 -0.29060944311512776 0.01835864198306185 0.07643438445912727 0.24260457184149875 -0.35504273456917734 -0.05275709073561069 -0.19808601824309674 -0.446815245717362 -0.44019535167420254 0.4621403001711914 -0.06541274235556206 -0.40568310785544875 0.09384178771773005 0.3082605184555679 0.21723949613451335 -0.4181001806807222 0.42957331449057656 0.17748401083430215 0.18472685872136194 -0.10975738171040121 -0.005000683779242772 -0.4194784003958515 -0.17832144737800734 0.2036696884877631 0.2568756662463064 0.44691037647349385 -0.07959282039479594 -0.28476992721032707 0.012406075437520996 -0.09365165374315197 -0.3798027497539565 0.18458964862033786 -0.0173216798890168 0.12906900999142057 0.26635272819365635 -0.3914180710417375 -0.17673839014556406 0.4112440806562912 0.14097278906635527 -0.23483243689834266 0.29210162799505435 -0.1261771348810318 -0.4968168710527169 -0.2121772597240113 0.19913852646577937 0.11961855277938725 0.08129343795745335 0.274349180723357 0.11987990993899557 -0.384639306942459 -0.28938679504853804 0.1408946879580338 0.39612743539318845 -0.11121236569259255 -0.1759888159090189 -0.0832760821403123 0.1284736055129084 0.474307764810104 -0.10194252995540758 -0.374628341244481 0.23720562284508054 -0.13272157254994157 -0.31127280750194064 0.46998819714240214 0.2980811197361353 -0.4381765923276623 0.25438395100619754 -0.4091957642189559 0.06528324413699454 -0.25553843369654616 0.07691194953490281 -0.2563380499230477 0.43940124558997146 0.02676222673775704 -0.1862715885810976 -0.05909170996073981 0.4141946570707033 -0.043790105840435016 -0.39401882513283804 0.505088643365733 0.42450112554411357 -0.4782803557602415 -0.03227409997807592 0.03015510843200782 0.355196976705756 -0.30773453432941844 -0.18852454408080038 0.023373606438051916 -0.022421762336585188 -0.3911792653774375 0.5049593570144835 0.021163052149985387 0.07687538814478849 -0.4530834267352198 0.3253715174474037 0.03719876775298768 -0.06659060718684795 0.3128429479237367 -0.20446343301994285 -0.43056509720785535 0.2626583634143354 -0.19375936883546888 -0.4670918895471794 0.3691958751399372 -0.054675856453687416 0.39436287962605027 -0.21482620229284533 0.48366752255990286 0.17512756697963422 0.03052589061886563 -0.3585398195473084 0.45205043988413346 -0.15891494237061987 0.0942087848953701 -0.20134991601335894 -0.2189533095664825 -0.48295887421191097 0.20945521896467947 0.4107614568457212 -0.11459790978161807 -0.34989772847405337 -0.26376666567834867 -0.12071600716667459 -0.34403024794631776 -0.40304239575870354 -0.41806454828952383 -0.3296435268488304 0.3887997460684076 -0.2621964058007912 0.03168467160126503 -0.09690661075044466 0.09315239676664662 0.4249425276308188 0.1176696936312489 -0.1706207402677144 -0.22205210212271093 0.39719021120877496 0.22968653947284595 0.01977810979353612 -0.2364947433314624 0.2591407771121724 0.4537458104352825 -0.034952787825477984 0.3445642895429192 -0.011068053542807842 -0.4643994304107865 0.4882363562549841 0.23744919222970723 -0.4384708931248637 0.25971327099425606 -0.30118252932138445 0.17158894812313139 -0.28749062198783176 0.09402022800760558 0.06310662594042292 -0.01366545145177572 -0.33685159241021134 0.19583933803024087 -0.3515175901365076 0.22753863280773426 0.05612489208695144 -0.38783536292632426 0.2936154768218274 -0.37860858647064227 -0.1991322249586025 0.1398380230411562 -0.31811396676736664 0.028813078317831396 0.061867285990560315 -0.0797405911979783 0.10804872946104448 0.24975462373264698 -0.2614136981669792 -0.10259363464170138 0.27237158604742434 0.49665717888862393 -0.36203879203496075 0.09452719931188282 0.2833160496831275 -0.09318365111724454 -0.48723591249957227 0.10281165412221106 0.09758913794908244 0.4245187969773906 -0.42748788614096117 0.4509014233881578 -0.4755094865345178 -0.3290843921269154 0.19270017721228536 -0.30483894624025926 0.1800059914469656 -0.2962912319536815 0.14963061912044628 0.07896283020994806 0.002760406835781873 0.47977298157281734 0.07386148978196158 0.3199808616544695 0.4112949908228247 -0.3454234507734932 0.3832017942185818 -0.4082496502465492 0.47323417158018205 0.10423308250122755 0.40275784310880774 0.24822732178074333 0.3841852949955994 -0.49838768360107255 0.14585890000422352 0.006456005449324524 0.3573917502267705 0.009658734397489974 0.2257547383553088 0.11578142991868427 -0.1696840540684424 -0.05477729714404236 0.03405931074749463 -0.11450249786079025 -0.09639698363970252 0.15580329752615116 -0.3983758476904197 0.493182191011566 -0.290408211703693 -0.15613567018489385 -0.28235867721917524 -0.05938790091651768 0.3820346854463073 0.03884847164728413 0.0600317365405035 -0.4923266553317958 0.2899892936934386 -0.15991830025771556 0.483865856321772 -0.15199784595841465 0.40470586498921396 0.08587691502463908 -0.46262901099990916 -0.18809341760276452 -0.14970617687870147 -0.07211620848302551 0.15277696752175854 -0.15445687209688055 -0.4773159800436465 -0.2862317400837706 -0.08527895348845436 0.30048937875304915 -0.4160403607609904 0.097141587419162 0.04149054165463536 -0.32510770126919714 0.29678404399685915 -0.42299368702828527 -0.37070974185035677 0.04223336042708555 -0.3635122376535961 0.19733967623884552 -0.4257702258041357 -0.3829817322857954 0.2783324461904013 0.25973601240720334 -0.49796038969038275 -0.1238320899225774 -0.41670624780015636 -0.44435728725503476 0.04051657836703451 -0.3935066247319106 0.1699618251861269 0.3057691293837746 -0.3941902132809495 -0.37903121428895525 -0.2168182010033242 0.12790350423894697 -0.4971288466122382 0.17593314209352193 -0.10444045302543668 -0.12843159353667363 0.25368848890639584 -0.05673756534179211 0.14502900176419925 0.3777244966681229 -0.457376624323165 0.4690592331231368 -0.36178175320585687 0.013380396027574131 0.3473377536616625 -0.40490937445558906 0.35345760899107953 -0.12259647076690122 -0.27647387831227116 -0.05166335386790332 0.3671603960745461 0.3208631534905241 0.06388909198580175 -0.07571460143538489 0.007665054454370887 0.1926472676410097 0.4043411939074658 -0.35321774208825873 -0.37799593951586863 -0.20844542393120996 -0.4875856384302578 -0.31020807528120975 -0.3434673074963884 0.15856480526586358 0.3535610045378041 0.3803260021910749 0.26994871388855 -0.1644696745286145 -0.3940223230336783 0.04375273796046619 -0.2887175839668007 0.27012876627583177 -0.1871740845523439 0.39430007657845295 0.14288106082643903 -0.23345783911624485 0.35992921865862204 -0.3265643162807306 0.38766866553946255 -0.40365128482504764 0.03034483769136779 0.45343348817967755 0.01093831373378099 -0.3106361643369636 -0.25473298657872656 0.21197052567361582 0.32667382370595077 -0.03071265925211275 -0.06367515800307051 -0.06663200798577928 0.012032187792910199 -0.07979450111772216 0.027676614386968737 0.22151022565865786 -0.2246067470102807 0.28106986153780295 -0.36460187875726174 0.4806603295972185 -0.10416423068922662 0.40706961557945665 0.21951891514663627 0.44891356420471695 -6.56719152670488E-4 0.2841187193127353 -0.05751411962775782 0.16695026467825547 0.4053145037148426 0.07293901033979318 0.33300027998471887 0.019449120185678136 -0.26241289139546026 0.18648915667124866 -0.047021553795538115 0.2898917230841743 -0.04946321459130448 0.3009359371319356 0.3662868554225046 -0.02438210361554305 -0.24690865444830368 -0.47348345017706267 -0.4695825886563151 0.4022594923528585 -0.3602157705930668 -0.02487641357988679 0.20188815804742383 0.37302857646546594 -0.19544541750243855 0.45439758998938845 -0.25444378479482266 -0.09478433037240896 -0.23845407883708983 0.44836215814338226 0.1370787799321109 -0.4501831341926957 0.025784862186734914 0.33943116052799993 -0.4880513952334896 -0.4230418748481132 0.25915801596553334 0.22303268269671772 -0.11113220924249233
