2
256 768 true
-0.013210049094249323 0.4847689505219194 0.17525661106253457 0.0874842707171092 -0.25527066267676524 -0.1347965088988769 0.06450448295783376 0.2685599000940817 0.46695633286133414 0.42662871077473846 0.4016109393914939 -0.2350954145801841 -0.3219525914055702 -0.04770425679052548 -0.017418117713370262 0.3126958646853623 -0.2271540513034328 0.381682972638903 -0.12690050774743214 0.060993578323417674 -0.005935661402886892 -0.41869722976406465 0.1876578177301835 0.21507375273452217 -0.012721483810027254 0.3962738382561979 0.21917833306425882 2.4170732685841144E-5 -0.2872411056054806 0.007852355034257885 0.19879370797703222 -0.26719056527964125 -0.3586763644285159 0.14769127501729173 -0.2824108943884043 0.10391402729218638 -0.4859777607694512 0.3619904306726174 0.054773180931638694 0.27142823766982954 0.3247816013566624 -0.28631841240405537 0.20354267662873263 -0.2563000449494758 -0.4911298343119633 -0.4593042680047783 0.44018313503327505 -0.019994243025412736 -0.2967051334049927 -0.1618336802365039 0.11350155218288681 -0.19542067146671838 0.3638964283953955 -0.13348550653666166 -0.07318264801208367 -0.2396139796564447 0.16589199074435615 0.2438440907282076 -0.3519163408063262 -0.35053982933123795 -0.31354904162848474 0.4337048628167717 0.07134351330556239 -0.016306669914105686 -0.472946211935448 0.2207427726062076 0.2876314927077249 -0.08222584820890877 0.16430541996147005 -0.3009760400597486 0.03590639773494429 -0.30490088349710315 0.1995542795702163 0.09712052008965266 -0.48205776208331796 0.04373675090846437 -0.23326297010974062 0.3160847227381685 0.10837738693432063 -0.21529568748710026 0.4067143450475367 0.43863937722593566 0.04564653992112327 0.03056489368752751 0.3735979092012131 -0.08830215711403744 -0.41570334526821184 -0.0336365704740402 -0.3723027646510334 0.2564127354259458 -0.017091695008090355 0.028765034022364966 0.346563617700965 0.1663592420574477 0.31103485243535334 -0.22467593460737614 0.4153097561864995 -0.4235088062070276 0.018342888034296317 0.030338941055034215 -0.17505169849778401 -0.15769390091414762 0.27096269914221693 0.26042448131427914 -0.07902664879625272 -0.43515239635602876 0.3092524783171332 0.31776078575453764 0.135024782079237 0.29936873182772716 0.0031474665646992217 0.2932979485256783 0.1461234981495115 0.006479354578384208 -0.44389757590504686 -0.3309146566457684 0.1465344319806431 -0.3831336027330462 0.48174246675667487 0.2303954909937423 -0.4055196529924658 0.2745614810510278 -0.17558257598230498 -0.38389154598238284 -0.1310335860888291 -0.460828274330997 -0.010932490509735483 -0.35574971174574294 -0.28938603205774477 -0.23002974222492106 -0.20071393380045735 -0.15465469667228104 0.39171272418265257 -0.15822194864679004 -0.011535021196462677 0.42388376949481044 -0.48113950106260756 0.36273140784025587 0.456769175660393 -0.11393940730909256 -0.11538802002533023 -0.32635034880368474 0.09219304884048084 0.145500415150819 0.28566656780320465 -0.48764408432965783 -0.30446390165954895 -0.15563319243915222 -0.4310768826056493 0.08844497519782328 -0.4675980948127506 -0.3323604664742652 -0.01516123949984878 0.43403958987165836 0.13230401364885389 0.03313663986399863 -0.3578924808295951 -0.05807598090129532 -0.1504877220583917 -0.33666502473906623 -0.01746825054825561 -0.4407911365381874 0.10015205241803932 -0.3989405444977089 -0.4904851981427586 -0.4448180873036273 -0.30085981404491685 -0.003816292537045997 0.3461082948681777 -0.03664354972580355 -0.21660732449074815 0.3318403193553518 0.005252980528386837 0.07772612664397456 -0.1841014504729903 0.379178696408417 0.3725485800487273 -0.4008447185235133 -0.27930672211255286 -0.23500950236207055 0.4366119471748113 0.4383524755886571 -0.2218956086303457 0.031161984104976767 -0.411447374645397 -0.4700606074716104 0.3407807765560074 -0.34383776869244137 0.3951547880320311 0.19149421064823624 -0.007899638080920344 -0.21218248465694572 0.1552141150018804 0.470641290404043 0.23836353696326246 -0.37291906398720387 -0.05012428847678371 -0.376047773747118 -0.06631395996278047 0.12386449948353558 0.3094969871282118 0.2739127201522129 0.204760568809517 0.13807933402278338 -0.4109818847987545 0.18572586707645275 -0.13672844067052317 0.02043507002810248 -0.4258992437705632 0.4121016400600538 0.2928294729313092 0.1657950461048399 -0.16573133609860277 -0.09507601734225149 0.24669035764436345 -0.2848959008589159 -0.37628040657192463 0.2256384164347086 -0.29105184591997235 -0.41104972378019716 -0.3365806566525199 0.1956357230207063 -0.3404605240291944 -0.4697375954277876 0.024178958124570136 -0.2741435057884114 -0.3211939249240428 -0.28171194087332785 0.06869323189747603 -0.3430804564514196 0.17438172827656293 -0.4511018083701473 -0.4772911756143655 0.12651494590281917 0.18488866584673505 -0.29427469463829686 0.357898056162741 0.39754573231370144 0.11849089869658753 -0.16801842295853317 0.2754846257342611 -0.3762119882968561 0.1451477794469702 -0.16448239824339053 -0.1404963403113331 0.0660818598780863 -0.09241147404016767 0.15252605767806163 0.28061582007978497 -0.2287670407379876 -0.10432566480401438 -0.3152545196722436 -0.4037345704777673 -0.15759483321335893 0.44326421658492343 -0.1424696241912837 0.0334983150862989 -0.4895537260217136 -0.2632985056879281 -0.1526631431617704 -0.31544077877839194 -0.3213959552650185 0.024138564562986162 0.07445888528791189 0.10474268737002794 0.05967643580010065 -0.46153085683404904 -0.2898475331356064 -0.4404537868725342 -0.16343015174615758 -0.07963774867206687 0.29590849250583656 0.0010682195483091917 -0.28236053575377795 -0.3424240791679424 0.4265379958223787 0.4883500576763501 -0.4275175808098069 0.09266872155922243 0.4134591784528391 -0.1883046644813696 -0.3061692009826439 -0.20985333654044497 -0.032984415678187544 -0.15734964528656842 0.14614664342421615 -0.41303053540499235 0.39736198269353645 0.3000114299627609 0.320070063082564 0.46973972895685534 0.07653237978827326 -0.006439688035729828 -0.1517892880312722 -0.36122725628795704 0.22704230433131278 0.16285701795066385 0.24494455960624772 0.28814225585454273 0.4760651593457975 0.07914098987091864 -0.2731029342074524 -0.4204852518118666 -0.029780169323444874 0.4721029413520678 -0.40222674922513935 0.06348340203406189 0.5199613697927852 -0.19901113691586053 -0.16426197513755367 -0.028462970496762417 0.031128369905284708 -0.33057016933254674 0.09546421430302199 -0.3764013845860446 0.2800450276142487 -0.17759817842349943 -0.42062279952167553 -0.38248244355836836 -0.2226179451957618 -0.20734595191520155 -0.382248581534151 -0.17852699708318612 -0.18203923664703628 -0.03218058360464908 0.4181981258821653 0.4051542862042823 0.29379781300487023 0.29611435063880387 -0.2516557148434712 -0.07157568083596068 -0.2271209463972923 -0.2236502385940285 -0.19705659058207636 0.08883788716474272 0.00401570665577004 0.09539957735851624 0.3030791029065772 -0.3835027210011653 -0.13194607371552663 0.2938642032488807 0.2170563090716015 0.38304916037063935 0.06848670041032658 -0.11736041669405843 -0.08333402023454753 0.2827769246440645 0.12245538868866086 0.24246819167866673 -0.1689955971761184 0.24200989141561188 0.3096841459846091 -0.037845985417626266 -0.1836344168189589 -7.560074003572339E-4 0.1777413308754969 -0.11531105588476125 -0.06838210090281635 -0.09911160782432267 -0.4693095389917685 0.007967495853449285 0.028207845446584983 -0.14708600891040438 -0.14447094050082354 0.08526558064162486 0.10509814344311316 0.10935884678506501 -0.13842565378524985 -0.4869002391852432 0.18178014981218615 0.19230493184702227 0.16229385140221175 -0.34825300006267884 0.33689917214362786 -0.09806380635507164 -0.4144941775340355 -0.1225334696498238 -0.4622580379629845 -0.11416614597482853 -0.24190018410272035 -0.24888889457913946 -0.36299446709771216 0.4404473798433494 -0.06776437934956195 0.39505560742965085 0.4355678929989152 0.19792559938231877 -0.23716382992699148 0.029042876141887164 -0.3536190229461937 0.009013443122702858 -0.4161779490452431 -0.4150772495840669 -0.3642529694784958 0.17366454488598665 -0.3236263195528307 -0.1277583827314711 0.06389242450156342 0.27942910518434483 0.4566328004753476 -0.47669294058993034 -0.01964098501674357 -0.037436217610255944 -0.3971772771855421 -0.40074364453776296 -0.4681977896692338 0.1285922424336182 0.03291013530965278 0.34333589179641155 -0.3095393019321906 -0.33205438313190555 -0.3056564945441014 -0.06457762841267192 -0.1570225794818071 -0.1841832771669675 0.2882549091672269 -0.10602819250565727 0.431219540713445 0.39791899277996284 0.4540256447005719 -0.12980667334823637 0.2664010568305103 0.41442863926832296 0.2523952990244728 0.16602886175205409 0.23037476648913388 -0.49231824825215675 0.36146980403994977 -0.46593559688852365 -0.35247746397390295 -0.37924368635638755 0.3509587491752029 0.21532621624017367 -0.3855848390510604 -0.4913959314118891 0.09882941188577825 0.09252803856901427 -0.12730786776761038 0.22998895973081657 0.27143203255162646 0.46008624778317214 -0.4511066582201741 0.020503818201573765 0.1749736599877852 -0.3887783812141021 -0.06218582357934046 0.2564969210618871 0.24172017664902604 -0.33913891597035295 0.052706024902007674 -0.43228239117970985 -0.25595707684112984 0.21574400508516178 0.001838804200588786 0.2769673876604682 0.46847395860135027 0.07231286544878619 -0.1809876693616046 0.323681731334283 0.03209748824305301 0.3589144377081044 -0.0697683087289284 0.3370719749921635 0.27823793904893956 0.34024362613774195 -0.17091154288794896 0.07914588257503641 -0.4255718941980102 -0.267441716747817 0.10014669134968797 -0.19654886571243166 -0.4107143344060298 0.3092576707231167 0.038222764721925484 -0.14928017982214337 0.13877352860638914 0.18056812063125585 -0.3991037032604003 -0.20185591223966104 0.451747460102258 -0.10227410496714477 -0.38486106446510204 0.06196967498628459 0.10444940384604225 -0.16261405904379733 0.4879176701649551 0.11013422385854507 0.46807933690666914 0.3594209518641837 0.2227012863154952 0.37603794079024516 -0.2627584565329866 0.12537843781879418 -0.035207555172792566 -0.21261913024146936 0.013214583926597861 -0.06750069958579785 0.29677872994575305 0.07034306229379451 0.49128244734195387 0.41165869600429095 0.07046349808890122 -0.13014338433885717 0.07813056774329244 -0.3639138352005818 -0.4696104071558009 0.12280221124154123 0.3189159111533649 0.4989456653171824 -0.3774267222321582 -0.3115391650491694 0.22963760008701814 0.4857818124113868 -0.2827853048738328 0.3306198026740873 -0.30344774903126637 0.25879767217287664 -0.4544050785623075 -0.006793480940352226 0.29562459285968784 -0.352285085902471 -0.2172894437524577 0.35777828629006636 -0.27355300692139023 -0.04099898070294017 -0.4191689628441608 -0.2546054439146735 0.3423068980968009 0.24519037079849337 -0.09105202308667332 -0.15710637748255601 -0.3218125691585767 0.24310783035728603 0.17285321903554596 0.19961858988928657 0.16277171379151487 -0.2768972886651275 -0.3346014218156796 -0.15092008798042952 -0.3490839336725606 -0.2570028898343641 0.07317723980624072 -0.17578068763041058 -0.12167155727885015 0.034304168768633216 -0.3494753240806622 -0.35335040917867716 0.3011150652870163 -0.2758126643332252 -0.26270323241520865 0.05095560268180739 -0.42836856388136524 0.20694074522262385 0.4215533466032406 -0.012510065483204203 0.0014980900582571592 0.40353555262303575 -0.15205659647191558 -0.14937058609047768 0.3306202973373998 -0.16180906184212113 0.32846585121187694 -0.26528543249598346 0.425858934866496 -0.26302807839920517 0.3276301509020927 -0.1291010944457473 -0.43240869825452 -0.37561197061756746 0.41923458799787555 -0.06521895276918116 -0.16879576221222528 -0.3085868318446636 -0.41201487340582493 0.3418048091041423 -0.06481796188706228 0.1457149915628441 0.10439557450678666 0.4277190297619813 -0.46641935487206265 -0.42414112222945083 0.302637067400813 0.05062385670503898 0.31395643821701935 0.25103119931985296 -0.1435994865903216 0.05693241545726211 -0.015540228821522529 -0.15502546736648865 -0.5037558474389685 0.45205273270746615 -0.10878428431528096 -0.05356720822568613 -0.2587419073981353 0.32155278467781934 -0.2609216187909439 0.18947363640773265 -0.03757916823631002 0.12004497079015863 0.2790631455178302 -0.3754469113707415 -0.45396755058330335 -0.33366846332889777 0.26914519671626846 0.18474671549007113 0.17559686130517832 0.42710194539712215 -0.13394102594572047 -0.10286887459909275 0.13856267199287123 -0.4082083653270351 0.20984267349289923 -0.23172950606488554 0.43729835460015787 0.36910622652943137 0.3077728170049223 -0.4725993356983749 -0.012017465618829798 0.0030190833628032576 -0.4539974545473817 0.04098830935437066 -0.26793485690870505 0.44598099246204675 -0.41128957478408634 0.18217746762008258 -0.02621194507217655 -0.023865051777727006 -0.05823271026009581 0.35341766669981634 0.3796412999561242 0.27255619672027614 -0.04845963610769352 -0.1069967908775645 0.15098647941534815 0.35935064803958217 0.1596656692037233 -0.13232469237599104 -0.023504095930083416 -0.41055233140000186 0.02560668258093427 -0.3930614356395905 0.14097571097972705 0.12922090545153855 0.10567135781340718 -0.39796644915293733 -0.2676138057380196 0.22194406092452018 -0.47028486501246397 0.13511288424282406 -0.22475772445034997 -0.3604747584233101 0.2950117593578748 -0.033652570924393235 0.169500133963646 -0.34160776530576337 -0.4202752216040997 0.3436753550751662 -0.2236937042614953 -0.3861365930473833 -0.4801085779244063 0.38993252326464306 0.3447932833622154 0.21696746443544676 -0.4630418359762058 0.45750707155749093 -0.5011421586438288 0.019176312137453206 -0.12738884961741295 0.14792785814686044 0.47591421897438574 -0.16596269014155704 -0.23489880395481166 -0.1369167355594912 -0.4818681197907161 0.13630952602739133 -0.11345371592210338 -0.19461421966772188 -0.21076812052356567 -0.02252921014404528 -0.17239057764829013 -0.39914632791334664 0.1729919459397461 0.018347874144151843 0.09785727738275271 0.02869692920741257 0.20818869727032008 0.23082090435558367 -0.007991559063269971 -0.4019721957077977 0.29579942402790704 -0.2923433211948851 0.09848246219237566 -0.01978769332981892 -0.13347871424005892 -0.19053634471333425 0.06977479147690131 0.42866838018446096 0.2191140739614298 -0.42169013405410266 -0.412361275891506 0.40900873900211754 -0.18596805776917197 0.4119940805928748 -0.1518924165565586 -0.23113574420213318 0.20939391499742163 -0.19230665371484498 0.2731870421087584 -0.06113551228783318 0.31372140048676744 -0.06327752746738423 -0.06372599001692865 0.17126272129241307 0.2338706407435909 -0.283200246959363 -0.372818984014616 0.2837294092001959 0.47483997435660497 -0.46493733424338624 0.44485968097740997 -0.1303619600867414 -0.006281398444110353 -0.436677036547193 -0.17077451955993933 -0.2386770212871161 0.3175827794691011 -0.23936087778631343 -0.2498849637316426 0.37403316334209014 -0.398360494768634 0.12968399765787453 0.22876243761708423 -0.39044963122326615 -0.4653351951584962 -0.3248750762970205 0.09985326386130709 0.4240588417050713 -0.3538003969445599 -0.04399790660447024 0.4521224903581196 -0.3402784344624716 0.20215063493582416 0.29012540410060506 -0.312351572837768 0.44828486902542697 -0.05040708682395145 0.2786775868591081 -0.29658335075364595 0.09677753371330407 -0.4053749093601063 -0.0955590625877301 -0.3357776840196397 0.4110125581371803 -0.4070045697526758 -0.07778919771347785 -0.06050800444781035 0.018444280813338168 -0.21846353756723869 -0.3013797275929209 0.3899702607844245 0.05897423733095356 0.21765271902625435 -0.4046186362823001 0.39282957364730064 -0.2305548450320508 0.3956705590538989 0.1529387687879292 0.4196890371452807 -0.24012787717255152
0.010215548048929844 -0.053512304247582354 -0.36642784381240145 -0.13174173817292412 -0.23013002661602985 0.045378364595622715 0.14098429775082613 0.4337581779213867 0.12478062446121103 0.4813713619265425 -0.03722120037019641 0.26439936754389765 0.05539011090485484 0.2633529924031771 0.09774348563543059 -0.14056401603267304 -0.2470526079055574 0.4098867447024349 -0.38776675565173896 0.48737812376728895 -0.45313694640588925 -0.4370996760513404 0.43059019261069237 -0.10083624835450442 0.4378885778435525 -0.1837390144543105 0.4933276465085259 -0.01810593668211431 0.18437490526840858 -0.4620537704370472 -0.09277689949392452 -0.3276667417000457 0.4445083875644431 0.276740194783748 0.010578232397071959 0.061985436190597626 0.15990258144453512 -0.10288235089977815 0.10518578785354703 -0.1389200188947414 0.1260230414831559 -0.437573596762546 -0.40453353030627504 -0.04036048802815617 -0.061917888664603744 0.4460275054641608 -0.2765984892926739 -0.3334350888659008 -0.16875295117681663 -0.02740838710087523 -0.3383071178059925 -0.4610465854608903 -0.12304553021284478 0.07264404392649047 0.4835311769692303 0.1671480482403468 -0.2691064053485366 0.3734819554350383 0.10694546970072681 -0.33427269591606334 -0.4632358510977068 -0.0902479183354038 0.22880984692476333 0.4220131770462061 0.21833884250630234 -0.3433516415109741 0.5074718755671642 -0.13372877112266857 0.07403229936495959 0.0425369023883875 -0.07654520520999646 -0.11038251480999854 -0.0908835856398426 -0.4216289086134545 -0.08099986446581 -0.05325167033284904 0.17042332166999763 -0.08179025318398436 -0.07008321576086754 -0.1414662905105455 0.2934410858475279 -0.3420626983488856 -0.4591119269182641 0.37965731190317764 -0.3672454906230322 -0.07455968119867329 0.020779980415675824 0.17814995195518019 -0.01671671730795199 0.4716630825342922 -0.29744284010661826 -0.22107489008850012 0.4179102594487224 -0.16379664796969037 0.44345697351333796 0.38547142955433245 0.39882414350969825 -0.3109121150284752 0.2472975155275773 -0.08530111896874926 -0.30616332042595185 0.43725324108558494 0.3415026941132683 -0.1355216845432047 0.012806220171409402 0.019920131743387817 -0.019041601347247025 -0.17231609684832344 0.4133639121430959 0.08028485767061927 0.48893652926446873 0.06466105487467251 0.3119492608120113 -0.10791417723237186 -0.33429490211406687 0.08819029688368978 0.2330749184002702 0.18419728442826838 -0.23417034415919952 0.3454868979301666 -0.2882185940805554 0.03756096620184275 0.25310617087591136 -0.4951169357873504 -0.019979676785931703 -0.03278438797483168 0.029722235428995356 0.3596015251559225 -0.4166297275124417 -0.12084163115425324 -0.3030129286093419 0.27353878335873183 -0.08969657625259912 -0.03325998605310926 0.40742046349968547 0.15388551656278246 -0.09576203653565564 0.2715904474141942 -0.20023592462866613 -0.09630786403018565 0.37746046760837876 -0.1256799560770868 -0.029205858243382524 -0.15341245552898297 0.213608906692863 0.3861873144986939 0.23325402914339496 0.4746403114269228 -0.20741293887477674 0.0036018138134300535 0.3717911046428855 0.035839657461174707 -0.1411658318877351 -0.08095076720243671 0.18135096832645284 0.2026482513915 0.020953882552550634 0.414942910658708 0.027815764534022916 0.4641632742725118 -0.2753656217490646 0.027635287490487128 -0.48972887779854013 0.3450002806020458 0.3582903565052894 0.25337388460958477 -0.19518178980640133 -0.29488486547629794 0.046478834345504545 -0.39660618643297324 0.47489001297415506 -0.2356111606577826 -0.057493007850697574 0.1288607942443432 0.25111110807294496 -0.10161467626543692 -0.16902860592588229 -0.32592036948296266 0.19586228255421825 -0.07358772502544669 0.3113497190237584 0.4802236175188214 -0.031648724727043505 -0.3652987096991736 -0.029249290484086206 0.26516308150345813 0.457966742078385 0.00817411319212731 0.13220684551059506 0.11100819956208947 -0.37958921532606504 0.456253262397947 0.3541244435402456 -0.12052837136004081 -0.26095203098111514 0.19708023682205977 -0.28590536160332997 -0.4086204458678248 -0.43839429028011984 0.12620881868699824 0.23574479696133024 0.3516604559542246 0.2526224473735871 -0.1169559063609552 -0.4466001349469907 0.07564778273253654 0.28673922547512465 -0.2313033546959366 -0.22145778319946474 -0.06278185580092668 -0.47237141572133234 -0.0905050133975434 0.019350836661121883 -0.3429334330635791 -0.006185145230133925 0.2949687001297617 -0.30241298279994994 -0.21654457799583107 -0.015419192863727515 -0.17682781044250095 0.20396266165867177 0.48106823370498863 6.933276337834486E-4 0.44153689081832115 0.0735157584195141 0.04985571221198596 0.20347630198659916 -0.1714659640806383 0.23611475785282623 0.14367070157752157 -1.0599465827461093E-4 -0.11152496834974679 0.08454802404535834 0.4437131748371127 0.02877128131024373 -0.24934588607541858 -0.2534885971511419 0.06629021985218407 0.07516555251365328 0.35896458017292554 0.12687191865576236 0.04017153119261224 -0.19527084842138534 0.4219223333011718 0.14677315118978598 -0.08781030853302492 0.18171429839883976 -0.4256970007114582 0.42326067707511195 0.33668129985361 0.1340080876401284 0.3049303637550091 0.1653521439458356 0.33844246058669286 -0.4683271318201704 -0.2607252980131851 0.37614504082843786 0.20703080669656881 0.13723665341301172 -0.03299977505021374 -0.41629623691733947 0.40113036128675517 -0.11795198290707816 -0.23695975649652284 0.0029980205055227154 0.15633764232143785 0.11831171726118964 0.08139590409195928 0.05609533660729429 -0.3828442353583856 -0.10107958736450569 0.18971618085839187 0.24310578425473137 -0.19378345355033036 -0.07964212148022944 -0.09244685172549157 -0.24283881630117746 -0.4750370749254619 -0.052046801667409714 -0.08398148451371683 0.24613325194403743 -0.1979374542991044 -0.4027415537997934 0.3131612298677227 -0.053127269237333324 -0.017562325095814714 0.07059667825983737 0.11451016055218252 -0.40830208621475905 -0.4835390488921358 0.12131929411831423 -0.037756565467356694 -0.23721415796329953 -0.1430023494300734 -0.11693777062192258 -0.4459501810007935 0.0987305754940674 0.05186124247531675 0.14539335875641402 0.3140097158623728 0.09889526798423115 -0.30257104813820407 -0.1655224560852705 -0.45352300085173053 -0.011325504844759565 -0.3806371804437149 0.14599826662807056 0.23205371946147144 -0.06020968370705289 0.47782803048015127 -0.11377028320243882 -0.4978539402267148 0.19334715026280683 0.23522606130559828 0.49578107912630226 -0.4812241602096952 -0.34326905972140087 -0.3517215405619079 -0.42215757972918655 0.0968340173373298 0.16178974912910998 0.25096221151840575 0.18402954868876856 0.010469752663275022 -0.4661905977121803 0.018989548486571986 0.23429122409563533 0.06935091042890369 -0.3688311465486506 0.217297073933159 0.2824049374051683 0.33238606814627336 -0.05578647850852001 0.2118399270548825 0.49903217762130414 0.1702337516950984 0.05198311776535204 0.1789573434316263 0.38748799872006323 -0.04675680196632713 0.2184664365438736 -0.43204719715112105 -0.40221191763373515 0.3447983019936057 -0.386276114146369 0.18230439345041016 -0.3184005107784052 0.33486645655873903 0.20355627350458738 0.10848876380902563 0.05653660867736308 -0.3154330267349899 0.1733324276910768 -0.226442366172718 0.2352186889270661 -0.4362382606343651 -0.11768821656606593 -0.4100037779260189 -0.32198042859919224 0.3871206771893895 -0.49028583263339354 -0.1912103246124317 -0.29426649199886895 -0.4770262015281906 -0.328991023999794 -0.23662591556302698 0.013773661224083852 -0.16891794850958491 -0.4087844461307601 -0.4567916819603816 -0.2826090042535071 0.09916599281476404 0.22891924983037118 -0.250293568456387 -0.24404109752399114 -0.35410534884666034 -0.0812800419731882 0.2737274171716798 0.35828411970757756 -0.07219802287016054 -0.14236960251405192 -0.41590280719944117 -0.40067907986742085 0.2597190788944997 0.09927178597967337 -0.2889290343816384 -0.29026852333156006 0.02852932228497422 -0.19614273813913982 -0.14690872430600072 -0.3741076278757041 0.23534665228291837 0.13062033573298482 -0.30984884184427486 0.35768846347481587 0.01191403437159537 0.27469404912536616 -0.2780936789666197 0.2861933316267786 0.4912322977843109 0.13271474054780197 0.4593159437336277 0.15664819388634624 -0.2753249772559158 -0.3521993998012467 -0.37738901274196573 0.3878618667010254 0.3780302498909906 -0.4718261846864533 0.1635409067245169 -0.11583439959513023 -0.30886297149693936 0.3319998525080526 -0.13577582298268162 -0.22830395989907684 -0.2894585053968623 -0.19229408443535087 0.30101593873304017 0.4606557289791215 -0.30290694457714373 0.4150133625031161 -0.49497475623542836 -0.3837799185342051 -0.23629455483148293 0.457376388241585 -0.481085082658568 -0.19092035521615597 0.11527082233771069 -0.26632416605433845 0.42669431475649183 0.47209399459281903 -0.3866227422350602 -0.2959315297271592 -0.09722618529726477 -0.32750115231737925 0.12365857071351385 0.28280784291787203 0.402878030690678 0.43975979404937865 0.12603804903117719 0.03425139577447539 -0.4369952716611202 -0.10554357677325851 -0.1363286872834393 -0.02449576962514651 -0.2664808603012279 0.24866344653802072 -0.13028586115345486 -0.18850586067155867 0.167637343957908 -0.09338208200362347 -0.056446781318345234 0.14017591441465385 -0.4893352802850142 -0.02415176960593702 -0.45896578969959034 0.34302516323342036 -0.09288218287341468 -0.4410473911035376 0.14609667214246802 0.3803426528620762 -0.2838233685150757 -0.2736807852606715 -0.42850477674041537 0.19758906707282933 -0.1577746782435836 0.49418273397086326 0.1285762442632814 -0.4046168948819219 -0.11473988462727583 -0.3866908173826523 0.1865375121064334 -0.33035563621209807 -0.39470654143732814 -0.39228410618438175 0.34250266824715525 0.24932842407398176 -0.42806644897370233 -0.3099033256950927 0.16715831171185933 -0.20279377990833083 0.19657167818336937 0.43211177604261736 -0.34036290151058424 0.33136623235176077 0.3240716870661321 -0.24807071185567792 -0.28751961036151735 0.08614178753008427 -0.01803455593683331 0.4650905728092234 0.4106710103749655 -0.4994827351014196 -0.2255661774729241 0.20522620996725482 -0.47041039549483077 0.00852512213059354 0.3219123351798113 -0.41093833971905097 -0.3830282527482995 0.27819762923954583 -0.17379864598107744 0.358838712832471 -0.04215671604449933 0.018876599364923714 -0.48732690270023604 0.4218404824570543 -0.15556158620465868 0.46439605564860836 0.27285077889544784 -0.19270105545835245 0.5032480374060188 0.37162251054724327 -0.35410252688471844 0.06970576200651384 -0.052176294285512605 0.04080875456734132 0.37933516502318093 -0.09490343108210691 0.4922927119616322 0.2614775375213577 -0.014889859503694572 0.4386568329723565 0.407529778569181 0.1743867198582116 0.01296402609731282 0.31656564642593626 0.46449503569339756 -0.03537499213262247 -0.227621319438879 0.4770360544912247 0.3778154067109819 0.21910529343558272 0.48676041731818975 0.2336480805732544 0.4282068088026166 -0.0718342041179814 0.42048797629647094 -0.2134670703246487 0.33815271280505144 -0.24243235001814778 0.40674007411872476 -0.20600936437783915 0.45607351349384956 0.06753025515373536 -0.2981074077926622 0.3365149719736349 0.05147500909315954 0.019376821792282284 -0.21248432262457073 -0.2734528577174888 -0.068997447305021 -0.19514104307416458 0.4443804385785317 0.42912469627628735 0.4222558737734384 0.3834909108059956 0.4309346884705787 0.17180113646939504 0.40065331646640595 0.39811356255272057 0.5002747211157166 0.24246387306776937 0.17911521615846557 -0.34735871048905664 -0.4686413084173899 0.4250544955277555 0.13613515043032431 -0.2805760014079339 0.45628746538605075 0.21809043828797986 -0.43467694372553156 0.306176909136005 -0.45451978144928606 -0.08107756295255766 -0.3219833057441944 -0.37683571510192915 0.03811691156100408 0.40350888213979647 -0.455343668075744 0.07233369543499052 0.21645758323803202 -0.4784947875032442 -0.19849146204589765 0.3031382298986748 0.22875544923438781 -0.35295521253098566 0.16885571031707503 0.3882142063575406 0.11198539404515058 0.3959346173387471 -0.023875986087036626 -0.4567792642453912 -0.461216734990824 -0.21129986304296905 0.013795967617620088 -0.4376146244136464 -6.034179376595524E-4 -0.38090954316907094 0.20250729937734493 -0.3352222504231686 0.16231366541673772 -0.31892456556777815 -0.016160021085807535 -0.17913139545544318 -0.05467909504013653 0.3661256692122543 -0.49569398788625835 0.45871648546242705 -0.1584576122062012 -0.4264443583384575 -0.2152835055633483 -0.44570864507544905 0.19420176089178043 -0.45372897156175473 -0.11404187457741895 -0.40961994172162614 0.1735182065954829 -0.023886158051637296 -0.13521691224459348 0.2923556592515899 0.024635775092955156 0.050113792637311326 0.26372235673150024 0.2079388810842262 -0.33357490583873073 0.3879048441925875 -0.25335599554452454 0.3616728683192052 -0.2553672261760126 -0.058673262237297096 -0.3359395925923226 -0.37929210723640916 0.10734163194365666 0.20651711798205225 -0.10147710070311299 0.2758795057532934 0.454285361025774 0.3928685367983101 -0.08066933621921346 0.4506734130180014 -0.18164138750460163 -0.19719723396160377 -0.42305549588478697 0.16487862486567761 -0.43270964853512295 0.19276882782054175 0.41153047869650455 -0.42890655986567205 -0.2650468904837899 -0.23305911860862508 0.47218855227757756 -0.09467657474256466 -0.09041262422353905 -0.0826419716456767 -0.3100028861480782 -0.3918709525003776 -0.2163561931695522 0.4766500070885231 -0.11040265367687471 -0.18710042172523664 -0.05411110203162898 0.36042465319635114 0.11411447173504759 0.022422604233710862 -0.3716533187965809 -0.3480351380512229 -0.21319114950181411 -0.13244091596458135 -0.3118947845841216 -0.303019264703082 -0.3062604298530505 -0.03296798752044779 -0.1969597331374685 -0.3048957097428703 0.13844986101192497 -0.03979703649350886 0.04844795112986476 0.3866763443883619 -0.222117505090213 0.2702781573765453 0.0496175555217362 -0.3026565457758199 0.214755601993811 -0.12351580545566117 -0.2795858887257997 -0.03910624660857869 0.43836354680906575 -0.46453851327643947 0.2703373598260342 -0.4051734289196085 -0.35801458743724257 0.16961730175289907 -0.008876639235155168 0.22598662869794636 -0.4725318551220049 0.09491469655771202 0.10411932419377357 -0.13541567211362995 -0.05046271997248602 0.24281377513327398 0.23538569983627275 -0.005499740304840914 -0.22464812972838366 0.07090366036031037 0.3308034505553129 -0.3891683941994381 0.27292032818919537 -0.17119193284542558 0.37919170562038806 0.32543685416383494 -0.4557349626987309 0.16735438569288108 -0.042701778539457294 0.05842999136723628 0.1670798555180012 0.0042712036770095755 0.02391357515442863 0.2171406442588043 -0.06509661689032026 -0.25836682743209816 0.014621107246837961 -0.24731435821161532 0.24973911370953178 -0.39182710110605756 0.4363808835591236 0.015381163347876451 0.32258309774753535 0.21968979731230284 0.21293827505573215 -0.053943559358705526 -0.4888629152915497 0.02487080514761449 -0.4396779205225054 -0.048361767528286394 -0.043505347815468574 0.06617453135104627 -0.42954616029200754 0.07365005699498026 -0.23063048491151783 -0.3328790013182378 0.3893406837739605 0.3494808546970128 -0.3742924769673246 -0.22597425815760386 -0.0532448242614193 0.19309130213005155 -0.4147269046889794 -0.14945451083011985 -0.2102863850628553 0.4605572540688993 -0.45402516146936744 -0.4699973553041889 0.3011475748755218 -0.08404215904994829 -0.44972380372387316 -0.09421626172758024 -0.4900634294738304 -0.46871200443622 -0.23041145675364616 -0.30211901622271997 -0.43297871910774366 -0.09454227246631605 0.22321536043858414 0.461098024146957 -0.29882681682130774 0.22366117023667276 -0.15093411250883917 0.28167815295059345
0.011008303149346166 -0.47413659665313634 0.41687795667834254 0.19651684500541622 -0.4908331265733634 -0.5013900185335792 0.15602855361245052 -0.2499124439239876 0.44558879807884155 0.2645609311306622 0.22809487210041865 -0.15477604225675154 -0.3631154232547401 0.45342103619868446 -0.20169690672399038 -0.1904929732336881 -0.3066354430731148 0.15921058619689726 -0.2260725858425794 -0.2464433242280174 0.3054004514186504 -0.4560268785929999 -0.0031732122820635773 -0.4625702532484443 -0.23201683800638445 -0.4063729133162174 0.4546413319868057 0.19064581693681448 0.44854120949564596 0.4785790965429017 -0.10929768792483545 -0.14785972671330794 2.377210819555257E-4 0.3870879448539551 -0.27606661261609167 -0.24298243975032102 0.4327531316399288 0.47560690903653113 0.2377695428336277 0.22920223890835373 0.44908507327990266 0.3984465751741889 0.03105138950190794 0.06760649966942645 0.2666826069077482 0.11821459059882948 -0.02190814281899167 -0.49245158874545575 -0.36846443128344153 -0.024016272697709784 -0.21878894282025374 -0.42502304174654904 -0.23021216821072576 -0.12886999010428868 -0.2416107155260537 -0.46272823958322007 -0.43124336769216 -0.38877866787291715 0.1332193850432793 0.3365222288468674 -0.24256219242245577 -0.03159427364239342 0.0564588662063607 -0.20475477338582207 -0.21676929943938034 0.3916586472732289 -0.13406684472512037 0.4412954589357799 -0.17440615660537803 0.22788325780659885 -0.4517726317439392 -0.09512151169660818 0.31836137183906255 0.18372186880558805 0.32057104155075644 -0.10162171334435824 -0.2577239343062345 0.08858419480115522 0.13526321127795057 0.36503438395573184 -0.34471102338216947 0.13731765707390053 0.4271237943848093 0.49383855448910735 0.291167243459221 -0.061143490907779596 0.1104830766278099 0.05642284318610528 -0.1831977494952441 0.1873596646432783 -0.4591578435186517 0.21593295178908434 -0.41198807702719936 -0.058187344961150946 -0.3340276659241957 0.4547299242067901 -0.015550372013866843 0.4706907944094951 0.04076500015898002 -0.4077293036958048 -0.021080143884769312 0.27694953131349215 0.3815534195436753 0.2779641039864167 0.3477596766280557 0.1309580251446651 0.32656895818502557 0.46331422735939204 -0.2411642878062714 -0.2797757280157447 -0.12118178826844155 -0.3333450712143857 -0.13192868268503485 0.227425990410272 -0.2737527732428619 0.2716796314151999 -0.3782615921872148 -0.475754112991859 0.2560025023245657 0.07307055114957929 0.4210525324485666 -0.13034241626667087 0.10615660318360404 0.31526427178149274 0.04649767616894811 -0.05621298541742669 -0.20353225702011762 0.4201078186087285 0.44537945268363555 -0.429484473913696 0.3591533365316314 0.4992322944996979 -0.14191394321080858 -0.11679201438432824 -0.31468571730538253 0.2328921207836198 -0.5009711852277094 0.3403866405588169 0.2687107247871619 -0.4129963342867435 -0.4759571043668293 0.27541783694159694 0.4366618384127572 0.46015747605402085 -0.34191340475762155 0.26462262404056264 0.05637810740895685 0.016042079421188876 0.1772858459770036 0.40612992257369357 -0.35067711296265347 -0.20462105121875968 0.42479692509795963 -0.207034650843352 -0.22866408110071332 0.298053157436911 0.4228665623266284 0.3723046964095532 -0.28754397547373517 -0.4994750515307458 -0.4299768552947498 0.15142648576673168 -0.3098596656389309 0.2806503402890772 0.11208605293885532 0.00445289615497134 0.3685225392670569 0.4066561666841253 0.4407267522129907 0.4437382922071328 -0.407190448190461 0.4437935685792852 -0.13824549204252498 0.30426563543787666 0.1772001936342627 -0.35603584967196117 0.1846828470420908 0.22853710108985034 0.16140886064628143 -0.1899891327609335 0.22383659854661034 0.1977686264613392 -0.43329387685487614 -0.24563510768479907 0.1534135379060086 0.03758934098130135 0.11227052577942077 -0.4074612177820793 0.2704138930058546 -0.16107638146751269 -0.18530327767762914 -0.2554982855599992 -0.4369122575988951 -0.25470148175133955 -0.07800082541306405 0.3244050133082699 0.42108022969608105 0.1517606325127398 0.011153713608496051 0.4135522640997914 -0.1462079977632144 -0.23340079739875252 -0.06565533277492758 0.07946466179743075 -0.34596607883038427 0.19051476458093689 0.3983085948452264 -0.18143561101337938 -0.42133782870817726 -0.08419819495665538 0.35792819475648463 0.4194992242287668 0.20579769711964613 0.3681052669872899 -0.0738348983697923 0.46549567900329225 -0.21315210324976147 -0.11912802764686159 -0.27667888675655133 -0.4944464782246478 -0.15221222625590183 -0.1474852066582091 0.25189876520969745 0.4412105356386036 -0.09115575389006336 -0.13778018136855888 0.27000909528745326 0.38478975860505227 -0.008867877314155295 -0.3839315587732118 -0.1574764386525364 0.011444469849021146 -0.012275723699592275 -0.09928716715323223 -0.33246079202560336 -0.41562382699792616 0.30592226299806935 -0.1948750065410804 0.26308928849078317 -0.3479160996175748 -0.3506568771952229 -0.06372512112128291 0.1839197860460028 -0.3611140883955189 -0.46359752115793806 -0.39844008244704743 0.28457712593584167 0.15121296920221963 -0.08201129375306071 0.4233766791711524 -0.2402865143210337 0.016148290711449256 -0.036416462144380234 -0.29315047013511664 0.2702024495480894 -0.19435815046666935 0.17541733107297505 0.27271932886010386 -0.04580532348106225 0.5090062320476798 0.3886985506514735 -0.11887321053939469 -0.1402944822013406 -0.4748403236840229 -0.42005196662806005 0.41610668706241394 -0.3077617470374644 0.3405226112774806 -0.3085221315985918 -0.40976138818215946 0.05776425485857499 0.21190204500268836 -0.2871548892619728 0.0031820493915413364 0.05656839053374109 0.24925585364820535 0.4140416528689079 0.40475771682543915 0.19835175205336464 0.2249719301619144 -0.4072699313205952 0.39993024185865467 -0.22556450377189896 0.4001510300486526 -0.16194500649518773 -0.43235512784255353 0.38845916768136296 0.3241176014742431 0.008873727302610447 0.3582571461081452 0.1310944826783931 -0.11718828855771712 -0.4954693163385977 0.3725676228760739 0.3004552752323461 -0.4047894056865104 -0.22800237023678993 -0.17522269366625923 0.2868866359826651 0.41435735742428426 0.23147433521293587 -0.1511992912842818 -0.2947325151749547 0.14648776409031994 -0.22773214052548568 -0.4400247809302343 0.3612824860149469 -0.048424389175192734 0.0604037995777584 -0.1503191493266207 -0.24509409171351115 0.05181076639485759 0.4795145044155579 0.4042940743424161 -0.1542944440616429 -0.26774759635674844 0.41327814758558507 -0.05495886181049061 0.06259597049087712 -0.01090552816704773 0.3409906315911754 -0.23870525868051254 -0.005276934498585452 0.06998503052341074 -0.08191901525722055 0.40144615523013755 0.3063571411080981 0.08456087558405977 -0.4242031121624445 -0.19054039731226394 0.37251091666967046 0.36439578201470213 0.2469224992603521 0.19555726216172517 0.4980369467005807 0.273872532912619 -0.10419772517757028 0.49102170820312746 -0.285311835847694 -0.29820168475134995 0.034437881554630866 -0.23732403250289352 0.3761726240690424 0.12267333674418084 0.27573425825743403 0.14034493038957027 -0.13678589233829902 -0.12112308136721012 -0.20280544476307577 0.2918478385608922 -0.3401468607779941 0.021000574463600066 0.0013242964027420287 0.36456659848029194 0.19160757653817712 0.4049334205050754 0.4292758943112615 0.3970305554487938 -0.13258094558279454 0.49310575189601485 0.3686550052575954 -0.22160840470612564 -0.06430003598666072 0.30533368187011173 -0.4362360024986091 0.37224663512921313 0.06551964371230985 0.23847773037591072 -0.19095105231581863 0.2227287616139401 0.4775668012642895 0.40489096147608317 0.010090838604140465 0.013077083985646703 -0.09927344607114416 0.4372003189652578 0.472814427163995 0.06100117008401595 0.14588629372557174 0.45763170690627675 -0.015296936886371511 -0.08510441706706555 0.4480728624437824 -0.16006720552055992 0.38440883440494966 0.4685791091110318 -0.49802719698304415 -0.2920345410455378 -0.23262514093765557 0.22902887077847994 -0.037190663973776725 0.1689724724294576 -0.29010680530387983 0.4740354500542959 -0.13123417145031943 0.0791498374656911 0.34184248272992274 0.25086592238443767 -0.32689436358913715 -0.31777763367930195 -0.1684931613868157 -0.02876369760105815 -0.4594174644584374 -0.46060404918875003 -0.3627327466811881 -0.002232353203036472 -0.15277941623135075 -0.03623625856948494 0.2660757988015093 0.30410611244878133 0.2714505580813844 0.389654792247779 -0.16416882279644554 0.05062625267818816 -0.006102470751125886 0.11044956542552245 -0.49312869514519175 0.12437463244322755 -0.3066025833615289 0.20093927267462228 -0.22005969493911492 0.1090914701486327 0.044469437800967654 0.19457872552326747 0.4542352801344835 0.0962212176624517 -0.27456959802020026 -0.2589996428745273 0.2042498101431642 0.12283853418419968 -0.34443208225635613 0.47939955686491514 -0.008508840412182734 0.3394730468283298 0.3349501435130555 0.33971088708823705 -0.3132933748755935 -0.3498976915735601 -0.0026201696870510128 -0.38443500437551426 -0.27001559885209364 -0.33583678220428664 0.16749182859784445 0.38901231445958034 0.34331496481187873 0.3538386132847517 -0.15485463610225345 0.2311726662371811 0.22809214726942015 -0.08031137143961084 -0.31519272126057263 -0.2888936531012612 -0.4344088657906986 0.4317697459853113 -0.2992522433262658 0.3281540758829885 0.05089553487246876 0.46277996806283067 0.08913973696962049 0.39749016354549754 -0.4105124778912765 0.10758978255108385 0.19581972104090484 0.18639060459901888 0.3911677182378491 0.1437362541533602 0.14449172433768528 0.11426080176231371 -0.47619828600703895 0.34421666269116125 0.20775179944022884 0.2511500528285058 0.30025925098072803 0.06074941052437601 0.43478891528284813 -0.10558112209085334 0.036013996669680824 0.5012442433711346 0.3492614708476787 -0.022706761981219747 -0.18530890258009575 -0.14525304707516906 -0.05373609983699054 0.10781134599518945 0.10859979728375413 -0.07663083921828402 -0.4409099158964945 0.17392596074239217 0.09564546295790706 -0.4593033123828354 0.003543420682479155 0.13997114593698745 0.3496356387301599 0.13205008419483272 0.29294214575390226 -0.04365536087659226 -0.1637271803604155 0.32010886093526947 -0.4389855103696596 -0.27649216505810204 -0.29442878901987635 0.38377574882365695 0.45492242266017885 0.13211883495218835 0.4814709295544263 0.12204942562926738 -0.07449136210131414 0.1800783460330824 -0.2129142259647395 0.02120393918963567 -0.2704126868487838 0.3341970603728334 -0.3649478070186427 0.46639171833189297 0.20687362850173252 -0.007409575137487852 0.08141216145790095 0.23270971818201255 0.48665921765212256 -0.31557544446778135 0.18593696123526335 0.04077340428052999 -0.36912026044895746 0.282402746664049 -0.3927763044200092 -0.2808377182983006 0.06332507334677658 -0.495083491266185 -0.19720677409837387 0.37784109502748453 0.32886990329595883 0.47590233752194044 -0.047532964343063165 0.3984544049852835 0.11337640665406817 0.3738526186137666 -0.2681139809429862 0.06656194487217 -0.3307871321869675 -0.190534096703068 -0.270229357812237 -0.447446746929721 -0.4546871967546101 -0.21416824205813412 0.2160047165540293 0.3146534340628769 0.215761162206487 -0.3541741703875949 -0.2262225157148291 -0.4260105919718063 0.05266833803340734 -0.06518898341752523 -0.012835227227602572 -0.3674508714579701 0.27838143794065295 -0.0313352557399745 -0.18515703678410128 0.3686408418063042 0.13581468633863797 0.3829475757577145 0.4575122813392683 -0.09481781029588351 0.3392174774342132 0.17603274883109077 0.2915858215471425 0.35708050543656383 -0.4364086764910228 -0.09404676395338792 -0.2935703083689674 -0.29490721360864786 -0.18506735710356628 0.11983559973063956 -0.4824441205685976 0.1403794385457491 0.28464073641215887 -0.3718489681881863 0.4948337134317195 -0.3424892499606167 0.026056953183547154 0.18054725775766944 -0.487384602317907 -0.3856378629441389 0.14388209036553176 -0.023379392348004194 -0.48109722860009724 -0.014460571003169439 -0.41636536331113894 -0.2222847874074135 0.18736567056055195 0.06621708014579859 -0.48925481936785004 -0.48277376915413206 0.0791704071749539 0.2765991951777263 -0.1231753933147922 0.38033576782239775 0.4636083119713755 -0.486245804563498 -0.011996350673441685 -0.4655724767742429 -0.2648901951733931 -0.07564437266380204 0.011265538777743615 0.20050794037189434 -0.21085789321411888 -0.10697358365605664 0.12623645171574113 -0.3739150592669449 0.29958805159398766 0.4214718047840336 0.35185416291136956 0.03463560525302838 0.15629340027717675 -0.22874519896023088 -0.04895367163724528 0.14335631700852727 -0.231687187633111 0.3406160088417601 -0.06303054721401896 -0.1917563363466382 0.24459223752650933 0.14718378943029298 0.44324829526792336 0.04652048064767283 -0.2386664129910506 -0.19256588033891953 0.19971914731886675 0.020059719109714533 -0.4157440503745162 -0.20048233390422499 0.35781308399998646 0.23345725136327228 0.4111058680908487 0.3619017459649562 0.15540399619239342 0.011757777121502482 -0.09013784808942635 -0.08093682028985892 0.22223244111973633 -0.03598493909796423 0.12438570929248145 0.10961040041522414 0.16133815334880572 -0.39913531803775054 -0.16790756083139893 -0.2894230002422123 0.13281537587067754 -0.4795355299611217 -0.49730792520649814 0.23539084508825053 0.3099515469897535 -0.06263068374368988 -0.34842778872808766 -0.0016610853428605597 -0.24664058859873556 0.23186494960860468 0.18227896774771496 0.11395617815132472 0.31097761527481194 0.24154585803250472 0.09488748705938417 0.40083088788969035 -0.15077159513829969 -0.17758535964729144 -0.3625963949049865 -0.05239777370895337 -0.027724544585980008 -0.29864031311503814 -0.07514109382892137 -0.491612616680098 -0.029524637280897173 0.39567761778503135 0.1707739580877644 -0.4067324421774211 -0.29804479990107696 0.22376527084376058 -0.03445819945204283 -0.18186050055179667 0.21423636075703956 -0.4026223476718229 0.31526780525165043 -0.4129127303902407 0.06361000990732743 0.35361508505626815 0.40576181892766394 -0.29173388106688936 0.26374640322671 -0.1259331624658147 -0.18415447342636382 0.3607512340096958 -0.10002957920793232 0.3571123654737498 -0.11489423465204837 -0.38776186097737325 0.3110970765314656 -0.22558734779746872 -0.1651245202082392 0.3913309757652804 0.30309276065744784 0.24404185388734664 -0.20563345071773456 0.28447369611697465 -0.378843263799876 -0.387918796161672 -0.4519557760541427 -0.44785581966386667 0.4964152476250598 0.35236106533461703 -0.08456630955694747 0.43907098189275207 0.3127488854538134 0.3119617019421299 -0.03468263989974244 -0.46164995268884185 0.2586583450901208 0.04796263393232092 0.09833447524829665 0.3526367581295756 -0.23703984262525485 -0.20349455065790817 0.33037756458482587 0.43851466244751147 -0.3179976266507415 0.2729509009373044 -0.2787109695611686 -0.24460375440173565 0.06372264711138022 0.24825678802939144 0.2531806742460967 0.3166650434783272 0.3168263696881327 -0.4182998736473582 -0.07888059392155577 0.18109516566085926 0.21444478204868514 -0.09772356947745055 -0.19466858229999917 0.45571228312563783 -0.15140446122074155 -0.07624210770016449 -0.1946935057184434 -0.1089079035122444 0.07875350930020669 0.253574363870052 -0.03824451772859084 -0.32673006020313433 0.08325411942511696 0.29155008566653534 -0.4733563109459432 -0.21863600625654048 -0.4730518691276402 0.4904159018544173 0.1163071870908624 -0.24995924545976175 -0.012686681205889233 0.017884904345301118 -0.05094084463877295 -0.23098663717560441 0.13867362969967367 -0.41761292949718226 -0.2340597189756668 -0.06683971536728155 0.17622117030623505 0.10725206908981144 -0.21877573581022586 0.08066100280133119 -0.35958906641899263 0.2708055962856591 -0.25669449916948794
0.029418646659279762 -0.22929054148279004 0.45752195515006533 0.2198766491275173 -0.011876683468253489 -0.007177386170825477 -0.20364129586774063 0.02915537910500099 0.36225437611189154 -0.13751800562977837 -0.30112566371380417 0.46085637467335255 -0.347774478091356 -0.23998942163809722 0.053274236022255575 0.4591298292127092 0.2972620900147381 -0.39163958097245916 0.3838482817931009 0.4663025952262223 0.3166204837283581 -0.4345820061526543 0.25181039682648965 -0.24920326681797783 0.015348066219074622 -0.07098238362352949 -0.17199282184642936 -0.25621153928701296 -0.02807279267315985 0.07039201204731639 0.005377157344872579 0.07260737821498153 0.3130599270218282 0.26859251935885875 0.3442944888154682 -0.3688123711236721 -0.21976790775536445 -0.21532408776095058 -0.1095201090578176 0.2004244489018945 -0.14478662191569588 -0.05067232551596848 -0.1038765584270521 -0.2899811504496608 -0.45819068722979317 0.07897757428218131 0.3105582674618057 0.19424267355065986 -0.19798356410104662 -0.20442985897431165 -0.16899229809021774 -0.40259272805067287 0.27591141424726456 -0.019901962320720844 -0.36742812489945215 0.2536535754013577 0.07329438080408707 -0.49105156874766326 0.13329412724820972 0.18202256840982908 0.38432821077019347 -0.1596594255896604 0.30096931467315624 0.036028292338127516 -0.0325042281707835 -0.04345239952694858 -0.045771580529563136 -0.08534076460723272 -0.19867951877603657 0.3642212560768338 -0.39032573254877184 0.056214519028643536 0.08466774066061117 -0.2992676480930311 -0.42992082857353503 -0.26073315472262465 -0.1660401617332673 0.15293022801944517 0.4913982624895903 -0.13662775955894546 -0.32407086630488546 0.2985952509012604 -0.10613532864469172 -0.38789273107607986 0.2470070040212014 -0.18017178931480227 -0.23989173101345151 0.23551802204090214 0.42001669722475726 -0.19348259763343786 0.13672657264234128 -0.16525448478211124 -0.08598431149815876 0.24696365503923187 0.20364888871721443 -0.46549308826839975 0.14693597034851374 -0.38151897334619755 -0.41868552605855885 -0.34654454639965554 0.49624897744937785 0.3743168144681295 -0.12302550155819551 -0.1369870709438463 0.18736182428559098 0.2844030946163738 0.13587174701892937 -0.25449154793203 0.31867016866925024 -0.1781215240867355 0.0830185183428968 0.04025145117515379 -0.015449717608930854 0.41113079709452677 0.24361524546873323 -0.42548237947290196 0.3904181487154597 0.1705231172198063 0.37869175024892576 -0.1926189252057241 0.4056185462975022 -0.4867697736652827 -0.2640417445969382 -8.305202831007627E-4 -0.3181962996984007 0.271034730957014 0.32211654091493636 -0.4322877245432535 0.012920521472996209 0.2954160479359559 0.026519306217959945 -0.0879646982144774 -0.05039331465601173 0.01611136535959779 -0.42666602659484687 -0.4800005783824173 -0.3000947547753998 0.06075990414293656 0.13596104868039352 -0.33834497910620787 -0.2412886824932069 0.23753785791947757 0.039362131173611814 -0.225232737349247 0.2652830592417762 0.02052879309893483 -0.4693534151278774 0.34907575371530997 0.48611068153500353 -0.013236342979379824 -0.18849711676928152 -0.3961426587811031 0.18390980117048125 -0.3413695495020883 0.4609872645303687 0.1943437326278846 -0.4514232924992962 0.1535886215080908 0.34508368443089865 0.1024923566956343 0.48460303131061133 -0.3893419985490995 0.49497392539100676 0.1373719491637707 -0.06235684620992072 0.14537639431850816 -0.10017766272810562 -0.06197636953328574 -0.48640594982872115 -0.43226898444114537 0.36020161837353093 -0.1949669428679896 0.028112594668112296 0.28509119061835486 0.2983733691204212 -0.20267748917806483 0.07763083008376945 0.12341368317314368 0.30878355906295585 0.3610501439179823 0.1134340294221643 -0.028510441515134016 -0.4517713590831656 -0.20212810271931284 0.02088605916685274 -0.2036498342635004 -0.43429288126749815 -0.24921727532470198 0.013981025919207152 -0.2443400415525136 -0.13612417209962943 0.11063596904640603 0.4979850210678052 0.4220697272583201 -0.28399404913958376 -0.4391944186500169 0.16573025526282892 0.05788487551320096 0.06965720526891354 0.3266908109410798 0.29076350962786296 -0.29498180544846003 -0.0935416894692999 0.3328408401796281 0.45937284970117337 -0.004835802431738303 -0.4580459768018609 0.2644074641376096 0.11510992551032305 -0.3284531966418251 0.35542566350692295 0.20326396018767384 0.006449637160599673 -0.4490159092724663 0.032458782959937336 -0.11182200893648621 -0.3819139978143808 0.34732045499807845 0.3950473042126767 -0.09467540426626724 -0.13264784648924408 0.22322129390012793 0.1481329712910399 -0.40964029173343447 0.45301904270767496 -0.22198175999004588 0.3856115647815666 0.24370660299415553 -0.1347220814193866 -0.2839843955735654 0.2669859317478749 0.27428383985386057 -0.023232771539106255 0.2817496621367535 -0.25740777921752395 -0.46111389512962364 0.39003576233570253 0.3478580633302598 0.16979954331974315 0.17468536840078594 -0.0066731368469446 -0.4097285423738954 0.15070433547877418 0.07897791033810597 -0.17640240910356772 0.3129544566092975 -0.27660713767796 0.3363814062252354 -0.1248246513299853 0.17233014836800714 -0.049197280338267674 -0.46892782055676335 -0.2028578410997488 -0.11736988102721392 0.2893358702577847 0.27568802359018435 0.11686864541522206 0.05420303542463093 -0.2230062524604123 0.12734772474950015 -0.4475952342148157 0.18990264921905836 -0.2173046130270537 0.21532180229629128 -0.3310911868952464 -0.2777512418918438 0.35621475862597024 -0.019166829754134168 0.12807695403331235 0.2904815701178541 -0.460139418221304 -0.2638815274859537 0.01510854690928413 0.07916455195232194 -0.23933215342384467 -0.39822423680552116 -0.02321450036865997 -0.4749700333407633 0.37574242648516304 0.014965552830248748 -0.16180411938422293 0.49170513255066584 -0.28422658463983425 -0.11462267541933295 0.41852682220918136 0.35087885108269556 -0.4419913971720951 -0.13027974232848363 0.4570493726279532 0.41194264098516886 -0.31940245881909135 -0.16612922923326454 0.09342016450755479 0.3809403230598995 0.4941716668985612 0.15684570791074925 -0.35065364286354034 0.04838478648139019 -0.23792480806581257 -0.05036684451944346 -0.05595640766983562 -0.012873489714760622 0.47483110136591494 0.4927996226867671 0.4325343203095086 0.16400140524445914 -0.25626335617357304 -0.0952424593177177 -0.1847423443626687 -0.04567432107219092 -0.3694122709500388 0.10187392957265838 -0.14835515355256532 -0.04704626440906467 -0.2228463374661917 0.0238792466743572 -0.4679160413331712 -0.002731169882995355 0.0030451786160407453 0.42556632713373194 0.0023553969247754243 0.4430717644871742 -0.48777654336040677 -0.1833748631550498 -0.05304462030676003 -0.02308533645178931 -0.4887675266540173 -0.28139084108991047 -0.2808563909458201 0.10925418016754153 -0.31374590291969895 0.2521171036965976 0.48030366256679347 0.36775856375317306 0.005368741950332629 -0.08664717168596146 -0.28222120659434485 -0.5018604815307507 0.47958926210752967 -0.09407360270942561 0.06751894242661953 -0.012987716675117613 -0.20021166324637168 0.1369091013568226 0.08070221020347887 -0.012640226878128451 0.12095771531672116 -0.20099542923962022 -0.47574061775644555 0.4920912618412984 0.36735184888560624 -0.06905210248796183 0.3532175330193342 0.10811196342517315 -0.25951904700294554 -0.1291076191710448 -0.2511880602325766 -0.34267690792001526 0.1131597683870571 0.22364797700422973 -0.21648931430052143 0.11522510661185717 0.04438792571822058 0.2851702607925658 0.33669625376540946 -0.1565381409383781 0.34838291703765273 0.11206399762575929 0.2546724161293848 0.4117397503449194 -0.3448028995322936 -0.07077046859460218 0.47977295196822817 -0.03904834472664955 -0.06280457035866725 0.40159343057589814 0.1120393193190293 0.45074244262771684 0.2727652215368646 -0.10663338812052398 0.1628259943418003 -0.271630088192381 0.1760261439375831 0.41455535212127625 -0.09104243629529005 -0.06712316857658752 -0.4769511883689262 -0.24011128300298706 0.0921022910877922 -0.5019527211415584 -0.0605198999187994 0.2817168188661991 -0.36038334842036096 0.25755932858826475 -0.35986376061180725 0.1414951525000552 -0.06320889402327841 0.36545718417554574 0.16577735613992953 -0.09501607954955822 0.20206221636773036 0.18055582223876157 0.13518786450670947 0.4592196017718369 -0.24622682772819063 -0.34741610935233486 0.12069145240486351 0.4964190402019417 -0.006451842911051485 0.5025800717070695 0.05968470910133834 0.228255592720181 -0.451745929332485 0.04431367175362274 0.09399209580998771 -0.11215606625040343 -0.12352597211296973 0.357674440327194 -0.3933159704358368 0.2300291594909159 -0.4499078167256371 -0.21477613378499663 0.4105579146424955 0.43981426528557843 0.08994400385774684 -0.13350405888665784 0.13333423132131508 0.21940047109427957 -0.3904025800605161 -0.296490186298529 0.04588664233966331 0.17010649641489908 -0.34911886080602494 -0.3691243367200232 -0.13165490328625493 0.238156927613109 -0.33360601926921113 0.25843976399860474 0.03835955980751364 0.1932492666139343 0.34890184583362865 -0.40715101991987646 -0.225371668187682 -0.3779979365713135 0.3359021140020666 -0.501204473792611 -0.44372547996509876 -0.12382459045396081 -0.44387580252826947 -0.4980329002486999 0.4904400504441008 0.12014241135503781 0.002806234092194871 -0.19169724236954633 0.414707211608436 0.21610542221227774 0.2354700975426565 0.4852626185791959 0.2714242586862253 -0.05490462513509399 -0.037283081338895685 -0.10412750777200144 0.25590097247966526 0.24189939189419943 -0.027642984060225802 -0.13985626660381745 0.2293397212817947 -0.40924947451574156 -0.4471505162585432 0.34397861307573246 -0.23435189007323534 0.48977224960545374 -0.11699218808406153 0.008305795562463664 0.4633353024696595 -0.3903639239348807 0.2378772405503857 -0.40285817567606325 -0.33172496089519016 0.01216156439703836 -0.1855357395351617 0.02846272951052192 -0.19690369984414566 -0.16247836024350457 0.13125143403931785 0.24028454087136536 0.24082550309353098 0.2482798337298937 0.047840522390101135 0.48201574702794386 0.3055157465527487 -0.22971406220280763 0.4690193084533149 0.08582293274060877 -0.2843165148086028 -0.202441169511388 0.47254161357972313 0.39073078673022804 -0.47784744773352344 -0.05867528137596171 -0.09191435303364703 0.2246608028194102 -0.16188774745820933 0.062241105196811364 0.06203308332684586 0.3318641497916514 -0.4720287758453456 -0.40107257062057133 -0.29783712026445797 0.10608618466042063 0.2550686236608143 0.01910866832571404 -0.11759063119241817 0.30026384149714125 -0.011669768669493059 0.05761192204846059 0.23917328190376122 0.47597194782527336 -0.2538030175494918 -0.19562239095127704 0.20126299453642418 -0.359794142227862 -0.2527370863420782 0.4189747219132845 0.3427607409112513 -0.47513436230603207 0.29029785750386927 -0.14503013963931943 0.2994676871610936 0.3393386055477549 -0.23247490113152167 -0.3254377885573496 0.3435409662646726 -0.4540704613914292 -0.4468031238931969 -0.2723303937876052 0.0362124372905709 0.3983996896897493 -0.4415568540807121 0.2694942384700607 -0.04113973491613439 0.26947741345089676 0.29191329614835926 -0.21425502877439742 0.32795094800992747 -0.12255804423006303 0.15479351407375258 -0.3639698979296515 0.27873901382652005 0.37481628664966143 -0.19588931845975213 0.49102668747030304 0.14714874573571218 0.3097372034584014 0.2730184441514487 0.4044820158116936 -0.39948706545524093 -0.22290514706235492 0.23006650148326596 0.05142833944740986 -0.4649432723741034 0.08783406519575729 -0.2796655936727209 0.17669532800635152 -0.2626517388085261 0.11735859658005171 -0.49503566097113755 0.35978369842820307 -0.13653913468431977 0.3079198891919863 0.4466139803849186 0.15444126338653963 0.17628295699530505 0.194152999132827 -0.49200437690685905 -0.19167792214914395 0.34955740758040077 0.09116307646291724 0.23066540708148736 -0.19217257948509503 0.15811148464874092 0.18653299331040546 -0.029274056545863653 0.24943305091876466 0.41017105332257764 -0.494354670354936 0.04487576789952336 -0.2613351125259113 0.44502843022953653 0.2864904508192175 -0.10284556497290356 0.16968497796381618 -0.4085450031042624 -0.025943585617545107 0.13592625990967808 0.14717813876761168 -0.36233954478342156 -0.030023426586207616 0.46966848144973455 0.0043171592998573 -0.040137501829197564 -0.14732274608558335 -0.3501576656771108 -0.49308018733655173 -0.010244046513218608 0.3881080539909219 0.21576885855476202 -0.11440210665009069 0.2427908335650775 0.18201688961517473 0.4390276581875583 -0.36669811201343605 0.23129225009981402 -0.22776469664645999 0.4232906332774166 -0.47248863149213716 0.18941377127624187 0.48033608347515705 0.03873396250387045 0.007001876855621483 -0.13179000000908725 0.28369948869873374 -0.13198068742453428 -0.0353402458952594 -0.14455098252794898 0.3931768451247387 0.29185065462466386 0.1790475050138383 -0.046203823645842426 -0.3145696516513688 0.3262898050401718 0.15810363907486305 -0.24409414710786198 0.2563108251401791 -0.10821127742565857 -0.4779055456175159 0.22163509567298942 -0.21883347678706164 0.47092512817948723 -0.05265213127924784 0.19533264388433888 0.06474760226300412 -0.14589684597941613 -0.32201528137458924 0.17999360142705365 0.17916414935562286 0.1332087955565462 -0.20539040125927832 0.17145334922050948 0.3939388880343354 -0.12429186502666723 -0.4589877206402396 -0.48799045078623277 0.41663866114378495 0.04369775697346121 0.11955188744706649 -0.4330055932183366 0.22517481898769937 -0.18187162792119588 -0.4540209846757468 -0.15293850428733027 -0.013709395291644833 0.4808699653438102 0.40499847741258743 -0.3168056649203902 -0.34352519249474234 -0.1162462688412869 -0.4144801822091002 -0.17172308456331567 -0.11886525866723847 0.433215633413562 0.28573150970511224 0.2947849260279973 0.15342401525133553 0.3437474725467545 -0.038604272539575546 -0.10401495463975408 0.03495148092725629 0.30916591929062387 0.22074916499831398 -0.41400114566310225 0.466113631806045 -0.3243495719108229 -0.00199672091260073 -0.2779790027224543 0.43855227209191405 0.1956457487866905 -0.4016020570812457 -0.055000231520912476 0.014669238081476119 -0.38069671777300085 0.2861835936886299 -0.0895258501724825 -0.3248003588203269 0.3714448154354425 0.2789921063605265 0.38327235743928817 -0.3768086029042932 -0.49587882566957225 -0.05826603008030476 0.161154380406888 -0.05337515142451766 -0.021992043949997774 -0.09328064921962231 -0.2493443088099035 -0.1346800915134711 -0.2788922105093809 0.12640188015759035 0.13670108475072182 -0.1651262040958733 0.08976701322185945 -0.31720294755645184 -0.45375216339110586 -0.21743383321818452 0.3408454381101596 -0.02720589303435872 -0.04176268629137088 0.4895152416863012 -0.15095610657790376 0.16006940008469212 -0.3902118309689613 0.17942364078701412 0.23800867080120883 -0.485724238372977 -0.4256865536600887 0.395555522471147 0.2388948142971979 0.2830794254097885 0.07035671497533065 0.3003775165162163 0.05550897251130521 -0.21708894090627265 0.40971388727960684 -0.0930443668942631 -0.41980012502947817 0.190353575618373 0.43919308762822545 -0.4674752798597382 0.12368615075553452 -0.12735309878396883 0.435045720238194 -0.036689049297347995 0.38641810697264445 -0.030996791749937195 -0.4056058143435245 -0.4915064721556607 -0.013088190244089627 0.21915354531129572 0.35594821082038447 -0.08511801693968288 -0.07796117929078603 0.0547583270122034 0.13450477611147638 -0.1765135196581685 0.33438764950672006 -0.014259259069422745 -0.21077368780271752 0.3309455644266912 0.38066648988109747 0.3427112617009928 0.2695098843254881 0.07098730849120549 -0.08488496299219883 -0.14955645717608046 0.3945167125222697 0.07780243957025837 0.37339480248170975 -0.03466932482663923 -0.3265736550812135
-0.047941517246225335 -0.3805356853052122 -0.31401861300180495 -0.29742282615860943 0.4904838384765885 0.18779823939259618 0.2254338699421036 0.22319402624716034 -0.42523797958330717 -0.24346999993360563 -0.22580048694591207 -0.3022840401812426 -0.3847435740345929 0.31125726421824695 0.3422639695424399 0.24853700781002966 0.021495447633008015 0.0986351267222946 0.4839583780176457 -0.1269857595424051 -0.09460275814099774 -0.4336643540003358 0.07809941089702498 0.3108868720799962 0.015078581656504655 0.4137029685375133 0.3429555413364746 0.3810810269458168 0.45924240373111186 0.35701076225596096 -0.3846443829711036 0.2747364616075145 0.15227147037786595 0.09417705234751556 0.4198426148204814 -0.2103054211485266 -0.06922744287312668 0.4021673616294339 0.012514339888788657 -0.27259195374582096 -0.35278287718019263 0.2589117764358339 -0.40621204986638415 0.16991944575702844 0.06997409729188528 -0.2532112538892922 0.3494096265621201 -0.48613724951670195 -0.2160420822516738 -0.23079667416441219 0.18969237806167624 -0.08876413227909609 -0.11410489056919303 -0.02087393856910668 -0.49592049159524715 -0.16018508338797321 0.4367341345550237 0.008569167606542067 -0.42668728248944865 0.41911401760715694 -0.26088850357860305 -0.3531436551031596 0.22793387417611288 0.21288374771204202 0.276995012568608 0.20628809620812455 0.3865447092512483 0.19880005342161478 -0.35393468689117047 0.47380348990951504 0.3390179551422012 -0.1879138990859755 -0.36241436619481543 0.3075870935690944 -0.4731192778668776 -0.05883401603874026 0.05245696651007546 0.2969396341993569 0.2664341401840569 0.05333827777115596 0.3036996008111873 -0.047274328329118674 0.14837442348028912 -0.37508293462254877 -0.3258104731305025 0.32686217696748177 0.38950501893829076 0.4965099176907458 -0.16565872788599958 0.09162895896509608 0.14418107058050358 -0.22905523189929222 -0.2756803722327106 0.41188655530363444 -0.3164951469373188 0.34325827503668394 -0.3594923503836495 0.2513943342050786 0.052495312453203616 0.3267104785345228 0.3114293259607413 -0.37226801018944927 -0.18058818924927492 0.09243954345291001 -0.3963002197072337 0.25869810718761715 0.25156480195730957 -0.1483430412394691 -0.49638311810887037 -0.13578821991372692 -0.4821007902365209 0.26460379913058973 -0.4087758644581498 0.22857755736583696 -0.22254646356169833 -0.06990074341765765 -0.10499855540760533 -0.4611957018227833 0.07373228434061896 0.09179462827539164 0.039535197058040226 0.1069909727641928 -0.5003737836646293 0.12216554621312622 -0.23614236501703648 -0.35224092428411585 0.17046014102695856 -0.3666203335147397 -0.2177840824784808 -0.11270561375688805 -0.006958455617445707 -0.4140464503620087 0.20422945510107884 -0.3257317722473931 0.33438167340670816 -0.03173642549362627 -0.33611402440380606 0.302445622824028 -0.3257125780566554 -0.47749045630941495 -0.1784979471492461 0.057747141381851164 -0.15134014173513005 -0.2176910144132347 0.46209994904175644 -0.08930363934169029 0.032220337817719366 -0.006747746084656505 -0.25369215632356684 0.3279914758736413 -0.17591040345926504 0.24014690583373016 0.4371230700128439 -0.4959508782997941 -0.17941352927458362 0.4209274218596622 0.2837072472054907 -0.007692371678471923 -0.12449067338206518 -0.2711056276870343 0.19860976839140917 0.4559278061928859 -0.2244458080687405 0.31695883473616393 0.2630395174262801 -0.0971713560566135 0.44653655435234785 0.2836634264998663 0.030362570888338082 0.46448378080063274 0.013883459452949883 -0.11252184337289857 -0.04459002030482551 -0.3743371023738824 -0.17721188369176075 -0.27982806770057206 -0.07458264988231661 -0.4167885138623431 0.35840754359979804 0.17237711985512377 0.18590982337010004 0.030284764873472193 0.3920619553765907 0.31174822307786665 0.21410704915752293 -0.1208911308688956 0.09758666810706793 0.4466189472270571 -0.13762719777310062 0.1302888914445004 -0.3418029013976887 0.14932927657296616 -0.3914071522104966 -0.2672741203856875 0.062048018051780514 0.08181714687853588 0.29958652154449333 -0.05603701237651805 0.04840300928724253 0.3418149037548152 0.4419817274161135 -0.25370652292039414 -0.10194258753606526 -0.10396605117782876 -0.23014483776278497 -0.16029450195511213 -0.42228795837040944 0.3228206562071653 0.28860983668998075 -0.08763006121207836 0.024027151454153264 0.44029306825927034 0.30809214586049605 -0.38362418068010035 -0.16919711604414386 0.37417796374751594 -0.29791971113501764 0.34411936369571267 0.49252504884733916 -0.07093024176973811 -0.2035895401559146 0.3987660940467832 -0.0703712335760854 0.12723931374462438 0.44344379820474916 -0.18721721830562713 0.07976497575269961 -0.08350222039251647 -0.3711020395498072 8.695126676197659E-4 0.3546599664250946 0.1675143232618646 -0.4488157815796329 -0.23612982526340764 -0.09099439073681515 -0.4728373440479595 -0.36596961915877985 0.34528852774270424 -0.19441337234425987 -0.46487484281151276 0.035211285872242794 -0.2921798568934683 -0.4162062839117598 -0.040185894602966656 0.06838550138545954 0.11740253342764016 -0.4706376334731863 -0.34851312055731143 0.1735277306681787 0.13941267633351487 -0.09020874653565154 0.2085726008045269 -0.2379439332837461 -0.27168396313250487 -0.2697927445941929 -0.49544474621794987 -0.34791600212426266 0.2813140222672316 0.21590602352679147 0.18224587226361627 -0.2053742689017755 0.29308540912231035 0.00941141647500372 -0.1631830301430696 -0.09217872777959474 0.3418471733064442 0.2278934772973989 0.14199679944917384 0.29318748595393107 0.14307939241149625 0.0027031880820786993 0.21040584956444347 -0.45382305208236945 0.19419630606831598 -0.24388243028040887 -0.23634442565152144 0.14889204489209465 0.11925582955949966 -0.46835587216495556 0.10776832494556894 -0.2950016001411771 0.46000643739210517 -0.17240845951456182 0.0663902412581492 -0.16758696268554274 -0.24398420615169614 0.13298543495232307 -0.25634684977097727 -0.3641442882610865 -0.3627598166400582 -0.03596600495867451 0.4670839120369752 -0.33249040000437363 -0.24519048338253213 -0.40640439947504886 0.3131806110830524 -0.031633504166943896 -0.4014027767868507 -0.34386900117737723 -0.2331280339201517 -0.04430616656138636 -0.16148058316678915 -0.051981013720082306 0.45276761706376134 0.3422079257625703 -0.4332913954862997 0.3429932011773161 -0.02475788804317085 0.1219401898139418 -0.3140910884053032 0.08630761107400642 0.23067031344248348 0.42992894021113126 -0.402005053562485 0.4055439046341228 0.1257510794098726 -0.30234083758119695 0.22153887156410293 -0.17878449745733527 0.49291660692198325 -0.4252638200219005 -0.02067012528247541 0.02261638200111612 -0.2914741599690374 -0.3361072253906725 0.007288356488075926 0.2339823111903552 0.47237768516573375 0.41046304695327485 0.08868169420191159 -0.2143800585647178 0.043401190752765904 -0.348321880362496 0.224645827669758 0.477808008322515 -0.15363769206126038 0.39247448810812996 -0.1907214879002663 -0.4608647605354203 -0.007238090591409966 -0.08566039468977107 0.28144601496725413 0.45181055908551704 0.1651369915995073 -0.007079638567718551 0.3091778251455963 -0.20168851067239435 -0.21190462358683806 0.12436206461874992 -0.39272562649268516 0.01132280902819773 0.16208546978540328 -0.09892290143079452 -0.08929984260237694 -0.26894823516447824 -0.2898061865804028 0.34178478598723966 -0.4250843656017033 -0.41355389785854696 0.09735606833005206 -0.27853661349447445 0.37803468505552457 0.49686478767535724 0.17253761392816563 -0.17605335376611608 -0.05407034019682859 0.4525733691058125 -0.45550456533399986 -0.21648139953091836 -0.30631701117702426 0.47936320036649904 0.18274480983493752 0.4102157693821826 0.28835522155188426 -0.022290270349992466 0.11931282368835275 0.171729371756218 0.37156242225165526 -0.2311323798122473 0.3019445487150596 -0.30493158637432893 0.02024789170628634 -0.47112649849849275 -0.13905170714241755 0.07412170733296142 -0.2760340194502237 -0.299793742121684 -0.2220386302182685 0.1695437210004106 0.2666335816772818 -0.008666160945254471 -0.42130017784790863 0.0015170930396937008 -0.2722152621494519 -0.3727730389702626 0.1151920157531582 0.2058714825720111 -0.383178929647858 0.002057977303491692 0.15852754296412944 -0.4120639047433888 0.1427796747451919 0.0029132923563351507 -0.4321043483871341 0.44243031245519293 0.4510585629365232 0.3483175857376327 -0.18791980727798657 -0.0897826761075896 -0.49299890122547185 0.48955102782909227 0.26423203296408315 -0.1872342637286097 0.3712540538822341 0.17877116695659942 -0.4646254279166978 -0.42837502410476974 -0.13096111901662064 -0.26677296123498684 -0.29591815865234466 -0.42193274007384485 -0.03557670300620177 -0.09364990449769597 -0.47848989322080027 0.05920245704987636 0.08397780246545995 -0.03293789106775593 0.14598612160280064 -0.0973905156284293 0.034513002506212975 0.026809242003483225 0.09287637290555477 0.018450957289263503 -0.2610888282255483 -0.34779784184227763 -0.040730869367068386 -0.15219649258659462 -0.231037417682091 0.2098448540182713 0.4392614588643125 0.4555317013874192 0.49025738480778613 -0.32974989808455 0.0795176900280297 -0.12460030032889861 -0.27647355950321906 0.39417883805142584 0.4039977086775586 0.17237157220346722 0.49227741747038367 -0.0522461850237356 -0.09333269953983273 0.23191128470845607 -0.42641038605977644 -0.4007770819970906 -0.25706081793728397 -0.28507897399872645 0.31621332204141833 0.47312544687931224 -0.4208010628372638 -0.2556473139311402 -0.3100816721800487 -0.057450281233839426 0.01784143386550503 -0.22657519222354927 -0.4928410195552275 -0.02899818247989444 0.27192170468213495 -0.006589145939464736 -0.469778127380004 -0.04840697466276437 -0.2465140890891219 -0.16389993917295428 0.42706576640440663 -0.13963042317597768 -0.050261208762028435 -0.19221367639886444 -0.031074211027476824 0.07233981882459174 -0.44972664205344837 0.4338551409726065 -0.4725617102853725 0.20196024092464093 -0.08801570913151757 -0.41916653222785927 0.12577479675057723 0.06020781947895996 0.4868178079758677 0.37178411249904064 -0.21996920530020408 -0.30182049356406465 -0.1990647315202135 -0.1018784624824291 -0.429822704845458 -0.35074538434249136 -0.2912206089000834 -0.2722248496207342 -0.0013685534492300657 0.024362670848335818 0.04810088549083304 0.36975306743152014 -0.29124346578403976 -0.28664426304436075 0.37068980970504756 -0.4494055896461116 0.46418263978932955 0.05610670970082639 -0.013217525666755896 -0.2635674505708553 -0.33168465999781666 -0.30181469251602944 -0.06257523348434352 0.48883141106257666 -0.30381237176018905 -0.2912712877750782 0.015154170371294252 -0.34074707129677295 0.365085847462905 0.20506895874140446 -0.13386253817210644 -0.15336237412867162 -0.15311924208811256 -0.47105023985493294 0.47555348909701073 -0.26864481620484126 0.15612705630948256 -0.1711364781094163 0.048163572355738794 -0.23232102210649716 -0.42084559349836614 0.17956174562544774 0.303130304022121 -0.4510071065571731 0.45296393627608816 -0.23729025901584125 0.3453807183706634 -0.49903326092161693 -0.39770877434418905 -0.46393013624623003 -0.43983206716153667 0.008860812751656703 0.2493251946263626 -0.26540286425702303 0.45395298575644405 0.018299986088999822 0.12646238532239334 -0.003926299037359391 0.22291072682453364 0.09760196206490984 0.365100060309832 0.28070144823134524 -0.34621303160158773 0.4438901713750326 0.10249546449800398 0.152961075275079 0.07817165177131007 -0.12562246890415926 -0.3371501709679656 0.38183987850472706 0.3171711831252495 -0.056726491522389774 -0.024410837719581798 0.11683359853963368 -0.3973868874716645 0.31869891038672465 0.002655479820670895 -0.0036664978351236394 0.10699376893437719 0.1985681816040931 -0.19988756997133686 -0.06861473005960525 -0.061943067778405164 0.3997651458717089 0.42440171543613664 0.21548951110349357 0.3873039254122971 -0.45888617380057434 -0.1685351142560923 -0.04237092157196054 0.4331775935252854 0.44997169474191495 -0.481368172790109 -0.4393107871597541 0.17959322374042952 0.24853236428484335 -0.4381011413515476 0.24251545459667784 -0.37410041541362876 -0.39783781827665876 -0.41320578138065495 0.17442547224967545 -0.2756850335694652 -0.14829452705915935 0.035421246882807636 0.1119696170194826 0.3046111825085993 0.10510534848079546 -0.28255905115189767 -0.16936454041684237 0.4895178431641576 0.23611115592096385 0.35323986021079623 -0.41366302218341655 0.13239893286625862 -0.40096704845398257 -0.3233499413827612 -0.37088687026845657 0.08102537035047051 -0.11065521335521182 -0.1594110936628008 0.3742054347581046 -0.08670785752963757 -0.309117153572018 -0.2761306936678322 0.2794349681590254 -0.41198403550281487 -0.26018823710924 -0.048978421309139555 0.4321494581791036 -0.2869591334582002 0.4400388189812913 -0.474878220165455 0.09373491819478998 0.20338248841182296 0.26716643188393935 -0.18108392573953658 -0.45018610235340656 0.2512397821067296 -0.34183480436228714 0.403315014846058 0.1102954905405258 0.061692901531599176 -0.08514332319815958 -0.4735633098647187 0.12703437877419396 0.11179894466650973 -0.06232296006728713 0.30848686378535617 0.018503787989210783 -0.20399033330482733 -0.0011965874788936685 0.10081858023236358 0.4638219198632395 -0.051602721401678306 0.05547341115931878 -0.11896456504931567 -0.19521154213100722 0.3070093570701628 -0.41823125085197105 -0.325164488302879 0.08707045543219023 -0.2845518077650735 0.03436256325480897 0.03336227039779424 0.20990529852798515 0.4122609516122424 0.030475892247409812 -0.022791513418206854 -0.2720681530183328 0.4232998212248993 -0.062440369275825865 -0.09204370003630705 -0.44591434961684817 -0.25317409042546835 0.2662453068656784 0.3310802301849602 0.2983782484867985 0.06022815807195799 0.3527770995781155 -0.37119868251330823 0.3842066004046959 -0.07496585875375074 -0.09332932575356939 0.1387449397277668 -0.1778216372652218 -0.18970608169435005 -0.005967338145351586 -0.4881120182704528 0.06360235211984452 -0.27672375140356975 -0.2951162657266176 -0.24857756551479732 0.12197758894377848 0.33423324890901274 0.17903389680794207 0.06870513866078809 0.30555420607430617 0.04470910150383993 0.1772750137483856 0.05201482966413706 -0.15474390715667388 0.11214430780489282 0.2940704037853582 0.020111383078060627 0.2413550491680705 -0.30447561572510723 0.2240290326059082 -0.26723212418742426 0.09446707848404401 0.09243172891877799 -0.37882846720731794 0.06984478257939097 0.24938495400782124 0.348315082624011 -0.007523481592678753 -0.35326888555487523 -0.4175322555119889 -0.10239940919219356 -0.3106233062628486 -0.2012602100752614 0.24380303494950234 0.23376328693472082 -0.37337565655536725 -0.12020208939148123 0.34796254265339144 0.2851641022999295 0.2591719208267709 0.4004016234268165 -0.3091256364906767 0.37357220047833045 0.3392960106542717 -0.458002635095461 0.2982830273927747 0.2194817448027846 -0.1183868042823096 0.3436562052511357 0.41830207886452797 0.32361925856822704 0.020331272831153765 -0.04681451740573548 -0.0010864881846497042 0.12947209741927404 -0.1291480319747863 0.13850012719622595 -0.399329816791319 0.10002944069236189 -0.48281522769011764 0.389608361844761 -0.20933210299960256 0.21402087810442827 0.18607300546684635 -0.25000035699538864 -0.3046893421806903 0.4002270006187998 0.023286161839888582 0.22240739019846112 -0.11412092237077075 0.40481322060602387 -0.2256730347825301 0.41612121517351697 -4.831220009397031E-4 -0.0631600451449158 0.3284550581915151 -0.19399115996020305 0.19363501138216052 -0.20175886255603162 0.3311089077600868 -0.14146321761282776 -0.3733151161493615 -0.29866424073337633 -0.07420496176875463 0.10249133146646265 -0.321859539019906 -0.10108137769729231 0.23801557259503514 0.13421329292118991 -0.091012461550786 0.414699761312291 0.36604986484745183
-0.003751039415430273 0.4011913594198564 0.054869398283083674 0.06102748130468137 -0.42451254121887305 -0.36293753944271195 0.1390614788744065 0.42506086672958054 -0.451728341397151 -0.17924786205885562 -0.04299958601639253 -0.1977620782669855 0.28710446274577234 0.12592181476309083 -0.3365255409638172 -0.24680885411786646 0.09237051496151936 0.3768103114941321 0.13730731032966734 -0.1382850029651277 -0.3441240885742475 0.3670580908004204 -0.12780920041430865 0.13053099798318324 0.33559732144465354 0.029578650003533102 -0.24817616988706018 0.4906437577040057 -0.09826427754061888 0.31059240122959336 -0.3958926052022769 -0.4598455980247347 0.061455448733871126 0.3903207331750739 0.4966418492191248 -0.023521405495680284 -0.13778606929758386 -0.20345102380534363 0.06612251643361314 -0.09786433264203906 -0.09433987036572555 -0.20378930904948542 -0.4576896373053238 0.3709761996731259 0.4326574626256572 0.43271800335285937 0.25915027348202174 0.48987081705323254 -0.18603611057086966 -0.37463922298584795 0.25004483784609327 0.48384832393574156 0.3597062337013185 0.34280243435511487 0.28481639762900535 -0.04009778764382277 -0.3766655694021795 0.4401447951280298 -0.0757740945528712 -0.10796571115731282 0.2741525240156815 0.39987777295646876 -0.3850307771397088 -0.46161594421063645 -0.012113775445280724 0.40740848997495144 -0.21606328424099228 -0.15321969867362117 0.27039879834840524 0.3841708233298936 0.49428492352175335 -0.21384979088309794 0.189344148091822 -0.4269044341218631 0.06970817115823884 -0.3796812286672694 0.27183834139404434 -0.377991315035492 0.2491513208811649 -0.22465157484459308 0.2180009016372829 0.30209635122741285 0.4583800752018382 0.06236029971812735 0.025589884997372334 0.10909020719393303 -0.0689957035333556 -0.24504384110127558 -0.1257813058663349 0.20324773976006438 0.231227918534575 -0.19926232422080115 -0.3875992259541462 -0.01040218812555184 0.28449017440440943 -0.2787801301528542 -0.00974549587669189 -0.10261263957337975 -0.33589654572712024 0.4838612369198353 -0.23433461288241067 -0.17245248403215668 -0.28626969125639956 -0.4841868442175641 0.3889442487362495 0.22558986324713332 0.541325802276328 -0.409026079974545 0.006896032567155861 0.23805027313545077 0.1218104005090316 -0.4391903056533119 0.38593786768893296 -0.14468498050425166 -0.10619826453596357 -0.09107339143980099 -0.24580550481758434 -0.04113584939489901 -0.1867991577427272 -0.4010087283580536 -0.48072468038683225 0.19187465189591116 -0.22581871699992292 -0.09053121403850296 0.43230104089922416 -0.34717095299394685 0.41279812374823016 -0.45110559146209694 0.014902905348681997 -0.4280311010098273 -0.45450584958166457 0.21769177630691863 -0.09982289362547282 0.07507419141835801 -0.24831953307466267 -0.2989585528105387 0.31560188098102115 0.331454968614117 0.17755057068420196 0.13169439276515296 -0.30180905755922177 -0.08376161407881075 0.45635032699960515 -0.4145728575062025 0.4543581592473663 -0.40384873015774353 -0.04459994007121453 0.10695445079993096 0.2491848028322292 -0.09861286444893817 0.17552360264056105 -0.40370796805046083 0.22914535100402866 -0.28682410011067094 0.4459676564852643 0.15651553974548574 -0.15038262820887763 0.014843783079176838 -0.2274882649133107 -0.011326287490081318 0.2083144744841232 0.13542515449287215 0.4047428340672395 -0.22016389637938835 -0.21376947125570173 0.3963835295519351 -0.44348768674347006 -0.4352512087495248 -0.40424868950921783 -0.006316496030115206 -0.19105930929900192 0.4068949452835174 0.4279456834022403 -0.22341347357825314 0.4810321965137909 -0.12178571649682803 -0.0922621458040938 0.2222564342757889 0.04383109076075577 0.47824115819292734 -0.0724145666150817 -0.4857215475460005 0.10093447956177885 -0.015294957927899346 0.14279468762813455 0.00659479353905811 0.006636096698354189 0.2953691933457867 -0.4397281699188526 0.12411240024665009 -0.43056397207725 -0.4055543995894084 0.16496077968894904 -0.1544018738243252 -0.08288075272798276 -0.2843646788328513 0.4446789431709827 0.3365816926548351 -0.22856282497654787 0.12815991029350504 -0.017231407607196457 -0.13523720193229613 -0.38537512460742923 -0.33601874214304395 -0.30182052470362686 -0.028441840898307726 -0.12258928035989693 0.3572664230537106 -0.22936978441012343 -0.2608060848401553 -0.050768408570509724 -0.051272482032069806 0.2622513898147139 -0.14192409650283622 0.3364518840125923 -0.12856971647389537 0.32070524977837245 0.45886447106521544 -0.47972268501374316 0.11937086417143729 0.4377072065560153 0.07567586750034382 0.35653915735289726 0.47315409186181945 0.34085933638632504 0.363608606402782 -0.101987039917529 -0.45294153574071366 0.3111885119793652 -0.08186240016227274 -0.2953642996449297 0.32010361640318286 -0.016854458255389837 -0.09245872266617171 -0.1638023743600681 0.16340614032458842 -0.07729761539243342 0.3303973963267484 -0.30366077204601033 0.493637960417102 0.4576663890077141 0.3700439018439869 0.38292944863155653 0.15510417658394943 -0.4041290094688869 -0.033596460452998175 0.24300800061080444 -0.17123459938262747 0.4523670866394998 0.2457112723429036 -0.14444160841074857 0.04382528523191191 0.20656091350647743 -0.01739478409948154 0.24955118480328956 -0.011816889501592438 -0.004938035873292157 0.07830955983199128 -0.10045456258052568 -0.3648048183280469 0.0831173816376951 0.049119978955260005 0.40614939678752904 -0.458278619083517 -0.31281747353402034 -0.05372374821992272 0.4357226652121717 -0.4009882371605189 0.37830413469687024 0.4583013137863464 -0.3909415096761039 0.346263007898332 0.44997645506268097 -0.10087426346231379 -0.22858508984097595 0.17079234127262805 -0.0575664910061474 0.3404990208344106 0.2315642585542801 0.45211082350730825 -0.2848787432126241 0.08088624007512932 -0.466874766597832 -0.09016031414443015 0.4904192034842481 0.0227279811233084 0.1712270858235687 0.07442621987275122 0.01764187080570206 0.3971409418812315 0.19117823998983788 0.06935931174462724 -0.3679219604525732 0.25333813596633487 0.22658392386452283 0.20930505090973536 -0.2637781491137828 -0.2575689813448122 0.06217881290870249 0.3455584634129195 0.2563139132670669 0.006064242326046809 0.4305007190519375 0.02645241342449052 -0.3567796163534789 0.28780979177517724 0.218140274079414 -0.3379838336780913 0.167177091479728 -0.16943670528312696 0.21179619022189386 0.1486572151682949 0.09398227336222521 0.48932264426455646 -0.1326840727250759 0.42331336568968875 -0.12360007468728539 -0.07370280321334577 0.4770332968793438 0.5334174907418561 0.26037397840340193 0.4581203465787394 -0.18491644671691654 -0.15103548575869505 0.4184549223077629 -0.3282372780838356 0.3850362686024854 -7.162627213370145E-4 -0.23244180583264276 0.10799346630695111 0.22443092979475301 0.3872521439468001 0.06776813142155227 0.15927608087316084 -0.12718899679670678 -0.037900224844183004 -0.44702900898578335 0.41275202199820904 -0.17538011648610993 0.036945340941399805 0.43052612273363444 -0.39911451171695134 0.44514728473028986 0.20480442904511859 -0.23856225315903407 0.08966448981342055 0.22020727583465663 0.166610016017985 -0.38990313976419844 -0.47934229827512337 -0.06249437741363411 -0.39618202383965073 0.08170009277506225 0.066448908057624 0.05358988717993733 0.3618583003864886 -0.019948929711971135 0.24462734498592653 -0.031215596808324867 -0.22457912232957147 -0.07760026677467956 -0.42705539372540735 -0.18791245558908648 0.3211972399172496 0.12531156062703525 0.3632057357828172 0.47619131844784346 -0.1553567294753372 0.02160112585740139 0.0499648217855966 0.18245101809046574 0.31182519721164603 -0.14944423517423505 -0.35252443714254555 -0.34711225336149726 0.3132504469021461 -0.2480919730495011 0.13186170073913633 -0.30927104572423836 -0.4861622013545807 0.15322508046023853 -0.3265180096893718 -0.24406023980698122 0.20855752233798835 0.0634817813841349 -0.07312742599084966 0.008401120628089353 -3.9425895542084057E-4 -0.2889753832790811 0.022335543103902126 0.07591544251579654 0.2460084892404701 -0.35548184036912994 -0.05335552255568063 -0.2000500755203097 -0.4482725348076524 -0.44005895042861676 0.4647419951629297 -0.06488060785072503 -0.4045567540477112 0.09598623418019728 0.30951945062998426 0.21234280203759456 -0.42469394636110464 0.42895174280171056 0.17466944906326048 0.1832671020981462 -0.11107748360656465 -0.006384757523857645 -0.421582507284609 -0.1775186994830348 0.20596723602448663 0.25777171072743593 0.44842598970607866 -0.08048884672820718 -0.28669466533005133 0.011215568540626305 -0.09479579036987 -0.38058916895258227 0.18318991311595897 -0.01745233391149151 0.12975961888798876 0.26885567232048896 -0.3906222321999885 -0.17603493930536146 0.4150237455289719 0.1410610440306759 -0.2341230896892729 0.2908229179433815 -0.12787222189714403 -0.4973905060642134 -0.21567438253781207 0.19807664881713888 0.1243469285325358 0.08359735067285655 0.2734747489131694 0.12083788474083126 -0.38376538321911935 -0.2887415577382755 0.13837313425331382 0.3943028379674708 -0.11092679634531799 -0.1765599756849849 -0.0849740758140832 0.1274353378417977 0.4729779921509025 -0.09950558497864155 -0.37322481753359 0.23845638588033694 -0.13150992492350091 -0.3122856173494609 0.4697664242809408 0.2978218019888836 -0.43907323230022083 0.2537769524943064 -0.4105161479326545 0.06477268441605735 -0.2545284233786088 0.07776133561095658 -0.2563786770632513 0.4413311052256789 0.030531903230150082 -0.1893967774029076 -0.06236148791072222 0.4091226816660421 -0.04190446874197896 -0.3951156965498817 0.5024125050451668 0.4221212496120429 -0.47110426112345627 -0.03201681059670928 0.03085440611146334 0.35809805459667465 -0.30664800713524804 -0.19026280777767152 0.022539343405066234 -0.023194328864799624 -0.3921484927015047 0.5026494324429054 0.016546844116002418 0.07628893084112208 -0.45927058449760266 0.328962699450403 0.041255537419235835 -0.06173661320490046 0.3144174798283973 -0.2072325354563815 -0.43126547853961367 0.2618867395139297 -0.1953589788076682 -0.46837035830865037 0.3658332104388188 -0.05119403111008137 0.39626382055575055 -0.21386742854577234 0.4838276268041216 0.17756916091140906 0.03303054980302472 -0.3583344958321841 0.4458920100086875 -0.15900830515612022 0.09598003496699122 -0.20232149497769822 -0.22029776543648905 -0.4831333900671001 0.21603010569450293 0.4168480986517945 -0.11258844627322628 -0.34847215128237385 -0.2619515405152472 -0.11807275852960238 -0.34611582376542155 -0.4041352922022056 -0.41936910647090064 -0.330722314743766 0.3860214021257449 -0.2627089672019651 0.04117232368621337 -0.09661876701201914 0.09426436698597833 0.4268515940142333 0.12003624258213517 -0.16932996871247713 -0.2205903954493859 0.3950823032165504 0.22895492336742057 0.01839552876720489 -0.2391112625657755 0.26186100295968184 0.452359190157138 -0.034639858541693706 0.3485461141442497 -0.0099180457617523 -0.4635915384523553 0.48780866403282735 0.23608831711073136 -0.4394215295438808 0.2578409903514024 -0.3015573944268299 0.17015288852401933 -0.28853978131982727 0.0898287838297995 0.06796360877773995 -0.01191383845197478 -0.33600556959510985 0.20057865908170805 -0.3527235750618374 0.2259278932665559 0.05708138551410068 -0.38914303506887393 0.2918639417807882 -0.38026725381295884 -0.20048813389123255 0.14505488616973172 -0.31937276173269785 0.02905181062858969 0.06448604165397182 -0.07860025703421746 0.10707001702530254 0.2468701904039208 -0.261866448178536 -0.10306229939281727 0.2697584802358173 0.4956174592469643 -0.36165762308875293 0.1014789443529333 0.28945009616097656 -0.09394428728470067 -0.484465184052988 0.10407135483337239 0.09392583703616407 0.4262293115795118 -0.42814058218487294 0.44791490393816813 -0.47717430056816373 -0.32985006385607196 0.1924958667966584 -0.2917718268053202 0.17916847459490254 -0.2976842108026206 0.1565251186739103 0.0802564355829711 -4.4257573552200444E-5 0.47763361418109085 0.07260984914455458 0.3187755756688272 0.40791730399787585 -0.3470294747009886 0.3838308978653851 -0.4066330993571898 0.4740280769505111 0.10902538044055507 0.40674275269074334 0.25004053734261455 0.383714129972075 -0.4994199467284415 0.1451033178121964 0.004905114425560576 0.3548618208231561 0.007014828399877995 0.22451837488866136 0.126908072694103 -0.16843847116439342 -0.053929439991135364 0.0364870938911398 -0.11108942851129168 -0.09591086974709613 0.154947671119491 -0.39994090224062406 0.49152794725465415 -0.29128219915383563 -0.1580371118778661 -0.282074060808573 -0.05424556088857285 0.38654187268982204 0.03949265534766793 0.06185678832830351 -0.4894415973794723 0.29726369041210654 -0.16085782896500783 0.4824271602837068 -0.1531184570671464 0.40276266112971587 0.08268221093849584 -0.46309473671222634 -0.1794441185176178 -0.14522622869892182 -0.06745796889550193 0.15456379400595974 -0.1506450220217217 -0.4809172367689808 -0.28684530308596756 -0.08583980347332515 0.2992247316133541 -0.4168672831315901 0.09443947824926982 0.04195931622078337 -0.3139801994156375 0.29839882876669344 -0.42258175013910554 -0.3693863044691395 0.04267184267028777 -0.36498499316584704 0.19905104481731437 -0.4265706801861026 -0.3835740865615906 0.2767486134762228 0.2578592259315587 -0.4983097925714895 -0.11710678920444796 -0.41666962679251385 -0.44331994328705987 0.043872630160236716 -0.3927352832661297 0.16953210712949932 0.30541815750812124 -0.3946849669087403 -0.3794521580936212 -0.21805751590923492 0.12652235745036242 -0.4975446563696485 0.18572867232862322 -0.10348834329429704 -0.12812821751345163 0.26252386338494255 -0.055955881050461474 0.1458496223731381 0.37777955041031774 -0.4583171060630033 0.4692593577905508 -0.36304141241732746 0.012374691437170158 0.3475048608458966 -0.40490937445558906 0.35400878151971393 -0.12315221526834483 -0.2624406200109964 -0.04899359956116342 0.36548707570098776 0.3208631534905241 0.06146515780868326 -0.07891594028082052 0.004767122888979096 0.18530393010473475 0.4067607205936963 -0.35321774208825873 -0.37328734556560855 -0.2080770867926127 -0.481726377588368 -0.3080212744715648 -0.34715330286006263 0.15856480526586358 0.35311856761721 0.38029553521697423 0.2678917102195372 -0.17021491021443405 -0.39366887183049165 0.04375273796046619 -0.2890613404558951 0.28476229207189646 -0.18314092078712785 0.4007392712974925 0.147614070854126 -0.23345783911624485 0.3586167327159318 -0.3267410528893145 0.38563188941340654 -0.4079541679104021 0.032329773392165875 0.45343348817967755 0.01092067896904372 -0.31020591911444545 -0.25440502232782214 0.2329757592682198 0.3287113887669985 -0.03071265925211275 -0.0647099070922796 -0.06931571861946574 0.010486355135958449 -0.08770382439198335 0.025289472342393753 0.22151022565865786 -0.22444823276476547 0.28143671457825986 -0.3625676405469322 0.4865064911856893 -0.0950233105037689 0.40706961557945665 0.22171496094423668 0.4478511074173179 -0.001873747188617075 0.2763201247756221 -0.05346443868474482 0.16695026467825547 0.40680760099473334 0.08580381771264585 0.33932809140238035 0.022793811260480298 -0.2657780275330756 0.18648915667124866 -0.04765789511526578 0.28850255050072376 -0.05024517531999878 0.28795635404010717 0.36580622973751514 -0.02438210361554305 -0.23296843918102805 -0.473595081202246 -0.4650588040274744 0.4046300252182299 -0.3633193781890632 -0.02487641357988679 0.20151235146063146 0.37131969512231405 -0.1969967439463977 0.4430421667470495 -0.25498753367799404 -0.09478433037240896 -0.2383343182029222 0.44900136188089024 0.14544444330923406 -0.44897865051189173 0.02282515116448189 0.33943116052799993 -0.4888967343183034 -0.42361033137160065 0.2566157348927437 0.21316574203263694 -0.11123267055701193
