2
256 768 true
0.001351378736874033 0.4847689505219194 0.17467557940061476 0.08600985508565924 -0.2563034988374127 -0.13796362493767564 0.06391374012377493 0.2685599000940817 0.4669894901197589 0.4276404199097678 0.40025098357945776 -0.23385470177597178 -0.3218698165418337 -0.04770425679052548 -0.017901715825834514 0.3122911670152301 -0.22781278813614933 0.37597234604981067 -0.12676867809350298 0.060993578323417674 -0.003573028244689798 -0.41836822799318657 0.19318141064968228 0.21712395774652662 -0.012557775005417288 0.3962738382561979 0.218957106613151 -1.1472897233557026E-4 -0.28753032946865165 0.00395435543034064 0.19831925553384652 -0.26719056527964125 -0.35838140683242903 0.14908156093649885 -0.2794496230036538 0.10675770485118892 -0.4857347420774077 0.3619904306726174 0.054249322741731325 0.2689581655450271 0.3236874330739205 -0.2896361518403141 0.20377316666907294 -0.2563000449494758 -0.4906567973942419 -0.45884337178711837 0.4441269021061448 -0.012189544962029513 -0.29383440901924457 -0.1618336802365039 0.11356166304394201 -0.1957901975505727 0.3634494590511653 -0.13738110359630812 -0.07414654771142687 -0.2396139796564447 0.16667442224666432 0.24425621541135994 -0.3495021344260483 -0.3482800618204714 -0.31446014472607775 0.4337048628167717 0.0709289724628745 -0.0175088334720145 -0.4730209887570395 0.21523157705648127 0.29211579783995406 -0.08222584820890877 0.16484911898828455 -0.300829163538827 0.03977297302200295 -0.3034337036510388 0.2025989557324345 0.09712052008965266 -0.48192328838659304 0.04346923382961435 -0.23389675852343314 0.31015461382891 0.10736705555702858 -0.21529568748710026 0.4090597238063119 0.4387807094200992 0.04981492961883786 0.031848072110166464 0.37495974325831216 -0.08830215711403744 -0.41599617653324417 -0.03379829011589686 -0.3730876558607041 0.25085096785760197 -0.017145567989080464 0.028765034022364966 0.34725054760828516 0.1665006721793578 0.3199357754640828 -0.2230402258883649 0.4169105492367766 -0.4230221291035469 0.017735678314404906 0.029915106889829565 -0.17557112840068137 -0.15826784959662268 0.270368120248662 0.261284722374401 -0.07874615221101113 -0.4347802551098082 0.3143573819606925 0.3191574271309421 0.13708107020405583 0.2997219857131106 0.0021643352696010818 0.2930431680839599 0.145433902394759 0.005249882492080237 -0.44206762827974044 -0.3306723888958254 0.14788166846998752 -0.38095624026022396 0.4850080024736426 0.23175218689122826 -0.4051926109679695 0.2747385220965973 -0.1767996907671388 -0.3849182367823255 -0.13154662424040314 -0.4613071788813156 -0.011619576569017015 -0.35600772527623775 -0.2883147609867592 -0.23162271905538415 -0.1996307221039178 -0.1524186290239818 0.3926635783856711 -0.1590968159524369 -0.012078965136472542 0.4223617457616658 -0.48164429882097526 0.3603942455140312 0.4555119077960854 -0.1139872739126746 -0.11154259119929137 -0.324379323804687 0.09393935737239223 0.14996574663184747 0.28669422827364904 -0.48702608105437717 -0.3045730946491019 -0.15606734994525598 -0.4313485335038591 0.08765422382377262 -0.4658465095520634 -0.33198581665407545 -0.014421198435574345 0.43653820256365966 0.13346352952846136 0.0356461243705508 -0.3570796223742605 -0.058139167572807834 -0.15122200579638612 -0.33708186345668095 -0.017758985440307146 -0.44180524557276785 0.09905902902086061 -0.3995778953357869 -0.48881179388648266 -0.44460858702221967 -0.3000906709554814 -0.003201820297800396 0.3461094666003479 -0.034265292551828884 -0.2168768740804413 0.331275195914109 0.00435437919154511 0.07628263176647491 -0.1848860017151565 0.3811165296118489 0.372989867726988 -0.3992725027426329 -0.277642730998211 -0.2343038980917923 0.4402766746069861 0.4393860769680238 -0.22240665512392366 0.031473744071259836 -0.4117852031228787 -0.47078909349166687 0.340495039628801 -0.34352357603644323 0.3954484314904007 0.1916947690652843 -0.0034372193828470345 -0.2118345341990269 0.1570504484388585 0.4735488241284412 0.23789627262230967 -0.3734121520033726 -0.05123327466042484 -0.3763740472826293 -0.06645155531749275 0.12018258649858525 0.31512404617009515 0.2756351145735361 0.20651248638900774 0.13875717453135886 -0.4106486768219257 0.1868713116647117 -0.13687372402253864 0.020117587894379237 -0.4262439804557818 0.411366456207296 0.29198893977749163 0.17045306725601414 -0.16510461285149444 -0.09480462567613958 0.24801501745382776 -0.2834978729526506 -0.37426996613274494 0.22261440551053438 -0.29116242669151765 -0.4118987239573711 -0.336850492702672 0.19447186324305055 -0.3407466427343724 -0.46637292364336574 0.025899049165261923 -0.27433891539827193 -0.3203762831388221 -0.2809195663367811 0.06535482891305705 -0.3427054945626858 0.17563621539800253 -0.4522152139553056 -0.477562704660939 0.12542351690921766 0.18449970060610216 -0.2927503362962579 0.35956019127535166 0.4002126637629704 0.11940780669973668 -0.16572541773742733 0.274001038577906 -0.37718973796193433 0.14583031274801317 -0.16507813572069874 -0.14082548801293585 0.06441311289367355 -0.09191646969061046 0.15309321744051776 0.2808949637505013 -0.22808179452151392 -0.10344313735849604 -0.31437530709848527 -0.40171483328326507 -0.1550017915531032 0.4425318344883965 -0.14350049121030753 0.03298736838710269 -0.49012220448559907 -0.26353998656705774 -0.1492343459210763 -0.3158617370121932 -0.32012105314668 0.025010189377388792 0.07699666489078456 0.1074222347831702 0.059931680589330995 -0.4618423091443875 -0.290172595386514 -0.44067437275518906 -0.16422741883858433 -0.08012323263341768 0.2991932896598798 9.456072403803227E-4 -0.281818919833762 -0.3418987357165796 0.4271875254511193 0.48480729232435327 -0.4258170032233729 0.09352874095123404 0.4132777813099299 -0.18893669931243318 -0.3066491740502414 -0.21007602172598486 -0.02741411006275816 -0.15475729327044752 0.14804328392457097 -0.41111154222583013 0.3981069228790722 0.30233687310603863 0.31829775013348827 0.4694056829783652 0.07459892191798743 -0.00681680187947973 -0.15262644131773428 -0.3610180265074684 0.22821722702326785 0.1634445429006825 0.24584614972723062 0.29011650348547885 0.47976711654504944 0.07722696982868972 -0.26906909687187114 -0.4189812725782897 -0.030690075895591508 0.4713435096128054 -0.40266934439702157 0.06392890088077163 0.5231250197682263 -0.19871355211121017 -0.16369904796336793 -0.02787202167613637 0.032181066367686355 -0.3300275012419431 0.09636028363291467 -0.3765605786117107 0.27906768811502003 -0.177854855785146 -0.4209607624790419 -0.3827766523502048 -0.2162892387000548 -0.20640198834131065 -0.3812917633230974 -0.17822373526983099 -0.18167048068881678 -0.03214257624346921 0.41756992143365085 0.40365429315771334 0.2927862768901754 0.2954754651372506 -0.2531642154141002 -0.06887058618178216 -0.22132074528546064 -0.22395782210551698 -0.19632346376916981 0.08943371258409838 0.006282636575247583 0.09690200299848432 0.3062660646374098 -0.384064088111475 -0.1326515699020636 0.293009620603479 0.21242501351853998 0.38181501526650924 0.0705778721371529 -0.11652191138305835 -0.08251446036838694 0.28318121284615905 0.12381541667053138 0.24235238879611057 -0.17021238101872907 0.24160248914599952 0.3086245403454484 -0.038232158222728393 -0.18433333915989172 -0.0017749135278567378 0.1772645091517594 -0.11394467751823764 -0.06737690753913975 -0.09835107476273013 -0.4687887331937887 0.008412856801847238 0.03226608043605581 -0.1459683372472166 -0.14550429924432043 0.08444388216243799 0.1041073312295762 0.10810645574876596 -0.13636245749582815 -0.486791812458053 0.18271539700259584 0.19303614586069745 0.16457428378903097 -0.34909380378744403 0.34135469507144195 -0.09847952420514888 -0.41501507733766396 -0.1237648384418838 -0.46366915635411593 -0.11383237806908228 -0.2411676889747824 -0.24822737195410233 -0.3626789575147883 0.4445787712151093 -0.06691455832240854 0.39236420078925716 0.43481891946661716 0.19730646484064743 -0.23745222525236168 0.027880652969459182 -0.35516046485766567 0.010056618540738811 -0.41514742826748885 -0.41476712414196865 -0.3637117184487006 0.17532577737710867 -0.3222435982046863 -0.12735499005008732 0.06400325408705282 0.2788448981395555 0.4549507686450307 -0.47791092206413105 -0.020220839885060606 -0.03491562414888997 -0.3930721525583552 -0.39955612541575314 -0.4687330077580796 0.1295286850609904 0.0339068396439326 0.3443492750283602 -0.30423365365086086 -0.3325949752408508 -0.3066539848096559 -0.06513146874744291 -0.15739811631905604 -0.18370021076714402 0.28847025735665593 -0.10561711472882962 0.4323038416037212 0.39862082547158134 0.4555248349918738 -0.12986018690247814 0.26532480977928613 0.41300540387302104 0.2513780598149939 0.1651106567276857 0.22823596032799098 -0.49217772113580777 0.3603484990323863 -0.46558072575759557 -0.3509809847834393 -0.37892536731615023 0.3546378987023377 0.21617762196870868 -0.38673030581595713 -0.49202923969947393 0.09864351890827555 0.0915247016873915 -0.12823677228860836 0.22875565470363812 0.27343581022747865 0.46113434720574675 -0.45115119460707254 0.02078298088749005 0.1764885683160316 -0.3882538877848932 -0.059068065675787845 0.25462648980711894 0.23959581866288446 -0.339522192457652 0.052019720652821164 -0.43129445854409704 -0.2554967356682915 0.21608376721827438 0.002722042158420008 0.27767048970805486 0.47100083247264024 0.07192280386003468 -0.1840977973084667 0.32294750273730466 0.03205486746260459 0.3576392874866877 -0.07210370139134938 0.33981295990271676 0.2801829701859656 0.34277931713367266 -0.16871280337672273 0.07994454559827006 -0.42480151332458 -0.26665547894021835 0.09936058769360173 -0.19764109132548094 -0.41124050267013756 0.3078777619393479 0.03725793271586723 -0.14826182963177248 0.13796953525161684 0.1807748340857567 -0.3986971233438058 -0.20108526728964327 0.45452174615972946 -0.10192482717622747 -0.37939696528160743 0.0583176272140228 0.10510639341398739 -0.16475031731450274 0.4864407902189254 0.1127787138663366 0.4680046956450654 0.36000301679785934 0.22463392552129363 0.37738793980602997 -0.261328241985877 0.12283204249756069 -0.03470861903424416 -0.2132996584976654 0.013947527227415674 -0.06889343695941191 0.2948040788200857 0.06853475310843635 0.4935338632881745 0.4115275018540856 0.06922366915270158 -0.12927780226085966 0.07963398725659043 -0.36394259620152325 -0.4714622672852134 0.1220617488808726 0.31682805780655915 0.49992177718515923 -0.37800275460369814 -0.31371585028163723 0.22916120246802332 0.48742930083761715 -0.2811512673904915 0.3319903236666356 -0.30222873126517114 0.2599570642035884 -0.45609959628076285 -0.007241450000480987 0.29378762806631775 -0.35296103624708774 -0.21842882647081494 0.354577229283597 -0.27518200365620304 -0.03999010786460907 -0.4189822392020314 -0.25395036439650875 0.3458951383331723 0.24308187457636118 -0.08971759387166556 -0.15730319476810328 -0.3237995552246126 0.24197639056753747 0.171519099673506 0.2010685843331502 0.16203635591181031 -0.2765400598755713 -0.33419154421904146 -0.1505207870488943 -0.34849992528933127 -0.2560076299805172 0.07590561877925171 -0.17902651092120314 -0.12229417968270963 0.03330204295798008 -0.3507385593444322 -0.3517797608020985 0.3047670278505747 -0.2756576034894013 -0.2617536928382028 0.05182327381906979 -0.42713482716841517 0.20762904440523222 0.4189699950920286 -0.012338236291062359 0.001217570550598041 0.40127755830608997 -0.1525235127669532 -0.14840236871872384 0.33209343564678034 -0.16133347539196674 0.32919251180474146 -0.26440158092855015 0.4265585212976331 -0.26320577429585557 0.32649362323767184 -0.12885031552149245 -0.4320719938930558 -0.37592938139237936 0.4181666429084416 -0.06084566797183679 -0.1662501286105259 -0.3083259305975712 -0.41111747633136836 0.3437550426391259 -0.06408052691302528 0.14576116760746757 0.09988302201790038 0.4282866050941083 -0.46591584882171955 -0.42682421277107874 0.3014196237853842 0.052418124972114524 0.31533029567902876 0.25160145306584386 -0.14304983611892655 0.057910508254932255 -0.013592553336542138 -0.15590093697797086 -0.506047768700511 0.45133304752762393 -0.11112279977349093 -0.05495051687985565 -0.25930912410163237 0.32161709047956205 -0.2605311373903452 0.1897020177295073 -0.036571900783982994 0.1212091010705216 0.28146394758180754 -0.3753832477966282 -0.4569709484617019 -0.3350248641901699 0.26867789676858567 0.1833991715287651 0.1732155194892193 0.4265160984841198 -0.13367193888945708 -0.10144489903808779 0.1394609481045823 -0.4079681771582605 0.21139666186565959 -0.232034494267769 0.43660062817752493 0.366903921668671 0.31069575655714143 -0.4731569115594533 -0.013941060995861647 9.699400001281166E-5 -0.45338621056577355 0.04140980045488968 -0.26727913067128667 0.4466169759182972 -0.4099264322371632 0.18257230837184357 -0.02847524793382632 -0.025521678374001273 -0.05990517887954473 0.3513552452440113 0.3769168694509315 0.27160817454646224 -0.04816610561669661 -0.10667318742393325 0.15173350983962747 0.36053568438286304 0.16159396570869447 -0.13259513597872127 -0.023878993394001347 -0.41138419707834295 0.02546068217799468 -0.39394554936860426 0.14070939716426267 0.13023622589155623 0.1038932776420162 -0.39748460318914236 -0.2672355597138039 0.22287459582548805 -0.46967304190882997 0.13526922088408677 -0.22515274219293865 -0.3605767769606995 0.29295255631650224 -0.035066999306667034 0.16850485156457762 -0.34240485356725475 -0.4199118514464124 0.34412496238336626 -0.223454074288868 -0.38572893437094435 -0.47965682817895094 0.3899426259821661 0.3424244969238732 0.21625830854157246 -0.46328001908902394 0.4514941226663384 -0.50141458674975 0.01787956541061775 -0.1275978185328379 0.14844780830408802 0.47511686432950123 -0.1650088217574176 -0.2343888607269143 -0.13736240489806784 -0.4818681197907161 0.13585659321069143 -0.11249368653033924 -0.1987814726332274 -0.2118741952534333 -0.02085759476773279 -0.17239057764829013 -0.3990225375253483 0.175189423103835 0.020169763475812858 0.10156011511807111 0.026978401378912754 0.20818869727032008 0.23314122691994302 -0.00832219529063583 -0.4045416028497767 0.29323300582760325 -0.28915803767554554 0.09848246219237566 -0.019858316010949 -0.13366226297615857 -0.18970077409766367 0.0753723350436359 0.427492822938361 0.2191140739614298 -0.4192508020015431 -0.4124421662316276 0.40486661631994675 -0.1887701618354174 0.40797887575627634 -0.1518924165565586 -0.23068717350432516 0.2101489966135608 -0.19135349043922384 0.2793759970050587 -0.06214443159580068 0.31372140048676744 -0.06292394671756138 -0.06410137734665924 0.17044300847775226 0.22625006394570346 -0.2839994517334688 -0.372818984014616 0.2846464854015453 0.47675404186690823 -0.464210937415471 0.4541179721531088 -0.12921576221793285 -0.006281398444110353 -0.4366444954847539 -0.17161396579381322 -0.24051315872205786 0.3148053560276948 -0.23608093349289286 -0.2498849637316426 0.37160084119139253 -0.39801886615791954 0.13021078466663463 0.23345626057919275 -0.39094529778832093 -0.4653351951584962 -0.32521380167760416 0.0968882524268975 0.4191327665779114 -0.35477950178587414 -0.04181394125284312 0.4521224903581196 -0.33930703462778106 0.2029035176374217 0.29055950140132664 -0.30714613790348344 0.44866804155081924 -0.05040708682395145 0.27615747358266185 -0.2967184730484858 0.09091646967174619 -0.40582294726418855 -0.09461681706886489 -0.3357776840196397 0.4112866239871811 -0.40618266193532987 -0.07678333138766637 -0.05505149547340299 0.018850949549467276 -0.21846353756723869 -0.30165618273045036 0.38976389525913746 0.05926464640814766 0.21597049064565882 -0.40277055863939193 0.39282957364730064 -0.2301522811628192 0.3959960335986673 0.15436862189936662 0.4275220801528434 -0.2404479968725059
0.015961096619480822 -0.053512304247582354 -0.3667556412981783 -0.13221228833461351 -0.23062742307216283 0.041281032740080416 0.14075548985015077 0.4337581779213867 0.12481265829679436 0.4820409367892179 -0.0365543631993971 0.2659778473974029 0.05545895622532022 0.2633529924031771 0.09743200992168738 -0.14060182883715358 -0.24745207343699283 0.40580297305029683 -0.387875965627772 0.48737812376728895 -0.45295057781807024 -0.43699445215769767 0.43210343411233965 -0.09957663519570246 0.4381844589864034 -0.1837390144543105 0.4927205252718002 -0.01838417346944231 0.1839340520248691 -0.46293019471437674 -0.09301639889889092 -0.3276667417000457 0.44495018364758454 0.27386570984870523 0.012540848940741976 0.06436012647217061 0.15894069646850462 -0.10288235089977815 0.1047563642289392 -0.1403181256860257 0.12547545109274172 -0.43903094026761585 -0.4046012929148506 -0.04036048802815617 -0.06166009974640749 0.44670845028614065 -0.27592134618593056 -0.33408879560849414 -0.1676225688723016 -0.02740838710087523 -0.3381915332116745 -0.4612317445328785 -0.12325659246529423 0.07025581721042749 0.48271606327491223 0.1671480482403468 -0.2689928879519191 0.37382629569339015 0.10891855325442293 -0.3323929998234253 -0.46463961990758845 -0.0902479183354038 0.2284661352689668 0.42121280557654117 0.21802953977936967 -0.3448464751474747 0.5102126070961218 -0.13372877112266857 0.07429434995379211 0.04248710415498374 -0.07440461093077506 -0.10947800822401597 -0.09107785522016368 -0.4216289086134545 -0.08100380212699589 -0.05338786236815782 0.16926507919779948 -0.08405447303616827 -0.07039649042494615 -0.1414662905105455 0.29269243883018176 -0.34248004208539695 -0.4561966475787706 0.3804982307954224 -0.36641101201166604 -0.07455968119867329 0.020164787074727353 0.17757419054194182 -0.0173956133662308 0.4676313598780836 -0.2974097255949449 -0.22107489008850012 0.41823899728232916 -0.16384288677504458 0.4433559012331117 0.3870317350593194 0.3995541170023137 -0.31064254791114376 0.24734390695013586 -0.08559057376307336 -0.30654263744373844 0.43629097742747447 0.34118877607804304 -0.13855293869749305 0.0126939761129769 0.01993838040776097 -0.017057602864771215 -0.17179308628448126 0.4158956092606366 0.08026394714487112 0.487910369782611 0.06451530437467641 0.31166398016548585 -0.10847410621619026 -0.33393718239357895 0.08728327326882224 0.23352449641284279 0.18536994339474158 -0.23345487182988806 0.34623671433447517 -0.2878271425787201 0.03758247443927103 0.2523497382138038 -0.4950464302053177 -0.020296064102463016 -0.033114435829121845 0.02933472540628729 0.360383612610369 -0.41627810746147725 -0.1207241722428126 -0.3028019576106569 0.2755529475915769 -0.08900763612314169 -0.03350318907601342 0.40713050318970345 0.15274314888515125 -0.09599149345660858 0.2704861717655683 -0.20035254051102921 -0.09872041515222384 0.37963420484102445 -0.1248020325957656 -0.028434682062723357 -0.15132711561124654 0.21279178079936684 0.3866076467423571 0.23313312550322435 0.47377718841340016 -0.20758436654266524 0.0032737276148926764 0.3736821160678683 0.03173417017758157 -0.14118276150857398 -0.07916911560228036 0.1819682942013283 0.2043500658390409 0.020696782930374823 0.4150299349833577 0.027231422711491596 0.46334680804252354 -0.2754355765087404 0.026862429454364484 -0.4896199881417427 0.3439286434944658 0.35929318528089266 0.25359815255427537 -0.19484264017327524 -0.29466818784487414 0.04505500301008833 -0.3955247288815048 0.47458772214269923 -0.23560429512407724 -0.05780679685386533 0.12773523978983775 0.250467881612717 -0.10486242014616254 -0.16898296490115594 -0.32532133415372877 0.19716115435972184 -0.07313059495526596 0.31347140593044887 0.48087788085354666 -0.03202215718540149 -0.36507677137270367 -0.029583647151467853 0.26430161661857154 0.45769237970751797 0.006441660530608612 0.13246911856620439 0.11104832008836724 -0.37583983224481093 0.4566058333153528 0.3549398332367656 -0.1189326443089391 -0.26107754188938326 0.1962559161053233 -0.2861436742324483 -0.40894934772944685 -0.43830713303400354 0.1263233566981618 0.23988229624675275 0.3533590759480935 0.25315427060663737 -0.11643416160452406 -0.4462131808331955 0.07473916069957515 0.286219352896662 -0.23148878500204187 -0.22169162525554428 -0.06317772792661984 -0.47244897488074816 -0.089146262453074 0.01972703132595712 -0.3429423001669763 -0.005412942776732094 0.2969180594766879 -0.30162706242770626 -0.21763294968692593 -0.015529025337156652 -0.17727684766603835 0.2035180039672298 0.4800720893362447 3.346902363922477E-4 0.4429743926524494 0.07355292882440158 0.04960396468790222 0.20422821144894168 -0.17089658196127575 0.23618685271872158 0.14255113133888525 2.591151126064121E-4 -0.11195657795641446 0.08405655587380628 0.4427861868040125 0.02865952137462351 -0.24750332286408167 -0.25311933146214166 0.06781788693483407 0.07592158704018497 0.36140117557078955 0.1276099837763849 0.04133548557294021 -0.19501080748250965 0.4212917612538364 0.14661188194809618 -0.08844265125931781 0.18205668668629627 -0.42438254976997136 0.4234079319321846 0.3379430503730557 0.13484534212512164 0.3057206837548415 0.16605313445956177 0.3398512121743952 -0.4684402085185519 -0.26098571964756434 0.3755025596515098 0.2062291423822663 0.13708461431638647 -0.02983493060564331 -0.4169166511119518 0.4021975492463634 -0.1178067531174187 -0.23601129324514447 0.003829965770210531 0.15655963377399518 0.11782341298972519 0.08100755683811678 0.055857213383954794 -0.383171742481168 -0.1010300252227386 0.19064253497437716 0.242611837018881 -0.1935943316287158 -0.07912023211576649 -0.09212218177107515 -0.2449393512145672 -0.4753457028175132 -0.05170530346548006 -0.08398719806447985 0.24559733594248712 -0.19818590628882887 -0.4025924387360329 0.31719281998563226 -0.04939730690758601 -0.017075715419110647 0.0720980306081266 0.1149198825009288 -0.40802864229104424 -0.48379661396626006 0.12119264064830834 -0.038363754779335804 -0.2373106313294283 -0.14374477858583137 -0.11703222676204691 -0.44373804574904363 0.09915537517605465 0.05236594474857124 0.14660105912143423 0.31649737894420266 0.09766949594733744 -0.301773366733771 -0.16530409175640973 -0.4541713600820176 -0.011742473309226953 -0.38096250632899237 0.14630706657703366 0.23378320189741775 -0.059652005092672024 0.4783362143229628 -0.1132794080746767 -0.4976012207639934 0.19390201573035484 0.23458736697177984 0.4953576629795662 -0.4814446484947948 -0.3434080695753254 -0.3518687593265999 -0.4222959792363691 0.10051717495906547 0.16223514791686328 0.25186845769038363 0.1841757223687182 0.010846597665406982 -0.46621932827514934 0.01813467884486566 0.23376702391922463 0.06907215854084411 -0.36898055940943175 0.21582538020913833 0.2843220227046325 0.33317259168735586 -0.05563161771980914 0.21287403289815837 0.49945256181083514 0.17171085085363386 0.052696605754516505 0.17779838301032655 0.387115527634085 -0.04713828115777457 0.21793764200230198 -0.4331655357338248 -0.4024651423057581 0.3462082035168261 -0.3865934614623353 0.1832732408784756 -0.31828900775898067 0.33564757130293005 0.20404575848909307 0.10938767666170547 0.05646752046218305 -0.31601428056567277 0.17314548107127414 -0.22691265252509923 0.2346497438040777 -0.43508657989568816 -0.11687741843360647 -0.40921040369795286 -0.32183371788844395 0.38787384259740915 -0.48992433855128376 -0.18889059098337144 -0.29319196905572076 -0.4776428863326641 -0.32920152831535 -0.2371166590841 0.013089213985412613 -0.1682715373196563 -0.4086373152759214 -0.45661396262148635 -0.2824256266860973 0.10023978417393131 0.22760864771655065 -0.24732433416905727 -0.24414507583555276 -0.35485755433440125 -0.08193091166807778 0.2711907786463801 0.3583937947610547 -0.06770810920809496 -0.14199541143666503 -0.41578989870664007 -0.39928081852513636 0.2605806715054968 0.09795804203750359 -0.2859395453563673 -0.29074768780059973 0.02863240444447082 -0.19669574863158942 -0.14840881335708145 -0.373627802359757 0.23468697309841238 0.130909911432003 -0.31049771692174094 0.3589356660631946 0.012845774320511328 0.27487881272872106 -0.2784694457175245 0.2860705076430487 0.49035152598052023 0.13201734071581836 0.4586462998751079 0.158203565172429 -0.2736978098359063 -0.3508006676961395 -0.3773968593302886 0.388625689720147 0.37869325592209224 -0.47143258229736174 0.16585436944313078 -0.11644454329682487 -0.30921736412720124 0.3314863530555686 -0.13607042751280185 -0.22735318752840225 -0.2893341730845153 -0.1922283091010059 0.3013715381564684 0.46107139278235737 -0.3025313158059592 0.41537707526059003 -0.4948740437709939 -0.3841449571432804 -0.23626556872230622 0.4568244331428714 -0.48162088980444234 -0.19093811309714506 0.11395096839247784 -0.26606269844243813 0.4280406765222226 0.47248798681951704 -0.38573028615228017 -0.2953129894402947 -0.097108554108895 -0.32780501474089235 0.12369181184190543 0.2822274550488384 0.40171860748491695 0.4391259599876172 0.12574515125400168 0.034223444180982214 -0.4369369810341605 -0.10537366441038366 -0.13582717059106558 -0.024201774611668718 -0.26543924367205307 0.24761576954425774 -0.13186754655738026 -0.18850916925141706 0.16697122632750927 -0.09296438479153382 -0.05582173901773508 0.13994419629787264 -0.48926156228299017 -0.023826220300176067 -0.4584155098695748 0.342953225391534 -0.09545692323096537 -0.44125735913569686 0.1455578496467644 0.379493071456581 -0.2846800319157789 -0.27337611451364513 -0.42829913029692096 0.19943225142433382 -0.1574759455268939 0.4946069768515239 0.12958516126910508 -0.4044135925478201 -0.11541503939057604 -0.38655700656809855 0.18633983983285263 -0.3310928815600023 -0.3949197778925103 -0.3915781380801041 0.3458944557620801 0.24948052105921265 -0.4278932311982548 -0.3094069835278763 0.1687481771071518 -0.20248691317978687 0.19997007401318184 0.4311600940684955 -0.34087908096478414 0.32913935018586044 0.32348556956067703 -0.24752029479230742 -0.28714771415601215 0.08643063142507018 -0.01709072998326344 0.46619566260603557 0.41201365079196767 -0.5000319125285558 -0.22620781499661569 0.2044229256469946 -0.470481538754398 0.007898752196897986 0.320848043721498 -0.41105466791167145 -0.3834628890769183 0.27830498020831057 -0.1738296399165982 0.3596451660249198 -0.04156967624893898 0.019077900666688383 -0.4879521243188985 0.419964807044214 -0.15609274332807954 0.46436357392401983 0.27199713010726895 -0.19357621014020787 0.5064299358245766 0.37261580481399226 -0.3535089519575316 0.07010848204494695 -0.051660541647616895 0.041423145063678626 0.37639080852282303 -0.09527104674245604 0.4912667895322316 0.26079785961185403 -0.015638495676339133 0.43652144431101997 0.4050224069503445 0.17488156880064334 0.013232928340209862 0.3171597126739165 0.46684311803385276 -0.035849271657391636 -0.22555670259850033 0.47676679732550925 0.37644926462555606 0.21864433301491545 0.4857995499645586 0.23384090390067533 0.4291783521387497 -0.07171694315142245 0.4208785323549933 -0.213406128459578 0.3391378074751624 -0.24191331369621413 0.4089983372520599 -0.2069104932886803 0.45573188333271064 0.06707722282242108 -0.2990180399477972 0.33725548229750263 0.053598850865374255 0.01895603420644226 -0.21210006207303486 -0.27327161890877066 -0.0679699381896219 -0.19473681055069247 0.44564546396222515 0.42858938159743537 0.42196058398400477 0.38160682948953467 0.43032898690204285 0.17208371196487912 0.4021306961796263 0.3984495250254982 0.5006249774557097 0.24306546978122015 0.1794708324575385 -0.34773603635371103 -0.4685674826354895 0.4262060397744161 0.13631149654768643 -0.2790645127143323 0.45551972387027734 0.21868992302942303 -0.4341928580615637 0.306545567866871 -0.45350117068269896 -0.0803801847826927 -0.3217626495424471 -0.37697440470887555 0.03340577437049366 0.40257884627138574 -0.45543941456334436 0.07123008020444868 0.21589401481653842 -0.4779378077074516 -0.1977195651268997 0.30351394847741964 0.22899896117826204 -0.3521925184572211 0.17002201305544143 0.3878108132201489 0.10574212886354309 0.39571919296742675 -0.025023350542689764 -0.4573117805353434 -0.4614388481577531 -0.2108668445394877 0.013836275636880764 -0.43746228014487737 1.1504564188745493E-4 -0.3802863245982143 0.20348582414879166 -0.33521116641073334 0.15657534777839704 -0.3195031135731458 -0.016301235671964644 -0.17982452263403173 -0.05612123778941004 0.36559231233483613 -0.4957826898178265 0.4597531892044987 -0.157988046944283 -0.4262453781478809 -0.21483406149484977 -0.4460834802216792 0.19130722444172296 -0.4545159523081829 -0.11433255764038833 -0.41010532122545773 0.17159541488517913 -0.027130694050533238 -0.1344271465895181 0.29261512580563215 0.02508524274624683 0.05068151268338845 0.2653372298578858 0.20836200736118957 -0.33600304282007376 0.38629156733476133 -0.2544821985803709 0.36063852218044623 -0.25636404503463445 -0.057408171509090944 -0.3357164424243497 -0.3791434897235184 0.10762312976468887 0.2071107132789616 -0.10066754369907528 0.27564088370904066 0.4524306797145587 0.3913402558039007 -0.08078725311446432 0.4499099132326722 -0.18178960088511964 -0.19772784803615517 -0.4231660710026971 0.16508809868080304 -0.43266235531713215 0.19316151598162729 0.41228717709401025 -0.4288713067582439 -0.26771850898302946 -0.23314694856383 0.4706693335920592 -0.09509845235001409 -0.09091978774924024 -0.08150588350183302 -0.3097179791355033 -0.3917435458899879 -0.21608244704643928 0.47733548888096805 -0.10999148247755823 -0.1870418242171021 -0.05783677925728007 0.36009228098643387 0.11392614027046898 0.02075688198808789 -0.37181970136929426 -0.3479906041702559 -0.21284103833962603 -0.13171832330637728 -0.3121048944339414 -0.3024178094947134 -0.3059902957736164 -0.0330226881333835 -0.1969597331374685 -0.3049915802952373 0.13858668035493035 -0.045694815296047415 0.04728873110901157 0.3873336738665945 -0.222117505090213 0.27243259862412494 0.05062639671416136 -0.30200319703200956 0.2195603376438413 -0.12364302895846171 -0.2795858887257997 -0.0418257858577447 0.4378850579737528 -0.46592009163561776 0.26890988840100793 -0.40404347152934555 -0.35801458743724257 0.16959514713917062 -0.0086024462145594 0.22672032079755317 -0.47111719536508445 0.0947948748869737 0.10411932419377357 -0.13574079805434316 -0.05513153929375018 0.24039919618136785 0.2335281427531495 -0.006811665040346609 -0.22464812972838366 0.07129041565131146 0.3311406763339174 -0.3888862535219324 0.2763567241382301 -0.1716611092990043 0.37919170562038806 0.3255181538565807 -0.4558679691559591 0.16783105915001723 -0.04817691398993384 0.05772663760103731 0.1670798555180012 0.004678407108492767 0.0247272057182291 0.21808086109747804 -0.06131239488046947 -0.25768697757714404 0.014621107246837961 -0.2471556588295176 0.24902880112633943 -0.3923564176599657 0.43443610423340046 0.015535871975062657 0.32258309774753535 0.21907151491322252 0.21316109723863538 -0.0535469558436988 -0.4877025489669787 0.023945068604363583 -0.4396779205225054 -0.04901216464173577 -0.044887716299707815 0.06427991903694644 -0.429848742692429 0.07526167381334815 -0.23063048491151783 -0.33258172271189596 0.3899849914368209 0.34979268046329104 -0.37138409723701643 -0.22584372817009202 -0.0532448242614193 0.1898243156982698 -0.414859651637127 -0.15082010710598134 -0.2106779244403613 0.46024368569284974 -0.45402516146936744 -0.46995505544325866 0.3017245423156217 -0.08336619258572439 -0.4477753089596679 -0.09385130236474999 -0.4900634294738304 -0.46896154251308814 -0.23051408970896345 -0.30605112283196867 -0.433289366381383 -0.09429682673642838 0.22321536043858414 0.46177683139062065 -0.2987166235760704 0.2247083425821036 -0.1485046623831651 0.2814613678957347
0.02727070906314739 -0.47413659665313634 0.4150751101795093 0.19458348130057576 -0.49301007979441974 -0.5055970091561608 0.15533881993042442 -0.2499124439239876 0.4456348168776038 0.26598310814599907 0.21596480379469699 -0.15126904409159725 -0.36355789688538814 0.45342103619868446 -0.20262607671852495 -0.1907056033388297 -0.30804602351233495 0.15076314568667676 -0.22621617320198778 -0.2464433242280174 0.3068103401124285 -0.4554516677263092 0.002185574338769435 -0.4597186345721264 -0.229719633581431 -0.4063729133162174 0.45349592300721114 0.19016871933312776 0.44750407954360294 0.46915691382315955 -0.10983074963947607 -0.14785972671330794 0.0018222215818028402 0.37611668222679373 -0.26921481978368605 -0.2384525050162636 0.4292838636185944 0.47560690903653113 0.2363748335051104 0.22453551395031193 0.4465523569454446 0.3880686277030147 0.030960513808009005 0.06760649966942645 0.26879390308795925 0.11955759107196685 -0.01863513031129226 -0.496549585810344 -0.36049298041607963 -0.024016272697709784 -0.21858859330149225 -0.42563335513960804 -0.23093320200615916 -0.135263102454419 -0.24263482761135183 -0.46272823958322007 -0.43004529299665134 -0.38810165702481214 0.14038700114845523 0.3429915690689102 -0.25507165781150865 -0.03159427364239342 0.05506045912335198 -0.20635804454396467 -0.21733066504689583 0.38155104870858025 -0.1301252375398601 0.4412954589357799 -0.17274273227755121 0.22488064490071638 -0.4456976370095507 -0.09210463232176848 0.3243532638722541 0.18372186880558805 0.3206808057530284 -0.10277497523138222 -0.260736566060132 0.07883191372145741 0.13370814199733871 0.36503438395573184 -0.3503662306324212 0.1378223925552225 0.4319183489228648 0.4966980223092832 0.29385670042196854 -0.061143490907779596 0.10887729455884135 0.05753291916001137 -0.18519856605465068 0.18177106907051413 -0.4593785531590154 0.21593295178908434 -0.41085466573115037 -0.058196069966066896 -0.32924490776646637 0.459159635115381 -0.014176764807669991 0.4713572358950675 0.03976990621429517 -0.4083943155371447 -0.022536140689908033 0.27501783855624584 0.38051012396876444 0.2653598073934724 0.3481196083256494 0.13129451902640943 0.33566959954742837 0.4657170530561448 -0.23793536094906528 -0.27891024304778594 -0.12256784604697904 -0.33359407583623424 -0.13310853374265955 0.22494047253255348 -0.27115486258047516 0.2628113944325663 -0.37673728136583023 -0.4719016661662873 0.26059797719903277 0.07527254593091498 0.41844836764441706 -0.13005397643134559 0.10386399868918424 0.31304738260390386 0.04534415989866627 -0.057985466536286785 -0.20481891642817068 0.41031245521111165 0.4483180466303882 -0.42888496856271047 0.36207366048982104 0.5062004661172687 -0.1396934120555568 -0.11751573169656741 -0.31511251347975683 0.22938034478538452 -0.5019097034256592 0.3361559679669349 0.26686356487907664 -0.4185646764590987 -0.4702021759711243 0.27818936147295437 0.4404434026489827 0.46994148361240684 -0.33987738508499227 0.2656199424594756 0.05592322165873327 0.014638044405165486 0.1760692412462991 0.40421838888456985 -0.34795112359544944 -0.21478240262688245 0.42676421528709857 -0.20420556406049511 -0.22646421393130697 0.30297277354234337 0.42107955952498766 0.37201403268078725 -0.2885232500039156 -0.5003685390211554 -0.4303301690106282 0.14812605581230875 -0.3102762089646164 0.2793643529815301 0.11660232212014943 0.00527050383495313 0.3704034742432237 0.407945232050368 0.4411367331301622 0.44960872881891817 -0.4080180501930691 0.4434624720294672 -0.1396337550907122 0.3007018933340108 0.17530718571110607 -0.3586153690682155 0.1854501433742811 0.22951969597927388 0.16630494095305748 -0.18819913817942124 0.22928793694796487 0.19902956464341576 -0.43447752446204224 -0.24547507365733162 0.15186370093546647 0.03555430211897623 0.11142335236512292 -0.40577380210867525 0.2719859111703875 -0.16056237357767975 -0.17656785021239507 -0.25499495895268326 -0.43471944679580893 -0.24996278569838978 -0.07849561285304038 0.321696893647408 0.4186416701649421 0.14936928160581478 0.01081713934628678 0.4092979816961905 -0.13656055990945157 -0.23035631325411862 -0.05938994274985998 0.08118870180338858 -0.34504841978859524 0.19066729631664944 0.3973130700683627 -0.18144809441472387 -0.42200807585019445 -0.08515745843185021 0.3562206563878864 0.4191303208641925 0.20740232961454275 0.3687604033204927 -0.07180378009851802 0.47168554339678387 -0.2092646872214696 -0.1208990553110849 -0.2768326035874897 -0.4959510088807929 -0.15295198519498085 -0.14960062190591056 0.24947424711723445 0.44965608713962557 -0.08965251286860006 -0.1381600277911664 0.27240658090658987 0.38732485273132233 -0.01157725618949488 -0.3866119394666816 -0.15570144132471594 0.008959286354459365 -0.014040156376249127 -0.10122937060432546 -0.33266397626774974 -0.41564383286142764 0.30789170910106456 -0.1910030336965163 0.26611741086563023 -0.3426238954211947 -0.34835847293010225 -0.05964518857731064 0.18347161534916298 -0.3617768247914737 -0.4642733894895328 -0.4008912243260708 0.2850102512282611 0.15337209845533573 -0.08125299368371226 0.42698558375117246 -0.23895318709803157 0.01777331346848777 -0.030464088132763453 -0.28784237123134854 0.26894900835816704 -0.19613910294431774 0.1743658433902376 0.2703092182244472 -0.04613862564927937 0.5196623568308852 0.3851624830435816 -0.11685959248518606 -0.1390194989612644 -0.4725562385775452 -0.41668833206769224 0.4137922741490991 -0.3091670515273957 0.3390556271372757 -0.3094670689108369 -0.41097272319435885 0.058382331555273115 0.21238326085230386 -0.2874692301544124 0.004007836968668843 0.05824925565046828 0.25046326032549393 0.40902430322379335 0.40827188032875217 0.1993442481252734 0.22451163843159078 -0.4085305976700885 0.39776249530995944 -0.22559554426984765 0.40618299227591426 -0.15596196487147257 -0.43051191641162967 0.39462535372619334 0.32525166522553073 0.011617273830807844 0.36079992431194274 0.13086949814229068 -0.1184804084536932 -0.49608931482832985 0.3696072626701602 0.29961160010441484 -0.39740742176551325 -0.226397396569651 -0.17430610247256884 0.2905406716984592 0.4213926667048268 0.22794658338250154 -0.14716780471433968 -0.2928897209035588 0.14600256028871403 -0.22870760386033187 -0.44121233810678867 0.36128668374804856 -0.03736127511032329 0.06065676459775292 -0.1491333510767771 -0.2442370894505368 0.054658852289802495 0.48134664213567635 0.40278319297583104 -0.15422875001423747 -0.2677037177176901 0.4122101066481903 -0.05595439246976988 0.06137110559209391 -0.0034613533033259172 0.3441582758005078 -0.23703737555951349 -0.004693210057126261 0.07152516631135594 -0.08143418662010868 0.39603135045194254 0.3047860775194106 0.08334242944231543 -0.4252845079319071 -0.19389309638127494 0.37854787834286663 0.3708032102181829 0.24471640416666945 0.197471923196626 0.4994120943127461 0.2785147515678275 -0.10204946894325673 0.4965621586564323 -0.28318179283922373 -0.29934387192918793 0.03352637430474138 -0.2411643229555144 0.3737957934801174 0.12209059886603221 0.27579615523029544 0.1428830814959866 -0.1363293515557306 -0.11921494529614053 -0.20291856507491182 0.289280254247176 -0.3405980094098031 0.019775800749339725 6.719770823009669E-4 0.36262224613864935 0.18960631549126544 0.4019513096038648 0.43348381873480774 0.39930443490088086 -0.13136060538489946 0.4949348276833231 0.36985063039155264 -0.21877170562826492 -0.06371972077452684 0.3023664256654957 -0.4376357904533827 0.37037485461267394 0.0635766901948142 0.2383212256012489 -0.1905095147427625 0.2241810898714171 0.4789564541913637 0.4088895776579167 0.007440227353394475 0.023646084046135322 -0.09979143509094358 0.43525836440541066 0.469953336715831 0.05412800204072927 0.14667337037879905 0.45786447515440315 -0.013730708433790106 -0.08444467882554997 0.45478846089807445 -0.15851554343864566 0.37868659279523664 0.47500197717905834 -0.4981044806099714 -0.2925268587334536 -0.23462990167236036 0.2229847509378195 -0.03508996043334751 0.16703416657762768 -0.28940290026094184 0.476143949066779 -0.12857126716283837 0.08277406345231349 0.3427082743942423 0.2490720772203751 -0.3278879738561924 -0.31965127189778275 -0.1706881153069654 -0.03012293960473509 -0.456325953931468 -0.45498996074702996 -0.3612251248401817 -0.004950428541237229 -0.15106351125773376 -0.034295289020290554 0.26799916496135867 0.3030339394977728 0.27039552844979814 0.3866962401686287 -0.16538545815852243 0.049355693227439545 -0.004997768042923948 0.11194965535722598 -0.4916431832113198 0.1262777497247255 -0.3057641714858614 0.20263274735630474 -0.21890996643866995 0.1047837044136356 0.04181717685707611 0.1929708609999643 0.45249346921995 0.09248362897505157 -0.27349449440429224 -0.25848756372352477 0.20459446476454882 0.12650538679947584 -0.34360261440558 0.48634093705190423 -0.007481646670541673 0.33894770946766684 0.3319898578680896 0.338983282702128 -0.31441373939793626 -0.35150408659896926 -0.0042861204910883575 -0.38292814110952067 -0.2690940575188401 -0.33535360725422875 0.16819572914290423 0.3912578674533415 0.3444408778344514 0.35223897818489946 -0.15801102250201512 0.2278976996297044 0.2272499816786135 -0.08166846782572877 -0.31314682525476356 -0.2882077195081967 -0.4343338362837371 0.4331380961305342 -0.2985665935297013 0.3326354071136096 0.050849703812153375 0.45360237692440275 0.08799502802587578 0.39649579272723423 -0.41190215991128576 0.10196001345423093 0.1983887234904056 0.18870386251433796 0.39665778855952744 0.14364983584031016 0.1461879175620195 0.11706115110453659 -0.4756852871811503 0.3382188390840725 0.20493179781194276 0.2500623855895918 0.2968636597768386 0.05879234079259828 0.43751510274986977 -0.10401042300604528 0.03658332839136149 0.5024818434829086 0.3516964667526648 -0.018887272014490936 -0.18521642895864066 -0.14088253277578028 -0.058881216572285684 0.11144049319459215 0.10349352607901385 -0.07799928561833246 -0.43772324597407736 0.17508850588412278 0.09637430634729069 -0.4573287523614588 0.005395718191175266 0.14406959052536908 0.3448593024879165 0.12976978850021098 0.29068286223787454 -0.04255111226233087 -0.16600253326273992 0.31621340692570343 -0.44002495323552826 -0.276888332893002 -0.29460422625279037 0.3814816560664547 0.45685616073928603 0.1351916673392106 0.48170887795961365 0.1119766833167481 -0.07554423361286049 0.17699505636703047 -0.21097014331345934 0.019056601362599544 -0.27263357887130535 0.3327687911865234 -0.3633016476403716 0.4699541228246992 0.20947556076049298 -0.00482809831029897 0.08267649155622207 0.22420301801428247 0.48526690442773873 -0.3163499296430887 0.1832588879937184 0.03681795290927336 -0.3711299152151809 0.28089056200560836 -0.39206023762709635 -0.28008957868440687 0.06528841217244756 -0.4919645890092571 -0.1981900722654894 0.37641494443070145 0.32828841607276293 0.471882307669762 -0.04945459495141933 0.3954372922631642 0.1127159406098901 0.3732068138272402 -0.26727882679395576 0.0680327153162317 -0.3300842426495382 -0.18886641038693275 -0.26899500404279614 -0.44597910834243243 -0.4605141141386922 -0.21603043797218052 0.21398720675315494 0.30895850336020947 0.2183933455971692 -0.34840549047141317 -0.22743806168130298 -0.4245398262622754 0.054037666954231525 -0.06140258902414804 -0.012120461799073976 -0.35703124357916294 0.27782569794004863 -0.03172832820771107 -0.18845833133155931 0.36671661178356335 0.13690375534944793 0.38310406378755396 0.4585668377849874 -0.09402559093644104 0.3417695428940503 0.17714134344200616 0.2896322351971093 0.3506483262130716 -0.43554336579323627 -0.09386489991929833 -0.29312858506538414 -0.2956840265617091 -0.1742553881322769 0.12212341192810812 -0.48152276807552113 0.14400601687168707 0.2877306388118938 -0.3706063758553794 0.4947247411618684 -0.35667612840174123 0.027689933455256447 0.18231857667975587 -0.4932881042197204 -0.38684855877896873 0.14622146572101874 -0.022061220529297383 -0.47912481724084727 -0.012819226085226256 -0.41403443035613124 -0.21982873982899062 0.18607366910446324 0.05508964543768177 -0.48987717952285625 -0.4869836080373902 0.07541733887489839 0.27448528834263936 -0.12231901039308159 0.3817671159924643 0.4644631975490414 -0.4844624685153141 -0.01000509441542989 -0.4634702889988697 -0.2641382545358116 -0.08443902082888906 0.00789103619455354 0.199664459944041 -0.2123342506657466 -0.11159555088814821 0.1259553235974723 -0.3742916454660239 0.30248961808593927 0.4232794011966981 0.3530380291816933 0.0371051902110276 0.15475851989062905 -0.23304501995396068 -0.052915034937681134 0.1449564524347512 -0.23409437810080277 0.3343747685939429 -0.07057712993301234 -0.1886937788361794 0.2450806750257007 0.14839831587906177 0.4445412619070578 0.050685240575888524 -0.23803183866922797 -0.20185434532952276 0.19347629501513883 0.014243536981469044 -0.41797829586699176 -0.20547871592016564 0.35815524589068787 0.23458632351977735 0.41170173234230073 0.3634413990087303 0.15725560234487035 0.01468693427876607 -0.0904403716316751 -0.08994782175131051 0.21943329995984875 -0.03637809210146651 0.12206130334041719 0.10905356901032282 0.16279240581428683 -0.40047533315897293 -0.1677495144132244 -0.2885701186598293 0.13418267611339238 -0.4784449739029 -0.49687890173389176 0.2194354274041596 0.3097893930837334 -0.06674579091869497 -0.3525614774111711 -0.0033582636989967917 -0.24630297790067754 0.23292144572087076 0.18264742103358889 0.11446350977024057 0.3129740282365324 0.24333913588562323 0.0945353254362251 0.3881847434917783 -0.15152109091734747 -0.17788984157750712 -0.3688574584120995 -0.053464289636345405 -0.028356919749419663 -0.29894288454172785 -0.07313302806595189 -0.49167341775587137 -0.027025635336616026 0.39729472872685434 0.16926980955033225 -0.4067324421774211 -0.2990357321158946 0.22451694359856264 -0.05357686535106427 -0.18456477390392836 0.2159837549113784 -0.4026223476718229 0.3164526229396209 -0.41004973904692815 0.06750220445866056 0.36185892156588323 0.4022865672382044 -0.29173388106688936 0.2561387762568084 -0.12637570763063 -0.19120628586838165 0.35671753941762935 -0.09419334181636475 0.3571123654737498 -0.11510896800128473 -0.3875675004607516 0.31347867307755095 -0.21737440715250697 -0.16445261644098455 0.3913309757652804 0.30578364143914966 0.22675274103927007 -0.21119674060399327 0.27780690288208626 -0.38285223204609775 -0.387918796161672 -0.4517387780956975 -0.4471593186457258 0.49890407157642375 0.3628575868373825 -0.0868419045234463 0.43907098189275207 0.3133683017332544 0.31112000979618587 -0.033110066560466916 -0.4747948396328463 0.25510594829721756 0.04796263393232092 0.10000583547575459 0.3577032489505825 -0.23486456747477358 -0.1902231373815883 0.3338162357867798 0.43851466244751147 -0.3176294351424874 0.27143652230683946 -0.28311764537903455 -0.24940261106738468 0.05832745969253129 0.24825678802939144 0.24875730593915032 0.3175095100965243 0.31867156145197395 -0.4129347087423429 -0.08157531646653199 0.18109516566085926 0.2125967647518881 -0.1114786317570366 -0.20086095727877576 0.4514756078619893 -0.14830880079898617 -0.07624210770016449 -0.19401330339974374 -0.10777640545383521 0.07968343291964691 0.2701871021450815 -0.03786506538830115 -0.32673006020313433 0.07146613132414084 0.2917491533470587 -0.4792563239213089 -0.22068604404543876 -0.46941863302407716 0.4904159018544173 0.11675174372798842 -0.2483107604739874 -0.010266571263154946 0.029695899340302874 -0.05023129648891036 -0.23098663717560441 0.13800655857581412 -0.4179514923597754 -0.24924549807383467 -0.0696069241514542 0.17729309872840512 0.10725206908981144 -0.2175215115711853 0.08189397079701782 -0.35769546472988695 0.28246447961084864 -0.2564310348407777
0.03207040840832385 -0.22929054148279004 0.457654042868017 0.21932673146457685 -0.011812521577173178 -0.006561579665427951 -0.2036121399138746 0.02915537910500099 0.36226597917739795 -0.13752093673582255 -0.31175805008221297 0.4610029848661884 -0.34796157565517294 -0.23998942163809722 0.05327275333333261 0.45908825648615553 0.2972258918967513 -0.3919851194498175 0.38407375582715036 0.4663025952262223 0.3091530026708125 -0.43467724312619993 0.25230821079379223 -0.249159210522752 0.01596139493927374 -0.07098238362352949 -0.17207205618045215 -0.2562004905458007 -0.0280933413335425 0.07016694935735673 0.005394256285993957 0.07260737821498153 0.3133325229957199 0.2590943566464541 0.3447455939521176 -0.3687446506602704 -0.21904883264104982 -0.21532408776095058 -0.10972001987081431 0.20019477391857884 -0.14486129616968046 -0.050805115377927944 -0.10364374411621918 -0.2899811504496608 -0.4583164764088775 0.07946996839461204 0.3110297811158812 0.18856216783732574 -0.19727577995318585 -0.20442985897431165 -0.16908228219412552 -0.40255350246724253 0.2759078202223301 -0.020261879197828434 -0.3674627207475814 0.2536535754013577 0.07333662893024567 -0.491014058509964 0.13365451889622468 0.18250262292307848 0.3748208681535816 -0.1596594255896604 0.30084077870366754 0.035824674170286924 -0.03254146475360561 -0.043862867956455505 -0.045281939147278155 -0.08534076460723272 -0.1983530431929949 0.35267912905337007 -0.38987149252384556 0.05642166287411556 0.08526692535655825 -0.2992676480930311 -0.4298425229668654 -0.26078125585014583 -0.16628344329721942 0.15235408690669947 0.49125568898347216 -0.13662775955894546 -0.3320121997596938 0.29861504668448846 -0.10474306468503823 -0.38779195951799067 0.247496571912749 -0.18017178931480227 -0.24003964021252377 0.23629026672377323 0.4198698609777362 -0.1933124759724751 0.13667274729502532 -0.16525448478211124 -0.08595171901717101 0.2472364731326842 0.19405449050284032 -0.4652339550166641 0.14819164682267988 -0.38125999876054967 -0.4186446460369667 -0.34649586697554424 0.49603778308859525 0.3741694081706272 -0.12295764142843536 -0.1460555021150728 0.18773062672432345 0.2845951273582349 0.13663172919780173 -0.2544726893026065 0.3187873836572243 -0.17787882921862438 0.0831175543182838 0.04019264153897606 -0.015442375445406097 0.41102527081472745 0.24427068434231483 -0.43655786812659086 0.39053457402518965 0.17067265027351108 0.37919652727093794 -0.19257525017874202 0.4057780927222694 -0.4865535289502849 -0.26423086445331384 -8.231135218292482E-4 -0.31821717925003773 0.27086926172553 0.3221809197191901 -0.4398956584032334 0.013088258680425503 0.2952039582882055 0.026716176656434505 -0.08771316985254009 -0.05044126408925469 0.01659089740798655 -0.4267225323403991 -0.4800616518461442 -0.30012290593847785 0.06044216990394235 0.13592732854969172 -0.34451809515938536 -0.2411844134251134 0.23699859284608485 0.03962738699965928 -0.22483404825701273 0.2644800270077928 0.02063626485405505 -0.46938554730999477 0.34912831935252503 0.4861654968294769 -0.013350229330794617 -0.18791837481397736 -0.4033920286208798 0.1845510971136889 -0.3410538786223093 0.4609559808236427 0.19472828966155012 -0.4515746957296349 0.15341774281713536 0.34496042316512104 0.1024539903520934 0.4846274343320074 -0.3893343133605892 0.49494616531843094 0.12687192213839607 -0.06167001301887295 0.14544575319835995 -0.10016010967336166 -0.061871647865558196 -0.48576464171559075 -0.43175495843381156 0.36031515969793193 -0.19487704465269495 0.028154218838502162 0.2849857535067826 0.2979725078283811 -0.2140405631356327 0.07761664721328833 0.12375935877062154 0.30906773658140096 0.3611283472039994 0.1144423064029935 -0.028443944975637594 -0.4517914447964156 -0.2021973553881994 0.020889818231537776 -0.20375649381897384 -0.4343068473274859 -0.2557893734308598 0.014369258929221345 -0.24419864536222313 -0.13560313212237293 0.11072436783391902 0.4985292350791897 0.4223357410605325 -0.2839211891331643 -0.43909988033454656 0.1657643183714914 0.057855793061706934 0.06974386325394621 0.3242673704226101 0.29086682653350654 -0.29482423138856817 -0.09190717838202073 0.333016278119868 0.45922771621027 -0.002494981257351029 -0.4580650742201273 0.26445078145843426 0.11520937674404894 -0.32845504577585066 0.3554569688496255 0.2029899807355575 0.006614826207831545 -0.4486860865682453 0.032894842459543494 -0.11146092380806806 -0.3811597623609851 0.34818793000618115 0.3950569053118259 -0.09477184482197157 -0.13264402458829871 0.22326646067605185 0.14803154379550124 -0.41082805923050647 0.4531310797671906 -0.22181031865445644 0.3858112446086657 0.24383652714269347 -0.1342594709073421 -0.2844283832729703 0.26690439418865325 0.27401370558825455 -0.023085197138395647 0.28167625281270314 -0.2572019663864299 -0.46201619504454283 0.39042024771923056 0.3484498393293198 0.17016187026857044 0.17516755999841108 -0.006604084619784087 -0.40935210170613223 0.1506749536262584 0.07896219181436323 -0.17633979743458858 0.3129728453947917 -0.2764574060255636 0.3359251766718672 -0.12479161396679979 0.1730469299526542 -0.049073067445771605 -0.46877069587595915 -0.20222467857050053 -0.1166255206353726 0.28918635406850646 0.275503531411692 0.1169741580448644 0.054087378848874025 -0.22302280659092744 0.12841588690753677 -0.447560236936973 0.1899295749710243 -0.2170257571298608 0.2151602602038362 -0.33106692595633225 -0.2773817477550735 0.35639251587915155 -0.019239824035647144 0.12795851341460354 0.2905251370186938 -0.4601003586895238 -0.26305146591252954 0.014929530319035168 0.07926668182190261 -0.23916733529068185 -0.39819547815478346 -0.022266846650087314 -0.4740156713907159 0.3759204173907118 0.01439780099276782 -0.16194825934682797 0.4915754458639693 -0.2841771058204562 -0.11490499522745079 0.41702397003654174 0.3505975266636549 -0.44241884832758116 -0.1300933211114135 0.4580481130157316 0.41496945466001867 -0.31937830594258476 -0.16690521040164916 0.0934261899159229 0.3806933695125166 0.4943987694883529 0.15932743207858616 -0.3504429984420678 0.04858207407714282 -0.23761598583249316 -0.04994280479651043 -0.05570887756760439 -0.010964275169754805 0.47456037408684715 0.492794150192743 0.43252910631917674 0.16374097817163305 -0.2561013157718691 -0.09622773914681648 -0.1845036498154409 -0.045633775467806975 -0.36940979073845787 0.10216634009108062 -0.14818947655992262 -0.04707531956666174 -0.2229786878263562 0.023872769460851706 -0.46788072175399564 -0.0028728666003578953 0.0031430493513187933 0.4233459705815674 0.0026159360869787173 0.44323159904801607 -0.48773690780187007 -0.1833094797326833 -0.05276811785529744 -0.022976050501120702 -0.4887739112630458 -0.2816032885107078 -0.28083190002967345 0.10923124752417553 -0.3129445238958248 0.2480521260734754 0.48055170378491857 0.3681498707216838 0.005410005709219752 -0.08653437450321995 -0.2819995274378185 -0.5020070730707671 0.47981233810280466 -0.09407373492930912 0.06741401162012411 -0.013090814751024834 -0.20009045164863606 0.13660921420968394 0.08107086143693577 -0.012335067563775937 0.12098675716859868 -0.20075705075572353 -0.47578435496778204 0.4902923192738241 0.36723765072091363 -0.06895852259563541 0.35326586678010746 0.10807572879964183 -0.25952988919601877 -0.12834465387432106 -0.2508983146677494 -0.3427130721440939 0.11319715652571567 0.22371354882312652 -0.21645319354138207 0.11501023141735989 0.04435892181877757 0.28501204138690817 0.33654638806718246 -0.15648870494662961 0.34847616230953105 0.11418295836931455 0.25476488424382093 0.4118133416591661 -0.3447190558159272 -0.07042675948674075 0.47986258534853243 -0.03742954904224866 -0.06288063421907421 0.4017068911656122 0.11186686264196084 0.4505901446934776 0.2729532940002837 -0.10822693944231462 0.16278476182094864 -0.2716119990817055 0.1762596932632997 0.4148036532110103 -0.09077499546983464 -0.06443907554263743 -0.4767552402598106 -0.2401197093337951 0.09213677416755993 -0.5021120228346343 -0.060390001334672795 0.282405919483935 -0.3604053642286761 0.2574860519244718 -0.35975759636026555 0.141730381901509 -0.06307931331576032 0.3633431975563448 0.16580624234503913 -0.09517409316953085 0.201949314932281 0.18064248567382826 0.13526618318232103 0.459972187394161 -0.2461867321700662 -0.3464632758034363 0.12085324234755644 0.4967080129160499 -0.0060339961229754204 0.5032294423574803 0.060134592205539336 0.22807318243884703 -0.4517254313421882 0.04419000259415175 0.09422778119779993 -0.11240025425941137 -0.1232956815026727 0.3579240920377779 -0.3932128038558908 0.23009423750631286 -0.44976656423402145 -0.21707372742648934 0.4102675744282457 0.43973113541785097 0.08978755550909799 -0.13349513409911642 0.13356642759708903 0.22006941036337313 -0.390527890230357 -0.29612595757953436 0.04608692301962882 0.1707154854589581 -0.3491442444753374 -0.3688423598206552 -0.13170616365937401 0.23792478263325267 -0.33362628985402165 0.2583677188944731 0.038498386160743206 0.19371895006730924 0.3490599903522623 -0.40695692046500637 -0.22530667437288768 -0.37780439009532163 0.33606737989207713 -0.5058849312397834 -0.44372875584807026 -0.1242957878451556 -0.4437594845371494 -0.49797995373109494 0.49064371251596245 0.12162180827430273 0.002944114283785925 -0.19163962552971675 0.41479570814227096 0.21646946054228217 0.23549705018440514 0.4858186195980287 0.27139982348078046 -0.05489745377948467 -0.037385281974273724 -0.10444802710770185 0.2564353623691975 0.24232151564528628 -0.02728624640357436 -0.1392527244726044 0.22947440203598876 -0.409012802879163 -0.4470324813719461 0.343491302594668 -0.23405777372028302 0.48960570402641423 -0.11682136988110794 0.008226666297529665 0.46334754225050984 -0.3897305393204455 0.23792669170788347 -0.4027282895950074 -0.3315673956634559 0.012575827071614795 -0.18586031504993142 0.029061941557308547 -0.1988811635718536 -0.1622501084363576 0.13131657310995679 0.24023235464303858 0.24129579499186005 0.24927640798064155 0.04791158885713138 0.4820314227256595 0.30570904491225354 -0.229288046435704 0.46924610212187146 0.0858441680088566 -0.28410574149655465 -0.2020500543569767 0.47253153817793925 0.39060291655884066 -0.4776468298026002 -0.057461453497229184 -0.09179204691671465 0.22445142709597035 -0.16172967578538947 0.06248136260917635 0.062366665239127664 0.3314965867007416 -0.47226351958890733 -0.4012083222220518 -0.297502362856734 0.10587952124590241 0.25487296347281085 0.01977150085363113 -0.11766681372130092 0.30045574450603724 -0.011529625809819945 0.057707280704379305 0.23932856440371064 0.4726498089012501 -0.2540197048447499 -0.19599526854753488 0.20141510761814113 -0.35993344037589187 -0.25297580401184394 0.42084026818579334 0.34332862112209017 -0.4751309966960901 0.29068749054178755 -0.14468563072567964 0.2990545358143473 0.3372755056781432 -0.23242120951275466 -0.32589363379624664 0.34350641414599403 -0.4539055526419857 -0.4465422765800012 -0.2721200758842347 0.03620086002663023 0.39840875401193465 -0.44149670744757913 0.26959031608958356 -0.04097726141170595 0.270362189752643 0.29068737377350473 -0.21441378602854166 0.3280391372024831 -0.12292535941491577 0.15456879726808712 -0.3621935177115393 0.27830247356061893 0.3750192164268294 -0.19574860729483892 0.4912907804654726 0.1472108580777783 0.3104592516641226 0.27287549050573773 0.40437249008202925 -0.39968859641871013 -0.22278936412223893 0.2306327468590363 0.05267962285278521 -0.4648115163672426 0.08825575192433531 -0.2794395912479953 0.17684294181764368 -0.262690724445961 0.11488761047252512 -0.49627886072907235 0.3606120710109833 -0.1364274227665014 0.30781258039412024 0.4473680288855872 0.15500381164663823 0.1764046023801591 0.19430522329578404 -0.49168083456955786 -0.19163315548714538 0.3495637354044071 0.07820208757794526 0.23147720566398797 -0.1921134846154448 0.15827858722913768 0.18650152207377257 -0.029463045650584628 0.2501390606397935 0.4100573864253687 -0.494211415602292 0.04523873965709226 -0.2610942569617734 0.44532828286356363 0.27568235621732307 -0.10293559938348663 0.16903778146841653 -0.4086514356007767 -0.026000178203679006 0.13581875664573656 0.14735582942074618 -0.36227893547282664 -0.029785650866920962 0.47020725412565045 0.004515258829874482 -0.03997411695834282 -0.1575587072864809 -0.35034055218530624 -0.4931418839192191 -0.010135351942727303 0.3878260986628382 0.21627317209922728 -0.11461743523848018 0.24305297847006 0.18186617893182488 0.43929029738955266 -0.3665805395160227 0.2315058084440872 -0.23533529573335737 0.42470503990729175 -0.4719370867821965 0.18937228611610787 0.4799740293099801 0.03924834204178489 0.006812662491535377 -0.131676655883436 0.283651210677698 -0.13192498514876783 -0.035003412940459055 -0.1444556888482017 0.38612685123151896 0.29138190942929904 0.17844816055799934 -0.0465069148819327 -0.31474809731869113 0.3263882196851269 0.15844551983295274 -0.24415213517173234 0.25646869342752693 -0.1080952480853475 -0.4777488928803216 0.2215454439772307 -0.22570864002197907 0.47080338565697877 -0.05269799518047282 0.1952275307484317 0.06473915391231617 -0.14584826461283604 -0.32161223334850897 0.18011384639714584 0.17924945788858748 0.1333095947352039 -0.20525701113160152 0.17140143680879374 0.3842932811351896 -0.12427889498529193 -0.4590661285521318 -0.4877553461838795 0.4165614600312462 0.043297761437736094 0.11995537926626398 -0.4328872052041898 0.22487233229824416 -0.18153296831973142 -0.45402914990021737 -0.1529069957221058 -0.022127371816492474 0.4803914759643436 0.40497179936864386 -0.317188373284263 -0.3435510645091054 -0.11598391682468494 -0.4142487123198582 -0.17151662595137934 -0.1185391985776469 0.4334776473912713 0.2858255572331239 0.29468473316322924 0.15342401525133553 0.34372813062374413 -0.038504600604174474 -0.11565575161764642 0.03501030177820756 0.30930234316343264 0.22074916499831398 -0.41407306719257386 0.46608198734545697 -0.32406534759994005 -3.789555560238663E-4 -0.27772345361219275 0.43855227209191405 0.18729892967210893 -0.40159845612775025 -0.05585004847152143 0.014744942407744847 -0.38045595271238186 0.2861835936886299 -0.08962869904705267 -0.3249492694629813 0.37162121698427947 0.28018339345218357 0.38338485171849285 -0.3768086029042932 -0.494709644854099 -0.06874288994000756 0.1611374039985686 -0.05376611221394731 -0.022259384593832258 -0.09328064921962231 -0.24934776387920526 -0.13465916521597798 -0.2785860053282211 0.12697601786872545 0.1364399960050362 -0.1651262040958733 0.08987595062644776 -0.3172761499607724 -0.4526918929373637 -0.22823731147428677 0.34092653360157615 -0.02720589303435872 -0.04178779195918681 0.49004361167234034 -0.1508171621549508 0.1613198908493738 -0.39019734626090347 0.17942364078701412 0.2379455886917566 -0.48551878626785216 -0.425334169826607 0.39523915570919493 0.23015150663880932 0.2830794254097885 0.07024495788008028 0.30041169447796273 0.055719517016600766 -0.21678727479130916 0.40938062735996256 -0.0930443668942631 -0.41958273840668087 0.17926056276473978 0.4387808703865399 -0.46786788832846243 0.12532548728150605 -0.12735309878396883 0.4350562758252285 -0.036577285373248086 0.38651669435146435 -0.030316338363096853 -0.40560495446756506 -0.4915064721556607 -0.02362117372415763 0.21927300205554912 0.35672123947661605 -0.08523496182874173 -0.07654286317108033 0.0547583270122034 0.13455350042058764 -0.17629086172110994 0.3346374271309214 -0.013143985986763616 -0.21079332476187035 0.3309455644266912 0.3805685842963426 0.34287135735148755 0.2577714090336194 0.07081091007569734 -0.08440566314694854 -0.14955645717608046 0.39454274222743063 0.07856136791481239 0.37357973867006644 -0.03372750574043479 -0.3265603270084146
-0.04312394858801666 -0.3805356853052122 -0.31403545108188674 -0.29725440486204296 0.4910232450656316 0.1903819193791219 0.22564964393750392 0.22319402624716034 -0.42523864215470475 -0.24358030956777169 -0.22476159017633726 -0.3026398870094765 -0.38504077887886723 0.31125726421824695 0.34252701780104794 0.24851226894602732 0.021782231316413204 0.1007450229582605 0.48393251530303977 -0.1269857595424051 -0.09748776741312636 -0.4337761305386885 0.07793728011507184 0.30963571280464985 0.014310339563106594 0.4137029685375133 0.3431314097113586 0.3813432296232043 0.4595952920877313 0.3591112515812255 -0.3846159094862789 0.2747364616075145 0.15202905712973022 0.09401503504813782 0.4185950836282199 -0.2112088737488046 -0.06854789001863053 0.4021673616294339 0.012796801735609356 -0.27197230100265907 -0.3525876565168524 0.2611584762320616 -0.4062603632683878 0.16991944575702844 0.06933378123441504 -0.2533116953276378 0.3476684466505527 -0.48589347246805725 -0.21598041292046208 -0.23079667416441219 0.18970944085276295 -0.08858310219424564 -0.11399617271970997 -0.019563886057252337 -0.4958034413232798 -0.16018508338797321 0.43640685081757985 0.008434062094569207 -0.4275698854165703 0.4177751639900465 -0.25852804043160504 -0.3531436551031596 0.2283589679655571 0.21380701106550962 0.27700662775910456 0.2082208999430092 0.3844665554715093 0.19880005342161478 -0.3539661994848866 0.47298914218869625 0.3370509598178228 -0.1883072748074245 -0.362551552590124 0.3075870935690944 -0.4730399960089479 -0.058658754115314404 0.05286992233532757 0.2994512346540883 0.26702508388609575 0.05333827777115596 0.30383415471166053 -0.04714647197298599 0.14786213267532308 -0.37525599475177274 -0.32606505210379966 0.32686217696748177 0.39009876578084274 0.4971318424005577 -0.1652565437582658 0.09362667026074227 0.14422687447991508 -0.22905523189929222 -0.2758719701545335 0.4119285937664686 -0.3161235955520653 0.34223620766991475 -0.3599691022853136 0.25174513438371376 0.05279700953663008 0.3268963212206494 0.3118650300753991 -0.3720776415331233 -0.18046953012412972 0.0933383624233412 -0.3962356126759531 0.2583736392647536 0.2490078606601058 -0.1486777950637249 -0.4969441656848369 -0.13560314284580904 -0.4819183353550867 0.2648095522362967 -0.4085669221514328 0.22923687743413462 -0.2230548801007074 -0.07008642899111255 -0.1051915253852828 -0.4610518671407306 0.07319470217152371 0.09146423125874965 0.03955167228629419 0.10681216708456466 -0.500137580191089 0.12282793382456429 -0.23598200101679737 -0.3520465049192276 0.17064574702086474 -0.3669885275365749 -0.2181842692640741 -0.1120602441753699 -0.00740215304254008 -0.41499264626002186 0.2042257315853865 -0.3255021887528779 0.33461433335186846 -0.03135714765077794 -0.3360008333271429 0.30328690115694207 -0.32564190065354587 -0.4797221487262546 -0.17974090134108314 0.05776551894641011 -0.15177477130326547 -0.21872521146021567 0.461709721281441 -0.08942214833289631 0.032248507270158634 -0.006495910991923391 -0.25362491999349357 0.32837161460248754 -0.1766310895054587 0.24058204135785421 0.4376554789173113 -0.4964482573090725 -0.1796759286165337 0.41972837244126177 0.2838967459027059 -0.007656547410391128 -0.12416818534126918 -0.2708924330052395 0.198682538909517 0.4569253965153073 -0.22423321280263558 0.31473253001068646 0.2618990160205192 -0.09725020002454665 0.446018632434071 0.2834888076633563 0.030843149640535115 0.46338858936836375 0.014093189922582685 -0.11231934437904524 -0.044086129282463596 -0.37408418784583625 -0.17711380792417963 -0.2807616210943635 -0.07483411644127148 -0.4161948513426025 0.3574746646446049 0.17189345647118864 0.18461298744316024 0.0300285840881452 0.3924853380387812 0.3122278477212677 0.21450956724359072 -0.12056042686649558 0.09791018558388988 0.44809747596474375 -0.13781667525053817 0.1302190757472392 -0.3422026960526414 0.14912951071187042 -0.3919232622570425 -0.2677672566379539 0.0622199240536892 0.0823209378398374 0.3004795800977189 -0.05557600254056818 0.048592986349487145 0.3427251741862445 0.43915339442819823 -0.2539414081034122 -0.10201514224722416 -0.10430647735448748 -0.23027934000411887 -0.15986177144789115 -0.42192137156934273 0.32299403439738744 0.28896240469707196 -0.08752251249669407 0.024272974352780297 0.43995393422104406 0.30767261633001786 -0.3837075777789169 -0.16968795511471446 0.3728356570516763 -0.2984950154377082 0.34569790016501517 0.4925005052419601 -0.07058384106825105 -0.2034664970448632 0.3994684168663332 -0.07002053116176676 0.12746328345182087 0.443385359636412 -0.1868486849623558 0.07932229122728741 -0.08403988795600617 -0.370556682078817 7.448209784336579E-4 0.3538223088672275 0.16801680212301626 -0.44858119541628866 -0.23594376209524026 -0.09091870700388825 -0.4722739226827587 -0.3662211408722028 0.3447951559607765 -0.1948035099025695 -0.46543641810480607 0.035944673015111776 -0.29172079506241794 -0.4160780378158426 -0.03996867653153534 0.06851720537148175 0.11836615099777245 -0.4705753594441711 -0.34859249306550016 0.17344049016082458 0.13883173134488858 -0.09022508469259417 0.20811176904338063 -0.2380573902458109 -0.2721715173364926 -0.2697554319111632 -0.4953445073606147 -0.34784409345001777 0.2818745275379265 0.2160890241965707 0.18074990174767286 -0.20395058002958386 0.29247225745981914 0.009213660756107895 -0.16454827795855848 -0.09275075800922404 0.3425978242947085 0.22790918169181437 0.14229831516149496 0.2933679436959623 0.1434486371071147 0.002748547035176487 0.21117068517113557 -0.4538294744546212 0.19387184601638818 -0.24429419701025412 -0.23654562141068308 0.15014623993615284 0.11986060071192227 -0.46853764725736424 0.10810776961706722 -0.29476527027861193 0.46055601982404537 -0.17228951739035978 0.06568999518215367 -0.16905100530976602 -0.2439013835205525 0.1314695930580101 -0.25642841729669164 -0.3644042736035718 -0.36163589092288867 -0.03590793099515538 0.46769367210301926 -0.3324130767436736 -0.24476936113694836 -0.40621928568174814 0.3155075850956602 -0.03195601687749843 -0.40165255930868793 -0.34427717179336104 -0.23396422415122903 -0.043658666762993716 -0.16235823246015924 -0.05129898077123519 0.45273931190159755 0.34260648140480965 -0.43309031303050516 0.34277824703050336 -0.025904326112086776 0.12151094733710735 -0.3141386462063614 0.08601657280105947 0.23000124022553928 0.4297173252530372 -0.4013279062594202 0.4059137936526126 0.1260099139557791 -0.3022331204026001 0.2217758931066257 -0.1786133493019954 0.4923156223552735 -0.42526101905996827 -0.020948794690124433 0.02254905967408237 -0.29162034552494465 -0.3358784280630794 0.0064724612716273115 0.23456774470604236 0.47257686451910835 0.4107777550692348 0.08980632656622797 -0.21515108706938516 0.04391034619356022 -0.3479193852253273 0.2245631838539598 0.47747502920404944 -0.15440356278311262 0.39221559185210497 -0.19082365307908208 -0.46118468592541595 -0.006901631056938871 -0.08563392120990322 0.28297885852344334 0.45221628699034466 0.16860602321185794 -0.00678135059509661 0.30855849636095933 -0.20177479246731017 -0.21230387528335956 0.12423568816881167 -0.3920874511881378 0.01145629001381888 0.1623435870624929 -0.09889491869149948 -0.08912262271052047 -0.26861094364718807 -0.28867083799086923 0.34072264791478957 -0.4255333916851124 -0.4136499758362217 0.09697349997896909 -0.27799548692523773 0.37729663458898705 0.49691108968375186 0.17291071667161131 -0.1757251291297405 -0.053700637844679315 0.4526001374636039 -0.45547272188963717 -0.21647112657545897 -0.30647732850319553 0.4789044825163439 0.18200431348026783 0.4115661388813519 0.28980123649690215 -0.022153404105609856 0.1194006298198935 0.17228557441386796 0.37304556285276375 -0.2312278181351845 0.3012971273760545 -0.3050508219743716 0.02008282103211857 -0.47146572778484386 -0.13928236522391624 0.07519407106594818 -0.2761898189394399 -0.29928320957144117 -0.22185044449206226 0.16998998258615655 0.2684968571947786 -0.008604015159267718 -0.42031257665586896 0.0014377358752629698 -0.2722274108824948 -0.3732615067001145 0.11446302713524721 0.20575457604246095 -0.3822418227380046 0.0023577315579209382 0.15873895972224075 -0.4115830342738114 0.14299655508253892 0.002143169579396214 -0.43254449249686727 0.4418441825513485 0.45086758122555337 0.34803033854974197 -0.18819383548941993 -0.08989667695606349 -0.4928950598481397 0.4901459214856568 0.26482949667084416 -0.18710910564459318 0.371784064625675 0.17899577188721122 -0.4642768897848024 -0.42853092144420446 -0.1311896487582138 -0.2668850969575398 -0.2961350213435952 -0.421858534516991 -0.03416886561699496 -0.09323041341402011 -0.4784663304602034 0.05933320818385129 0.08475958900594904 -0.03277820983306921 0.14746290762920372 -0.09739133380254272 0.03372462018789636 0.026546468990391037 0.09167163598970551 0.018195069987831405 -0.26025527633351625 -0.3475020441091099 -0.04051026367011293 -0.1521673578514593 -0.23060336622696592 0.2100773281017376 0.4385527025562777 0.455162734625777 0.4897982725618374 -0.3298468084718587 0.07912700702486976 -0.12465584674390143 -0.276686769499434 0.3953048944600673 0.40539332347840795 0.1725635164514011 0.4930276003794124 -0.05293657621222527 -0.09277109161358013 0.23179751451641806 -0.4265911498833186 -0.4009049622863546 -0.2575869440731877 -0.28483410435721407 0.319189538791176 0.47351955219586916 -0.4207935637309114 -0.25534115968329313 -0.3093985586689557 -0.0582466282426259 0.017736510844518768 -0.22718814612607724 -0.4922060448032277 -0.029237364858095475 0.27101561300458016 -0.006923258338120254 -0.46766400612633546 -0.04880242615082486 -0.2462466597460704 -0.16309296076950183 0.42765993431776766 -0.1396803259562171 -0.05033252041050729 -0.19229624580201413 -0.031209151239849443 0.07184295659352824 -0.45038414947908156 0.4335121149780641 -0.470880325766423 0.20354138154449372 -0.0872379990066237 -0.41862785195930086 0.1261743390319113 0.05964505464632237 0.48895668789657276 0.3717494501038615 -0.22007090270036098 -0.3021403882483191 -0.19966966821548593 -0.10091489482453009 -0.4280447273886238 -0.35048221483043424 -0.2910614632350212 -0.2719511098551575 -7.611286696496493E-4 0.02489712218941542 0.04803394920002783 0.36930480608625493 -0.2910027521842491 -0.2868140680944868 0.3698954150266802 -0.44918324666418297 0.4669231662608223 0.05636964255294532 -0.012768078215588112 -0.2631741268859644 -0.3315015639236136 -0.30101575110971746 -0.06031265081040725 0.488311553249585 -0.3041184695049782 -0.2914068966247742 0.014616937083340614 -0.34090793070296393 0.3657725977641446 0.20526916534847425 -0.1333319906357273 -0.152983925293452 -0.15260316906309465 -0.4709911830846608 0.47632519322566924 -0.2685937319318116 0.1559345918913131 -0.17130215498456475 0.04723068169196358 -0.23187983338063106 -0.42194608378049114 0.1796440632911652 0.3043136537388365 -0.4508264451811792 0.45372922181868286 -0.23792865882802536 0.3461213133891156 -0.49912435117927373 -0.3978375743876523 -0.46391956297452835 -0.44001087673065337 0.008535899665821042 0.25218584508857783 -0.26456685293495347 0.454199339516305 0.018660149904862873 0.1275224983006806 -0.0037070207843068214 0.22183018581752498 0.0980769930593429 0.36434673401782247 0.2802241510620884 -0.3465577235415668 0.44360889336974924 0.10348667935382458 0.15329595711853786 0.07829994410050171 -0.12511445678174685 -0.3370571363606435 0.3815598010360751 0.3172260093648057 -0.05682943197100611 -0.024537360966993604 0.1161634776845165 -0.3975585653902468 0.3191487205693329 0.004039987485853115 -0.002186814741328339 0.10707695332662753 0.19952267224564396 -0.19963764378548468 -0.06991480501148124 -0.06259551413559787 0.39958588792810523 0.42338818987306476 0.21490707234451426 0.3870097628798352 -0.4587461025036433 -0.1666222480363522 -0.042455608793826975 0.4328659682296874 0.4518537002040582 -0.4812868062470145 -0.43931350653956835 0.17926452687521718 0.24770766995615465 -0.4381990585511149 0.24197088798207173 -0.3743695115257031 -0.3978252437303981 -0.41260970849783496 0.17460728670390133 -0.27509041064196404 -0.14747600305254358 0.03573657978456302 0.11215029159213094 0.3048519801458279 0.1049609239469122 -0.2826847238560014 -0.169686666684161 0.48858054833177383 0.23603400245488396 0.3533964819567868 -0.4133961466137605 0.13245753725934428 -0.40075087693594097 -0.32275100139086443 -0.3708972976917478 0.08124750817687866 -0.11090164448605978 -0.15971841263465414 0.3740859966415094 -0.08711256380232302 -0.30896757151617427 -0.27480611681142586 0.2800678418239321 -0.41219481228441607 -0.2598523940427861 -0.04794222050393359 0.434285402518523 -0.28680593856900394 0.4399634758624213 -0.4751575982117319 0.09353531709974612 0.20251994131938394 0.26703443855551157 -0.17895315494340175 -0.4495255272745017 0.25256324344314934 -0.34148944673282966 0.4048838699055887 0.10999442406696733 0.06230652192767042 -0.08515575973369215 -0.47377680735485583 0.1268065364328464 0.11119880644989104 -0.062447346675711855 0.30763115222114185 0.018965370130558035 -0.20392789869996525 -8.575563870801963E-4 0.10092913567849095 0.46543668443150193 -0.05153928036527617 0.05541243661794237 -0.11898887699934527 -0.19539786271996026 0.3066336318663209 -0.4181922362192055 -0.32403634651598767 0.08709540358986617 -0.2839792720835512 0.035018396563758915 0.033741547759210934 0.21089430489074237 0.4119580192895238 0.030341061294717205 -0.022798364268038503 -0.272155804540692 0.4228766231384533 -0.06252010858423326 -0.09352922963779912 -0.4457048354449922 -0.25301742794892784 0.2688571005024715 0.33146871667274247 0.2985049163281189 0.06006436173659838 0.3519982193403568 -0.3708705566477472 0.3837224012275892 -0.07520873638312595 -0.09302399910950239 0.1387449397277668 -0.1777434302893972 -0.18961223885883527 -0.0026614533992148333 -0.48787907388495116 0.06297347186262606 -0.27672375140356975 -0.2950911652350571 -0.24885635707761897 0.12130587450674798 0.33221805513221814 0.17945348814267095 0.06870513866078809 0.3069350074038405 0.0448902515704394 0.17885749865727207 0.05258839443918132 -0.1549854143389619 0.11214430780489282 0.29437913718287334 0.019915043054749466 0.24087625600115903 -0.30532144433738634 0.22464872448152745 -0.26723212418742426 0.09468755309130232 0.09238368662751457 -0.377858044613732 0.07106842373047713 0.2505002059239179 0.348315082624011 -0.007362415850846154 -0.35324520555123273 -0.4176721735644246 -0.10403370607580727 -0.3103983919708663 -0.2012602100752614 0.24379807500577771 0.23389638850853203 -0.37294300519944407 -0.11807167352471408 0.34859719236677295 0.2851641022999295 0.2588491952882379 0.3995567469579994 -0.30939170741407335 0.3710400074309183 0.3381481833060605 -0.458002635095461 0.2980921852826815 0.21964312351331058 -0.11819663629130873 0.34482452424231047 0.41907375771744004 0.32361925856822704 0.02114318754727771 -0.04707233744167767 -0.0012534548819828426 0.12752417991059378 -0.12838733433665817 0.13850012719622595 -0.39929077863443924 0.10108818688037569 -0.4819901174671944 0.39057108276597136 -0.2083752680770101 0.21402087810442827 0.1857663842601178 -0.25023467095935914 -0.3048121123484572 0.39669384600697316 0.02323885851600805 0.22240739019846112 -0.11261038391955569 0.40461504913621815 -0.2244253452178039 0.4167104607008526 -5.405661024039766E-4 -0.0631600451449158 0.3284360530306714 -0.19421522234712774 0.19307107612145089 -0.20310205443988746 0.33094757973287325 -0.14146321761282776 -0.3731758500031976 -0.29805201717786395 -0.07358779419671073 0.10329195941059455 -0.32147008616222505 -0.10108137769729231 0.23775595294076265 0.13342465362806846 -0.09162406269977187 0.41158238246032786 0.36634898701826524
-0.0036280897637614826 0.4011913594198564 0.05422664030278285 0.05966345246015091 -0.42497750284249936 -0.3662702215091171 0.13872080924645983 0.42506086672958054 -0.4517210101250946 -0.17874688782597148 -0.04306182796641412 -0.19645180185907654 0.2869041730567894 0.12592181476309083 -0.3368308328187789 -0.2472116614928695 0.09153501003920754 0.371421895026981 0.13692608874320972 -0.1382850029651277 -0.3424650896816804 0.3675996589502635 -0.12659426130145054 0.13239418071182973 0.3362265715302941 0.029578650003533102 -0.24849876614703617 0.4902916279267855 -0.09856025385131845 0.30568424958901425 -0.3960436343149406 -0.4598455980247347 0.06224469233575964 0.3896647940305865 0.5002633137718249 -0.021049188369671495 -0.1384315896057819 -0.20345102380534363 0.0652116607585737 -0.09956956699202266 -0.09502828967041572 -0.20648916447315246 -0.45753823717001146 0.3709761996731259 0.4337301294945906 0.43362372295824597 0.2615161967306741 0.4891624007512662 -0.18296643059162043 -0.37463922298584795 0.2504103626379576 0.48334627886635245 0.3593049737406204 0.3384538505696103 0.28405564523543125 -0.04009778764382277 -0.3760426211819525 0.4408026521345381 -0.07312599616141106 -0.10518125909703235 0.2650353395150646 0.39987777295646876 -0.38536310090014886 -0.4620512827603332 -0.012747180319518716 0.4022715681894175 -0.2146471347551401 -0.15321969867362117 0.2719541789684141 0.3787479285075071 0.49901700902984636 -0.21294412702133383 0.19016760636005348 -0.4269044341218631 0.07001498113739778 -0.3802725955428917 0.2705210267169836 -0.3803916294910298 0.24805248808449545 -0.22465157484459308 0.21312472899666915 0.3019831315860588 0.4634302707708866 0.06331166753675838 0.026371563223340427 0.10909020719393303 -0.06966474533024915 -0.24469530302285755 -0.12665533897641193 0.19959651403301407 0.23117979396303037 -0.19926232422080115 -0.38679406339040884 -0.010638839083233726 0.28510117470772195 -0.2776299924972034 -0.008117972619775607 -0.10298097916194587 -0.335898161475936 0.4832214553695837 -0.23510457875895363 -0.17309616188272658 -0.28665331513515635 -0.48896970619219804 0.38911251927537593 0.22605818275063935 0.5467630924727969 -0.40844818998955007 0.008419895793066881 0.238778122085441 0.12023504682815622 -0.4391857146545132 0.38485860261383115 -0.14528637496954605 -0.10537700813774727 -0.09192138353446792 -0.2453645067052371 -0.04063998611097131 -0.18480451179077287 -0.40015308411593536 -0.48032128995585266 0.1915290516885656 -0.2268390768033262 -0.09092532699125293 0.43134792078811385 -0.34759741729647725 0.41160186256826586 -0.45660876517346716 0.016060306223662325 -0.4273578904093396 -0.4537890056866498 0.22088823077098096 -0.09821898370153033 0.07457895361424144 -0.24869564606268432 -0.2997569335693307 0.3150864802800473 0.3291880622842025 0.17700538697157148 0.12938557309615617 -0.29927391700839495 -0.0812818046556456 0.4581491796254836 -0.41272011360609295 0.45411369511130334 -0.40365917553498837 -0.04477946030014356 0.10600089807000056 0.24860698546417664 -0.09911926260967817 0.17749548164009898 -0.4087633757579442 0.2298824523917098 -0.2848448599360885 0.44720177015853935 0.1591560490375759 -0.1517170717672211 0.015022736192350342 -0.22802538896258467 -0.012108384741578214 0.20799434417476997 0.1338607366318556 0.4036500250527108 -0.2241044406293102 -0.21128126842121822 0.39665814126085863 -0.4429258106785364 -0.434855226258478 -0.40231778053396305 -0.0033328157961498854 -0.19102390917790807 0.4061028223691853 0.4272084338564127 -0.22452524578893765 0.4798349792379087 -0.12660677039380674 -0.09188813992501381 0.22109336997822285 0.04576380218327715 0.4798585780489906 -0.07040212020737291 -0.48563708151262086 0.10044492322186797 -0.015266247643718657 0.1421747639217671 0.005491143872525777 0.006138182373190716 0.29796967005693226 -0.4395627668782699 0.12427557346471653 -0.42696436358381706 -0.4053019956008672 0.16619235117144984 -0.15230622914501035 -0.08342799242455076 -0.2851821903827157 0.4438371217113162 0.3357018375995568 -0.22889086668213454 0.1269325760457092 -0.012022685245438794 -0.13492600157320575 -0.3840709830476897 -0.3355507446241395 -0.3017833299702941 -0.027187282551700474 -0.12295141405682214 0.3563864863090692 -0.2297185015584321 -0.26117047036666924 -0.05128526273853568 -0.0520920837299575 0.2633652715094896 -0.1416189035162182 0.33840174123095446 -0.12654295655911899 0.3227803982994802 0.45631522136675806 -0.4797002332556217 0.11839029742935228 0.43702117133660445 0.07469533976703287 0.35481037689623823 0.4757437156325843 0.3398298385571488 0.36281849006707523 -0.10102783503205005 -0.45251633692684884 0.30920621666404896 -0.08372453040669682 -0.29410039807847443 0.3185095503900292 -0.01722451657846691 -0.09328636894720249 -0.16385300130700833 0.15888591679557115 -0.07579047969953455 0.3328927691911462 -0.30265229214628714 0.4978275549543089 0.45577196228780875 0.37165072232288704 0.38323336767228194 0.1543570301629165 -0.40437562813906164 -0.03487405331197225 0.24285723500035997 -0.1685976106792757 0.4526273339772923 0.24692783742192223 -0.14360885400467505 0.04427345217028603 0.2074837400826477 -0.015278864145745565 0.2494726344405639 -0.012837679780900968 -0.0052777691833626 0.07720267161555497 -0.10067187404071698 -0.362937033177844 0.08006214401436258 0.050702572470158545 0.40693687767221925 -0.4570674918130152 -0.3111665796675659 -0.054186814004794207 0.4350234024485306 -0.4014213973185926 0.37783218805936597 0.4567979826314789 -0.39108435279827 0.3471404888156242 0.449065722423984 -0.10068496700934912 -0.22786980413183225 0.1714493595002573 -0.0572080812733324 0.33993795425616935 0.23218654497842553 0.4515003022664764 -0.2854637185876674 0.08009142621149923 -0.46681286828094254 -0.09116440584017114 0.4928619522057919 0.024749028951195625 0.17241962640119723 0.07503688545534438 0.01893769287015085 0.39848898576444974 0.19116189652695068 0.06926704638840073 -0.3684176309451572 0.2520410229104217 0.22600264060737435 0.2116618995914741 -0.2626679952660381 -0.25714953310434063 0.06371287301239788 0.34930560508044367 0.25363960144484 0.006447332279989539 0.43050440496285064 0.027144328397337828 -0.35706404976826217 0.28675411361408 0.21845039336823469 -0.3372843863208047 0.16803712680584532 -0.16889095307836124 0.21251485088018954 0.1499308810414607 0.09453860594123938 0.4862911283146693 -0.13255721381962104 0.42272186091126895 -0.124039165621643 -0.07413227615815227 0.4761265683187581 0.5369967210421112 0.2618612418473175 0.45918864977550716 -0.18462392746390915 -0.15065543981676296 0.418658278092838 -0.3294074821869104 0.3837177013768217 -0.00152349811417015 -0.2328525141820913 0.1059630816944623 0.22716695485394342 0.39275227189270057 0.06754670407088494 0.16041074189067647 -0.12674962476642723 -0.03623914058186341 -0.44648701796382534 0.41710139765644766 -0.17518530084314304 0.03621781529892949 0.4299346341127824 -0.40064034961892564 0.4440604243672429 0.20464786187416195 -0.2386095607017609 0.09025241578786827 0.22043663432244567 0.16812074250751405 -0.38960827594728503 -0.48010702379850506 -0.06267989358751348 -0.39653531809870096 0.08140823091178827 0.06560529304093635 0.052600474692741796 0.36313387103371475 -0.01801918387815106 0.24519517676161404 -0.030612019987363 -0.22396353570916577 -0.07741387634981958 -0.4247998741081462 -0.1853943608834838 0.3199979832018933 0.12458093438203517 0.3621683523627018 0.4744476284397053 -0.1583517275865024 0.021651385198533834 0.05061506487648788 0.1832313580062959 0.31400095070929096 -0.15162397593190452 -0.35134643734954135 -0.347098252966899 0.31202947067389597 -0.24915548282587371 0.1274481844634132 -0.30850128373176544 -0.4895865937942945 0.15368648456843054 -0.3261331547463924 -0.24152703016869156 0.20991641084359938 0.061244061646618435 -0.07366553550689373 0.007908829027262082 -0.0010361210530891289 -0.2899374018586415 0.019605088113490862 0.07615753599191816 0.2435350301640608 -0.35504677221009523 -0.052759534537059206 -0.19876330798359196 -0.44737895226636715 -0.43994013364394763 0.4603463846056896 -0.06516356891701708 -0.4051768350887387 0.0945014366226843 0.3087123533437854 0.2151626619029896 -0.4210872355062572 0.42975822562503996 0.17516568198584076 0.18432251307176473 -0.11023222158668143 -0.005051169638748562 -0.4194049086133921 -0.1780788717656475 0.2044192752448464 0.2572801153246936 0.4475368973004815 -0.08046366165844566 -0.2860188061666674 0.012089891771021192 -0.09373763004601489 -0.3800219631617904 0.18406766241336217 -0.01748962148886501 0.1299912687058613 0.2677137365104413 -0.39109444494408613 -0.17650099132842847 0.41302114227495024 0.14078488653783447 -0.23281716644691527 0.29111165176331283 -0.12628015489135166 -0.49713232819108694 -0.21354069728395225 0.1984002954516678 0.11950787261923329 0.08229389156421206 0.27381086390980375 0.120349311425551 -0.38431147328606147 -0.28867442370331536 0.1386386834400008 0.39508195137523877 -0.11145217694093469 -0.1762971111083655 -0.0840308508631891 0.1281702543275117 0.47488661868951826 -0.10107977565017902 -0.3741946678204274 0.23796280701233502 -0.13200259850926097 -0.3112369627382074 0.46874205945833686 0.2975531274095834 -0.4383968435217706 0.25414343518266663 -0.40989247748238733 0.06492338921153992 -0.2572971201488945 0.07721187168187045 -0.2558521619050181 0.44014746610175237 0.028231615889830426 -0.18767556546154837 -0.060953274073272105 0.4124447794045729 -0.04206170480273089 -0.3943437967937156 0.5041252717820526 0.42332487375906136 -0.4750723857779187 -0.03227716314295459 0.030305600615105448 0.35623960099200425 -0.30746619267511005 -0.18941594540779033 0.021284069802070715 -0.022866827672697633 -0.3917693571413486 0.5038828846927822 0.019617648810308388 0.07680990086169104 -0.4537150187151826 0.3279854081134698 0.03823836542195832 -0.06485016386238733 0.31354817380441596 -0.20603344727593398 -0.4311026814039649 0.26233488914678205 -0.1942935555312517 -0.4675983118995605 0.3678502767156387 -0.0533309380396748 0.3976055031747511 -0.2145395319544136 0.48294033657186347 0.17597216951035405 0.03190027497697398 -0.35876262698536393 0.44964146012457834 -0.1589621556995398 0.09502127175270608 -0.20170623957552677 -0.21943190476855193 -0.48296775798892716 0.21172879155145186 0.4132900070368432 -0.11401267629408579 -0.3488917566720629 -0.2626666505769027 -0.11966348961698069 -0.34529255462381064 -0.4034901801020908 -0.41864089574288216 -0.3302367340169473 0.38787777777260685 -0.2622953216793515 0.0351434098106371 -0.09680446048349328 0.0923340366647041 0.4254569161575708 0.11894961019735882 -0.16996569612874585 -0.22127961882141498 0.39593384521214575 0.22960636124148448 0.019177544729463855 -0.237503697825105 0.26039721837227015 0.4536633530969182 -0.03483178991390913 0.3462601752353576 -0.010513255391505048 -0.4640970876652233 0.488812488018468 0.23687034564634926 -0.43862392519632043 0.25886145872793576 -0.30132129513788924 0.1710002256890616 -0.28790795257016094 0.09187802605853514 0.0640594572463098 -0.012931719849264217 -0.336524654616526 0.1976647295339173 -0.35136171042262937 0.22724289770506764 0.055924046425936805 -0.3883787106618212 0.2926665652393292 -0.3791757722937425 -0.199942194539053 0.14114566512306384 -0.3186578384809295 0.02884417774925487 0.06246657569258847 -0.07931277242894173 0.10740619546336377 0.25033686093978297 -0.26161344966449424 -0.10273111733294663 0.27111362788699017 0.4962603484259957 -0.3618962121179323 0.09871852933974623 0.28508264308100945 -0.0934048704553027 -0.48578237679474895 0.10347550595517843 0.09606798875749953 0.42466213330199576 -0.4277521991703932 0.4497774911585873 -0.47622667243844785 -0.32937968654985006 0.1927685339833233 -0.2981315495056669 0.18023322885739274 -0.2972386755931581 0.15184452586197428 0.07946406130118813 0.001958896353205845 0.4789523075679816 0.07293264193809837 0.3195944267406163 0.40945014965550985 -0.34596829582449645 0.38306616157361517 -0.4073634906994697 0.4735987254291866 0.1058899176513533 0.4045273932564557 0.248946846256134 0.3837111515666586 -0.49904349312296004 0.1455865124944196 0.005856642697129906 0.35628713738291246 0.008547419005358305 0.2248405616694462 0.11788000358801576 -0.16840937079657126 -0.05440529004899963 0.03532174745990888 -0.11301787549795245 -0.09521625461556536 0.155084819347311 -0.3989616894079055 0.49266730456620417 -0.2906657004574194 -0.15708353961502247 -0.2822221939942901 -0.057210610542282964 0.3834090804082382 0.03988705686229541 0.0607804250695398 -0.49109109089357256 0.29249358825307875 -0.16014708881972042 0.4830105298106952 -0.15279459558556296 0.4036298401597821 0.08480805620595276 -0.46279876297023553 -0.18217938782474155 -0.14881056020128758 -0.07039896882011715 0.15303280996793495 -0.15293111712781177 -0.4792600172273824 -0.28640273236665054 -0.08550598866753269 0.29990058833839145 -0.4163676297840691 0.09609130333154296 0.04213453869510277 -0.32214253603698434 0.2971871797787599 -0.4226862051026418 -0.37032415338006314 0.04243020754178522 -0.3646455638780384 0.1979846041089885 -0.4262816479291493 -0.38324943273380757 0.27754105612540236 0.2588126630330271 -0.4979414489479314 -0.12232603246862862 -0.41669242910813853 -0.4437640377162178 0.04215398375572032 -0.3930136804030313 0.16925024793489382 0.305838355752083 -0.3945363571745383 -0.37948169368976237 -0.21722140382492733 0.12750894320546424 -0.4975844686373978 0.17693769929169006 -0.10437400725112478 -0.12831964528616935 0.25795884512881284 -0.0567049635683784 0.14496624340043454 0.3782653922768844 -0.4573505402202288 0.46889217289913754 -0.3622708796371685 0.013079214501468563 0.34699019861097175 -0.40490937445558906 0.35359361021731966 -0.12262644581326451 -0.2719198272563597 -0.050392650230663756 0.3669518607472582 0.3208631534905241 0.062123335794466876 -0.07637579875265825 0.006707012531780474 0.18938877245793753 0.40483307756514586 -0.35321774208825873 -0.37927870003145353 -0.20842178490479463 -0.48472936047632065 -0.30947341341923384 -0.34424839542839164 0.15856480526586358 0.3532859412552568 0.3807151645435447 0.26918737421029926 -0.16649042156266902 -0.39365941324432485 0.04375273796046619 -0.2892087084893817 0.27823921080840097 -0.1860268906918607 0.39693636757574885 0.14430343103545423 -0.23345783911624485 0.3592246518838867 -0.32691896620988514 0.3871135933589604 -0.4057086086534312 0.030877159995366586 0.45343348817967755 0.010857163281156998 -0.3103491016188264 -0.2538346820796625 0.21996760100486976 0.3275238309631218 -0.03071265925211275 -0.06406223260168332 -0.0679003416889416 0.011334643880953798 -0.08297576078499917 0.026766651973656436 0.22151022565865786 -0.22417103900205224 0.28098526027874615 -0.36455290871495954 0.4830556427297679 -0.10094117947507833 0.40706961557945665 0.22006283119159578 0.44840903809003263 -0.0014481117358864258 0.28105183527446687 -0.05551293440872331 0.16695026467825547 0.40587894736240904 0.07694304586432799 0.3350878938630058 0.020838752700261372 -0.26383147408315055 0.18648915667124866 -0.04693374163158761 0.2889676421674474 -0.049766160375988314 0.29611498273916137 0.36628347175145637 -0.02438210361554305 -0.2409017071127558 -0.4735877270227052 -0.46935765078712155 0.4032479618810709 -0.3618564166568751 -0.02487641357988679 0.2016660644053675 0.3725573783978124 -0.19598313810859222 0.45024436632449294 -0.25480330962474057 -0.09478433037240896 -0.2383765493853675 0.44878196245017243 0.14085202345229966 -0.449518009518917 0.02484384755587754 0.33943116052799993 -0.48882364101626785 -0.42384229302788545 0.25822861286674026 0.2193478495825489 -0.11131338003956671
