2
256 768 true
0.028455248778719393 0.4847689505219194 0.17291340411161532 0.08484298704051217 -0.2577058441975343 -0.14108881775654167 0.06334725172533641 0.2685599000940817 0.4673996357072497 0.42903231029662126 0.4010752166570991 -0.23160114007802565 -0.32204201319986236 -0.04770425679052548 -0.019090309193188732 0.3114403617219914 -0.22945847203502204 0.36636270906106194 -0.12681528185262506 0.060993578323417674 -0.0012916095149149121 -0.41751079745921066 0.19763545151046025 0.22039550178745826 -0.013591534059927295 0.3962738382561979 0.21829249168743708 -0.0016413187223501605 -0.28867828921068744 -0.003056949815768611 0.19739663285008133 -0.26719056527964125 -0.358060360876165 0.15118873675588762 -0.2741667204273094 0.11046916466530943 -0.48496194663116604 0.3619904306726174 0.05262488086388341 0.2659645810231985 0.32137587151514263 -0.29552245099325297 0.20366397825665505 -0.2563000449494758 -0.48977641545617184 -0.45844011703581306 0.44863058742680134 -0.004051282012009534 -0.29134366025079306 -0.1618336802365039 0.11325059904405217 -0.19610894665253312 0.3623283461636029 -0.14209049860629647 -0.07529320664436796 -0.2396139796564447 0.16813407296285565 0.24511826882678206 -0.3441935451320917 -0.34411933095102254 -0.31352013210009744 0.4337048628167717 0.06948999581724755 -0.019542897827042965 -0.4736799940044035 0.2082048489733584 0.2970249732909274 -0.08222584820890877 0.165526331260686 -0.3002789612746345 0.04590665565575457 -0.2998376745180127 0.20427616026823178 0.09712052008965266 -0.4819762744963712 0.042519772222907495 -0.23419053977656945 0.3013531967046104 0.1059932779987506 -0.21529568748710026 0.4074443125000851 0.4390054952245068 0.05141675618732502 0.034162549366256276 0.37959281828994423 -0.08830215711403744 -0.41659393544135304 -0.032893053407749846 -0.3750851933396968 0.24600068108003867 -0.017586691617670097 0.028765034022364966 0.3482042626642226 0.16856399507347902 0.3291677358696215 -0.22028708444531994 0.4175404003490039 -0.42202360580763487 0.016624286457743595 0.02975439586829135 -0.1763337472945902 -0.15944371124675383 0.26896455197324215 0.26129935060515797 -0.07775068342490273 -0.43507049298711536 0.32039999542276765 0.32065081593407063 0.13817735873821238 0.29945826951826765 0.0010023859836151413 0.292171498225386 0.14410110182508332 0.0033230050755412932 -0.44021780159005597 -0.33294814481085394 0.14763484598891946 -0.37929455391555206 0.48930681347916777 0.2346208487331081 -0.4047278055953703 0.2738502885407522 -0.17916589533450447 -0.38535281082167533 -0.13260279117457127 -0.46191644438257856 -0.01274464273806333 -0.3599807393442429 -0.2867797016842886 -0.23195098050276347 -0.19654179129402735 -0.14815903098268307 0.3928910601338785 -0.15918722181364017 -0.012821964983737078 0.4193134799303951 -0.4821261658256446 0.3573662941499501 0.45446573778920574 -0.1080205690406014 -0.10726449750634443 -0.3219756286919195 0.09714292947743676 0.15571028570825435 0.2853826070927228 -0.48684472421996716 -0.30493323855833027 -0.1571886371330113 -0.43158812821647047 0.08641663575070803 -0.46259110532080416 -0.33578493003740684 -0.012539674237476576 0.43655328950715233 0.13584080545344485 0.04036466762911787 -0.35603120095285595 -0.05829603089337861 -0.15123504924025225 -0.3375749365537892 -0.01815735326615307 -0.44332521291504023 0.09813447562899101 -0.4011118568779863 -0.48809266285299996 -0.4441156573564894 -0.2983440676570611 -0.0021949085994198373 0.34624475392609727 -0.030918388998840158 -0.21749620271631778 0.3299575740873342 0.002705319038903912 0.07408286092583316 -0.18586008381265345 0.38239558087127656 0.37295297739264743 -0.399274517032702 -0.27426600402628143 -0.23260715953764152 0.4458216004524871 0.4419791865093524 -0.22365892224770975 0.03401077067651016 -0.4130158019451694 -0.47163366087363 0.33941059888511815 -0.33976355685412496 0.39731875955411095 0.19232607292600645 -5.558665878026041E-4 -0.21141453277232142 0.16199254043891653 0.4772487381509318 0.2376103154659841 -0.3753438163128047 -0.05257417088974084 -0.37746590042957656 -0.06763929536001989 0.12019010617802413 0.31590559835401877 0.2783230554034282 0.20679366306064814 0.14064047764921697 -0.4107680641859788 0.188274212561548 -0.13760841406469093 0.020112464164965153 -0.4270064635794903 0.4097437196187672 0.29061052476948546 0.16851002620995928 -0.1638537895130654 -0.09463628691588137 0.2514170667887231 -0.28016103317019225 -0.37341880972976843 0.22154876577444715 -0.2917721652948531 -0.4132284911115848 -0.33747864122921667 0.19225731811062932 -0.3406992962537311 -0.4630361484742017 0.028221960701917383 -0.2737476968783545 -0.3197982703470374 -0.2798670248172806 0.06102739479594292 -0.34184117618279497 0.1763586851244337 -0.453301034558674 -0.47810179365692934 0.12353956407272557 0.1840543157320833 -0.2995377292053458 0.36068648347540966 0.4047737835237741 0.12130487909112653 -0.1618640849701546 0.2727172105273679 -0.3750875243666699 0.14516434570456735 -0.16594183782666194 -0.14137486892923182 0.06179542293942783 -0.09116206636927887 0.15585187780521587 0.28197751035511653 -0.22586354720369298 -0.10266227129408337 -0.31329278640514385 -0.3978552567294518 -0.15159218658611584 0.440868688499379 -0.14507537380859853 0.03207604185247697 -0.4911691389228359 -0.26379147842621314 -0.14622244084540773 -0.31606478191903165 -0.3186389596894172 0.026296545865500228 0.08535688916861627 0.11071147578152304 0.060861123944394815 -0.4618695337909864 -0.29150189760882933 -0.4412077948150624 -0.16556892517643615 -0.08006364344184927 0.30304645377049677 0.0029708191781365554 -0.2806977706050295 -0.34045919336898445 0.42873039784821104 0.486529919705554 -0.4201434155409791 0.09422261320440274 0.41488224880770946 -0.19001053485004146 -0.307527054528887 -0.21067389277552995 -0.027813613099818495 -0.1536113374052375 0.150647084281758 -0.4081543393436832 0.39972573890032875 0.30583173794529434 0.32196486928299345 0.469029697436208 0.07660248518249285 -0.007936913178529518 -0.15389550173343725 -0.3607327184869342 0.23139857672713018 0.16529632895131732 0.2475452926110193 0.29355459801988765 0.48628120331862507 0.07259065823025034 -0.26508645194218616 -0.415645458561864 -0.03259803253180942 0.46994985045191523 -0.40325683445970983 0.06791471661578939 0.5256097538109926 -0.1981218507439557 -0.16285447086123064 -0.02638351309038656 0.033780685070734305 -0.3292693556154945 0.09981875231470062 -0.3763982914607889 0.27768736391314724 -0.17888692544277165 -0.42150100697451187 -0.38379421764736704 -0.21449612530109544 -0.20417139861641512 -0.37864942088302805 -0.17751540899955176 -0.18032774897195328 -0.03301024240796551 0.41370529101950265 0.4023481979634378 0.29178550823613053 0.294204782981037 -0.2554446143339979 -0.06415267353884246 -0.21844985673210213 -0.22284261487512239 -0.1950893443685559 0.09052347256597156 0.009441153983694276 0.10043837365160423 0.30520424126785195 -0.38376233850700436 -0.13341934982851364 0.291048702322619 0.20509757019195368 0.3793496119974214 0.07515354240171515 -0.1152961979643058 -0.08184188632049445 0.28468519016601684 0.1266334114017236 0.2418028819873779 -0.17215033487349732 0.24045459721954562 0.3078266290100306 -0.03933166159782034 -0.18560922599136948 -0.0037642518891887874 0.17302091004342848 -0.10978038093708357 -0.06533315062004874 -0.09688965251213486 -0.4675108492371029 0.008812057866129758 0.03498087954789751 -0.14733118104537762 -0.14721143957271282 0.08262413484495278 0.10244275405581142 0.10554530386931064 -0.1325101500162037 -0.4861982557502834 0.1841784411460489 0.19460866338216648 0.16755408435725794 -0.3486682028123807 0.34269964533146086 -0.09847167397822665 -0.41560865369911104 -0.1248805127823279 -0.4665851441051507 -0.11430587212366859 -0.23902102460456343 -0.24656758135666013 -0.36226479992993094 0.4514291981031875 -0.06563553725978366 0.3876272456301477 0.4386505273726193 0.19755219568822407 -0.2382431398204866 0.025862709853883146 -0.35724328437733743 0.010873050842677463 -0.41418162379504964 -0.41463608885456477 -0.3633779093499104 0.17801893805616467 -0.3205349217608857 -0.12728325411160898 0.06306313880878982 0.2783780353858065 0.45184508946818513 -0.4796855605784945 -0.021196065584864646 -0.031552614150284104 -0.3848748253391248 -0.39850697755371894 -0.46614066919852554 0.13079798982904803 0.035216131481770975 0.3438407878036631 -0.3040084331048657 -0.3331663077533039 -0.30901208164910654 -0.06607555289349586 -0.15842291696358043 -0.18060878985869458 0.28754468767716324 -0.10446106477758772 0.43323397177752715 0.3997997486522261 0.45752676663466635 -0.12903022055750618 0.2651072068768908 0.41017561845971473 0.24943214988194234 0.16390131090906626 0.22408629975845032 -0.4912317271412721 0.35898089342263073 -0.46504182017002826 -0.350148959565521 -0.3777923800254527 0.36021410654137787 0.21874117752747937 -0.38220624182935653 -0.4930619537832833 0.09965736292021989 0.08988723268654326 -0.13035180532865331 0.22577284532770453 0.27776028158922283 0.46297326349899975 -0.4507970707210754 0.021629634220221225 0.1783580495708004 -0.38736250974930075 -0.05460564044471242 0.25124868571496906 0.23688667131940386 -0.3403357741533856 0.05027031410583503 -0.43144710440953477 -0.25177457075812687 0.21752753553235507 0.0038909088900434237 0.27839920127044343 0.4751509010323512 0.07279727689824181 -0.18355083677248907 0.32206825116258075 0.03113170295311207 0.3558443161175488 -0.07640364136163681 0.3432110009096673 0.28289545745021927 0.34575385221482785 -0.1694948390736423 0.08105937159828214 -0.42389533845891963 -0.26475297726629976 0.0937572423936229 -0.19885436769747072 -0.41147107380198644 0.30541028314110086 0.03559191780251899 -0.14756198625690742 0.13922578562932925 0.18194076545386692 -0.39731331778114054 -0.19924238746785766 0.4588274719164832 -0.09992812114326753 -0.376509900576799 0.05108715392214348 0.10622352262011309 -0.16914189867450807 0.4844724046442128 0.11778500229996239 0.46781460673993414 0.36084702190067747 0.22793903982940775 0.3799309475043115 -0.25951814448476895 0.1200568870581265 -0.03405785304407247 -0.21407522510507151 0.015255917159888617 -0.07129831113800886 0.2904901391070456 0.06873979183660117 0.5018152136578075 0.4123125353812905 0.06794993480498467 -0.1282360173823363 0.08140520193908823 -0.3638518674666792 -0.47791045036567215 0.12220917189057837 0.3152740111037158 0.497987859930119 -0.38021625887577737 -0.31585318888922304 0.22889346214919282 0.48936389395301955 -0.27843238922297536 0.3341489643251919 -0.30041042507719895 0.26088843307015586 -0.46095545803438925 -0.007710592518247684 0.2929143351079764 -0.35351777269930595 -0.2205486524610282 0.3538891590820288 -0.27410939854113264 -0.0386911262012881 -0.4187750063167577 -0.25304740502825673 0.3501837803609494 0.2402459791614337 -0.09213081287528233 -0.15753344012951484 -0.3256468310629641 0.24020642481948196 0.1690011234273874 0.20325508655539715 0.16325956849217751 -0.27618266304994027 -0.33295942669802203 -0.14999609969327668 -0.3474749370222642 -0.25442730756655646 0.08184197013738377 -0.1822041776805863 -0.12365992787235736 0.03162350192782099 -0.3532246693788904 -0.3496078089499839 0.3077746437013462 -0.2751984803323478 -0.26130581020448246 0.053689732944638226 -0.4258550772198116 0.20935301500640122 0.41146064053828524 -0.011005847250243828 0.001015345774613612 0.3993436847707809 -0.1536539877689508 -0.1487800492507631 0.33630172231587113 -0.16093520643569312 0.3300038239039108 -0.2628581846872912 0.4278127797593754 -0.26449411604412304 0.32622895124162654 -0.1272460459469845 -0.43032602889909094 -0.3772556289568621 0.4161562318304787 -0.0586135263406236 -0.16465357019327084 -0.3076645642802183 -0.40991237075770687 0.34685208939666995 -0.06326696170552513 0.14583475123259462 0.0896007033925264 0.42749023713905976 -0.4642723187389965 -0.42894855919069735 0.2998995385131539 0.053964954774606104 0.3182575628152023 0.25423326186015965 -0.1415619189252394 0.06037468046025515 -0.011359128392747981 -0.15552788618880464 -0.5086662915293366 0.45082963284484007 -0.11524112090124973 -0.05926850183959211 -0.2604656266330837 0.3238576763790625 -0.2587327358155299 0.19000633029480513 -0.035500311792729285 0.12326004488384551 0.28531276642713 -0.37425929584007483 -0.4560410774261814 -0.33629297045980155 0.26794732464621146 0.1799551282448628 0.16839046435592944 0.42403446016045454 -0.13267964858174744 -0.09921528118157245 0.1406389406659898 -0.40709786916240487 0.21430294921559154 -0.23254052797002392 0.42966240307568326 0.36405750466385983 0.3073016158976492 -0.47492070932616376 -0.017948052046553024 9.92204074379505E-4 -0.4532708358981195 0.043254462104265576 -0.2659864045349652 0.44873097574777293 -0.40805817647468395 0.1828545477027385 -0.033222882407978244 -0.02795864415808786 -0.0637181952661518 0.34935707801170335 0.3717919804017899 0.27060494062879337 -0.04753192142965374 -0.1059924250585687 0.15262370318138557 0.36215587119122916 0.1643256752153557 -0.13384275442160465 -0.024455017265487378 -0.4105920664186514 0.025109640590192377 -0.3952745921659893 0.1399729491537091 0.129914893857805 0.10254148634510711 -0.3966514275275493 -0.26620545550617497 0.22417472032752048 -0.4685873937371707 0.13447342649346616 -0.22087653069458268 -0.3611500313764258 0.2889697251969187 -0.03907337584309565 0.16605472889222983 -0.3393068873412037 -0.4192927158802551 0.3456505777411705 -0.22208923101417827 -0.3849465954332532 -0.4789745334953859 0.39119350816836984 0.3362272748080781 0.2159185069269433 -0.4635058559245666 0.4438654260040043 -0.5017176671658512 0.017267664408253346 -0.12827162001114475 0.14932274677435095 0.4748781055360169 -0.16365078434788874 -0.23383649385444505 -0.13725382641490963 -0.4818681197907161 0.13560742210292975 -0.11329614175139743 -0.20641922202977242 -0.2139400587530106 -0.01815352363891825 -0.17239057764829013 -0.3959459537760674 0.17666471030221723 0.022741749916306387 0.10876161903762345 0.025242666482578013 0.20818869727032008 0.23363930539166736 -0.008712061506172914 -0.40553394771120915 0.28995272692625956 -0.2843347665017081 0.09848246219237566 -0.01983855375474384 -0.1327631972342448 -0.18835480109549912 0.08027374145992783 0.425290624187097 0.2191140739614298 -0.41897421698645065 -0.42131742129207694 0.3989920979113423 -0.1934741401187679 0.4025520706365954 -0.1518924165565586 -0.2297629516244282 0.21216897499223322 -0.19010436499761557 0.2891872400059447 -0.06328517745424109 0.31372140048676744 -0.06362263250164159 -0.06427156697618241 0.1666218922534828 0.2159909710923203 -0.2830726735012535 -0.372818984014616 0.2863677887987502 0.479612982924306 -0.4629899967441241 0.46382676828241126 -0.1272384661435827 -0.006281398444110353 -0.43687455602304337 -0.17253323729343117 -0.24380865794185305 0.3084740657228527 -0.2396639359874152 -0.2498849637316426 0.3698371555275974 -0.39725560565568907 0.13135903977282237 0.24135894663369942 -0.3920415559878077 -0.4653351951584962 -0.32617529377602306 0.09482248510919469 0.41242364879567955 -0.35718492427870707 -0.0390144905604426 0.4521224903581196 -0.338437138751686 0.20491520152556372 0.29135483024049347 -0.29958659702105356 0.4493438697332164 -0.05040708682395145 0.27309284750736684 -0.29667199871461164 0.0882895647099271 -0.4072249856833699 -0.09036608249747807 -0.3357776840196397 0.4117557998890322 -0.4053627668453194 -0.07534311072823036 -0.0471072199251711 0.01898549939570136 -0.21846353756723869 -0.3027938749062362 0.3885172042813583 0.05733334833814539 0.21302328648241023 -0.3996343753882372 0.39282957364730064 -0.2299994075460467 0.39604369149794366 0.15660474169650215 0.438775369382847 -0.2405696385821533
0.02249220457028526 -0.053512304247582354 -0.3670063393337152 -0.1322082448274755 -0.2311360711416993 0.04015747388725018 0.14063652959133127 0.4337581779213867 0.12492668578491525 0.48269122760672667 -0.03531410751055449 0.2671679352504421 0.05548089176895041 0.2633529924031771 0.09717093296304484 -0.140927072759476 -0.2478559389700886 0.4022645364683041 -0.3878413559274979 0.48737812376728895 -0.45429902382516335 -0.4368088304825712 0.433112287421787 -0.09843139026119539 0.4385544229074348 -0.1837390144543105 0.4926013350046186 -0.01855324813140385 0.18369366597373502 -0.4639463526362393 -0.0931963485471096 -0.3276667417000457 0.44500304191235796 0.27197298724938634 0.014686089902556482 0.0656207782258892 0.1592057446040216 -0.10288235089977815 0.10392311571111065 -0.14114106459848383 0.12444268103829902 -0.44065382628719496 -0.4046290370854368 -0.04036048802815617 -0.061743040919032495 0.44698566638219583 -0.27471621713924615 -0.3349458277657881 -0.16655036966797723 -0.02740838710087523 -0.3381651820637878 -0.4613241722794838 -0.12348252246486979 0.06833293403987582 0.48181217747925736 0.1671480482403468 -0.26865653481490137 0.3741601744507515 0.11113669025608844 -0.33060085718694204 -0.4667745859284989 -0.0902479183354038 0.22778433914064614 0.42030231663229106 0.2174113612016326 -0.346038062725531 0.5125926023831638 -0.13372877112266857 0.07456557657634469 0.03909662187548132 -0.07306480148103912 -0.10809375673205149 -0.08941487616187713 -0.4216289086134545 -0.08113551369043218 -0.053837012490829006 0.16901317093877183 -0.08604761187876951 -0.07072917856563642 -0.1414662905105455 0.2911013352938256 -0.34241141125091323 -0.45544807225424766 0.3815628411029503 -0.3665097814651196 -0.07455968119867329 0.01946480466699873 0.17852572096003605 -0.018192273371735294 0.46443454293717934 -0.29735251115762257 -0.22107489008850012 0.4183882824001821 -0.1634386262518695 0.4442955373914205 0.3887222698807594 0.4005732467781207 -0.3102227030335809 0.24658316781996076 -0.08597199801377209 -0.30683277113245794 0.43553812116665647 0.340804825331369 -0.14070961374048116 0.013777469878669124 0.02003829036691101 -0.016271741091698343 -0.17142657590234214 0.41695519611755627 0.08041688208065592 0.4875912811564143 0.06452046185378087 0.31124346768816813 -0.10894574205253998 -0.333585255877836 0.08769554458724674 0.23345994573315124 0.18647972592040765 -0.2328305060454461 0.3475120941180887 -0.2874087186465136 0.0374880471106902 0.25107900924655085 -0.4952624570244156 -0.02056582258039006 -0.03347190999113702 0.029348236001303856 0.35710785856513977 -0.41583352779962185 -0.12111279354410671 -0.30170685889173227 0.2780675934611874 -0.08830386603230742 -0.0337768225659255 0.40702397494354214 0.15150854740981132 -0.09626099946161967 0.26928036545479456 -0.20048088774689427 -0.09950489213827975 0.38146409091633016 -0.12380342770965563 -0.027752901352735528 -0.14852492988339697 0.212469376556225 0.38664771911489937 0.23286920457139026 0.4732460057991905 -0.20788378294714507 0.0029689552877001056 0.3757507047150619 0.02967934856452386 -0.1416732028388141 -0.07961752728425951 0.18290735615437612 0.20624956099739875 0.021941258609407994 0.41444663719671443 0.027228651594100955 0.4625992436164599 -0.2755019439185184 0.02607071147738691 -0.48958493362083183 0.3419906569403977 0.3599848185687714 0.25393759401622573 -0.194314497552748 -0.29432188878356247 0.04463885475853734 -0.3950103297476328 0.4742508846081549 -0.2353873220173334 -0.05826532216629308 0.1268321184812097 0.25015772944895565 -0.10978421106937467 -0.16877430637042995 -0.3256497870564543 0.1986235532664731 -0.07253533370545032 0.31508840415535355 0.48134128166355583 -0.03229017807563232 -0.3646675900408329 -0.030360059698672413 0.26341596286746377 0.4571189979982965 0.0077010009720842485 0.13316213476796313 0.11125247019824241 -0.3754781322241843 0.4568782419245752 0.35621878196968987 -0.11884092220738186 -0.2611129268095567 0.1951615207073482 -0.2864765809363694 -0.40914287218028217 -0.43845223098473457 0.12606435504443042 0.23914869814370404 0.3537144986343604 0.25303900557245634 -0.11593914838161098 -0.44610351534219633 0.07411760154191117 0.2859897137449874 -0.2313896280789591 -0.22187103186452814 -0.06376884637794367 -0.47252848970763406 -0.0889345400923729 0.020572260756066454 -0.3428938902995523 -0.0045347477899491135 0.29919473666752844 -0.3013249965083615 -0.21712478896181836 -0.01578267479366783 -0.17747913629505438 0.20324759374671922 0.47899850599656946 2.691095131000418E-4 0.4451293366348871 0.07526277775758099 0.04962372585059622 0.20462439802115695 -0.17042778965374994 0.23494389092591494 0.1427800494507226 8.707419992771111E-4 -0.11255586000544894 0.08384231837115277 0.44184918177545807 0.028562139378837413 -0.24981866170633266 -0.25294918661862553 0.06857881270459576 0.07658566754714673 0.3633085349497252 0.12787138617795288 0.04206037482496012 -0.19503128491307692 0.42080227921439495 0.14640055848518693 -0.08916455999691587 0.18285688453652268 -0.42405759685283145 0.4237203997383721 0.3382682047351857 0.1355179153396652 0.30649687648808904 0.16709727992237464 0.34089768282580307 -0.4685909711657784 -0.2613921973177341 0.3751483637880968 0.20530607871515463 0.13681550576506815 -0.027310226250297862 -0.41723041918264775 0.4033503267956992 -0.1174575069263513 -0.23464330444130876 0.00463318034803287 0.15647194735654657 0.11750607239699232 0.08054301586058314 0.055602895122861255 -0.3835807889686428 -0.10094798403083328 0.1911344401159602 0.24238356132343333 -0.19364050215678486 -0.07841228085693122 -0.09180602771981021 -0.24467792326006088 -0.47414341641132896 -0.05124400634951327 -0.08333539847557762 0.24491191111070282 -0.19846206347953554 -0.4025917915627104 0.31770372519943213 -0.04755923334607914 -0.015499060543464435 0.07323911981202266 0.11531041193277364 -0.40757327369910784 -0.4824481129005511 0.12112937888738978 -0.03743157036335324 -0.23769946026337638 -0.14433704285208768 -0.11703284780333043 -0.4437642117051431 0.10000657554840023 0.05263477927013267 0.14775325879806264 0.3193006324183908 0.09642027836671004 -0.30246605968949775 -0.1641874107142286 -0.4526745818976406 -0.01218417697975373 -0.38126849862614015 0.14725332026577442 0.2339181634876091 -0.05923007154566646 0.47906024122924434 -0.11270251757523274 -0.49726328298300176 0.19414547601814724 0.23500435651158774 0.4954585883325011 -0.48140856060541853 -0.34361362443122556 -0.3520337454024662 -0.42241896566688336 0.10057934294737285 0.16321004911784737 0.2530746820281855 0.18433401499114535 0.011334283075305934 -0.46637500281342054 0.017360871635243903 0.2333729415782747 0.06882700627780138 -0.36918828896530487 0.21454879708955554 0.2861598952183576 0.3339052059773375 -0.055376069016049995 0.21324709760888869 0.4999259561235818 0.17308443215508412 0.053471911253019096 0.1787599058682109 0.3870364577184158 -0.04727816941996953 0.21739998967309426 -0.43413866888846464 -0.40275813537606403 0.3444038949815089 -0.38697565758440283 0.18315931101414912 -0.3181580460139158 0.3368566142122121 0.2046041727831077 0.10981830017954199 0.056151088833953304 -0.3160273652727278 0.17276996836972125 -0.2273080670955307 0.2337424760833912 -0.4337791578073216 -0.11589549977117425 -0.4089283453471434 -0.32157433704388544 0.38896491377538495 -0.4895768112751824 -0.18901882377416176 -0.2936866596508225 -0.47828746948086426 -0.3295761599461136 -0.237492385099594 0.012626635763417611 -0.1671132565174432 -0.4084711135129718 -0.4562382579558311 -0.2820711094912514 0.10154251626691077 0.2270485583196749 -0.24887891193698172 -0.24423839964155244 -0.35494123631613955 -0.08238226183881978 0.26893505675803103 0.35837110874351463 -0.06568016791078175 -0.14091602591256863 -0.4156911016542414 -0.3981832411478258 0.2612651222342661 0.09673680108164873 -0.2839192195993756 -0.29077697030589433 0.02835608240343838 -0.19741024974489627 -0.14999351613000086 -0.373222078372861 0.2355381012912932 0.13096430484296764 -0.3102701275850222 0.35998722535512195 0.013934818721249534 0.27464821376883986 -0.27845099974040105 0.2858087260585588 0.48897501840478413 0.13149502091960846 0.45821749541330964 0.15928643548932442 -0.27222436863393573 -0.349848134693791 -0.37797201252160634 0.3890685524015195 0.3792837713814088 -0.47133472805638005 0.16551995418579601 -0.11672662104087361 -0.3108783858197919 0.3312501021475411 -0.13624071385506714 -0.22594988941189875 -0.2894208568749958 -0.1918265547261512 0.30200754217796455 0.46148002609107264 -0.3021968014144864 0.4156080853854829 -0.49251223119518206 -0.3848846681168445 -0.23671485655417115 0.45641814419778676 -0.48215360590744805 -0.19051119037434744 0.11429090654622102 -0.26557490318132265 0.4290655338048165 0.4732544423718493 -0.38469926215135597 -0.2952073381374137 -0.09729457697838913 -0.32796263606694476 0.12388803481149983 0.28148303830871396 0.4007042919335135 0.43817533807398656 0.12636007608177946 0.03434042104699536 -0.4370266016156781 -0.10511532977398566 -0.13534315635907726 -0.024569047832971685 -0.26547758177511027 0.24628037379168768 -0.13269828364140468 -0.18888506711642783 0.16624797499605512 -0.09259679646460683 -0.05502148899105703 0.14005688349779147 -0.48879798819684683 -0.023660274979350884 -0.45780887420426236 0.3433259624006477 -0.0981823160433406 -0.4413730056983046 0.14515926913080393 0.3789854515938212 -0.2854227318409135 -0.27288959609933006 -0.4280617830384024 0.2006501963192672 -0.1588885688035243 0.495212181280841 0.13026906335638266 -0.4041158595900509 -0.11523072741787448 -0.38678285846869964 0.18626420024393972 -0.33166356317407725 -0.3951870928426631 -0.3915779041962657 0.34817329033264977 0.2497182065068133 -0.4275014120757363 -0.3089390789569617 0.17034088557595628 -0.20239300302066013 0.20091306220650043 0.42920110931079114 -0.3406655793548167 0.32756708852018096 0.3228959080618739 -0.2468902769041448 -0.28791259742084097 0.0865531920105888 -0.016197952523281406 0.46706029674400884 0.41313752674943555 -0.5004634128213293 -0.22454367519411 0.2040368071228254 -0.4708964941116747 0.00716192308431218 0.3190820182203055 -0.4108989273766064 -0.38154949041777814 0.27806358255714075 -0.17390310134840853 0.36020544194200527 -0.040975362318645306 0.01888509860865029 -0.48974931615465556 0.4175470453324097 -0.156426027754759 0.46352772853327706 0.27071171027675867 -0.1941899406249311 0.5045196590506401 0.3730746526585357 -0.3530655402105314 0.0705852894534828 -0.05102635309861187 0.04156577439782423 0.3766609281060816 -0.09560239980909155 0.49078283860121247 0.26049027513291345 -0.0164991738025221 0.4359777471491251 0.4059803922428199 0.17509389571169504 0.013394345840182129 0.31780220618019245 0.4684325975088747 -0.03646186927600701 -0.22443386769033144 0.47663979851615 0.3750575339294767 0.21818305001770075 0.4846169708599427 0.23379815207366783 0.4296972863130931 -0.07202434121506761 0.4217560898965259 -0.21325872452479958 0.3400990043127124 -0.24161330148717278 0.412921171655538 -0.2076451032614014 0.45509316077910317 0.06674565917797744 -0.29989900268761943 0.3361540174199324 0.055579711565683254 0.01898476549359845 -0.2113460785937494 -0.2728563614262118 -0.06728587714654485 -0.19428363285534553 0.4468943846877817 0.4282479296336399 0.42179718858280535 0.3809528594651892 0.42969681755626304 0.1717312623614004 0.4033626961229115 0.39860697741687373 0.501094772914159 0.24392441334661993 0.17999388574809225 -0.3481453124469283 -0.46902270944311525 0.423514125688367 0.13792545418730412 -0.2787025507498923 0.4548219876369892 0.2184549586634971 -0.4332900304173953 0.306815751670353 -0.45284151221383384 -0.07957483795657679 -0.3214611693642658 -0.3768989747651471 0.028952442764249145 0.401713733120292 -0.4552995081325812 0.06928215554464018 0.21537062915059718 -0.4777151363015745 -0.19694135064540402 0.3046844149892438 0.2294027306984075 -0.351914145149778 0.17111616496249057 0.3876376121654962 0.10449982609984833 0.39558496919918507 -0.02640693723845705 -0.45789406157204154 -0.46163373137643243 -0.21022236682083634 0.014321184467356892 -0.43738250073225476 5.896095326977695E-4 -0.37986388362806633 0.20466756541385286 -0.3351109336731498 0.15552562049847246 -0.3200407560972775 -0.016491372562452904 -0.1804168043403364 -0.05762574543371534 0.36441765116157326 -0.4955181451726808 0.46063118984840995 -0.15776033504700862 -0.4260829661739662 -0.2143098564260725 -0.44624359779309913 0.18805472015679997 -0.4548087805580933 -0.11615882867751445 -0.41072365123550575 0.1695268784036097 -0.027651896733578984 -0.13449592163800744 0.29284359020481077 0.02588262359384506 0.05132694062348457 0.2669267255353004 0.20849328669679146 -0.3393531814928586 0.3840918885512347 -0.25612095301807575 0.3593994352723205 -0.2577928983816346 -0.056603463365180746 -0.335705185161718 -0.3790827185462311 0.10798171924413194 0.20776500007927912 -0.09987256146170322 0.27493201187478655 0.4514054514489882 0.390631584330846 -0.08093705180040602 0.4489728186068461 -0.1818705528165126 -0.19746171273350563 -0.42323335605884127 0.1654962004924895 -0.4322987036102427 0.19372164096800878 0.41324867509650137 -0.42885557401666136 -0.26908904802497824 -0.23335250942616692 0.46819523993251116 -0.0963373120194495 -0.09133513361830135 -0.08033293319012734 -0.3093048484592611 -0.39151235468960954 -0.21564375297255495 0.4778169707520375 -0.10965211805729815 -0.18659802349619412 -0.059413794800115854 0.359974872667916 0.11374280613290455 0.019496234500382077 -0.37201316626357933 -0.34844572019103487 -0.21290465714871973 -0.13128969990339204 -0.31170829439002357 -0.30167507005453204 -0.3057101552105638 -0.03284469771345476 -0.1969597331374685 -0.30502908620773395 0.1386185383186115 -0.04938178196450582 0.04619676128687733 0.3876670030995356 -0.222117505090213 0.2738173010183319 0.051019960625608034 -0.301401410510832 0.22301622884831082 -0.1237567192098543 -0.2795858887257997 -0.04299934691482103 0.4375721952234451 -0.4667038460051885 0.26771084889067626 -0.403346581745778 -0.35801458743724257 0.16959866257408082 -0.008865780040822816 0.22736685210274304 -0.4697661522780456 0.09450332121753746 0.10411932419377357 -0.13541130227220793 -0.06024632421358814 0.2386039391282768 0.23138011043957135 -0.007834133748028048 -0.22464812972838366 0.0718271973830862 0.3320857105232847 -0.38863002660617435 0.2802878198130362 -0.17226232103776135 0.37919170562038806 0.32563894916589653 -0.45591096370663753 0.1658042177153985 -0.05054596567747123 0.05709960556981535 0.1670798555180012 0.005006159772706825 0.026819550649085852 0.21873404844972197 -0.05883437114450815 -0.2572498825223932 0.014621107246837961 -0.24727390767980265 0.2484981695614755 -0.39294222413377095 0.4320392903628416 0.015760846584105297 0.32258309774753535 0.21843740613053006 0.21344166693571512 -0.05311755860395684 -0.4869432586544108 0.022297514731392347 -0.4396779205225054 -0.04924896145329227 -0.04952448326989801 0.06200527943663389 -0.4305418056485016 0.07610252105634933 -0.23063048491151783 -0.3326257850623834 0.39053023885180915 0.3501428979376822 -0.3700236848425212 -0.2258147334222769 -0.0532448242614193 0.18968155592873231 -0.414862521977095 -0.1512343891889067 -0.2112068955005681 0.4605651542815789 -0.45402516146936744 -0.4698802291159544 0.3023733739721043 -0.08289538333317581 -0.4463617280873211 -0.09357346434520569 -0.4900634294738304 -0.46902031504697483 -0.23089472640402955 -0.31000751966403217 -0.4335444502237836 -0.09379596016847214 0.22321536043858414 0.46222161654906624 -0.2990274566207942 0.225560748492268 -0.14603611437002206 0.2816556306511838
0.04793946438268644 -0.47413659665313634 0.41241192395189624 0.19276708581640176 -0.49557768612107217 -0.5076447710319286 0.15416524924977618 -0.2499124439239876 0.4464479018475781 0.2681061968560985 0.21790703103548786 -0.1472704002362657 -0.36387454620045573 0.45342103619868446 -0.2043276455304649 -0.19200613590212082 -0.3108526921597584 0.13883899189006063 -0.2268956451813496 -0.2464433242280174 0.3090591942158559 -0.4542907207955377 4.2288980853534536E-4 -0.4563612868369535 -0.22884562119673885 -0.4063729133162174 0.4523777670074039 0.18758944013238885 0.4454825200847802 0.45505749880187557 -0.1107526460987544 -0.14785972671330794 0.0022277194744225737 0.37069363135882893 -0.2591705426519592 -0.23248779615836343 0.42576157820457855 0.47560690903653113 0.23254966724083184 0.21975793749192996 0.4421851584023695 0.37212079913527785 0.03053392115580507 0.06760649966942645 0.2701753712980602 0.1208901650983627 -0.016505936285772172 -0.4967869101359787 -0.3552659033729291 -0.024016272697709784 -0.21948793020899698 -0.42647775215117617 -0.23196769808475315 -0.1431867928388333 -0.24435188891000267 -0.46272823958322007 -0.42824972712238496 -0.38760866458351145 0.15179097191256713 0.353498312768831 -0.26214461669205347 -0.03159427364239342 0.05279896849887197 -0.2092017247269432 -0.21927713822041456 0.36830869732784416 -0.12492691936258228 0.4412954589357799 -0.17175553383484118 0.21715716986981004 -0.4376615384503372 -0.0852456962355229 0.32832866632419616 0.18372186880558805 0.32005036451669017 -0.10460021707964362 -0.2609991208980556 0.06658712018186091 0.13177917681689144 0.36503438395573184 -0.3547137172605063 0.13807212193235022 0.4311490170484863 0.501159119793096 0.29933047069331764 -0.061143490907779596 0.10566095541511782 0.05883297819122279 -0.1888815455654745 0.17383458913310307 -0.45981526684840085 0.21593295178908434 -0.4102572091865379 -0.05658330547275229 -0.3252606457736682 0.4656651550518143 -0.010265018532094976 0.4737188819529794 0.038153656771420554 -0.4090944659861433 -0.023770936741748502 0.272371518195666 0.3782877874723943 0.260908588255297 0.3521469871969552 0.13123374060060997 0.3446083256477625 0.468735756058262 -0.23641314032184196 -0.2775889394910627 -0.12323450717856109 -0.33403909892210715 -0.13442949875625992 0.22134443612917784 -0.2680798017619884 0.24738202352174316 -0.3761092631835527 -0.4675761148660593 0.26699359232162984 0.07921003212234122 0.41532750682500624 -0.1298405825490258 0.10044084878915317 0.31178159673031075 0.043801416902033034 -0.05947362112659763 -0.2050370777342028 0.38955708452190224 0.4528735680923093 -0.4290555058659107 0.36836043230340415 0.5175450358190291 -0.13900516470817034 -0.1187169161547031 -0.3159351427513103 0.2238282563713318 -0.5034247322673906 0.33111676466952644 0.2654584526846658 -0.41665113204203313 -0.4637101524959748 0.2799804102542147 0.44569262278265315 0.4831629525767623 -0.33716775708204133 0.26582969212726143 0.054779577957191634 0.013328346016772496 0.1744694556916675 0.4017485945607089 -0.34266334044812 -0.22513020111146043 0.43079738659188027 -0.20298041689557406 -0.2238658351849033 0.3120656993273992 0.41845455229496814 0.37099092654050286 -0.28893292551019356 -0.501239898585062 -0.43111457274828574 0.14395265189714224 -0.31080832196052627 0.2822919196968218 0.11843808290228816 0.006482232157706954 0.37508706655314716 0.40968377706494197 0.43875737098585077 0.454006825240789 -0.4089246251827491 0.44173910630429075 -0.14176988727400955 0.2964048100164763 0.1734907587401986 -0.37033930340112137 0.18547143890039985 0.22782132856051485 0.17340902752867413 -0.18487601002865583 0.23523051720784544 0.20174399435832727 -0.43675578779546725 -0.24233543396009627 0.1486186229280313 0.032500402582400535 0.11015024783034993 -0.4122996679069201 0.27417996151648394 -0.1596184693410396 -0.16976218611381907 -0.25437984578784295 -0.4299374529153968 -0.24450679444793377 -0.07897171014658644 0.3157601591530119 0.4151064152495579 0.1462371929214943 0.00936639125224293 0.40264531216012234 -0.1310736730281044 -0.2268243041350609 -0.058826214738428535 0.08386908789915691 -0.3449930445793109 0.19266938306401052 0.39602879058658264 -0.18067529316699926 -0.42315472688682093 -0.0866793930041529 0.3536414303404676 0.412864672795141 0.21020974694873198 0.3692725525970363 -0.06803414051679768 0.48023328251621106 -0.20532743919938218 -0.12120317505893743 -0.27833560651610495 -0.4977329676742697 -0.15396140343081066 -0.15241953414213127 0.24810472130990965 0.45627771405681183 -0.08551471886059563 -0.13855129832822125 0.2742275886573113 0.3903490294508011 -0.016837645887684317 -0.38507392577369265 -0.1534903231791093 0.0053747548658347275 -0.01536224987235003 -0.10416424177534205 -0.3320315450163905 -0.423035894946454 0.3095716873723235 -0.1858799652338992 0.2699927382866695 -0.3363622624743087 -0.343738447990846 -0.05552281775458195 0.18260419776923556 -0.3638480963304129 -0.46511805092748176 -0.40381609040502253 0.2863284284206268 0.13936757493808855 -0.08006519346102738 0.43113435214643225 -0.2367835338471937 0.02003870266963418 -0.025206816775351856 -0.28343088258897836 0.2663000166570198 -0.1985473834081764 0.172641386158244 0.26628569557977544 -0.04787152145794986 0.5267571802260277 0.3801447547510989 -0.11333700748175578 -0.13735264856983506 -0.4650290468358126 -0.4103713403311511 0.41362852942347 -0.31050620860661676 0.3359461199469794 -0.3108780019024036 -0.4127138143443096 0.05762984698177754 0.2212238916923028 -0.28623632008855426 0.00554977877914527 0.06222021756007248 0.25240942148816364 0.40993085080353064 0.41280103806369356 0.2004400212663442 0.22752897781851283 -0.4101079856165617 0.3950734704029096 -0.22664620956546078 0.40289144395952114 -0.15793026531003446 -0.4275608426757167 0.4039653122413477 0.3271623402362724 0.0169373404931943 0.36488688325236085 0.13010372119958344 -0.11470644137924588 -0.4974412130971441 0.36576856389000806 0.2985964531175122 -0.3848488698653864 -0.22453899742264694 -0.17257917888107183 0.2962774761124119 0.4314864414508745 0.22128070120282653 -0.14533630155656949 -0.2867880616471821 0.14315463361437714 -0.2301986744198166 -0.44229431141835746 0.3649784028845049 -0.025498266380496657 0.06198186805144577 -0.14690677894653423 -0.24240635874397448 0.05762502933914796 0.4817275087273916 0.4090205086191753 -0.15460718799609066 -0.2687103200801145 0.4100949512567381 -0.05732975493427327 0.058325115751421054 -2.8264851677961073E-4 0.34830671097652927 -0.23263713827330307 -0.003243988188691478 0.07422717005557224 -0.0836667868229671 0.3911405592451902 0.30309640232572455 0.08145109942454004 -0.4268914151101504 -0.19846460776925035 0.3872333479311996 0.36787677837400234 0.24546390618415792 0.1998025537298425 0.5015459798674577 0.2838779276259028 -0.09712037458779896 0.49536794175120347 -0.2827954022522679 -0.3009586180075909 0.030801687976907608 -0.2466777799379677 0.3707350645824046 0.12854606563326706 0.2764803688008767 0.14385927120792863 -0.1347752221084944 -0.11558666412357259 -0.20262783183807087 0.2860531233610199 -0.34282615276952955 0.018394078479335958 -9.78601236973327E-4 0.3595103984496844 0.1865989474080522 0.40073378103470647 0.4387989386924995 0.40366292676159293 -0.12928581393658597 0.49878373935496656 0.3697930792980607 -0.21654607431266507 -0.06774319729264608 0.2976060967017129 -0.4392707421939838 0.36724834285614305 0.059843665741767686 0.23788098297547058 -0.1897216802020093 0.2261506125529534 0.48212387959557845 0.4150142561710671 0.007300878236045391 0.019259737030068762 -0.09955552873366644 0.4334994283018332 0.4678651984041056 0.043873073430756436 0.14622987096758475 0.4561325879168979 -0.011051825659629177 -0.0838900147785585 0.4663348747346988 -0.1567360897889864 0.3723024080010133 0.4786538153169234 -0.49890600766605586 -0.29388707718276097 -0.2375659776456464 0.21495386475894335 -0.032896836962021524 0.16416698452812514 -0.2888205944140961 0.4798238749524868 -0.12583404282312413 0.08780370520745785 0.34194767723100195 0.24634816566007128 -0.3283516725805174 -0.3225217307191175 -0.1740018581041333 -0.03145072936483854 -0.45157055542153085 -0.44390987380029484 -0.36057655220411844 -0.0014970602232476874 -0.1495296787511473 -0.03209908127403812 0.26815894362542914 0.29622629876611634 0.26855668905886465 0.3806325259434828 -0.1667609602400734 0.04739276279457066 -0.0016131251158049795 0.1118450022710521 -0.4901942429525112 0.127927898880084 -0.3047168483264577 0.20493522509729908 -0.21803534096774269 0.0969680356150224 0.0369573769725551 0.19039421686187866 0.45055877129423116 0.0857868440157185 -0.2714812498715303 -0.25928432321841743 0.2068862813939404 0.13107163647424644 -0.3420248803243522 0.49450010668043487 -0.005610917256173485 0.33539544944058564 0.3284997318327735 0.340376465909878 -0.3155121817727883 -0.353747961342605 -0.006651217173869953 -0.3798659031500942 -0.2671224173128284 -0.33458178125841864 0.16967066459524827 0.39411099596177507 0.3454904799705847 0.3514522163153152 -0.16236673536088816 0.2225235312315531 0.22465658352911952 -0.08427746570102487 -0.31217115458306455 -0.28395270047263904 -0.43253673344476956 0.4354515272225072 -0.2979157550783841 0.33790637963596415 0.05263515885891355 0.44664436514284017 0.08621896811940014 0.39485517232494133 -0.41358679808915544 0.09472729880965096 0.20215280857611023 0.190992610894275 0.40181756079563824 0.14182034550170333 0.14820277539120894 0.12000529901338682 -0.47364786667243225 0.3227812943666724 0.2041233753159583 0.2495608835823039 0.2926624118745521 0.0565507479686198 0.4377570209129709 -0.0991013264054712 0.03864165929570901 0.5043950210847786 0.35576863589945384 -0.01325191308751016 -0.18394084070061492 -0.14142219863712094 -0.06614088325815194 0.11384853740528776 0.09607573848478713 -0.07980577950142968 -0.4334172273935183 0.17574100116466707 0.0974468213366635 -0.45441207559130264 0.008218841921948038 0.14843223355315288 0.3386329481593389 0.1260828306408366 0.28921913721360054 -0.04092947557608116 -0.1696266981111108 0.30879642329910323 -0.43855994840787665 -0.2701917353465185 -0.29491567718803446 0.3810684839096264 0.4593410601069966 0.13782571159741835 0.48098510880233025 0.1001447182873308 -0.07853967888977562 0.1741548981100965 -0.21351657354749373 0.013160494403727529 -0.276744606886907 0.32935206206287504 -0.3617582627672745 0.474926851307548 0.21207067088060685 -8.836652059616578E-4 0.08284040209481099 0.22256498538611225 0.4843681242029789 -0.3169414056923058 0.1803588678736164 0.03225494302502835 -0.370537192941514 0.27872981706580446 -0.390664709265813 -0.2796130523447663 0.06809730537341671 -0.4884863527351664 -0.20050528932004918 0.3659306839391919 0.3278366250243105 0.46533793266863416 -0.05215735434889166 0.3915960300821732 0.11597838826136317 0.37614029476573274 -0.26692221310155384 0.07161091535120423 -0.3293500498897019 -0.18632164313022836 -0.267029983098308 -0.4388933859021402 -0.4655901372336549 -0.21775932350216692 0.2113264894549062 0.2991418779610606 0.21900893085649303 -0.34355441143950494 -0.2269145831499217 -0.42266511902440934 0.05712382603536425 -0.057948596964511226 -0.00975182195833239 -0.35668180411310074 0.2777184835408733 -0.032026673921180554 -0.19069224086825892 0.3639268298239068 0.1352499120457761 0.38613927540050164 0.4595179117126579 -0.09382693138596396 0.3458294583509916 0.1789275028861116 0.28547359513895426 0.34323516564306567 -0.43947380523973434 -0.09121055980248288 -0.29906316571949154 -0.29674117564331726 -0.16844996432953813 0.1299318723193309 -0.4802686562736853 0.14842599277496463 0.29310404204245344 -0.36936914287989114 0.4950709303938354 -0.36563433517913135 0.026373767149117027 0.1848258880602515 -0.4994515908453061 -0.3882381792113478 0.14802734166194575 -0.01647984257441894 -0.4766722355627496 -0.011687567216217774 -0.4107786356353833 -0.21677792769163395 0.18548844873429557 0.046483338151152256 -0.4902619124294513 -0.4902548176870914 0.06914463379126384 0.2720388598007849 -0.11869888036366685 0.3857454766206215 0.4657229502327228 -0.48313134040091005 -0.006591684910862527 -0.46044270086323313 -0.26191590133109394 -0.08417749972807638 0.004520943296737968 0.19817190304218904 -0.2167292260662242 -0.11855987469753933 0.12451385482414892 -0.3732637367065435 0.3066637661721247 0.42519771435575826 0.3546674599372433 0.04115260103474286 0.15223764947857857 -0.25045262984592964 -0.05640194828093794 0.14012110486390528 -0.2379613793210721 0.324337644799116 -0.07028970508385181 -0.1868668918728804 0.24754119722053888 0.15228449034145133 0.44811370577543197 0.05615398702844346 -0.2376584653334978 -0.20680365020918126 0.1865730064717486 0.00587455320226024 -0.4197696891041881 -0.21326860781212545 0.3567563239286769 0.23500493098857603 0.4129753718514632 0.36487295767650096 0.15977260755973766 0.01854818263352446 -0.09131352849606657 -0.09934713852625858 0.21921343608466076 -0.03693693496888357 0.11879143391000156 0.10805159609531917 0.16323132290386858 -0.40001794490903597 -0.16624250067926116 -0.2867545333650347 0.1358884326151221 -0.47620745967783107 -0.496723145345861 0.21501586893731994 0.3088234804545701 -0.07268681910253066 -0.357255533473747 -0.006100993338852242 -0.2445429085538475 0.2336804015020631 0.18444420885325818 0.11647394917615662 0.31480772180358757 0.24570147926761934 0.09560599651572706 0.38295844081105673 -0.15153595480546406 -0.17845543219203117 -0.37412783433137264 -0.05434432600754326 -0.031979050325841835 -0.2990008567641185 -0.0707808471564514 -0.4917179911479148 -0.024022709732789804 0.399389401799838 0.16950362498488936 -0.4067324421774211 -0.2993899437640421 0.22272710128567239 -0.07135937695914149 -0.18895340866713495 0.21799684718717552 -0.4026223476718229 0.32334589626900645 -0.4086531507523741 0.07146642139198549 0.37282237361965476 0.3988737892041114 -0.29173388106688936 0.249146201642831 -0.12697070189866144 -0.19852559294509903 0.35159356400033903 -0.08794277593444373 0.3571123654737498 -0.11451110055449978 -0.38822020917178557 0.31651469146460104 -0.2123352922135763 -0.16577296308980047 0.3913309757652804 0.3079621419257736 0.201726044724432 -0.21470517188080399 0.26774833770912365 -0.38750024630688135 -0.387918796161672 -0.4514422701801559 -0.4448933648626875 0.5016893350993935 0.3776700386478538 -0.08962950392340184 0.43907098189275207 0.31234796181126384 0.3101372544454001 -0.0381674078199387 -0.49109113754794403 0.2521492709844517 0.04796263393232092 0.10254906212018777 0.3657623050199488 -0.23192589866416574 -0.17926024098678633 0.3382553463853326 0.43851466244751147 -0.31852008694770345 0.2705228484958901 -0.2889123100194216 -0.25802671281211675 0.050831705441844316 0.24825678802939144 0.24642020528492828 0.31928013226137913 0.32065767254703714 -0.4061661811448593 -0.08656003892014268 0.18109516566085926 0.2106546621736814 -0.12310076798126737 -0.2086375147377271 0.4434376018983666 -0.14325859340354483 -0.07624210770016449 -0.19327325917441504 -0.10605457215842858 0.08085486077738373 0.28547580223102464 -0.03730552988643091 -0.32673006020313433 0.05986334811360367 0.29182049882043626 -0.4830351635580846 -0.22395440015246942 -0.4633799601927373 0.4904159018544173 0.11747458031888822 -0.24590193164899124 -0.007256039040225545 0.04290585953567741 -0.049617087511835044 -0.23098663717560441 0.13684856184313965 -0.41895587774315474 -0.2678978666851316 -0.07332767070270424 0.17711841821461483 0.10725206908981144 -0.2160688953678919 0.08241709573556198 -0.3552490145745456 0.2986106508160782 -0.2560026094972995
0.02965132390252764 -0.22929054148279004 0.4568938361598981 0.21899030148746618 -0.01189589834051901 -0.005899039248880639 -0.20368221475030038 0.02915537910500099 0.36235030664548756 -0.13715328307573077 -0.32074915655487807 0.46156889529841433 -0.34794001504771704 -0.23998942163809722 0.053246986469739924 0.45884110420832813 0.2970431236754378 -0.3922240116389645 0.3839506675753671 0.4663025952262223 0.3017952748451777 -0.4345426370281577 0.2529067426472537 -0.24880294448140028 0.016322872748408247 -0.07098238362352949 -0.17213086451014398 -0.25606229095972 -0.028225330893791086 0.06931581811331348 0.005270817374460336 0.07260737821498153 0.31335472668081615 0.2496107781305663 0.34567562876294505 -0.3685062079387271 -0.21889017238769848 -0.21532408776095058 -0.10995716203007254 0.19957533715511977 -0.14506168931326457 -0.05132029590107578 -0.10360529460091775 -0.2899811504496608 -0.4582138055691428 0.07996676161013547 0.31132380099869794 0.17997376762514822 -0.19725869014751832 -0.20442985897431165 -0.1690617419429582 -0.4025925172794858 0.2757980146797532 -0.020984053144048005 -0.36762984145070204 0.2536535754013577 0.07350174347833474 -0.4909484327975338 0.134650290522006 0.1831078792267217 0.3647773356132308 -0.1596594255896604 0.3006472641147083 0.035806878720895045 -0.03280346992052725 -0.04465531725352923 -0.04472802967110832 -0.08534076460723272 -0.19799386918392084 0.34229132571043264 -0.38936718252269886 0.056727134334470096 0.08689013750122584 -0.2992676480930311 -0.4298536447303711 -0.26091304979862484 -0.16605197159870197 0.1513393834234599 0.4909601225678175 -0.13662775955894546 -0.339420864622577 0.29892275723937645 -0.1053065814116685 -0.38761547046267814 0.24797891377278833 -0.18017178931480227 -0.24019635397850012 0.23703543289009932 0.41961916130730226 -0.19343057153623644 0.136640184269142 -0.16525448478211124 -0.08585928135957759 0.24749567206266745 0.18585412635935195 -0.4650015398627435 0.14846031262577208 -0.38084490087523803 -0.4186237987205149 -0.3466928751258739 0.495856218616391 0.3738974801475199 -0.12310067657630464 -0.15248439651550522 0.1881466314511368 0.28465766272681065 0.13853357320320744 -0.25426206439672466 0.3198438257506203 -0.17822060055190644 0.08301358296380024 0.040181481120361365 -0.01539492294127204 0.41056613012353277 0.24471931009155415 -0.443679059135469 0.39075724311700333 0.17060526096382905 0.37953951020649335 -0.19215933934422216 0.405475621278669 -0.48651352972878015 -0.2645742075710319 -8.937462231050554E-4 -0.31831890105601246 0.27073658562454783 0.3218093707775837 -0.4478360575427045 0.013443783425170532 0.2952392078197185 0.027705136237971186 -0.0869682369701841 -0.05060148950895504 0.01720319129480252 -0.426747222903548 -0.48035282309146815 -0.30019168639794036 0.06036798379636031 0.135885124314614 -0.3525185399151241 -0.24107093683191294 0.2370391384772354 0.04015875969198469 -0.22425239859544369 0.26427889590783943 0.020286777443717013 -0.46943007817928245 0.3488841927451874 0.4859967387475405 -0.013435853942713953 -0.18743996067714466 -0.41245554526868805 0.18464332262442573 -0.34089395701302194 0.46139523722588993 0.19554535550274185 -0.4508057163900028 0.15337324135304642 0.3448251832517832 0.10240932340334341 0.4845866263217007 -0.3895154821900208 0.49488471253561717 0.12071589807859912 -0.06146997140621105 0.14565753842198828 -0.09978540643304491 -0.061684052429623236 -0.48598105980648615 -0.4317323851960206 0.3602677142720464 -0.1947482163699565 0.02803446000674524 0.28478185047575116 0.2978721192276389 -0.22062308717255744 0.0778202794712868 0.12478687500664815 0.3098648875207766 0.36150783452095053 0.11479355362010421 -0.028090436609803236 -0.45211299498173246 -0.2015906798598305 0.020615002239096552 -0.20396354361842578 -0.4342222453464146 -0.262240120023543 0.01458114760848445 -0.24400208329359868 -0.13362896970065613 0.11078037969781436 0.49895663644007354 0.4241978386801299 -0.28396528558988854 -0.43915246427511584 0.16563896009075763 0.05761900682021418 0.06974979813225435 0.3225962678559362 0.29109332771824803 -0.29454720014713864 -0.09166147190741132 0.3332890639282902 0.45911863770343575 -0.00210155756193747 -0.4580492122891965 0.26490128384995715 0.11509705419817806 -0.3285441893186497 0.3552589689561194 0.19992274848659433 0.006791917717050662 -0.44876500431974314 0.033190546194581054 -0.11100091393825157 -0.38054166486156416 0.3486779688160681 0.3949615959437431 -0.09524791395524021 -0.13271428324752382 0.22300464653283422 0.1481355266090496 -0.4100401113149973 0.4532451042259195 -0.22175948145662872 0.3859978700862026 0.24415095904583226 -0.13433746333189872 -0.2838698148998644 0.2678620914278068 0.2735740410544145 -0.02320540803025754 0.28144737962516864 -0.2572548267543168 -0.4657942226791075 0.39072230649712736 0.3493923504066071 0.1708332615856238 0.176049477824205 -0.006314545625179534 -0.4089834498323329 0.15029605093900436 0.07889935557469605 -0.1764637770784725 0.31259048420865065 -0.2763364936419704 0.3330253676341104 -0.12473388887196793 0.1733708700845821 -0.048767328822763294 -0.46861294960625366 -0.20129370442251557 -0.11597428864452118 0.2889934731719276 0.27522258068696676 0.11682213109423341 0.053724190398560745 -0.22317384866530526 0.12822435287067824 -0.44772869188358555 0.19014589880783417 -0.21676297001095332 0.21665324977884362 -0.3303676210389623 -0.27693825330033023 0.3565485431490424 -0.019320601289212674 0.12778071451905523 0.29017066777853767 -0.4600204644484022 -0.2629199395573587 0.015227562087984996 0.07974349352405903 -0.23883083609240147 -0.3981035198045949 -0.022113237998750708 -0.4730825130443624 0.3762963167500924 0.014417581967278872 -0.1619977720622826 0.4915649039700147 -0.28424374236049144 -0.11602127756786626 0.41454820389445585 0.3508778272767471 -0.44162826253965987 -0.1299812417101834 0.4579747226842707 0.4175343564133016 -0.3193964603116462 -0.16612396485272402 0.0934261958769458 0.3803565042394646 0.4941918943836367 0.15758506221301402 -0.3501793262945514 0.048714096859321696 -0.2373579172375814 -0.048911360873098046 -0.056048788701676844 -0.010839922405921347 0.47470969941331836 0.49164636017071234 0.43219490709095054 0.16356601470693735 -0.25569555287525386 -0.09439192524439234 -0.1844516114515498 -0.04532530606320792 -0.36928996267406783 0.10231238029774536 -0.1478585489797363 -0.04507864293658441 -0.22317278201784718 0.023787068405338143 -0.4679270973608711 -0.003014872458446552 0.0031374480723170665 0.4186991759237123 0.0028078718356232065 0.44377534042907785 -0.48766941998084923 -0.1831408463861555 -0.05236571483675191 -0.02287077803274095 -0.48901071432532495 -0.2817440450410017 -0.2809542532741435 0.10864874493053742 -0.3125775319811829 0.24516603483188334 0.48056705616694917 0.36843440786726345 0.005592003076265265 -0.0860599441791277 -0.28188844151956294 -0.5024633396816451 0.4797541791089747 -0.09410936745472072 0.06715249768632611 -0.01379971324007947 -0.1999395934598777 0.13742396921295952 0.08134920216890318 -0.012091407112638425 0.12114915556829711 -0.200429241496085 -0.47549218013984956 0.48932745091209545 0.36724224723600635 -0.0690744044202341 0.35312656217524274 0.10793498195032739 -0.25979171771988413 -0.12863698007302696 -0.2506421125090848 -0.34285195471265506 0.11334237710787347 0.22418945770444793 -0.2159983820002654 0.11629514933351442 0.04418104125196153 0.28451234623311317 0.33651278680599317 -0.15658754227109883 0.3480763113999209 0.11467374744510646 0.25495391336810647 0.41202653794848626 -0.3445605140352479 -0.07002592302018613 0.4795409794497767 -0.03613553507696735 -0.06283127245550117 0.4014913043879085 0.11171110366552234 0.4491671301117788 0.2731028709287009 -0.10883869589139217 0.16294926652445293 -0.2715114914726609 0.17748666853935738 0.41500352483181036 -0.09148200815436226 -0.06575748460171446 -0.4767390695006223 -0.24036867201618403 0.092040503466072 -0.5023423525687601 -0.059610823776267176 0.28317597308454673 -0.36045642602592465 0.2578836054220102 -0.3595834645429761 0.14218866788097698 -0.0628665726283432 0.358743774651634 0.1658491884653623 -0.09544874846826602 0.2017515456020249 0.1805632578019838 0.13570767920738025 0.46213180533325726 -0.24572033069665403 -0.34601380276726595 0.1209375210798744 0.4970372492075321 -0.0060863969212419655 0.50142489974246 0.060131487375028526 0.2275767921943103 -0.4516599534842793 0.04395757396418061 0.09473474763538746 -0.11141575722702482 -0.12308459991123447 0.3581017256177126 -0.39315089468000847 0.2302214558287133 -0.4494619930727148 -0.2201111872986297 0.4098445869035049 0.43968248774941665 0.08969828933843603 -0.13381842930693616 0.1333357702632641 0.2213885614548054 -0.39036554707465027 -0.2959025872168603 0.04643829236942687 0.1713936400715846 -0.3490288249378252 -0.36978425563715306 -0.1317920618510258 0.23809038486242218 -0.3339067206611233 0.25802539976953953 0.03835351292934122 0.19340454731197848 0.3496353505394586 -0.4065851526303869 -0.22507906384494222 -0.3777018700043316 0.33624619962718366 -0.5077096465402535 -0.4439218244162404 -0.12471096740686793 -0.4438150195180381 -0.49794821788461824 0.48993315522532666 0.12285990695612915 0.0030023497346593265 -0.19128249222358584 0.41487211926889733 0.21710554376989002 0.2354914104020695 0.4861040938487448 0.27118452989712594 -0.05479894489484288 -0.03754242106810154 -0.10477375964239623 0.25667846417898055 0.24388209069861574 -0.026893171510002086 -0.13993100135337247 0.22970662067446404 -0.4088137167731761 -0.4469053616711683 0.3425473377889712 -0.23399474865245895 0.4895690010782068 -0.11726373961836345 0.00806397957752878 0.464074454547129 -0.39118080336938765 0.23832647921644615 -0.40252437897465193 -0.33121421593865247 0.013144462792909678 -0.18565288025468488 0.028736432528298737 -0.2007624434583865 -0.1633468240856011 0.13131343557060474 0.2399321880404377 0.24212981251729418 0.24955666210060495 0.04801503382829525 0.4825456159436534 0.30602859013272465 -0.22897282880195954 0.46881022194739186 0.08547313942137774 -0.28417308688960624 -0.2017395876231386 0.4723080723233096 0.3901004358936581 -0.47779180277183053 -0.05601681302345191 -0.09173095584726801 0.22451402226606604 -0.16151258199211438 0.06268849704407788 0.0623805182936761 0.32917696155914944 -0.47399151681589613 -0.40122613944049573 -0.2976015379132253 0.10541957643702206 0.25458424494154935 0.019534215851156105 -0.11748478053576415 0.30106074782900843 -0.011207569281767499 0.058113581982979966 0.23950337620697992 0.46869051447995225 -0.2540830390702087 -0.19647200412835328 0.20126058589170892 -0.3602201690551949 -0.25310280784233286 0.4226629711409483 0.34402538018794226 -0.475110138059945 0.291053230654867 -0.1442852938876304 0.29900801366706475 0.3372088917317622 -0.23251423283563122 -0.3260959129836321 0.3433218198232246 -0.45397621630462587 -0.4462404225020821 -0.27095967019786493 0.03605339698285723 0.3989261332759656 -0.4414744406677436 0.26985363943840535 -0.040777499223682775 0.27244277078215595 0.28900949057758135 -0.21453840920171013 0.3276849316983274 -0.12343516777158245 0.15477265544316304 -0.36122952889112897 0.2785997404407311 0.375613620263493 -0.1955832851933699 0.49180533434800433 0.14749184185215833 0.3097092681389268 0.2739872553377254 0.40429336670254007 -0.39986486235544977 -0.22291848654218818 0.23106617918040004 0.05390790822840893 -0.4646965904108377 0.08843023364046648 -0.27903448052630264 0.17698898229190313 -0.26246132988848064 0.1132930705937486 -0.49850536774745263 0.3621811043510426 -0.1370263166048708 0.3075953439616325 0.44865517895707424 0.1551022216159303 0.17648221695802213 0.1943794674575235 -0.49117052840808006 -0.19152716104622566 0.3496570398165133 0.06951584346796104 0.2310841848315682 -0.19211907479701043 0.15860185733874166 0.1862822473807558 -0.028718431324790444 0.25051840754057586 0.4103654305435557 -0.4942159594710386 0.04550386973560079 -0.2608554081993767 0.44517998551755344 0.2694937929815814 -0.10292910610829797 0.16885843734571668 -0.40892003740919414 -0.026159390851394945 0.13612458794065527 0.14790633231325445 -0.36229752844295743 -0.029752658692844495 0.47059465065821043 0.0048807450797468364 -0.03971026491679533 -0.16778855720786195 -0.3504436328329689 -0.49330456201497175 -0.0103200027079507 0.38687352736400055 0.21595705048482075 -0.11453541344201915 0.2433347480009176 0.18199915152462653 0.43959149560853544 -0.3662186101826776 0.23135481783432682 -0.23935454404565432 0.42400583050510243 -0.47281354879828447 0.1889304334864254 0.47857240625290154 0.03862206378353665 0.0071973148087563195 -0.13150756355748688 0.283949187661965 -0.131606624369337 -0.03443628913800639 -0.14395002849535926 0.379138105768118 0.2901708024328262 0.17778700560000577 -0.04649190908708102 -0.3153833343978854 0.325757089868139 0.1585777523905617 -0.24405591193484394 0.25679387738183335 -0.10789620518411448 -0.4775190663355744 0.22147554266127745 -0.23227519278709846 0.4706498054339907 -0.05265630895469621 0.1948945930722264 0.06461983966486341 -0.1462373905521156 -0.3214549003584279 0.1805142236765726 0.1793608133096083 0.133552238299886 -0.2049744181791069 0.17115337080627827 0.377236036896273 -0.12455925237202312 -0.45963979073268657 -0.48792988637837575 0.4162313959330113 0.043721507060667776 0.12015284599348927 -0.4328138117544085 0.2251316033555454 -0.18125665313502065 -0.45386462429514696 -0.15283528901712043 -0.030885082451420198 0.4801253337843461 0.40498164263465186 -0.31803943150804004 -0.3437052001520559 -0.11603451825536246 -0.4141063061046296 -0.17110321948467522 -0.11835883927135384 0.4339646924093336 0.2861439830528553 0.2941727713676218 0.15342401525133553 0.3436956305012581 -0.0386466692291487 -0.12419189937661827 0.03457949881528664 0.30998357948628474 0.22074916499831398 -0.4138296153965599 0.4664438570819635 -0.32371432061710376 8.023931519758804E-4 -0.2777489039902176 0.43855227209191405 0.1811990425763792 -0.4015509564167672 -0.057646786302542136 0.014220064985755456 -0.37958992271459213 0.2861835936886299 -0.08957090447689066 -0.32510863221010555 0.37203030178435204 0.2818474285762037 0.3832485053033624 -0.3768086029042932 -0.4946023031424191 -0.07710931742234144 0.1597729676271955 -0.054521125024934496 -0.022544825403400574 -0.09328064921962231 -0.24895240512250727 -0.13445807026167378 -0.27840127210954874 0.12837846197016262 0.13625926752373277 -0.1651262040958733 0.0901124973220539 -0.3172774243840906 -0.45297235749285053 -0.23836576857158065 0.3412042755118677 -0.02720589303435872 -0.04163070014697137 0.4908590190112598 -0.15046045187653861 0.1628904778543822 -0.39009321816800374 0.17942364078701412 0.23808892516379737 -0.48556224607362164 -0.4258750057036861 0.3944150636910945 0.22088281984713962 0.2830794254097885 0.0696181085796169 0.3005180451803865 0.05599304586957718 -0.21599054015826438 0.4087363892935871 -0.0930443668942631 -0.4196476931156989 0.1685154786115713 0.43814330401591306 -0.4681982520403499 0.12659306687561747 -0.12735309878396883 0.4354056507543647 -0.036310104404201446 0.386667722865816 -0.028155169086474207 -0.4056198652578051 -0.4915064721556607 -0.03024994684836699 0.21925253094379737 0.3552619763339054 -0.08547196321031078 -0.07606334758910041 0.0547583270122034 0.1345366057972507 -0.17610335403320573 0.3351508862645114 -0.012101756356568917 -0.21082736727328608 0.3309455644266912 0.38050534615534537 0.3427235636809588 0.248787219808699 0.07047468511857759 -0.08452957931256745 -0.14955645717608046 0.3947724865873821 0.07846024930630699 0.37402706593300755 -0.03261283207573112 -0.3266248333154298
-0.042119257691479534 -0.3805356853052122 -0.31382370147356825 -0.2969850711353266 0.4922228381087289 0.19361527869071857 0.22594656086903217 0.22319402624716034 -0.4253763302368618 -0.24393706892203054 -0.23024487793025453 -0.3032271036998365 -0.38464244567218714 0.31125726421824695 0.34294859398541166 0.2487099729388401 0.022456179807942855 0.10437294246444945 0.48429109209388627 -0.1269857595424051 -0.09839738363410297 -0.4340151418336223 0.07750949580842602 0.3084052250035341 0.013777692753483244 0.4137029685375133 0.3433681064741653 0.3820195708476726 0.4604272839815339 0.36326943952720697 -0.38451919933951256 0.2747364616075145 0.15209496763979224 0.09202115044726479 0.41515911180779125 -0.21250631281055787 -0.06846222996226257 0.4021673616294339 0.013508171713617534 -0.271158491365477 -0.35206262847412056 0.2656357831609415 -0.40623082381526027 0.16991944575702844 0.0689693647889875 -0.2535862862880708 0.346179471601577 -0.49179534561894384 -0.2172752125203674 -0.23079667416441219 0.18987157484148734 -0.08843821751335428 -0.11372092991068954 -0.017441215831578923 -0.49553914372924945 -0.16018508338797321 0.4357390236988827 0.008296779497215837 -0.42912690711695584 0.41494547913958363 -0.2600312335890688 -0.3531436551031596 0.22876969392381327 0.21480927939920047 0.2777983415128624 0.21112157496404213 0.38267013787969717 0.19880005342161478 -0.3540516724941389 0.46668227900556597 0.3341935847314789 -0.18929417643664403 -0.36267907025650076 0.3075870935690944 -0.4730636231584213 -0.05826859565737822 0.05306289396966449 0.3036085209403044 0.26770675750268785 0.05333827777115596 0.2991505382378247 -0.0471035239073089 0.14778275367211016 -0.375638767878382 -0.3262503146309484 0.32686217696748177 0.3909334621989656 0.4956537360965997 -0.16426745130288545 0.09625155634181329 0.14427127800184827 -0.22905523189929222 -0.27583070495290146 0.4115758655862708 -0.3195194647657842 0.34062508024596794 -0.36010419155284434 0.2509255863018236 0.05332955003374673 0.32702912414575136 0.3123101656162626 -0.3717492885858978 -0.1801464185417619 0.08687599610919938 -0.3967069534786308 0.25846507218209214 0.24769424893399652 -0.14915332075380444 -0.49698363138168905 -0.1351445406824311 -0.4817052259181266 0.2648480237429199 -0.40821078627168117 0.23021648112070864 -0.22361394763061668 -0.07229936349177646 -0.10514677156658349 -0.4609706872177093 0.07221226239486765 0.09046419549531684 0.04000370692209321 0.10748506102746604 -0.49962604797347393 0.12319070087923618 -0.23564905130725838 -0.3518455287243483 0.17078652680988815 -0.367418041148628 -0.21908898367845867 -0.11086226094101533 -0.008435653466809915 -0.4165837531672698 0.20487744476810657 -0.3253687556798629 0.3348794225632869 -0.030559998362623585 -0.3358583626079572 0.3047501436168253 -0.3254435746848674 -0.48073899238926854 -0.18116358837882532 0.05775612025258448 -0.15256043495783014 -0.2204503382875961 0.46033505544612746 -0.0893328927098312 0.03256093917850512 -0.0060983105748953145 -0.25354450342981927 0.3289864332493743 -0.177533671929741 0.2379218736868686 0.4374986433701776 -0.4963473869167576 -0.18027903115018884 0.41759453026089305 0.28153753737860915 -0.007735352077190982 -0.1240307252519657 -0.2706728223911528 0.1989605805513944 0.45868899761357496 -0.22378098963345044 0.31386396415889445 0.2616504590513453 -0.09749425649997678 0.4446782367434782 0.28316429500654294 0.02989026514804942 0.46183607623353506 0.014339471637686414 -0.11228069310953315 -0.043687489029747076 -0.3735921642685597 -0.1766604205870753 -0.2802367135170377 -0.07484465511942567 -0.41595773075883163 0.35554637238691067 0.1709607808547157 0.1830268843860922 0.029100173408720037 0.3930495274558422 0.31134284562604037 0.21527501655021541 -0.11986447658787053 0.09854134160238989 0.44656980540329083 -0.13805970513790974 0.1300035032650666 -0.3432386767753941 0.14891799658017973 -0.39287877904869656 -0.26784578315370844 0.0622689705072509 0.08324622482027699 0.30126673937729725 -0.055143891491879204 0.04897886463602825 0.3427875183062604 0.436703232275157 -0.25457188839067435 -0.1012051798987383 -0.10475815831849108 -0.23006547373395606 -0.159860660942603 -0.4217505735597687 0.322991032612533 0.28955006127235366 -0.08682948425908708 0.02481856272102831 0.43986753783623966 0.30724451835080313 -0.3836911145596121 -0.1705484735570576 0.37063745776112694 -0.29839467354594307 0.3466549396278371 0.49288597946731766 -0.07021850189034327 -0.20324609335190233 0.4005314822168384 -0.0697315945302777 0.12469869312379106 0.4418814728254704 -0.18652555074733257 0.0789107328997127 -0.08459791045739673 -0.36976413460227603 9.68544464755855E-4 0.3538365079962287 0.16848598756933927 -0.4484309596430796 -0.2353697859813905 -0.09063361372376214 -0.4716602438509106 -0.366352580260488 0.3442945510896586 -0.19544383377959482 -0.46646446504188444 0.03620786556316486 -0.2927597724828859 -0.41581304547549913 -0.039510654139366 0.06876954513487299 0.11919083362889893 -0.4707954717908957 -0.3470643075898425 0.17318765270131187 0.13831472143276213 -0.09086497270005732 0.20755827888273057 -0.23793344027475496 -0.27311947211937826 -0.26927095158740766 -0.4950322930247352 -0.3476080021110519 0.2829159214578673 0.21656146616356067 0.17532017169304448 -0.20211149077513071 0.2916486637833978 0.008793413821837142 -0.16559256391996452 -0.09326581123414344 0.3422430642364927 0.22791234590773096 0.14292022320420636 0.29381150441601084 0.14428713963099873 0.0029285052211087278 0.20744169143468838 -0.4539766288498834 0.1935476240770742 -0.24470829650763717 -0.23675245854732666 0.15071866405527914 0.1200582426707119 -0.4685173014043963 0.10764970409156498 -0.29444654023881905 0.4614196653042249 -0.1720440175196539 0.0669203378152829 -0.17018121398678024 -0.24500007793739131 0.12955301826559343 -0.2566450202661438 -0.36510797629394126 -0.36231582043873767 -0.03582017881706454 0.46745754326043076 -0.332130152356718 -0.24438982456443328 -0.4062893843401646 0.3154177066924634 -0.03226259466961463 -0.4019163853767812 -0.3448924886579721 -0.23539413276964766 -0.04167573413578906 -0.16292418204016992 -0.05235167167676235 0.45340935893472323 0.34320740293432894 -0.432888782397289 0.34159217701242706 -0.028063109723890346 0.12115119001509823 -0.31452010960905274 0.08555249887291999 0.2293701151179905 0.4300054115004201 -0.4010957779980263 0.40561230028152195 0.12630654284543075 -0.3018814887121415 0.22219487860521864 -0.17809893748869016 0.4928879439298456 -0.4255544414356726 -0.02154474924789226 0.022321611620704427 -0.29196684578398213 -0.33516942414034506 0.0073645918978465464 0.23482368688743444 0.47296826839887723 0.41129705951537543 0.09112415057909934 -0.2159356509521542 0.04051979090986818 -0.3479863066988239 0.22369145380296657 0.47687936618795074 -0.15516767056540945 0.3909452274859577 -0.18938590918189324 -0.46112984851782096 -0.0065672302798557985 -0.0851015734974651 0.28548179826736697 0.4530493488790584 0.16939535395391123 -0.006470016056450057 0.3083002296872673 -0.20214018096161632 -0.2131160256048051 0.1243958804585731 -0.39230357689657397 0.011776009822244284 0.16286884651112501 -0.098621824295356 -0.08855005072679682 -0.2682237591325327 -0.2886287292004537 0.33919713173138616 -0.42657087619302303 -0.4139750348955144 0.09629256090313833 -0.2779225823477001 0.3758875368171801 0.4973729285311159 0.1738482474937976 -0.17525393519994423 -0.053294679851505496 0.45382128176317776 -0.45663532641939636 -0.21665845189434035 -0.30677399412732503 0.47820602851460187 0.18072215778248502 0.412284176006263 0.2929258960123458 -0.022031808777960207 0.11962279352371204 0.1727670069898184 0.3751592735825756 -0.23130023502554492 0.29958271920663215 -0.3055095653688721 0.01990053675043882 -0.4724038760991221 -0.1396453794811105 0.07672921410083708 -0.27726725689073156 -0.29917967633985915 -0.22172180362076968 0.17075122173676976 0.27013371128651914 -0.00897452873532419 -0.4194281380226864 0.0012993199741045053 -0.27247948199754407 -0.37389948080398655 0.11312112085435704 0.20614093836530617 -0.3855913220438906 0.0024408582570650808 0.15984357413746775 -0.4112476302061787 0.143421777096859 0.0015373700998287194 -0.4322634834815561 0.4402960460417186 0.45030945124636634 0.3474430714467561 -0.18865838528469542 -0.08923016412551726 -0.4918989151650649 0.4908481221139411 0.26630037165612214 -0.1868980270979493 0.37245515044051447 0.17814806388271495 -0.46426094928273315 -0.42868328545234685 -0.1312873340063118 -0.26705823133630885 -0.29645528339161586 -0.42171579479439314 -0.03432193877647327 -0.0925400164106784 -0.4780802965884469 0.05976617315969555 0.08618791965713783 -0.033526939979060436 0.1488028550994287 -0.09763158139499957 0.033198226212547435 0.026010432498587248 0.09014950728480345 0.01776071877991772 -0.2606433884435097 -0.3469942843591413 -0.04053115798812552 -0.15192671619325698 -0.22992123489519514 0.21061536681140572 0.43839610564592935 0.45477332133080317 0.4896812484038801 -0.3300444229843423 0.07858920478543953 -0.12499619766073823 -0.27773810200991095 0.3963426772416585 0.40670607730813213 0.173258850454222 0.4942138278926994 -0.053660023290218975 -0.09230897023745398 0.2315700218303373 -0.42682772395581464 -0.401009123497941 -0.25829141351385465 -0.2851104187207782 0.32133177447051525 0.4739844356288764 -0.4205649265286852 -0.2549107446288996 -0.3087072324420402 -0.059125419007262967 0.017701944603726785 -0.22784492139542356 -0.492322447055089 -0.02949479112113906 0.27032878492967605 -0.007837568101061317 -0.47007006013213826 -0.048560909503405164 -0.2461824817252015 -0.16203592774629658 0.42860014024826415 -0.13967127767316947 -0.053396076694098675 -0.19258654587727328 -0.03156851752770388 0.0708533856731875 -0.4510113994528826 0.43295963707808216 -0.4713750279224505 0.20173427085473314 -0.08725954701824311 -0.41803014006904354 0.1267138807239756 0.058763874276812414 0.48995542572980344 0.3715029509056538 -0.22044377283466013 -0.30259925755251577 -0.2002477035215853 -0.09929885801046957 -0.42858454916765104 -0.3502876614638998 -0.2912067158291633 -0.271437336520924 3.555969188642951E-4 0.024833680771281987 0.046695977242728816 0.369200070605238 -0.2906246152493774 -0.2871598889355079 0.3691916855974277 -0.4488955846260921 0.46862843394399295 0.0574179751848888 -0.012431306938674199 -0.26286610049967646 -0.33079011026927385 -0.30030774021862755 -0.05914337950182141 0.48771300478424673 -0.3046907886041997 -0.2917218712498091 0.013800829236403455 -0.3409226461897743 0.36761729643564967 0.20545201106431885 -0.13305850299988609 -0.15256306717191867 -0.1519285185023435 -0.47075009592832556 0.47590246474736936 -0.2686470926807042 0.1558382225956193 -0.1717002118409152 0.045989596635562895 -0.231206064613644 -0.42038432073228726 0.1798163537980393 0.3052703039560907 -0.45059142696715626 0.4550089493375646 -0.23806928066669653 0.34577860750153605 -0.4989080569254256 -0.3980767490990819 -0.4640498660414643 -0.44016640566120946 0.00791632129461796 0.2510867673021426 -0.2643847084834395 0.45485078698774145 0.01910138489726008 0.12926874222575416 -0.002117170121012732 0.22147530198511284 0.09790741151602572 0.3633986328294795 0.2793277328535161 -0.346971824956615 0.4425978758898923 0.10187669810670251 0.15361631737158232 0.0783269886958338 -0.12467129136184125 -0.3367719923059896 0.3816754137301928 0.31773281131581416 -0.056958867114430996 -0.024619748862968943 0.11550012731205057 -0.3976609447512595 0.32055494805334483 0.004513983639574502 -0.0020669217213925674 0.10682160179886714 0.2006331999427115 -0.199300604900409 -0.06936233649110557 -0.06325027129277722 0.3993124219371617 0.42196713463517077 0.2137948970891407 0.38636807572388476 -0.4585887141636096 -0.16791546784320607 -0.04219672229392636 0.43239859856173435 0.4556211361891418 -0.4810997624063325 -0.4390058454357403 0.1792263885405611 0.24687503910454653 -0.43831680807195056 0.24083613816287738 -0.374957728789127 -0.3975937933349218 -0.41544740110746453 0.17485904582397777 -0.27434534408472927 -0.1466240232305294 0.036291681322879 0.11177594160893665 0.30335702918254603 0.1047021955605177 -0.2829492082984263 -0.17036872511120074 0.48708088705392705 0.23531908103933966 0.3514969376634244 -0.4132380225892721 0.13274921006708398 -0.40010906615016345 -0.3217256601171007 -0.3706061072046895 0.08133077461665461 -0.11163595696478716 -0.16013141577465476 0.3736279137736048 -0.08774824265037938 -0.30843480220185454 -0.27687440251424345 0.2810590892749568 -0.41067411402427895 -0.2592874156046371 -0.046635824122607014 0.43394693801803347 -0.28699429848630037 0.4397415292512062 -0.4751664724419932 0.09283330480016852 0.2010583269282327 0.26701117028681526 -0.18103630270756077 -0.44918357911793416 0.2543214662657528 -0.3410648399311929 0.40705519226334325 0.11036329560569426 0.0625843449100811 -0.08521730645291622 -0.4738334119004525 0.12627358829684063 0.11037205766240962 -0.0617216851488377 0.30731521040329457 0.01813336486117792 -0.2038032531753128 -2.7731211473704825E-4 0.10114479111707832 0.46620073402314893 -0.05115546237754799 0.05484130720421334 -0.11921533218076616 -0.1956853695405347 0.3058006666094547 -0.41792344585176217 -0.32305351901964013 0.0871954608589311 -0.28299392192560374 0.03626905928637933 0.03461088876486868 0.21235584801342317 0.41190261264232025 0.02998944261322783 -0.023134368205306077 -0.2723594407078676 0.4221246150167656 -0.06229542310713263 -0.09346216665749846 -0.4457381846442644 -0.2528439085500647 0.27038985098104334 0.3318910167532414 0.2988075423781584 0.05994966843108296 0.3517808487338066 -0.3710945986247298 0.3828436369345601 -0.07551912475552713 -0.09321265308207 0.1387449397277668 -0.17772833737165866 -0.1897516981740001 -0.0047176667419333235 -0.48746261475005115 0.06246002166907623 -0.27672375140356975 -0.29576092672023796 -0.24922145128519044 0.12063140547996634 0.32960848597919384 0.18031930750975228 0.06870513866078809 0.30424522441252816 0.04535974359883735 0.17859940029342483 0.05338648577003083 -0.15508068778270914 0.11214430780489282 0.2942999218962483 0.019684407467194798 0.2401936108204266 -0.30590562236783464 0.225485861640829 -0.26723212418742426 0.09416198728807737 0.09048842178940188 -0.3767059439169045 0.07277031867866396 0.2521769287056921 0.348315082624011 -0.007316333290261629 -0.35350062542725535 -0.4179414751065179 -0.10620737552747461 -0.3099778633207401 -0.2012602100752614 0.24397985016114096 0.23420252859608087 -0.37204539207629755 -0.11867542478390637 0.3494808315316091 0.2851641022999295 0.2582750781048269 0.3974515338228938 -0.30990170583064386 0.36814326758676236 0.33674906604444665 -0.458002635095461 0.2982397908926467 0.22001593594967764 -0.11742881698473352 0.34710560223572234 0.4139200084097983 0.32361925856822704 0.021338822233203172 -0.047266315918522886 -0.0016006908845377138 0.12527757650713217 -0.12613298853473592 0.13850012719622595 -0.3991629499781391 0.09957474479719836 -0.48129491249165873 0.39212916300971495 -0.20819847251024584 0.21402087810442827 0.18579282211511974 -0.2504187245797371 -0.3050129761012586 0.3927565275792936 0.023340699045748516 0.22240739019846112 -0.11162395027742918 0.4045612212766447 -0.2232271100107425 0.41798972813412855 -0.0016961552413807307 -0.0631600451449158 0.3283375575514817 -0.1947568046136592 0.19243334570791076 -0.204803788182034 0.33083557376961686 -0.14146321761282776 -0.3731571446897125 -0.297778648384147 -0.0726231713486414 0.10432928648819031 -0.3213004740319287 -0.10108137769729231 0.23737411205541395 0.1330403077799658 -0.09244440317597159 0.40748444600366057 0.3665701439012958
2.0418646909021798E-4 0.4011913594198564 0.05297074941032236 0.05902556124249209 -0.42587183027371844 -0.368673660342328 0.138360483056392 0.42506086672958054 -0.45164055112325835 -0.1777585112877153 -0.044372894243567974 -0.19525135571903876 0.28706947295761237 0.12592181476309083 -0.3372604132603611 -0.24718323841567424 0.09027997344193017 0.3663269132257324 0.13651840739832624 -0.1382850029651277 -0.3421898426446764 0.36794033168968676 -0.1257421771477493 0.13440962714506605 0.33529796693685926 0.029578650003533102 -0.24897353573606054 0.4890642882916952 -0.09905516837900237 0.30072951069897513 -0.3962645858775892 -0.4598455980247347 0.06244297359485944 0.3871008470597778 0.5054052459076871 -0.019123351086491935 -0.13861933350408842 -0.20345102380534363 0.0643567482603462 -0.10072242230890495 -0.09592384814563597 -0.20944158645486216 -0.4575304776336131 0.3709761996731259 0.4343862221462013 0.4346356911793166 0.2646705134163081 0.486200456777461 -0.181860350069536 -0.37463922298584795 0.250493145173342 0.48308746452403684 0.35877738407301973 0.334549714288577 0.28312776178867793 -0.04009778764382277 -0.3754305095203966 0.44121041477099515 -0.06992090347600666 -0.10273229089582919 0.25454146665147326 0.39987777295646876 -0.3858208718922041 -0.46296253285122174 -0.013570378118260618 0.39757446783592537 -0.21337376214547332 -0.15321969867362117 0.27252047838142485 0.3693022404294519 0.503897402947315 -0.21122478217009497 0.1921923321736701 -0.4269044341218631 0.06992146316205947 -0.3806322512800127 0.26949044666239813 -0.3828973562850752 0.24719370590911693 -0.22465157484459308 0.21299233827887448 0.30214967530787 0.46647152279675436 0.06453432522006111 0.028632687895531476 0.10909020719393303 -0.07070223237225703 -0.24415158568122033 -0.1281256623291037 0.19710160426354212 0.23102454903269593 -0.19926232422080115 -0.3864569818213059 -0.009797049462696045 0.2849224163923313 -0.2764628165110706 -0.007219472668958801 -0.1027543095552898 -0.33711591192782586 0.4822895662006807 -0.2356650278454928 -0.1741118637977278 -0.28712447757795145 -0.49103218875120963 0.390537024301243 0.22612258985007475 0.5505759028002649 -0.4079808618755414 0.009258076636730722 0.23839426144213363 0.11978927252603852 -0.4395784783386356 0.384347353720823 -0.14624296905071713 -0.10469474233195593 -0.09145134622761884 -0.24528384365025932 -0.04125392585866174 -0.1829198074720045 -0.39902830201534684 -0.4804458497996073 0.19070522580609628 -0.22786124575923836 -0.09154515686831566 0.43054314117032433 -0.34799099299575015 0.4106838781849229 -0.4659455363084396 0.017361547200648142 -0.42685253259222533 -0.4529102197024735 0.2250168141731097 -0.09774768016728376 0.0749163185680235 -0.2490830176420718 -0.3009346570057245 0.31431863406470184 0.32710243054940763 0.17648287567156548 0.1293903616213877 -0.29724032633649566 -0.07903337223318063 0.4601533170013565 -0.4108285752202885 0.45524893660473265 -0.4037650792838412 -0.04515355217808057 0.10520464071438963 0.24789874459898015 -0.0996886048531064 0.1799040550502882 -0.41300327366436174 0.2270804791477823 -0.28478128451372137 0.44867654059603557 0.16253063669221104 -0.15114611751973805 0.014560108916548044 -0.2282551810055651 -0.012676976829448095 0.20759998738555435 0.13195356081081985 0.4033580077080953 -0.22939033231653203 -0.2109531244210886 0.3974034538784132 -0.44200798081004106 -0.434359037479204 -0.40156952875893454 -0.0014859441402098683 -0.19152207663790963 0.4055992610743028 0.4257215710517248 -0.22538685443719145 0.47902946851456063 -0.1284625018190054 -0.09233494504143515 0.2229181419600434 0.04783960204521459 0.4815978120519669 -0.06849791558873448 -0.48492925993797525 0.09927726264199004 -0.014674447955128041 0.14094368955077366 0.004560183682285864 0.0059645047029533585 0.29613216297488154 -0.4387191378626282 0.12465449112610377 -0.42542629621689226 -0.4051538156811616 0.16862401893848117 -0.15112483935921847 -0.08351227802240835 -0.286436537260586 0.44238915601875156 0.3344732367988057 -0.22939439360344652 0.12609311771890727 -0.010056278553686767 -0.13326386673970764 -0.38390048957695866 -0.3349495447192361 -0.3019863248509556 -0.02694272657591111 -0.12326116900357079 0.3563447641273505 -0.23023096550218908 -0.26141470987902576 -0.05186505536968411 -0.05446942477701855 0.2643178122059181 -0.14156480795839863 0.3404384247782626 -0.12435495903984742 0.32370808669062845 0.45385219271687366 -0.48009659266016186 0.1172972161388576 0.436327438557879 0.07380034755970885 0.35384899660487773 0.47601680681423214 0.3423507605477415 0.36340237605813597 -0.1005335403107965 -0.4520410602851322 0.3087938602330967 -0.08264763895570355 -0.2938179708066574 0.3164796203840548 -0.017717159317006338 -0.09412801254701819 -0.1639253761957348 0.1546832022408818 -0.07501356634217045 0.3349278440003473 -0.3015674418606673 0.501233109533048 0.45666676801439055 0.37354124460855476 0.38237516545192984 0.15318968858096602 -0.40458778632157283 -0.036128088370125995 0.24305720606691678 -0.17343486270485592 0.4533225310832205 0.24875756076506103 -0.14299975708795915 0.04530826779283475 0.2095636031235645 -0.014836936014058166 0.24888735777514873 -0.013887574093994557 -0.00576008372963711 0.07581822602068426 -0.10118267566867707 -0.35857305053003086 0.07872072756355651 0.052007605950133325 0.40797100261991837 -0.45451708103026284 -0.3094528625314435 -0.05257897390732673 0.43449249469728213 -0.40194428607217086 0.37692732411023755 0.45547824171366585 -0.39114171845313495 0.3485707762148938 0.45072008719328066 -0.10022513283523582 -0.22696786674170497 0.17230863717349387 -0.0575153750425517 0.3419090146914651 0.2324681037274957 0.45257862433358914 -0.2861696274339231 0.07929123829075663 -0.46676106111102966 -0.09133022558465065 0.490786216871955 0.026656215550535843 0.17540479241186335 0.07558507579763858 0.020174488424236303 0.4024710650280933 0.190844041757971 0.07071880102914427 -0.3688919325745176 0.25082251092378477 0.22603290271810533 0.2117860350207369 -0.26244698806438577 -0.25666364851713264 0.06523740027882488 0.35295541933884683 0.2502082603822483 0.008721179532533985 0.4320729598854053 0.025439483650589043 -0.3576015637671035 0.2861401936644636 0.21971062322991564 -0.3319463046717419 0.16836845446197013 -0.1680310874355418 0.21372744418912623 0.15113490455938794 0.09458117934809518 0.4867699326132545 -0.13319979583451183 0.4218867579399732 -0.12462301305480654 -0.0745413539318517 0.4749696986030491 0.5348666006659473 0.26354695894074015 0.4612835876229764 -0.18439872621842673 -0.15019750710555577 0.4166916309521428 -0.33239464916521533 0.38314525601087907 -0.00205552642817638 -0.2331916641041793 0.10408461113451166 0.23022052130057538 0.39226780934611216 0.06803198371554837 0.16148049852720892 -0.12633745615187597 -0.034718234879847924 -0.4445748076366465 0.416718023165737 -0.17583521557562676 0.03597283866504226 0.4284781174724803 -0.4017979513123866 0.4426749138761574 0.2087219887935456 -0.23774102267789765 0.09076436880544068 0.2212366788709727 0.1696817954350997 -0.38972218410142795 -0.4804941536011207 -0.06323208532006598 -0.39687162596703884 0.08079736681556282 0.0645963062401647 0.05180994923705626 0.361115941273146 -0.016201107652026276 0.24658893222480854 -0.030264200452136743 -0.2231209485498752 -0.07725476548708424 -0.42389019834798947 -0.18710527113468486 0.31816828097852434 0.12345188577554378 0.3608591649986293 0.4729791074570706 -0.15819761748315264 0.02210344065430204 0.05153337750977731 0.18410188952130116 0.31649537929730587 -0.15171549560942887 -0.3494926228112902 -0.34731621315546257 0.3112332357798089 -0.24988525108450885 0.123085844558571 -0.3084204205493622 -0.49327883460899946 0.15523832663799186 -0.32598171937708953 -0.2386977985947802 0.21105377685177734 0.05888433724780135 -0.07303973827059161 0.007407794961324823 -0.0014883087182813888 -0.2909362177119838 0.017622138094355963 0.07710357821565567 0.2418346328931634 -0.3550277830570532 -0.052760508446535494 -0.19777481418779466 -0.4464602626098905 -0.44016579254052046 0.4599375138697335 -0.06545204660953932 -0.4060617065485238 0.09328398953390798 0.3081089912654828 0.21841973784804417 -0.4178342187031379 0.43026926442267893 0.17807054425067545 0.18485955083875877 -0.10960630886045988 -0.005287721751820254 -0.419689353307556 -0.17825374166956628 0.2022645247617636 0.25648120551377035 0.44637776498845516 -0.07956496796404476 -0.285071111457934 0.01278998162908125 -0.09327455795818851 -0.3796638792773998 0.18491552914307505 -0.01719865776941716 0.12811815819083533 0.2659301196276586 -0.39162924440779917 -0.17686877200642526 0.41014696078615204 0.1411261921934735 -0.23450949850238134 0.29211364079828334 -0.1256453592055885 -0.49665579362949175 -0.21166985408150682 0.1995460845044206 0.11728108274117481 0.08121564901652042 0.27430402607761145 0.11937529886085621 -0.3847965055578313 -0.2891560942281203 0.13917966478144778 0.3963224957476925 -0.1114465119348359 -0.17587091685631195 -0.08305987559541439 0.12863032316840592 0.47408119733365023 -0.10249605454325328 -0.37520888658085977 0.23698176801883383 -0.13307808887264902 -0.3116611158634035 0.4702809239679018 0.2984206122523608 -0.4379295884162497 0.2543931241234006 -0.40887949310755056 0.06542036866208066 -0.25491563027719305 0.07675488983714471 -0.25666950056572935 0.43900910048138736 0.025856547035294195 -0.18581914604190214 -0.05903549138914309 0.4146327901788088 -0.044026180490754976 -0.3938784913911351 0.5056325236091416 0.42537365764072566 -0.4799392243937681 -0.032401707144610145 0.030153165434153896 0.35450533195325173 -0.3079429199670032 -0.18892816628816936 0.02582290382414101 -0.022298517680847358 -0.39105310797034937 0.5057351245014653 0.02193348178266477 0.0768217348684008 -0.4534359309191392 0.3250924716175146 0.03751785421103334 -0.06731892451326037 0.31257868119017895 -0.2040322323061621 -0.42993802782268226 0.262986292689087 -0.1932308102502496 -0.4669154552695516 0.3696484751569878 -0.05505057343506809 0.39307898533863933 -0.21490576742296116 0.483561931241617 0.17477485106200508 0.029872230044967803 -0.35840456355476663 0.45360096765867053 -0.15877295903816227 0.09408176865557352 -0.20115319097782425 -0.21870888453167148 -0.48299098460330214 0.20741705817001177 0.4082183221628394 -0.11464946456842044 -0.34956773685700143 -0.26407564505853226 -0.12126437316154103 -0.3437681418044059 -0.40290467899388116 -0.4179138152086078 -0.32957806861088706 0.3893312434709932 -0.26212831388403124 0.02949428161510452 -0.0968176428737851 0.09268321285319843 0.42463455026760266 0.1170541863499776 -0.17062714932678516 -0.22069173640394646 0.397271865371776 0.22992784651753964 0.02019686049290308 -0.23606831699978473 0.25901883406719456 0.45225310685534603 -0.03501524997828077 0.3438016502450262 -0.01128425570298133 -0.46453666151050965 0.48904775709138154 0.2378048550221904 -0.43860567894236224 0.2601973840910084 -0.3011469764289464 0.17196259757936044 -0.28733885976581564 0.09523858863886867 0.0619526653730692 -0.013924748228564729 -0.33705583342417295 0.19451231145342326 -0.35112211916382374 0.22809009341940864 0.0561524750149062 -0.38732374617245696 0.2938964290956067 -0.37825218387516746 -0.19900534070018847 0.13837773975135317 -0.31807287854688104 0.028708411075042326 0.06162223569327401 -0.07990784731293774 0.10650510649208432 0.2505699778875493 -0.26130944665988987 -0.1023142250273803 0.2726876863541686 0.4970109711174893 -0.36250186289246683 0.09368758132469937 0.28091596963941506 -0.09221786820059702 -0.4875007037359389 0.10261909674834056 0.09803425191428324 0.4252313973691795 -0.4274589360123475 0.4516490626094575 -0.47516374697929503 -0.3289856228917691 0.19287364787512515 -0.30519284543464237 0.17949027072427043 -0.2962394026459531 0.1486459129314255 0.07863232131701377 0.003762056042711463 0.480422792442003 0.0743269900230922 0.3203377036000614 0.41144616991363564 -0.3450240848233159 0.38323582831321384 -0.40704914238741796 0.4733610050790849 0.10253579848541707 0.4018080200839064 0.24789145434327634 0.38475471932555744 -0.49827970031157703 0.14597790986117234 0.006581291830025435 0.3581107212707463 0.010107111689307858 0.22603443803962617 0.11396637119315801 -0.16956408191442227 -0.054861520730821456 0.033531008468727114 -0.11537585106003302 -0.09705561176620052 0.1553039052129755 -0.39804836755930195 0.4933924961836275 -0.2905636442067488 -0.1557287566272332 -0.28245939783709817 -0.061176246513512805 0.38175167764774603 0.038229639273138376 0.059532795014831316 -0.4934683183966995 0.28889302221454427 -0.16004499778848863 0.4841263797814042 -0.15165464789029937 0.4050262213184641 0.086638805532324 -0.4625898341683762 -0.1888724748479432 -0.15081805741829893 -0.07385504467094467 0.15213387484227864 -0.15547654619183934 -0.47892630427608085 -0.28595178418899153 -0.08519452477451697 0.3006026384751947 -0.4158544031794467 0.09777319227974103 0.04141265639823901 -0.327606851416158 0.297366363370955 -0.42302050512090744 -0.3709404649705465 0.04213511764712746 -0.36205818195574546 0.19734988767174363 -0.4257220838850848 -0.3827015265771076 0.2784553948796913 0.26025378980237573 -0.4980951991808601 -0.12468812561163495 -0.41694582362833427 -0.44461590750578156 0.03971851398536356 -0.39380066902578387 0.17078906641537892 0.30617162308639645 -0.3940288311390903 -0.3788361192697311 -0.2166534864280466 0.1282223138536303 -0.49694387353120933 0.17496622325359243 -0.10454931950069572 -0.12844899834284185 0.25119434418878483 -0.056909138488870296 0.14428456295757824 0.3779516642572172 -0.4570605413375353 0.4696461090901424 -0.36150133548427393 0.013780928482517808 0.34710265947508795 -0.40490937445558906 0.35343864267091357 -0.12242158529404697 -0.2789798103696585 -0.052401318640779446 0.3669398326581893 0.3208631534905241 0.06401919698819987 -0.07544739120672751 0.008066910209463698 0.19452906812287193 0.40417049810451366 -0.35321774208825873 -0.3758559848707007 -0.2084582682076412 -0.4888209241296819 -0.3105529817405207 -0.34306163654456556 0.15856480526586358 0.35365374605332184 0.38023374548891326 0.27036932188808915 -0.1634281475890289 -0.39395784660898575 0.04375273796046619 -0.28863204233873213 0.26829143055613736 -0.1879801157382561 0.39257423599102975 0.14191918008268214 -0.23345783911624485 0.36018925373310756 -0.3263101637534852 0.3881892050452447 -0.40283313269967397 0.030481244954202732 0.45343348817967755 0.010906979519895069 -0.3107445250031448 -0.25487163482359826 0.2064567086927571 0.3273330506975784 -0.03071265925211275 -0.0633567083723512 -0.06608025458325124 0.012453536228989958 -0.07844530566572305 0.028118484650583683 0.22151022565865786 -0.2245859366577335 0.28055782445480293 -0.36556178434214326 0.47905954458973565 -0.10607992516108389 0.40706961557945665 0.21931075965823146 0.4490739620987325 -4.102861432591926E-4 0.28567456217234677 -0.05857750559649915 0.16695026467825547 0.4050776285255418 0.07038314939425441 0.3316357137960767 0.018593978549945746 -0.26122365676288567 0.18648915667124866 -0.04682177483263109 0.29020719039838044 -0.0494156898228198 0.3029989609385053 0.3666256732122116 -0.02438210361554305 -0.24570318384546125 -0.4736070668122327 -0.4710674359540052 0.4016699823648534 -0.3605476438493165 -0.02487641357988679 0.20193164394444252 0.37377131291461224 -0.19525529185010007 0.45628460792908965 -0.2544743680527807 -0.09478433037240896 -0.23854218894317084 0.44807017671338845 0.1349721686928377 -0.4503570302159011 0.026146804991862335 0.33943116052799993 -0.48796619141227515 -0.4233970166469999 0.25973546492681215 0.22489601018171523 -0.11124038402576653
